1.713093370199203491e-01
-9.543660283088684082e-02
8.680523931980133057e-02
-1.520153693854808807e-02
-1.352478116750717163e-01
3.748627007007598877e-02
-8.617019653320312500e-02
-2.345773391425609589e-02
-2.724972926080226898e-02
1.676847226917743683e-02
1.004080176353454590e-01
5.544913932681083679e-02
2.473431406542658806e-03
-8.392757736146450043e-03
-3.585915639996528625e-02
-1.532871834933757782e-02
-4.366669058799743652e-02
-2.877631410956382751e-02
-5.128306895494461060e-02
-4.118075221776962280e-02
-6.658227741718292236e-02
-4.133576527237892151e-02
1.672498434782028198e-01
1.215333566069602966e-01
-4.666240885853767395e-02
-7.879388332366943359e-02
8.606593310832977295e-02
1.117867901921272278e-01
-3.877177089452743530e-02
-5.405584350228309631e-02
1.506053060293197632e-01
-2.991891093552112579e-02
6.634408235549926758e-02
-1.059091314673423767e-01
4.240827634930610657e-02
-6.127823516726493835e-02
-1.317066792398691177e-02
2.917789109051227570e-02
-8.153520524501800537e-03
4.639154672622680664e-02
2.619033865630626678e-02
-5.962065979838371277e-02
1.065002530813217163e-01
1.440488547086715698e-01
-7.809969037771224976e-02
-4.470409825444221497e-02
-7.596708834171295166e-02
1.368267834186553955e-01
-6.355587393045425415e-02
-7.724898308515548706e-02
2.096489816904067993e-02
3.705003485083580017e-02
4.380148649215698242e-02
-1.549058873206377029e-02
-1.047891452908515930e-01
1.214569211006164551e-01
-6.180393695831298828e-02
-2.770431898534297943e-02
-9.832780808210372925e-02
4.172149300575256348e-02
1.465657651424407959e-01
7.047428935766220093e-02
4.754963889718055725e-02
-1.578674018383026123e-01
-1.044952496886253357e-01
-7.780645787715911865e-02
-5.855554714798927307e-02
1.503647491335868835e-02
1.666379906237125397e-02
-4.154447466135025024e-02
4.789361730217933655e-02
4.280907660722732544e-02
-1.195322722196578979e-01
-3.805517917498946190e-04
-1.117096468806266785e-02
7.579606026411056519e-02
1.640842556953430176e-01
-8.736164122819900513e-02
-4.556171223521232605e-02
3.006322123110294342e-02
1.605156511068344116e-01
-3.958308696746826172e-02
1.052843555808067322e-01
5.592297017574310303e-02
