-3.490948677062988281e-01
-1.139845773577690125e-01
-4.467082209885120392e-03
1.864640265703201294e-01
1.836756914854049683e-01
2.926761806011199951e-01
-4.654848575592041016e-01
1.551891863346099854e-01
-4.306465387344360352e-01
3.095229528844356537e-02
5.091452598571777344e-01
1.283313333988189697e-01
3.333920836448669434e-01
-2.580124735832214355e-01
-1.963377147912979126e-01
-9.455364942550659180e-02
3.321087658405303955e-01
-1.747567802667617798e-01
2.412969172000885010e-01
-1.005457807332277298e-02
2.404742687940597534e-01
4.233165383338928223e-01
-3.974629938602447510e-02
-2.619992792606353760e-01
-1.505509484559297562e-02
-2.068044394254684448e-01
-1.709545999765396118e-01
3.586422502994537354e-01
-3.499767184257507324e-01
6.400310993194580078e-02
-7.615137845277786255e-02
-4.517150223255157471e-01
-2.142346352338790894e-01
2.770485877990722656e-01
-3.689974844455718994e-01
2.679940462112426758e-01
5.088717341423034668e-01
-2.676587402820587158e-01
-1.302044093608856201e-01
-1.768898516893386841e-01
5.516227483749389648e-01
3.486181497573852539e-01
-3.536229729652404785e-01
-2.521528117358684540e-02
8.979653008282184601e-03
2.040413208305835724e-02
4.121993482112884521e-01
-1.670512706041336060e-01
2.446427196264266968e-02
1.918013952672481537e-02
9.144736081361770630e-02
-2.033991664648056030e-01
-3.737987577915191650e-01
-7.662498950958251953e-02
-7.732448726892471313e-02
2.406961172819137573e-01
2.720912992954254150e-01
3.231797218322753906e-01
-2.453019022941589355e-01
-2.641556560993194580e-01
-1.598811000585556030e-01
3.467274010181427002e-01
-5.214644223451614380e-02
-3.783059418201446533e-01
3.989832401275634766e-01
-2.616405487060546875e-01
-3.342785537242889404e-01
-3.165020346641540527e-01
-3.059514760971069336e-01
2.163295149803161621e-01
2.965161204338073730e-01
-4.178625345230102539e-01
-1.102089881896972656e-01
-2.894332865253090858e-04
-4.349520206451416016e-01
-1.258433610200881958e-02
-2.781643569469451904e-01
3.572230339050292969e-01
5.315359681844711304e-02
2.333091348409652710e-01
-1.047267112880945206e-03
-1.355873495340347290e-01
-3.428356945514678955e-01
-3.257374167442321777e-01
5.193123221397399902e-02
2.737574279308319092e-01
3.068553805351257324e-01
1.588383913040161133e-01
3.606548905372619629e-02
2.006921321153640747e-01
-9.492506273090839386e-03
-7.949306815862655640e-02
-1.454824805259704590e-01
-2.869552373886108398e-01
1.524449735879898071e-01
-1.172793135046958923e-01
8.208607137203216553e-02
5.603354051709175110e-02
-3.394683897495269775e-01
2.835434079170227051e-01
1.744722127914428711e-01
4.616844654083251953e-01
4.258109033107757568e-01
-3.949661254882812500e-01
1.683819741010665894e-01
-1.739998608827590942e-01
3.915816545486450195e-01
1.276861578226089478e-01
-2.506273984909057617e-01
-6.184752285480499268e-02
-4.896985888481140137e-01
-7.473617792129516602e-02
-1.358220726251602173e-01
2.456903457641601562e-01
1.938590705394744873e-01
2.538225054740905762e-01
-2.146884053945541382e-01
4.130999445915222168e-01
2.462103515863418579e-01
9.747928380966186523e-02
2.044338583946228027e-01
-1.179622933268547058e-01
-1.451823767274618149e-02
2.221716642379760742e-01
-5.035577416419982910e-01
-7.599624991416931152e-02
-1.968559771776199341e-01
1.193064153194427490e-01
1.530758738517761230e-01
1.230509951710700989e-01
2.260981202125549316e-01
-3.103823065757751465e-01
-2.129880040884017944e-01
1.760082393884658813e-01
2.583282887935638428e-01
1.534580588340759277e-01
-1.161596029996871948e-01
3.211910724639892578e-01
9.206628054380416870e-02
2.301315069198608398e-01
2.081536203622817993e-01
-3.187497556209564209e-01
4.158689677715301514e-01
-3.805457651615142822e-01
2.567416131496429443e-01
-3.958908915519714355e-01
4.043876752257347107e-02
-4.815729707479476929e-02
-8.757297694683074951e-02
1.835621806094422936e-04
2.604382038116455078e-01
-1.878414601087570190e-01
-1.712086498737335205e-01
-2.368088662624359131e-01
-3.374831750988960266e-02
2.802276015281677246e-01
3.406595587730407715e-01
1.593392491340637207e-01
-5.885375197976827621e-03
3.000703454017639160e-01
9.728346019983291626e-02
4.949114620685577393e-01
5.152230150997638702e-04
1.991921067237854004e-01
-2.175694704055786133e-01
-1.034042686223983765e-01
-1.362204402685165405e-01
5.484649911522865295e-02
3.893398344516754150e-01
-3.404309749603271484e-01
3.028657734394073486e-01
2.130337059497833252e-01
-6.284433603286743164e-02
-5.515684932470321655e-02
3.837376534938812256e-01
-3.950829505920410156e-01
-2.893911004066467285e-01
3.788445591926574707e-01
-3.502006232738494873e-01
5.274433642625808716e-03
1.509284675121307373e-01
-3.679448068141937256e-01
1.066611111164093018e-01
-3.389573395252227783e-01
2.390987128019332886e-01
-4.412687122821807861e-01
-2.015285789966583252e-01
2.354008108377456665e-01
1.295646429061889648e-01
-1.659152656793594360e-01
2.703383564949035645e-01
3.739571869373321533e-01
1.652478128671646118e-01
-2.047210931777954102e-01
-9.883143752813339233e-02
-2.713327705860137939e-01
3.362078070640563965e-01
2.692306935787200928e-01
2.026985138654708862e-01
-3.166946768760681152e-01
1.156131029129028320e-01
-2.865010201930999756e-01
9.649687260389328003e-02
-3.533502519130706787e-01
-3.062140345573425293e-01
-3.691464662551879883e-01
-4.388653114438056946e-02
6.002392992377281189e-02
1.416077613830566406e-01
1.439181268215179443e-01
2.708132266998291016e-01
-1.408783136866986752e-03
-2.464770898222923279e-02
1.330578625202178955e-01
-3.962194547057151794e-02
1.325942128896713257e-01
4.775156378746032715e-01
-1.660188883543014526e-01
-2.773447632789611816e-01
-1.628301441669464111e-01
-4.036272764205932617e-01
1.649443618953227997e-02
3.608015477657318115e-01
1.211151294410228729e-02
-3.652360141277313232e-01
4.110447764396667480e-01
-2.291109710931777954e-01
2.861296534538269043e-01
-2.792241051793098450e-02
-2.579632699489593506e-01
-4.436742365360260010e-01
2.021087519824504852e-02
1.368453651666641235e-01
3.750877082347869873e-01
-1.727454662322998047e-01
-1.115484684705734253e-01
-2.636360228061676025e-01
-2.915389649569988251e-02
-1.282962113618850708e-01
-1.063827518373727798e-02
3.262872099876403809e-01
-1.215556040406227112e-01
5.397621542215347290e-02
-9.457075595855712891e-02
-2.765593826770782471e-01
-2.590681985020637512e-02
3.792551159858703613e-01
2.869414091110229492e-01
1.201636046171188354e-01
-2.847243547439575195e-01
1.983484625816345215e-02
-2.011049352586269379e-02
3.123185932636260986e-01
-2.441947758197784424e-01
-1.799360364675521851e-01
-1.090679201297461987e-03
-1.003334298729896545e-01
-2.285758256912231445e-01
3.007693886756896973e-01
-4.005314409732818604e-01
-8.961445093154907227e-02
8.572622388601303101e-02
-1.166240219026803970e-02
1.773330569267272949e-01
-3.913224637508392334e-01
4.277057349681854248e-01
-3.085032999515533447e-01
-2.911620140075683594e-01
-1.041336506605148315e-01
2.325940579175949097e-01
-2.741445899009704590e-01
1.529286950826644897e-01
-1.876106560230255127e-01
-5.784049630165100098e-02
-3.084415495395660400e-01
2.780926227569580078e-01
-9.865970909595489502e-02
2.851774096488952637e-01
-3.455202579498291016e-01
3.435409665107727051e-01
-6.929174065589904785e-02
-4.671350717544555664e-01
-1.204933524131774902e-01
3.154352903366088867e-01
1.723853945732116699e-01
3.216148614883422852e-01
-9.216969460248947144e-02
-3.602960705757141113e-02
-8.846268057823181152e-02
-2.397076338529586792e-01
2.923273444175720215e-01
-1.627969183027744293e-02
-3.029385209083557129e-01
-2.548819482326507568e-01
2.090011090040206909e-01
-4.234169423580169678e-02
-1.583193987607955933e-01
2.417651712894439697e-01
7.432896178215742111e-03
-2.872144281864166260e-01
2.616388797760009766e-01
2.463876157999038696e-01
-5.937309563159942627e-02
1.973204016685485840e-01
-3.402444124221801758e-01
4.364665448665618896e-01
-1.860886216163635254e-01
2.808835506439208984e-01
-2.221275717020034790e-01
-2.217821031808853149e-01
3.698240499943494797e-03
3.638277649879455566e-01
2.610077261924743652e-01
3.399809300899505615e-01
-9.559004753828048706e-02
-1.749536842107772827e-01
-3.089469969272613525e-01
1.527754664421081543e-01
2.754580378532409668e-01
-3.276790380477905273e-01
5.081339552998542786e-02
4.572940766811370850e-01
-1.293720453977584839e-01
-4.423806816339492798e-02
2.140365839004516602e-01
1.901092082262039185e-01
-1.832346767187118530e-01
-2.715042233467102051e-01
-2.981268167495727539e-01
4.434597194194793701e-01
-1.275846958160400391e-01
-4.845228195190429688e-01
-3.957577645778656006e-01
-1.106179654598236084e-01
1.726028323173522949e-02
5.663513392210006714e-02
-1.251048445701599121e-01
-5.004538297653198242e-01
-7.251077145338058472e-02
-5.196357890963554382e-02
2.740916013717651367e-01
-7.499027252197265625e-02
5.539143681526184082e-01
-3.582376241683959961e-01
-1.777194440364837646e-01
-5.048194900155067444e-02
2.252478152513504028e-02
-1.876252144575119019e-01
-4.546373710036277771e-02
-1.489014327526092529e-01
-1.428910195827484131e-01
1.939342468976974487e-01
1.430759727954864502e-01
2.064205259084701538e-01
-1.933977603912353516e-01
-3.655595779418945312e-01
1.217835173010826111e-01
-2.183498293161392212e-01
2.892209291458129883e-01
1.416465342044830322e-01
1.191226765513420105e-01
-2.102531790733337402e-01
-3.143272101879119873e-01
1.372544169425964355e-01
6.718079000711441040e-02
-2.223718166351318359e-01
-4.850274920463562012e-01
3.793541789054870605e-01
1.377216130495071411e-01
3.929592203348875046e-03
-1.889287531375885010e-01
2.720486521720886230e-01
-3.493679314851760864e-02
-1.916731595993041992e-01
3.035263419151306152e-01
3.826035559177398682e-01
2.899300158023834229e-01
-1.069099605083465576e-01
-1.653429716825485229e-01
-3.094048500061035156e-01
2.053928971290588379e-01
-1.692480295896530151e-01
-5.145182609558105469e-01
9.635570645332336426e-02
-3.820325732231140137e-01
3.813477456569671631e-01
9.081014990806579590e-02
-1.258624196052551270e-01
-1.553476788103580475e-02
3.926568925380706787e-01
-2.317765504121780396e-01
1.550269871950149536e-01
3.374519944190979004e-01
2.805530428886413574e-01
-3.958196565508842468e-02
-3.802632987499237061e-01
-2.379421442747116089e-01
3.392065465450286865e-01
-1.533870100975036621e-01
-1.382232457399368286e-01
2.120050340890884399e-01
1.261457353830337524e-01
1.200006110593676567e-03
-1.656470447778701782e-02
-2.894411087036132812e-01
3.461737334728240967e-01
-1.732252985239028931e-01
-5.153561234474182129e-01
-7.802160829305648804e-02
-1.855707764625549316e-01
2.983978092670440674e-01
3.091988340020179749e-02
-4.204432964324951172e-01
-2.796589136123657227e-01
5.777275562286376953e-02
-1.185666173696517944e-01
3.971270322799682617e-01
-1.481112241744995117e-01
-1.499681323766708374e-01
4.545341134071350098e-01
-4.263420701026916504e-01
-3.546319007873535156e-01
1.112371832132339478e-01
5.969004333019256592e-02
-3.688122630119323730e-01
4.606368541717529297e-01
-1.702343374490737915e-01
-3.982610702514648438e-01
-2.142932713031768799e-01
-2.921384014189243317e-02
2.249166071414947510e-01
-3.636673390865325928e-01
7.013285905122756958e-02
1.141188740730285645e-01
-2.105118334293365479e-01
1.171723827719688416e-01
-3.329169452190399170e-01
2.532644271850585938e-01
-4.578968286514282227e-01
2.366672605276107788e-01
8.508374914526939392e-03
-2.405187636613845825e-01
-1.397207379341125488e-01
-2.853317856788635254e-01
-1.549489349126815796e-01
4.047897160053253174e-01
8.862408995628356934e-02
-3.090084493160247803e-01
2.680350244045257568e-01
-5.705024674534797668e-02
1.772999614477157593e-01
-4.454160630702972412e-01
2.829213440418243408e-01
1.142180040478706360e-01
1.999646984040737152e-02
7.782851904630661011e-02
1.773178875446319580e-01
-3.198035061359405518e-01
2.214777916669845581e-01
1.354707777500152588e-01
1.504805684089660645e-01
1.715436279773712158e-01
-4.012476801872253418e-01
-2.049290835857391357e-01
-2.840055823326110840e-01
2.933555245399475098e-01
3.367536067962646484e-01
-2.834655940532684326e-01
2.715828418731689453e-01
1.043738722801208496e-01
-4.269423484802246094e-01
3.394004106521606445e-01
4.001704752445220947e-01
5.358963087201118469e-02
3.426691591739654541e-01
-1.433750987052917480e-01
-1.727459430694580078e-01
1.037698835134506226e-01
-4.181185364723205566e-01
3.997519016265869141e-01
-1.686137616634368896e-01
-1.912445724010467529e-01
2.238282561302185059e-01
9.695092588663101196e-02
2.748755514621734619e-01
2.381308376789093018e-01
7.980106025934219360e-02
-4.643501341342926025e-02
3.997188508510589600e-01
-2.081119269132614136e-01
-3.195357322692871094e-01
-2.998787462711334229e-01
-3.989613056182861328e-01
-2.660758495330810547e-01
-2.412978261709213257e-01
1.274112910032272339e-01
3.532415926456451416e-01
-3.359511196613311768e-01
3.957127630710601807e-01
2.249878495931625366e-01
-4.605480134487152100e-01
-3.494343459606170654e-01
1.791367977857589722e-01
-1.240214332938194275e-01
1.279348731040954590e-01
1.040587946772575378e-01
-3.534677922725677490e-01
1.222946718335151672e-01
1.473418623208999634e-01
1.083688959479331970e-01
4.525678977370262146e-02
2.599839270114898682e-01
3.292088210582733154e-02
1.429998278617858887e-01
-3.714901208877563477e-01
2.406124584376811981e-02
3.381749391555786133e-01
-2.664468586444854736e-01
1.160566061735153198e-01
-3.600980043411254883e-01
3.861889541149139404e-01
6.716610491275787354e-02
-1.168730184435844421e-01
3.392840325832366943e-01
-2.953470647335052490e-01
-3.834670186042785645e-01
-1.153472512960433960e-01
3.215380609035491943e-01
-1.372633576393127441e-01
-1.187671646475791931e-01
-6.092341542243957520e-01
-9.706921130418777466e-02
-4.853667914867401123e-01
4.675845503807067871e-01
-2.564359009265899658e-01
-1.222823262214660645e-01
2.917714715003967285e-01
-4.839160442352294922e-01
5.504094436764717102e-02
4.211118817329406738e-01
4.299080967903137207e-01
-3.376949429512023926e-01
-1.543599963188171387e-01
-2.717340290546417236e-01
-3.858625888824462891e-01
-1.729135960340499878e-01
-3.309468179941177368e-02
-3.381941914558410645e-01
1.257038414478302002e-01
4.054580330848693848e-01
8.140186965465545654e-02
4.662588238716125488e-01
-2.249761074781417847e-01
-7.313816249370574951e-02
-1.807499080896377563e-01
2.234009504318237305e-01
-5.224124193191528320e-01
1.668110042810440063e-01
8.515769243240356445e-02
2.373978942632675171e-01
-2.884256243705749512e-01
-7.469117641448974609e-02
-3.979793488979339600e-01
-1.016469895839691162e-01
3.236548602581024170e-01
-4.336912930011749268e-02
5.193948149681091309e-01
2.209960073232650757e-01
-1.819772124290466309e-01
-1.552983075380325317e-01
-5.902732163667678833e-02
4.692432880401611328e-01
-5.162922739982604980e-01
3.455919325351715088e-01
6.684745848178863525e-02
-1.271191388368606567e-01
-7.886432111263275146e-02
1.796671301126480103e-01
-1.171662285923957825e-01
1.124072000384330750e-01
-3.853808939456939697e-01
1.327004283666610718e-01
-2.615836448967456818e-02
-2.418654710054397583e-01
9.255830198526382446e-02
2.585633397102355957e-01
1.508201509714126587e-01
-2.647596001625061035e-01
5.058562159538269043e-01
-2.039573937654495239e-01
8.402897417545318604e-02
3.788002431392669678e-01
-2.352623939514160156e-01
-4.852256923913955688e-02
1.549855470657348633e-01
6.037540268152952194e-03
3.345575630664825439e-01
1.833460628986358643e-01
-4.579043388366699219e-01
1.407888382673263550e-01
1.375199556350708008e-01
-4.116859138011932373e-01
4.131980240345001221e-01
2.912323772907257080e-01
-4.358222782611846924e-01
2.453108504414558411e-02
-3.580434620380401611e-01
2.142134606838226318e-01
-4.621869325637817383e-02
-1.474520862102508545e-01
-3.487143665552139282e-02
5.073837637901306152e-01
2.846971154212951660e-01
-3.543663918972015381e-01
-3.185461163520812988e-01
2.809640765190124512e-01
3.096693158149719238e-01
-3.547982871532440186e-01
-6.995757669210433960e-02
-2.784727811813354492e-01
-1.286982893943786621e-01
-3.166855275630950928e-01
1.623238623142242432e-01
-3.339822962880134583e-02
2.346859686076641083e-02
2.643473446369171143e-01
-3.130703270435333252e-01
-2.917283177375793457e-01
1.174634471535682678e-01
2.549608349800109863e-01
5.711889639496803284e-02
1.842675954103469849e-01
-2.128791809082031250e-01
-4.275214374065399170e-01
4.170876443386077881e-01
-1.435812413692474365e-01
2.703895270824432373e-01
-3.475883305072784424e-01
-3.800564631819725037e-02
1.382841318845748901e-01
2.379976361989974976e-01
-3.606075346469879150e-01
-3.979558944702148438e-01
1.652543097734451294e-01
2.638656795024871826e-01
-1.446703970432281494e-01
-1.776275411248207092e-02
-2.402765303850173950e-01
-2.299903333187103271e-01
3.743129074573516846e-01
-3.650882840156555176e-02
-4.680817425251007080e-01
-4.125543236732482910e-01
3.539808988571166992e-01
-3.066754043102264404e-01
2.932636067271232605e-03
-1.795795410871505737e-01
-1.543341726064682007e-01
2.870709598064422607e-01
8.313975483179092407e-02
3.330422639846801758e-01
9.790085256099700928e-02
-2.339309751987457275e-01
-1.942640542984008789e-01
3.057762682437896729e-01
2.232700437307357788e-01
-3.234710395336151123e-01
-7.710986584424972534e-02
3.945757448673248291e-02
2.807724475860595703e-01
2.733024358749389648e-01
-2.165028452873229980e-01
2.820197939872741699e-01
-3.032058775424957275e-01
-3.194616436958312988e-01
1.642024666070938110e-01
-2.376735657453536987e-01
-3.163793981075286865e-01
3.218866288661956787e-01
-2.141054868698120117e-01
-4.041363000869750977e-01
-4.267627000808715820e-01
-7.487782835960388184e-02
-6.075296178460121155e-02
9.441787376999855042e-03
2.042758166790008545e-01
4.076737910509109497e-03
4.166925847530364990e-01
3.483168184757232666e-01
1.342386901378631592e-01
-3.208359181880950928e-01
-4.624598659574985504e-03
-1.195551082491874695e-01
4.282958507537841797e-01
-3.135843947529792786e-02
-4.168269932270050049e-01
-4.311501085758209229e-01
3.782677650451660156e-01
2.983876764774322510e-01
-1.697406172752380371e-01
3.096278309822082520e-01
-2.170772403478622437e-01
-1.741775721311569214e-01
-3.169303536415100098e-01
6.302372366189956665e-02
1.926446259021759033e-01
-1.823393702507019043e-01
-1.109528727829456329e-02
-3.648155033588409424e-01
2.263276129961013794e-01
-1.623377650976181030e-01
-4.115181863307952881e-01
2.480781376361846924e-01
-2.316661775112152100e-01
1.067326366901397705e-01
-2.967851758003234863e-01
3.952063992619514465e-02
2.825342714786529541e-01
-3.392096757888793945e-01
1.793403625488281250e-01
1.773993521928787231e-01
-2.349426448345184326e-01
-3.874786198139190674e-01
-3.842101395130157471e-01
-1.103928219527006149e-02
4.208720475435256958e-02
2.876499202102422714e-03
1.939752101898193359e-01
3.549522161483764648e-01
-1.591326743364334106e-01
-1.967519074678421021e-01
-4.483916983008384705e-02
8.682657778263092041e-02
-1.844938844442367554e-01
4.048956930637359619e-01
-1.898854821920394897e-01
2.071649879217147827e-01
-2.478174418210983276e-01
-1.096852570772171021e-01
-8.544107526540756226e-02
1.724356412887573242e-01
-1.484071165323257446e-01
-1.626136898994445801e-01
-7.360015809535980225e-02
4.662087559700012207e-01
3.338545858860015869e-01
-2.511945180594921112e-02
-2.480442970991134644e-01
-2.722042202949523926e-01
-2.912183701992034912e-01
-3.075450658798217773e-01
-2.472780942916870117e-01
9.872677177190780640e-02
3.050243556499481201e-01
-1.104628369212150574e-01
2.769205253571271896e-03
9.401116520166397095e-02
-1.539736986160278320e-01
-4.053333997726440430e-01
1.011031568050384521e-01
9.752645343542098999e-02
1.030686274170875549e-01
1.513973772525787354e-01
3.122370839118957520e-01
3.144949302077293396e-02
3.846706449985504150e-01
-1.076427996158599854e-01
-1.937206462025642395e-02
-5.192141532897949219e-01
-2.126075327396392822e-01
5.476139485836029053e-02
-6.683132052421569824e-02
2.436936199665069580e-01
9.927676618099212646e-02
3.960196971893310547e-01
-3.584611713886260986e-01
1.820216141641139984e-02
-1.328859627246856689e-01
-2.415772713720798492e-02
-2.408063411712646484e-01
3.715933859348297119e-01
-1.512098759412765503e-01
8.689256757497787476e-02
3.405679166316986084e-01
2.467422187328338623e-01
-7.572956383228302002e-02
-2.787427604198455811e-01
-3.928871452808380127e-01
-2.677593529224395752e-01
4.798869192600250244e-01
-5.352254956960678101e-02
4.177126288414001465e-01
3.593028783798217773e-01
4.011939465999603271e-02
-2.203740626573562622e-01
-3.439370691776275635e-01
-2.321381866931915283e-01
-7.131452113389968872e-02
7.301557809114456177e-02
2.054034620523452759e-01
-2.827206850051879883e-01
-2.197710126638412476e-01
2.631174325942993164e-01
-2.626538276672363281e-01
-3.422173559665679932e-01
-6.318680197000503540e-02
-3.755198121070861816e-01
5.426725745201110840e-01
-1.384684350341558456e-02
-7.699692249298095703e-02
6.430200487375259399e-02
-3.609232306480407715e-01
6.008735895156860352e-01
-3.377171605825424194e-02
-1.375672668218612671e-01
1.086536496877670288e-01
1.622701883316040039e-01
-4.749214947223663330e-01
1.203333064913749695e-01
2.319913357496261597e-01
2.849137485027313232e-01
1.360922306776046753e-01
3.828904032707214355e-01
2.469943910837173462e-01
-2.613557577133178711e-01
2.567735016345977783e-01
-1.996424049139022827e-01
-2.777388691902160645e-01
-2.819893956184387207e-01
-1.646870374679565430e-01
6.082601472735404968e-02
-2.699079811573028564e-01
-2.443340271711349487e-01
-2.329707592725753784e-01
-3.049878180027008057e-01
5.190415382385253906e-01
-1.349218934774398804e-01
2.364207953214645386e-01
-3.052718043327331543e-01
-3.127219080924987793e-01
