2.722760662436485291e-02
1.576125808060169220e-02
-2.113168090581893921e-01
1.608569175004959106e-01
-3.491218090057373047e-01
-1.161856502294540405e-01
1.259588450193405151e-01
2.401987910270690918e-01
2.727070450782775879e-01
-3.994789421558380127e-01
3.868521153926849365e-01
-1.449954062700271606e-01
-4.895274341106414795e-02
2.038990557193756104e-01
-2.819594442844390869e-01
2.651269435882568359e-01
2.512511610984802246e-01
8.035832643508911133e-02
-1.196392551064491272e-01
2.544921040534973145e-01
-8.875762671232223511e-02
1.134299933910369873e-01
-9.641215950250625610e-02
-1.970088481903076172e-02
-4.436651170253753662e-01
1.334620863199234009e-01
-4.849432706832885742e-01
2.221048921346664429e-01
2.064151167869567871e-01
2.448149472475051880e-01
-4.299132153391838074e-02
3.047733008861541748e-01
7.963520288467407227e-02
-3.244006037712097168e-01
-2.916142642498016357e-01
-1.067971512675285339e-01
-3.694805800914764404e-01
1.381159722805023193e-01
-1.763111799955368042e-01
4.344019889831542969e-01
3.397729098796844482e-01
2.432490326464176178e-02
7.179908454418182373e-02
-1.462495625019073486e-01
1.515946686267852783e-01
-3.122545480728149414e-01
5.005897283554077148e-01
-1.849828809499740601e-01
1.520891189575195312e-01
-2.488291710615158081e-01
5.027292966842651367e-01
7.025308161973953247e-02
3.942327499389648438e-01
1.421189215034246445e-02
-2.523506581783294678e-01
-3.008027374744415283e-01
1.582971811294555664e-01
-4.012255370616912842e-01
-6.030869856476783752e-02
1.687324196100234985e-01
-2.217249274253845215e-01
2.679945528507232666e-01
-2.577618062496185303e-01
-3.599629700183868408e-01
4.359496012330055237e-02
4.804511368274688721e-01
4.908131361007690430e-01
-2.299654483795166016e-01
2.098817825317382812e-01
-2.508413493633270264e-01
3.438990414142608643e-01
-1.517798751592636108e-01
3.839760646224021912e-02
-3.580965995788574219e-01
-4.065444692969322205e-02
-2.558267116546630859e-01
1.165560185909271240e-01
2.635653316974639893e-01
3.648552671074867249e-02
8.266460150480270386e-02
1.447898298501968384e-01
-1.563155055046081543e-01
-3.962303698062896729e-01
2.757473587989807129e-01
-4.541786387562751770e-02
-8.807138353586196899e-02
-3.225736320018768311e-01
-2.938373982906341553e-01
2.920943126082420349e-02
1.732975393533706665e-01
-2.425953298807144165e-01
3.135186433792114258e-01
1.995210945606231689e-01
9.981454908847808838e-02
2.126335948705673218e-01
7.963897287845611572e-02
3.234646916389465332e-01
-2.570668458938598633e-01
-1.456357836723327637e-01
-2.892060577869415283e-01
2.188006881624460220e-03
-3.081884384155273438e-01
1.192923188209533691e-01
3.988471031188964844e-01
-1.607462167739868164e-01
6.633858382701873779e-02
8.594305813312530518e-02
-1.079498678445816040e-01
-2.845506668090820312e-01
2.158290594816207886e-01
2.188269495964050293e-01
-9.225511550903320312e-02
-5.215047597885131836e-01
3.156209290027618408e-01
-2.728376165032386780e-02
-6.882353127002716064e-02
8.133283257484436035e-02
-9.471463412046432495e-02
4.006409049034118652e-01
2.952231168746948242e-01
-7.698491215705871582e-02
-4.586828947067260742e-01
8.445100486278533936e-02
2.465568184852600098e-01
-3.210370540618896484e-01
1.107016578316688538e-01
-3.379925489425659180e-01
1.985209137201309204e-01
2.235743999481201172e-01
5.376747623085975647e-02
6.133254989981651306e-02
2.561133354902267456e-02
3.973881304264068604e-01
-2.343335151672363281e-01
-3.070445060729980469e-01
-2.859210073947906494e-01
-7.517992705106735229e-02
1.692799665033817291e-02
9.776841849088668823e-02
2.615357637405395508e-01
-3.572564721107482910e-01
1.961345523595809937e-01
4.160389602184295654e-01
-4.535032063722610474e-02
4.046432971954345703e-01
-5.731790661811828613e-01
-3.711227178573608398e-01
4.518377184867858887e-01
-4.819357395172119141e-02
-2.878835499286651611e-01
-2.741572260856628418e-02
2.126867771148681641e-01
-4.136225879192352295e-01
3.738033771514892578e-01
-2.577036917209625244e-01
4.635614454746246338e-01
-5.844955146312713623e-02
-3.278701603412628174e-01
-3.159006237983703613e-01
-2.290395088493824005e-02
-4.769459664821624756e-01
2.942709717899560928e-03
-4.900500774383544922e-01
-2.092798054218292236e-01
7.339656352996826172e-02
1.598116010427474976e-01
-3.193465173244476318e-01
6.065825000405311584e-02
-2.996418178081512451e-01
-7.479225844144821167e-02
4.461525753140449524e-02
-3.563699126243591309e-01
1.684941202402114868e-01
-1.612561345100402832e-01
-4.622742831707000732e-01
1.157740950584411621e-01
-2.962231338024139404e-01
1.719025778584182262e-03
2.916127145290374756e-01
3.000212134793400764e-03
-2.237928062677383423e-01
2.071606218814849854e-01
-2.953022904694080353e-02
-2.827976047992706299e-01
3.101065158843994141e-01
-1.529916971921920776e-01
2.861336171627044678e-01
-1.556415408849716187e-01
2.266279906034469604e-01
3.044691979885101318e-01
4.531922042369842529e-01
-4.203113913536071777e-01
-4.104541838169097900e-01
2.200840041041374207e-02
-1.812148541212081909e-01
-1.635106652975082397e-02
4.845835641026496887e-02
-4.628214538097381592e-01
-1.806126236915588379e-01
2.270148247480392456e-01
-1.604229956865310669e-01
-4.582259356975555420e-01
-1.967190206050872803e-01
1.007394492626190186e-01
1.995018869638442993e-01
-1.423971652984619141e-01
-3.332641720771789551e-01
2.589552998542785645e-01
1.283373404294252396e-02
1.078207716345787048e-01
-2.192114889621734619e-01
1.693612337112426758e-01
-1.284410506486892700e-01
2.288627177476882935e-01
-2.144930511713027954e-01
-2.858029901981353760e-01
3.409904986619949341e-02
-1.054999455809593201e-01
3.994686603546142578e-01
-1.329590380191802979e-01
-1.243930757045745850e-01
-2.697710990905761719e-01
-1.505377888679504395e-01
9.640851616859436035e-02
2.008798718452453613e-01
-2.051532864570617676e-01
3.764427080750465393e-02
-4.473964124917984009e-02
2.903305888175964355e-01
1.087733134627342224e-01
1.441565752029418945e-01
4.817715585231781006e-01
2.898610830307006836e-01
2.894496619701385498e-01
1.863749027252197266e-01
-1.461065262556076050e-01
-2.260499447584152222e-01
1.783454567193984985e-01
-3.998450636863708496e-01
-2.064446061849594116e-01
4.283765554428100586e-01
-1.872365325689315796e-01
-6.498154252767562866e-02
2.206171005964279175e-01
-3.792487084865570068e-01
-1.596736162900924683e-01
-4.653418436646461487e-02
2.649851143360137939e-01
-3.324581384658813477e-01
2.644047737121582031e-01
3.929446041584014893e-01
-2.874450683593750000e-01
3.411490321159362793e-01
8.131534606218338013e-02
1.058315038681030273e-01
2.759490907192230225e-01
1.461169403046369553e-02
-1.229176893830299377e-01
3.072250820696353912e-02
-1.428661495447158813e-01
-2.260891050100326538e-01
-3.221651315689086914e-01
-2.954452931880950928e-01
2.882770299911499023e-01
-4.437496140599250793e-02
3.254484832286834717e-01
-2.434136122465133667e-01
2.164071351289749146e-01
1.596936769783496857e-02
1.983664184808731079e-01
4.813932776451110840e-01
-1.192585304379463196e-01
-1.236406788229942322e-01
-1.903824210166931152e-01
-2.694093286991119385e-01
-2.739149332046508789e-01
4.726731032133102417e-02
3.235409855842590332e-01
-2.237576544284820557e-01
9.875614196062088013e-03
3.023594319820404053e-01
4.009743034839630127e-02
3.437423706054687500e-01
-7.470425963401794434e-02
1.865669935941696167e-01
-1.777490228414535522e-02
4.206705689430236816e-01
8.080521225929260254e-02
-2.095098942518234253e-01
-2.591485083103179932e-01
-2.455107718706130981e-01
1.014016270637512207e-01
-3.390781581401824951e-01
-2.520891726016998291e-01
-2.106399983167648315e-01
-1.667160540819168091e-01
2.638582885265350342e-01
-2.777186036109924316e-01
3.664245307445526123e-01
-2.019654959440231323e-01
1.818089783191680908e-01
-1.200807094573974609e-01
2.590028047561645508e-01
-3.411960601806640625e-01
1.133190840482711792e-01
4.209488630294799805e-01
2.996197342872619629e-01
-1.423648595809936523e-01
-4.701530635356903076e-01
2.221301347017288208e-01
9.641006588935852051e-02
2.575587108731269836e-02
4.753327965736389160e-01
2.100580930709838867e-01
1.994656026363372803e-01
-3.930359184741973877e-01
-1.888835728168487549e-01
1.501282900571823120e-01
-3.758447170257568359e-01
1.686751246452331543e-01
7.451145350933074951e-02
-1.272458732128143311e-01
-3.654171526432037354e-02
1.533505618572235107e-01
-3.266154527664184570e-01
-2.108412683010101318e-01
4.671692252159118652e-01
-1.659202277660369873e-01
3.641241490840911865e-01
-3.062412738800048828e-01
2.370830774307250977e-01
3.459580540657043457e-01
1.744585298001766205e-02
3.430860638618469238e-01
-1.098659187555313110e-01
-2.401488088071346283e-02
-2.917451262474060059e-01
2.305836826562881470e-01
4.028116166591644287e-02
-1.721097975969314575e-01
-6.960012316703796387e-01
-2.925823628902435303e-01
3.927218019962310791e-01
1.590049117803573608e-01
9.174370765686035156e-02
1.938131302595138550e-01
1.198832020163536072e-01
-1.419383287429809570e-01
5.032717809081077576e-02
-6.982109695672988892e-02
1.771941334009170532e-01
1.845835745334625244e-01
3.426526784896850586e-01
2.882334589958190918e-01
-3.197957575321197510e-01
-2.318995743989944458e-01
-3.263734877109527588e-01
1.002448610961437225e-02
3.049349784851074219e-01
-3.826377689838409424e-01
-2.881966829299926758e-01
8.865848928689956665e-02
-2.249428033828735352e-01
6.479400396347045898e-02
-3.536049127578735352e-01
1.466733664274215698e-01
-3.308581709861755371e-01
4.456982612609863281e-01
-3.725551301613450050e-03
-2.155276536941528320e-01
1.886224448680877686e-01
-5.064619779586791992e-01
3.614184856414794922e-01
-2.942378520965576172e-01
-1.422541141510009766e-01
-4.839540421962738037e-01
-9.354234486818313599e-02
1.682381778955459595e-01
3.531734347343444824e-01
-1.967503130435943604e-02
-8.131957799196243286e-02
-1.498137563467025757e-01
2.529873847961425781e-01
-2.601741850376129150e-01
3.905225917696952820e-02
-4.040783345699310303e-01
1.843368858098983765e-01
-3.717963397502899170e-01
5.497655272483825684e-01
-1.625995635986328125e-01
-3.345245420932769775e-01
3.254199624061584473e-01
3.642558455467224121e-01
-4.374647140502929688e-02
1.937050670385360718e-01
2.923281192779541016e-01
-5.867580771446228027e-01
-1.492445319890975952e-01
2.654131129384040833e-02
-2.244478464126586914e-01
-2.461219578981399536e-01
1.760727763175964355e-01
-3.163231164216995239e-02
9.840475395321846008e-03
-1.518448740243911743e-01
1.631753742694854736e-01
-4.257813692092895508e-01
-3.021621704101562500e-01
2.054694667458534241e-02
3.254362344741821289e-01
-1.523071527481079102e-01
-5.142096877098083496e-01
1.600630581378936768e-01
-2.407007962465286255e-01
-1.076959669589996338e-01
1.220264211297035217e-01
-1.035692729055881500e-02
5.084510892629623413e-03
2.913045287132263184e-01
1.498083174228668213e-01
-7.853522896766662598e-02
-3.157071396708488464e-02
8.070376701653003693e-03
-3.578606247901916504e-01
2.281810343265533447e-01
-1.013844683766365051e-01
6.120827421545982361e-02
-5.201684236526489258e-01
3.283796012401580811e-01
1.413657516241073608e-01
1.063269004225730896e-01
-4.038923382759094238e-01
-1.378293186426162720e-01
2.106787562370300293e-01
-3.058765269815921783e-02
-3.385701403021812439e-02
-3.069460391998291016e-01
-2.584134340286254883e-01
-2.738584578037261963e-01
-7.097519002854824066e-03
-7.714280486106872559e-02
5.494720861315727234e-02
4.360796883702278137e-03
2.194690555334091187e-01
4.924839735031127930e-01
-1.596314013004302979e-01
3.091602623462677002e-01
-4.768367409706115723e-01
8.906568586826324463e-02
1.586294472217559814e-01
6.709943413734436035e-01
7.507408410310745239e-02
4.143321514129638672e-01
-4.108999967575073242e-01
-2.431447058916091919e-01
-2.006358057260513306e-01
4.614513516426086426e-01
-2.170548886060714722e-01
-8.048108220100402832e-02
-3.163751661777496338e-01
1.311274319887161255e-01
-1.335785239934921265e-01
-9.716601669788360596e-02
-2.578940987586975098e-01
3.063072562217712402e-01
3.615541458129882812e-01
3.374973535537719727e-01
-3.588601052761077881e-01
-2.625678181648254395e-01
6.106088310480117798e-02
3.728257119655609131e-01
3.471962809562683105e-01
-2.643080949783325195e-01
-6.731922924518585205e-02
-4.223066270351409912e-01
2.081963717937469482e-01
2.752006649971008301e-01
2.201566696166992188e-01
-2.853528223931789398e-02
-1.924360245466232300e-01
3.643040731549263000e-02
-3.150779008865356445e-01
1.209619175642728806e-02
-4.109757244586944580e-01
2.396340295672416687e-02
3.086182773113250732e-01
1.688852906227111816e-01
2.142451405525207520e-01
2.208131700754165649e-01
1.317550241947174072e-01
4.462371766567230225e-01
1.488695293664932251e-01
1.136224493384361267e-01
-3.608548939228057861e-01
3.388301432132720947e-01
-1.944436808116734028e-03
3.352165818214416504e-01
-3.256047666072845459e-01
-1.198389306664466858e-01
2.155369967222213745e-01
-1.764865368604660034e-01
3.064827919006347656e-01
3.848183900117874146e-02
-7.385322824120521545e-03
-1.242461651563644409e-01
-1.706512272357940674e-01
1.336803585290908813e-01
1.068236827850341797e-01
-6.952964235097169876e-03
-2.465546429157257080e-01
-2.612442970275878906e-01
3.070978224277496338e-01
5.624750629067420959e-02
-3.199389874935150146e-01
-9.641216695308685303e-02
9.254818409681320190e-02
-3.390010893344879150e-01
4.650318920612335205e-01
-2.825731635093688965e-01
-5.607385933399200439e-02
-2.807295024394989014e-01
-2.249689996242523193e-01
-1.270764917135238647e-01
-2.694371044635772705e-01
2.080821692943572998e-01
-2.278738915920257568e-01
-8.647716045379638672e-02
4.207478761672973633e-01
-1.039726585149765015e-01
3.556878864765167236e-02
-3.033483326435089111e-01
1.401517838239669800e-01
-5.945396795868873596e-02
5.262028425931930542e-02
3.832719624042510986e-01
-3.674150109291076660e-01
-5.430415272712707520e-02
4.040929675102233887e-01
-2.925278544425964355e-01
1.172139644622802734e-01
2.163731902837753296e-01
-2.665591835975646973e-01
1.634017378091812134e-02
-5.949579062871634960e-04
2.642545998096466064e-01
1.361654698848724365e-01
2.714945971965789795e-01
-3.189672231674194336e-01
-3.065553307533264160e-01
-2.549886405467987061e-01
-1.200216859579086304e-01
1.121086180210113525e-01
-2.732074558734893799e-01
6.047643721103668213e-02
-3.313935399055480957e-01
-2.461115866899490356e-01
3.310101032257080078e-01
-6.966682523488998413e-02
-1.202372387051582336e-01
4.296295642852783203e-01
5.848674103617668152e-02
1.098204404115676880e-01
-5.100478529930114746e-01
-2.549155056476593018e-01
2.771784067153930664e-01
1.276840567588806152e-01
2.281705737113952637e-01
1.891342550516128540e-01
-2.410328239202499390e-01
-3.056474030017852783e-01
1.402145922183990479e-01
-1.000278964638710022e-01
4.036122858524322510e-01
-1.683876514434814453e-01
-1.239907070994377136e-01
-1.433820128440856934e-01
-1.239106357097625732e-01
-5.986963957548141479e-02
-1.615512371063232422e-01
6.375331431627273560e-02
-7.491260766983032227e-02
3.514261543750762939e-01
-1.556713283061981201e-01
1.892547011375427246e-01
-1.314586680382490158e-02
-5.041978955268859863e-01
-2.631994485855102539e-01
9.868511930108070374e-03
-1.771025657653808594e-01
2.701195478439331055e-01
-4.416466131806373596e-02
2.901983559131622314e-01
-4.007802009582519531e-01
4.233854636549949646e-02
-7.192811369895935059e-02
1.553125530481338501e-01
4.878514707088470459e-01
3.370094299316406250e-02
-2.258704304695129395e-01
-4.943763837218284607e-02
-1.780885085463523865e-02
-2.664834558963775635e-01
5.968588590621948242e-01
-2.381010055541992188e-01
-1.569579839706420898e-01
-2.020121514797210693e-01
-3.224374726414680481e-02
-3.057775199413299561e-01
-2.155765295028686523e-01
-1.043790206313133240e-01
-1.670574992895126343e-01
4.000150263309478760e-01
3.248198628425598145e-01
-1.504694819450378418e-01
-5.018871277570724487e-02
-4.247851371765136719e-01
-1.080228909850120544e-01
1.550127565860748291e-01
-1.401814520359039307e-01
-6.500881910324096680e-02
-3.593867421150207520e-01
4.501194506883621216e-02
1.396311074495315552e-01
3.254415094852447510e-01
-4.116357564926147461e-01
1.131085678935050964e-01
5.040172338485717773e-01
3.397789895534515381e-01
5.043418332934379578e-02
-2.662264108657836914e-01
2.058911770582199097e-01
1.571462750434875488e-01
-3.483255505561828613e-01
-4.774148464202880859e-01
4.608698785305023193e-01
-9.819687902927398682e-02
-6.565785408020019531e-02
-4.492233693599700928e-01
1.923428922891616821e-01
4.108074307441711426e-01
-3.284129872918128967e-02
2.521649301052093506e-01
-4.434312582015991211e-01
-3.538756072521209717e-01
-5.051902309060096741e-02
-6.894530355930328369e-02
2.241591215133666992e-01
-3.629166781902313232e-01
1.166560724377632141e-01
2.423326857388019562e-02
4.337012469768524170e-01
-2.679478749632835388e-02
-4.148771166801452637e-01
-2.909261882305145264e-01
4.878160655498504639e-01
-3.466526269912719727e-01
-1.438503712415695190e-01
2.843798995018005371e-01
-2.989102602005004883e-01
1.971059441566467285e-01
5.953218415379524231e-02
3.836888968944549561e-01
-3.516873121261596680e-01
2.860656678676605225e-01
5.858553946018218994e-02
-3.517243564128875732e-01
-2.254982478916645050e-02
-1.701167374849319458e-01
-2.993324995040893555e-01
2.141215652227401733e-01
1.427683234214782715e-01
2.134528160095214844e-01
1.550914049148559570e-01
-2.001328468322753906e-01
-3.247426152229309082e-01
3.654843270778656006e-01
3.509917557239532471e-01
-3.366938233375549316e-02
-1.141613125801086426e-01
-3.002201020717620850e-01
-3.946541994810104370e-02
1.149108782410621643e-01
2.827255129814147949e-01
1.668897084891796112e-02
-2.725606858730316162e-01
2.777518332004547119e-01
-1.066702082753181458e-01
-4.095401465892791748e-01
4.302086234092712402e-01
-3.675542473793029785e-01
-4.352776110172271729e-01
-1.711986809968948364e-01
-9.238205850124359131e-03
-2.213085144758224487e-01
2.346271127462387085e-01
2.029711902141571045e-01
-2.257865108549594879e-02
2.632001638412475586e-01
-5.711637064814567566e-02
3.367674052715301514e-01
1.093903407454490662e-01
2.879166007041931152e-01
-4.994559288024902344e-02
-7.169764488935470581e-02
-3.064394891262054443e-01
-3.751670420169830322e-01
2.794194221496582031e-01
-3.341921269893646240e-01
4.318505525588989258e-01
-1.567924767732620239e-01
-1.776352822780609131e-01
-4.413449764251708984e-01
-1.643700301647186279e-01
1.533636450767517090e-01
-3.032356798648834229e-01
1.972557604312896729e-01
9.257519990205764771e-02
-1.539232432842254639e-01
2.599675655364990234e-01
-3.998322486877441406e-01
3.784848377108573914e-02
-3.367987573146820068e-01
-1.024005189538002014e-01
1.536055356264114380e-01
2.042196393013000488e-01
1.768521615304052830e-03
3.452576398849487305e-01
-3.558789193630218506e-01
2.419891357421875000e-01
7.193315774202346802e-02
5.470322817564010620e-02
-3.965131938457489014e-01
-4.400787502527236938e-02
1.680762022733688354e-01
-3.167969286441802979e-01
1.971351355314254761e-01
-1.288430392742156982e-01
2.910687029361724854e-01
-7.779823243618011475e-02
2.730146944522857666e-01
2.518806159496307373e-01
-2.380973845720291138e-01
-3.031457662582397461e-01
8.773183077573776245e-02
2.897951602935791016e-01
-2.461300492286682129e-01
-2.771337330341339111e-01
6.115711107850074768e-02
2.358817309141159058e-01
3.436546027660369873e-01
5.411767959594726562e-01
1.803866326808929443e-01
1.431753039360046387e-01
-2.137488871812820435e-01
-1.452306658029556274e-01
-3.236581087112426758e-01
-2.810475826263427734e-01
-9.239189326763153076e-02
-1.137620583176612854e-02
-6.993441283702850342e-02
-3.330983817577362061e-01
-3.996971845626831055e-01
-3.057616949081420898e-01
-2.128131985664367676e-01
-6.241738423705101013e-02
-9.949257224798202515e-02
4.449845254421234131e-01
2.741953916847705841e-02
3.575784564018249512e-01
4.124023765325546265e-02
2.161591500043869019e-01
-2.477162778377532959e-01
-1.345042288303375244e-01
3.038081228733062744e-01
-1.896608024835586548e-01
3.146169185638427734e-01
9.678806364536285400e-02
-1.806736588478088379e-01
2.717063128948211670e-01
-1.498044282197952271e-01
3.246463537216186523e-01
-1.629703640937805176e-01
1.874409466981887817e-01
2.151408344507217407e-01
2.578443884849548340e-01
-5.502554774284362793e-01
4.253941401839256287e-02
1.113352552056312561e-01
-1.198735609650611877e-01
1.197001188993453979e-01
2.143111526966094971e-01
-1.688415259122848511e-01
4.811017587780952454e-02
-2.707175016403198242e-01
-2.920893430709838867e-01
-2.148899286985397339e-01
2.964852750301361084e-01
7.702770829200744629e-02
9.635801613330841064e-02
1.621047109365463257e-01
-3.557589948177337646e-01
-2.557485550642013550e-02
7.831559330224990845e-02
4.005171060562133789e-01
6.711857765913009644e-02
-2.133345156908035278e-01
-1.811004877090454102e-01
-4.430257380008697510e-01
-2.071583867073059082e-01
1.737432032823562622e-01
-1.673167496919631958e-01
2.608920931816101074e-01
2.196094766259193420e-02
2.670650184154510498e-02
-3.975456953048706055e-01
-3.824832737445831299e-01
-2.762924134731292725e-01
-1.690766066312789917e-01
2.661326825618743896e-01
2.361404448747634888e-01
-3.959630131721496582e-01
-1.347843408584594727e-01
3.820939064025878906e-01
1.955298334360122681e-02
2.038273662328720093e-01
-4.894464313983917236e-01
-6.950729340314865112e-02
1.729216575622558594e-01
-2.077345363795757294e-02
-4.065479040145874023e-01
-2.672134041786193848e-01
-3.761058449745178223e-01
3.152480423450469971e-01
-1.807206869125366211e-01
1.003949120640754700e-01
2.576932013034820557e-01
-3.274437189102172852e-01
-3.880403470247983932e-03
-2.562299370765686035e-01
-1.612581498920917511e-02
