-9.365123510360717773e-02
-5.029075592756271362e-02
-3.077506646513938904e-02
7.178940623998641968e-02
-1.068017184734344482e-01
6.372823566198348999e-02
9.052634239196777344e-03
-1.059549972414970398e-01
6.213980540633201599e-02
4.669598117470741272e-02
2.098497375845909119e-02
-1.562086641788482666e-01
5.753660574555397034e-02
2.159751486033201218e-03
1.124575138092041016e-01
1.866523548960685730e-02
-1.828834712505340576e-01
-3.536161407828330994e-02
1.379754580557346344e-02
8.134783804416656494e-02
-1.028717495501041412e-02
4.068091139197349548e-02
-1.558060664683580399e-02
2.186485379934310913e-02
-4.929142072796821594e-02
1.266696751117706299e-01
-1.169756203889846802e-01
-1.935950480401515961e-03
-2.766401171684265137e-01
-4.594284668564796448e-02
5.409948527812957764e-02
-1.562409698963165283e-01
-1.521714180707931519e-01
7.892473787069320679e-02
3.011839278042316437e-02
-1.749692112207412720e-02
-6.027582287788391113e-02
2.893620356917381287e-02
-8.165114372968673706e-02
-1.411803811788558960e-01
1.996856182813644409e-01
1.020178049802780151e-01
7.688605040311813354e-02
-2.216200903058052063e-02
-1.660943403840065002e-02
7.740185409784317017e-02
-1.074757650494575500e-01
1.125927940011024475e-01
-6.045595929026603699e-02
7.764948997646570206e-03
1.233280152082443237e-01
1.864011138677597046e-01
-1.249368265271186829e-01
2.548537552356719971e-01
-1.480729691684246063e-02
9.754240512847900391e-02
-3.414804860949516296e-02
7.214500755071640015e-02
1.008483693003654480e-01
-1.001879423856735229e-01
6.596792489290237427e-02
2.099813707172870636e-02
1.215272843837738037e-01
2.768657170236110687e-02
9.248270839452743530e-02
8.276593685150146484e-02
8.776804804801940918e-02
7.533485442399978638e-02
-1.318343132734298706e-01
-2.619712427258491516e-02
-1.300979703664779663e-01
6.479046493768692017e-02
-1.741376705467700958e-02
-2.609940245747566223e-02
-7.943264394998550415e-02
4.705234244465827942e-02
8.469150960445404053e-02
-1.037557125091552734e-01
1.434075534343719482e-01
3.078101389110088348e-02
-2.177045494318008423e-01
-8.610975928604602814e-03
-5.534357950091362000e-02
1.578827500343322754e-01
-2.190475910902023315e-02
-4.081293195486068726e-02
1.886198297142982483e-02
2.620475366711616516e-02
-3.697974234819412231e-02
-1.450150907039642334e-01
1.101103276014328003e-01
4.466506652534008026e-03
-7.299163192510604858e-02
-1.118301674723625183e-01
5.081646144390106201e-03
-1.486526280641555786e-01
-2.417364344000816345e-02
3.685800358653068542e-02
9.373547136783599854e-02
-2.582321688532829285e-02
8.566404134035110474e-02
-8.492068201303482056e-02
4.807334765791893005e-02
-2.010320723056793213e-01
2.727118693292140961e-02
-7.583902683109045029e-03
7.476311922073364258e-02
1.294904351234436035e-01
3.093128837645053864e-02
-1.353968232870101929e-01
-4.905504174530506134e-03
8.050055801868438721e-02
-1.052908152341842651e-01
5.841074883937835693e-02
6.089387834072113037e-02
1.382668316364288330e-01
-9.375920146703720093e-02
-7.959268242120742798e-02
-1.067545339465141296e-01
7.724896818399429321e-02
6.574302166700363159e-02
-9.412927180528640747e-02
-8.217972517013549805e-02
-3.970347717404365540e-02
-1.985779730603098869e-03
1.215267330408096313e-01
8.265486359596252441e-02
-8.782428689301013947e-03
8.291446603834629059e-03
2.674414031207561493e-02
1.581112667918205261e-02
-5.125407502055168152e-02
1.519248038530349731e-01
-2.449201606214046478e-02
6.340701598674058914e-03
3.736502677202224731e-02
-2.187051065266132355e-02
4.400419071316719055e-02
-4.105975478887557983e-02
-1.232729405164718628e-01
-1.900515258312225342e-01
2.003892064094543457e-01
-8.279635757207870483e-02
4.548101872205734253e-02
-6.143470108509063721e-02
1.485515087842941284e-01
7.262160629034042358e-02
-1.798769691959023476e-03
1.320030391216278076e-01
-1.019632667303085327e-01
8.284395933151245117e-02
2.175104804337024689e-02
2.691046893596649170e-01
-8.506345748901367188e-02
7.586710900068283081e-02
-3.512272238731384277e-02
1.895478516817092896e-01
-9.034158289432525635e-02
1.590481549501419067e-01
-2.594488300383090973e-02
-1.368012428283691406e-01
-8.081540465354919434e-02
9.913755208253860474e-02
-2.044149190187454224e-01
8.324110880494117737e-03
6.834053248167037964e-02
-8.633290976285934448e-02
-5.209595430642366409e-03
-3.084557130932807922e-03
9.223414957523345947e-02
-3.855559229850769043e-01
-1.549796164035797119e-01
1.013030856847763062e-01
-8.605267107486724854e-02
1.231302171945571899e-01
-1.225331425666809082e-01
-9.048079699277877808e-02
-8.656122535467147827e-02
-7.086604088544845581e-02
4.219003021717071533e-02
4.128687456250190735e-02
1.752106398344039917e-01
-9.353442117571830750e-03
-5.845733452588319778e-03
6.761920452117919922e-02
-5.195784568786621094e-02
-8.795474469661712646e-02
8.149887621402740479e-02
-1.024516522884368896e-01
-3.839685022830963135e-02
1.743445098400115967e-01
-1.956030130386352539e-01
1.279375329613685608e-02
2.970944158732891083e-02
-1.499193608760833740e-01
-9.587864577770233154e-02
1.165127661079168320e-02
1.397494785487651825e-02
1.465614885091781616e-01
2.413892745971679688e-01
3.395986184477806091e-02
1.225076168775558472e-01
2.046265155076980591e-01
-3.020663000643253326e-02
2.940177218988537788e-03
1.094967871904373169e-01
-2.433270066976547241e-01
-4.426934942603111267e-02
9.570040553808212280e-02
-1.423606723546981812e-01
-3.828839631751179695e-03
5.384285002946853638e-02
6.846506893634796143e-02
1.680634319782257080e-01
1.393262445926666260e-01
1.220513042062520981e-02
-1.062880158424377441e-01
2.348907142877578735e-01
8.414765447378158569e-02
5.249706655740737915e-02
-8.035295456647872925e-02
-1.642582267522811890e-01
1.069184541702270508e-01
3.904698044061660767e-02
1.181591823697090149e-01
-1.003928016871213913e-02
3.807852789759635925e-02
-9.391288459300994873e-02
-2.080409973859786987e-01
5.069447681307792664e-02
1.022121757268905640e-01
-2.103463374078273773e-02
8.458500355482101440e-02
1.432365477085113525e-01
5.375511944293975830e-03
-1.581944525241851807e-01
2.457114160060882568e-01
-1.832711994647979736e-01
-1.903574541211128235e-02
7.959473133087158203e-02
-5.116580799221992493e-02
-3.871290758252143860e-02
-1.945539191365242004e-02
1.650750488042831421e-01
-6.655436754226684570e-02
-5.309001076966524124e-03
-1.097838878631591797e-01
-3.520310670137405396e-02
1.484129130840301514e-01
-1.483099460601806641e-01
-1.708198152482509613e-02
6.353413220494985580e-03
-1.417165547609329224e-01
-5.657240748405456543e-02
8.026684634387493134e-03
1.085613481700420380e-02
-2.804744802415370941e-02
-1.109774783253669739e-01
-1.086100563406944275e-01
-2.230834066867828369e-01
-5.003681033849716187e-02
-9.906366467475891113e-02
7.060201466083526611e-02
-5.864345282316207886e-02
-1.202588714659214020e-02
-1.051259115338325500e-01
-3.791479766368865967e-02
2.234660461544990540e-02
7.938966900110244751e-02
-1.308007538318634033e-01
-1.594337821006774902e-01
-3.301541879773139954e-02
-2.004546672105789185e-01
9.140459820628166199e-03
9.271878749132156372e-02
-2.258944511413574219e-02
5.660141259431838989e-02
2.976665087044239044e-02
-7.916531525552272797e-03
-3.479536995291709900e-02
-9.092042595148086548e-02
1.212091296911239624e-01
-3.637222200632095337e-02
2.342078238725662231e-01
-3.443551715463399887e-03
1.082513388246297836e-02
1.196712553501129150e-01
8.771008998155593872e-02
-1.509936153888702393e-02
6.263367831707000732e-02
-3.083291836082935333e-02
6.112730130553245544e-02
-1.050618216395378113e-01
6.921943277120590210e-02
5.768970772624015808e-02
1.033241972327232361e-01
-5.386922508478164673e-02
-4.754434153437614441e-02
1.621124893426895142e-02
-1.002363339066505432e-01
-1.560213714838027954e-01
5.617714673280715942e-02
8.014847338199615479e-02
-1.024042665958404541e-01
-4.463005065917968750e-02
-2.210180312395095825e-01
-5.775846540927886963e-02
-3.239407762885093689e-02
-7.415009289979934692e-02
-8.644290268421173096e-02
-1.987197995185852051e-01
8.739677816629409790e-02
5.957628041505813599e-02
-1.340573304332792759e-03
1.368160545825958252e-01
3.261776268482208252e-02
-6.639495491981506348e-02
1.533486247062683105e-01
-1.631645411252975464e-01
4.450397938489913940e-02
-8.344524353742599487e-02
-1.086947917938232422e-01
-3.298570960760116577e-02
-8.088164031505584717e-03
-1.679390817880630493e-01
-7.502932101488113403e-02
-1.205243542790412903e-01
1.493754684925079346e-01
-7.532135397195816040e-02
-5.452353134751319885e-02
-1.406978070735931396e-01
3.663211315870285034e-02
-1.232893615961074829e-01
-1.496680974960327148e-01
2.350314147770404816e-02
-3.381916880607604980e-02
2.118933945894241333e-01
-1.702936179935932159e-02
8.274454623460769653e-02
-1.619539856910705566e-01
1.022497415542602539e-01
1.669891923666000366e-01
3.262916952371597290e-02
8.212590217590332031e-02
3.866179659962654114e-02
-8.961321413516998291e-02
6.184554845094680786e-02
-1.257700938731431961e-02
-1.047479286789894104e-01
-6.150875240564346313e-02
3.072300180792808533e-02
-1.769693568348884583e-03
-9.363558888435363770e-02
1.017302181571722031e-02
-6.328197568655014038e-02
-1.156577989459037781e-01
-7.728125154972076416e-02
1.699770241975784302e-01
-5.314738675951957703e-02
-5.603407695889472961e-02
-2.704244479537010193e-02
-7.784795761108398438e-02
-1.177951991558074951e-01
6.662603467702865601e-02
-1.593639105558395386e-01
-5.531381350010633469e-03
3.144812211394309998e-02
7.899447530508041382e-02
-8.878578245639801025e-02
8.030317723751068115e-03
3.762733563780784607e-02
3.476936742663383484e-02
-2.443985790014266968e-01
-7.617741823196411133e-03
-1.960974633693695068e-01
3.482920676469802856e-02
-3.335154056549072266e-02
-4.459009692072868347e-02
-5.887512490153312683e-02
-1.711838096380233765e-01
7.493624836206436157e-02
-1.257269531488418579e-01
1.936780512332916260e-01
1.128287687897682190e-01
-1.770517975091934204e-01
-1.394744813442230225e-01
1.171595901250839233e-01
-1.284340918064117432e-01
-3.577560782432556152e-01
6.217157095670700073e-02
-2.780816853046417236e-01
-3.484567999839782715e-01
-5.374537035822868347e-02
-1.082218363881111145e-01
-1.079545542597770691e-01
2.679252997040748596e-02
1.201325431466102600e-01
-1.414762139320373535e-01
-4.620112851262092590e-02
-1.928860992193222046e-01
-1.638008654117584229e-01
6.479512900114059448e-02
-1.394692063331604004e-01
1.155019775032997131e-01
-5.839741975069046021e-02
-6.785100698471069336e-02
1.974883526563644409e-01
-1.006582081317901611e-01
-1.614884734153747559e-01
-6.700927764177322388e-02
2.029744535684585571e-01
-9.210876305587589741e-04
-1.504922006279230118e-02
-9.815710037946701050e-02
-5.593961477279663086e-02
1.480461061000823975e-01
1.994451880455017090e-01
-1.650839112699031830e-03
-6.694888323545455933e-02
-8.702961355447769165e-02
-1.016078051179647446e-02
5.473753809928894043e-02
2.748828530311584473e-01
-9.713473170995712280e-02
6.330338120460510254e-02
-1.956021338701248169e-01
-5.078519880771636963e-02
-3.513323888182640076e-02
4.681931436061859131e-02
-1.353137791156768799e-01
-1.420625150203704834e-01
-6.662869453430175781e-02
-5.360884591937065125e-02
-2.692596316337585449e-01
1.701546758413314819e-01
-7.323520630598068237e-02
-1.069139242172241211e-01
1.338936239480972290e-01
-1.772531121969223022e-02
-4.927126690745353699e-02
7.721615838818252087e-04
-2.137729078531265259e-01
-6.648294627666473389e-02
4.042493645101785660e-03
-1.791080981492996216e-01
-1.409285068511962891e-01
9.396496415138244629e-02
2.405163347721099854e-01
-9.886398166418075562e-02
4.750065132975578308e-02
-1.341899670660495758e-02
1.577937044203281403e-02
5.379446595907211304e-02
-4.000368528068065643e-03
4.903696104884147644e-02
1.002822071313858032e-01
8.924412727355957031e-02
5.202793329954147339e-02
2.856463193893432617e-02
-5.757381208240985870e-03
-1.668343506753444672e-02
3.213672339916229248e-01
-7.417514175176620483e-02
5.868125334382057190e-02
-4.170953109860420227e-02
-2.699533477425575256e-02
-1.405525803565979004e-01
-1.541158705949783325e-01
1.633956730365753174e-01
-6.903993338346481323e-02
-6.852323561906814575e-02
1.009809523820877075e-01
6.768088787794113159e-02
1.268142908811569214e-01
-7.807609438896179199e-02
9.028490632772445679e-02
-2.770309709012508392e-02
8.697000890970230103e-02
-6.622798740863800049e-02
4.590953886508941650e-02
-3.963392972946166992e-02
4.545078799128532410e-02
1.116717681288719177e-01
-7.390208542346954346e-02
-1.757696643471717834e-02
-6.322526931762695312e-02
1.326593160629272461e-01
2.415399253368377686e-02
-5.504718795418739319e-02
2.658169530332088470e-02
-5.789114162325859070e-03
1.545832753181457520e-01
7.461960613727569580e-02
-7.109766453504562378e-02
1.377092301845550537e-02
7.703696191310882568e-02
4.528093710541725159e-02
4.567491123452782631e-04
1.174879223108291626e-01
1.596503257751464844e-01
6.045167893171310425e-02
1.365878283977508545e-01
4.767474904656410217e-02
1.058981474488973618e-02
-6.223577074706554413e-03
-1.513530686497688293e-02
1.135772243142127991e-01
-7.567033916711807251e-02
-9.050624072551727295e-02
-6.098240986466407776e-02
-1.578810214996337891e-01
1.195910647511482239e-01
-1.052867062389850616e-02
1.316059529781341553e-01
-1.370913982391357422e-01
-6.539376825094223022e-02
-5.854659900069236755e-02
1.423021405935287476e-01
-1.448049768805503845e-02
1.607627719640731812e-01
-4.092455841600894928e-03
-5.783234909176826477e-02
1.471038460731506348e-01
1.657139882445335388e-02
8.057301491498947144e-02
-9.141881018877029419e-03
-1.384621113538742065e-01
-4.670807160437107086e-03
-8.818344771862030029e-02
-2.761949971318244934e-02
2.775447368621826172e-01
1.033096611499786377e-01
2.003980800509452820e-03
7.007366418838500977e-02
-2.645394578576087952e-02
-6.146685779094696045e-02
1.830595731735229492e-01
-7.747893780469894409e-02
-8.135411143302917480e-02
-2.717504650354385376e-02
-5.205836892127990723e-02
-1.059018373489379883e-01
1.343440711498260498e-01
8.869953453540802002e-02
1.334744542837142944e-01
8.354038000106811523e-02
-1.426379475742578506e-02
-2.646705880761146545e-02
5.961197242140769958e-02
1.579162180423736572e-01
-2.281353622674942017e-02
9.073322266340255737e-02
2.224550116807222366e-03
-2.245893701910972595e-03
8.848456293344497681e-02
1.127859055995941162e-01
-2.416704446077346802e-01
-6.739455461502075195e-02
7.571212202310562134e-02
-1.616337746381759644e-01
9.731230884790420532e-02
2.047640644013881683e-02
-1.798583865165710449e-01
-9.789070114493370056e-03
5.087438225746154785e-02
7.543502841144800186e-03
1.671379953622817993e-01
-1.018174923956394196e-03
-7.001616060733795166e-02
2.846198622137308121e-03
6.853085756301879883e-02
-6.536466628313064575e-02
-4.172008018940687180e-03
-1.164493262767791748e-01
-2.362494915723800659e-02
6.540596485137939453e-03
2.201524376869201660e-02
-7.512472569942474365e-02
-8.278878778219223022e-02
1.047496721148490906e-01
-3.120750933885574341e-02
-1.151662506163120270e-02
-1.859818547964096069e-01
-2.559708245098590851e-02
3.462786599993705750e-02
3.537512570619583130e-02
-3.480694815516471863e-02
3.708851709961891174e-02
1.144340857863426208e-01
7.891852408647537231e-02
1.095956638455390930e-01
-6.761707831174135208e-03
3.661633655428886414e-02
1.017284691333770752e-01
-4.213775321841239929e-02
5.034305155277252197e-02
1.428149174898862839e-03
5.228444933891296387e-03
-1.833852380514144897e-02
3.635922446846961975e-03
-1.347443461418151855e-01
3.957752604037523270e-03
-4.609011113643646240e-02
6.041035056114196777e-02
-3.076855838298797607e-02
3.295935690402984619e-03
-2.084581553936004639e-02
6.056068814359605312e-04
1.433959603309631348e-01
-2.674683555960655212e-02
8.526889979839324951e-02
1.275875419378280640e-01
-1.271280348300933838e-01
6.102513894438743591e-02
-7.062956690788269043e-03
4.647289961576461792e-02
-5.122625455260276794e-02
-8.673325181007385254e-02
3.586640581488609314e-02
2.319504320621490479e-01
-2.884623594582080841e-03
-1.197207421064376831e-01
1.072300896048545837e-01
-1.373273283243179321e-01
8.448368310928344727e-02
-5.947000533342361450e-02
-1.074193716049194336e-01
6.442836485803127289e-03
-2.012742310762405396e-01
-7.519446313381195068e-02
-1.783619523048400879e-01
-7.132463157176971436e-02
-1.480840891599655151e-01
7.143618166446685791e-02
2.140785567462444305e-03
5.853814631700515747e-02
-1.259143054485321045e-01
6.311450153589248657e-02
-7.914716005325317383e-02
4.942926019430160522e-02
1.221542619168758392e-02
-1.772025972604751587e-02
-1.132974624633789062e-01
-1.920160651206970215e-02
-1.971994936466217041e-01
9.044922888278961182e-02
8.703609555959701538e-02
6.485255062580108643e-02
-1.386253684759140015e-01
1.583413183689117432e-01
1.276955008506774902e-01
1.814198791980743408e-01
6.461567431688308716e-02
3.465846925973892212e-02
3.817091509699821472e-02
-2.009978704154491425e-02
1.837253868579864502e-01
2.068155072629451752e-02
1.749736517667770386e-01
8.756114542484283447e-02
9.221525862812995911e-03
5.573951825499534607e-02
9.975755959749221802e-02
-3.618297725915908813e-02
-1.343052983283996582e-01
-1.288410369306802750e-02
-4.749169945716857910e-02
-9.259428083896636963e-02
7.882639020681381226e-02
1.672463119029998779e-01
-1.652116179466247559e-01
2.002300135791301727e-02
1.824367232620716095e-02
-2.237016102299094200e-03
6.726801395416259766e-02
-6.448815762996673584e-02
-1.561738178133964539e-02
-4.449832439422607422e-02
1.602861881256103516e-01
-2.604732289910316467e-02
1.015022024512290955e-01
5.577206611633300781e-02
2.481452561914920807e-02
-2.878690883517265320e-02
4.450928792357444763e-02
-8.435947448015213013e-02
1.955793797969818115e-01
-3.525958210229873657e-02
-7.450157403945922852e-02
5.217004567384719849e-02
-1.387294754385948181e-02
-8.629535883665084839e-02
7.954578846693038940e-02
-8.128201216459274292e-02
1.005104854702949524e-01
-5.549583956599235535e-02
1.162952557206153870e-01
-1.347525417804718018e-01
-1.296324431896209717e-01
-1.277350336313247681e-01
4.608487710356712341e-02
8.437110483646392822e-02
-1.510176211595535278e-01
-6.138427183032035828e-02
4.260755330324172974e-02
2.893680939450860023e-03
-8.052236516959965229e-04
7.777439896017313004e-03
4.683724418282508850e-02
3.750909119844436646e-02
4.652619361877441406e-03
8.675518631935119629e-02
-5.945767462253570557e-02
-1.880070078186690807e-03
1.892180889844894409e-01
2.164689078927040100e-02
-1.448304951190948486e-01
-2.253382280468940735e-02
6.072552409023046494e-03
8.817482739686965942e-02
1.702238991856575012e-02
1.206312626600265503e-01
-8.886224776506423950e-02
-7.519593089818954468e-02
7.717092055827379227e-03
2.340405248105525970e-02
-4.536054655909538269e-02
-3.017663396894931793e-02
8.854442089796066284e-02
-3.874117136001586914e-02
-1.079897284507751465e-01
-3.199145430698990822e-05
5.109242722392082214e-02
-4.242382571101188660e-02
1.621770560741424561e-01
1.055087447166442871e-01
-9.737809747457504272e-02
-1.439805626869201660e-01
2.774215117096900940e-02
1.087907701730728149e-02
-3.992266580462455750e-02
8.619519323110580444e-02
1.349909454584121704e-01
9.298133850097656250e-02
1.736172847449779510e-02
4.667318239808082581e-02
-1.258704215288162231e-01
7.983121275901794434e-02
-9.492596238851547241e-02
-1.029031276702880859e-01
1.368530094623565674e-01
-1.742202937602996826e-01
-1.738553643226623535e-01
-4.655223339796066284e-03
4.734311625361442566e-02
-9.164816141128540039e-02
9.648924320936203003e-02
8.704519132152199745e-05
-2.517998591065406799e-02
-8.961883932352066040e-02
-1.591946035623550415e-01
1.130036339163780212e-01
-1.117230132222175598e-01
-6.986928731203079224e-02
9.758763015270233154e-02
-2.524232259020209312e-03
2.751149535179138184e-01
7.060124725103378296e-02
-3.415882959961891174e-02
1.452581882476806641e-01
-5.852694064378738403e-02
-1.875706017017364502e-02
-2.242525815963745117e-01
4.898207727819681168e-03
4.858338087797164917e-02
-6.623359024524688721e-02
7.250823080539703369e-02
4.743228107690811157e-02
1.677407771348953247e-01
-2.510180324316024780e-02
8.432094007730484009e-02
1.390296518802642822e-01
5.352233350276947021e-02
-2.025812678039073944e-02
-2.723098360002040863e-02
2.298010140657424927e-02
-1.317724585533142090e-02
-1.018280982971191406e-01
-5.881032347679138184e-02
-8.584261685609817505e-02
-1.084450557827949524e-01
-1.676828786730766296e-02
1.556585915386676788e-02
1.269154995679855347e-01
-1.928173452615737915e-01
-3.345290198922157288e-02
3.329387679696083069e-02
-2.382890693843364716e-02
4.850434511899948120e-02
4.011382535099983215e-02
1.315886974334716797e-01
-6.824212614446878433e-03
1.451241876929998398e-02
-6.107653677463531494e-02
-5.942685157060623169e-02
-1.461580395698547363e-01
-1.600178927183151245e-01
-2.149209529161453247e-01
1.403214931488037109e-01
3.902706131339073181e-02
-2.228437177836894989e-02
6.554486602544784546e-02
4.866035655140876770e-02
5.875378102064132690e-02
-6.797447800636291504e-02
7.764164358377456665e-02
8.111000061035156250e-02
-2.060383111238479614e-01
4.918013140559196472e-02
-8.841504901647567749e-02
1.488366276025772095e-01
1.280560195446014404e-01
-1.730128936469554901e-02
-2.132149040699005127e-01
-8.893063664436340332e-02
8.955203741788864136e-02
1.130261048674583435e-01
-4.266025125980377197e-02
-1.172006968408823013e-02
-1.531507521867752075e-01
2.076991833746433258e-02
-9.071876853704452515e-02
5.808982253074645996e-02
-1.666278392076492310e-01
-4.285569489002227783e-02
1.152009591460227966e-01
-9.581067413091659546e-02
-3.026335733011364937e-03
9.487111121416091919e-02
1.359396800398826599e-02
7.283058017492294312e-02
-1.640985757112503052e-01
-1.578161567449569702e-01
-8.719754405319690704e-03
-2.200383991003036499e-01
4.407975077629089355e-02
-2.858727797865867615e-02
4.251774027943611145e-02
-2.696966566145420074e-02
-1.822127550840377808e-01
1.686279922723770142e-01
-3.631375357508659363e-02
-1.685852706432342529e-01
-7.320447824895381927e-03
-3.380954032763838768e-03
-9.428391605615615845e-02
-7.990652322769165039e-02
-1.912170206196606159e-03
4.477208480238914490e-02
7.878531515598297119e-02
1.528969556093215942e-01
1.331154606305062771e-03
1.512087136507034302e-01
7.961087673902511597e-02
5.455794557929039001e-02
-1.350955963134765625e-01
-1.672536879777908325e-01
-7.053141295909881592e-02
-3.336877226829528809e-01
-3.384424746036529541e-02
-8.711737394332885742e-02
-2.537896931171417236e-01
-2.022963464260101318e-01
-1.434128880500793457e-01
-4.474798217415809631e-02
4.639669880270957947e-02
1.667831540107727051e-01
-1.073997374624013901e-02
2.735164389014244080e-02
-1.012265607714653015e-01
-5.048134550452232361e-02
2.642596699297428131e-02
-4.057572782039642334e-02
-8.877656608819961548e-02
1.257665902376174927e-01
-8.045419305562973022e-02
2.109657526016235352e-01
1.055957525968551636e-01
-5.208243802189826965e-02
-2.655887231230735779e-02
-1.221494525671005249e-01
-2.221558988094329834e-02
-1.654183715581893921e-01
3.774850070476531982e-02
8.615766465663909912e-02
-2.742501907050609589e-02
1.956797689199447632e-01
1.475733239203691483e-02
1.016291007399559021e-01
-7.699792832136154175e-02
2.131029032170772552e-02
9.455117583274841309e-02
9.446603059768676758e-02
-7.402413338422775269e-02
-7.492167502641677856e-02
-1.759984344244003296e-01
2.088492661714553833e-01
-1.517409235239028931e-01
7.671727240085601807e-02
-1.895160377025604248e-01
-9.342536330223083496e-02
-3.238632529973983765e-02
-6.624941527843475342e-02
-1.265653222799301147e-02
1.020327731966972351e-01
8.064141869544982910e-02
7.595279812812805176e-02
1.264745593070983887e-01
6.779847294092178345e-02
-5.966851487755775452e-02
-1.182309016585350037e-01
1.318178698420524597e-02
-8.862853795289993286e-02
6.535536795854568481e-02
-1.149390339851379395e-01
-1.265039592981338501e-01
-4.293086007237434387e-02
-1.886477507650852203e-02
1.637121848762035370e-02
-1.356691271066665649e-01
-1.870874613523483276e-01
1.310765594244003296e-01
8.681400120258331299e-02
-1.714548617601394653e-01
-1.512547880411148071e-01
7.031528744846582413e-03
-9.441654197871685028e-03
-4.038375988602638245e-02
-1.928582042455673218e-01
3.059238940477371216e-02
1.224150061607360840e-01
1.629806905984878540e-01
8.794537931680679321e-02
3.680455684661865234e-02
-1.011355295777320862e-01
-1.006828472018241882e-01
-1.743115931749343872e-01
5.846554785966873169e-02
1.795781999826431274e-01
-1.761950999498367310e-01
1.234007254242897034e-02
4.193453118205070496e-02
-9.407394379377365112e-02
-5.072046816349029541e-02
-1.624196171760559082e-01
1.483103483915328979e-01
1.336182467639446259e-02
2.373849600553512573e-02
-6.827355921268463135e-02
7.850567251443862915e-02
-6.991773843765258789e-02
-1.136606410145759583e-01
1.270269230008125305e-02
4.473576694726943970e-02
8.625894784927368164e-02
1.143536567687988281e-01
6.395524740219116211e-02
2.578352391719818115e-02
1.137864813208580017e-01
3.471859917044639587e-02
4.816382378339767456e-02
2.269832603633403778e-02
6.496337056159973145e-02
1.166366189718246460e-01
-2.128998003900051117e-02
-6.641717255115509033e-02
1.660667806863784790e-01
1.508582234382629395e-01
3.512503951787948608e-02
-1.788482442498207092e-02
-7.830567657947540283e-02
9.216178208589553833e-03
-1.858853995800018311e-01
-3.031942062079906464e-02
8.626008778810501099e-02
1.679160147905349731e-01
-7.586564868688583374e-02
-1.046477332711219788e-01
-2.541437558829784393e-02
-6.672843545675277710e-02
1.107212081551551819e-01
1.452355831861495972e-01
2.742613554000854492e-01
1.165548115968704224e-01
1.118056625127792358e-01
4.515359923243522644e-02
-5.077692866325378418e-02
6.922115385532379150e-02
1.846998333930969238e-01
9.969394654035568237e-02
1.716199517250061035e-01
-1.858565211296081543e-01
9.647578001022338867e-02
-9.003029763698577881e-02
-2.348262444138526917e-02
1.160168051719665527e-01
-1.834395527839660645e-01
-2.098630182445049286e-02
9.333519637584686279e-02
-2.009737864136695862e-02
-2.136432677507400513e-01
-8.877857774496078491e-02
1.466785967350006104e-01
-3.840570896863937378e-02
6.273097358644008636e-03
4.866305738687515259e-03
-8.070090413093566895e-02
-1.742843836545944214e-01
-8.854940533638000488e-02
4.196953400969505310e-02
-3.133694455027580261e-02
-9.279710054397583008e-02
-2.942893803119659424e-01
9.873816370964050293e-02
5.398152023553848267e-02
1.192842274904251099e-01
-8.191260695457458496e-02
1.501346379518508911e-01
1.465644920244812965e-03
1.068707108497619629e-01
2.702740430831909180e-01
-7.211104780435562134e-02
5.576327815651893616e-02
3.901385143399238586e-02
-5.146363377571105957e-02
4.688356071710586548e-02
9.498980641365051270e-02
7.045672275125980377e-03
-1.096252128481864929e-01
1.988128013908863068e-02
2.965725958347320557e-02
1.191399469971656799e-01
1.116966307163238525e-01
2.312127314507961273e-02
3.371362760663032532e-02
1.391574442386627197e-01
-1.235545352101325989e-01
-4.139468073844909668e-02
2.998807933181524277e-03
6.382566690444946289e-02
2.540303580462932587e-02
1.826987862586975098e-01
1.522050946950912476e-01
-2.787609584629535675e-02
7.562747597694396973e-02
5.855336412787437439e-02
-6.703162193298339844e-02
1.311420798301696777e-01
3.002882748842239380e-02
1.960640549659729004e-01
-6.889025866985321045e-02
-3.941314816474914551e-01
5.250551179051399231e-02
-5.525285378098487854e-02
1.698803901672363281e-02
-5.203347653150558472e-02
4.482461139559745789e-02
5.442631617188453674e-02
-1.520734280347824097e-01
3.789599239826202393e-02
9.662157297134399414e-02
1.379410177469253540e-02
7.429177314043045044e-02
-6.742516160011291504e-02
1.740104407072067261e-01
-1.107194498181343079e-01
2.434885501861572266e-01
-6.556635349988937378e-02
7.544344663619995117e-02
-4.422745108604431152e-02
-8.816703222692012787e-03
5.485788360238075256e-02
4.924646764993667603e-02
-1.421301662921905518e-01
2.031640335917472839e-02
-2.046928852796554565e-01
-7.913657277822494507e-02
-7.869573310017585754e-03
-1.420404165983200073e-01
9.003140032291412354e-02
-1.971182227134704590e-02
2.002095989882946014e-02
1.403657644987106323e-01
-1.383416801691055298e-01
8.359560370445251465e-02
-2.518839016556739807e-02
-2.268515825271606445e-01
-2.057019248604774475e-02
-5.090689286589622498e-02
1.554026603698730469e-01
2.660992741584777832e-02
-1.858497038483619690e-02
1.839493364095687866e-01
1.213284581899642944e-02
-1.006968319416046143e-01
5.684196203947067261e-02
-4.489370808005332947e-02
1.524408310651779175e-01
-5.322682857513427734e-02
1.861845850944519043e-01
5.839133262634277344e-02
-5.065813660621643066e-02
-2.475285530090332031e-01
-8.398104459047317505e-02
-2.384300902485847473e-02
-1.923831552267074585e-01
-7.480056583881378174e-02
4.586210474371910095e-02
-4.521622322499752045e-03
2.190158888697624207e-02
1.132313832640647888e-01
4.078216105699539185e-02
1.666732132434844971e-01
-1.067192181944847107e-01
2.100570350885391235e-01
-2.131392508745193481e-01
2.845654077827930450e-02
9.738551825284957886e-02
-7.626410573720932007e-03
-1.178776994347572327e-01
1.015823148190975189e-02
-1.061277762055397034e-01
-2.988796830177307129e-01
1.815161406993865967e-01
-7.894448190927505493e-02
-4.103639349341392517e-02
1.520119905471801758e-01
2.365700006484985352e-01
8.397235721349716187e-02
1.294951885938644409e-01
-1.923012733459472656e-02
-8.710271865129470825e-02
-4.484533891081809998e-02
2.141853608191013336e-02
-8.356772363185882568e-02
-2.374454401433467865e-02
1.997703015804290771e-01
-3.045355156064033508e-02
-1.599206626415252686e-01
-2.243133187294006348e-01
-4.514689743518829346e-02
4.102766141295433044e-02
-7.312227040529251099e-02
1.143637001514434814e-01
-1.066072434186935425e-01
-4.703671205788850784e-03
5.498719960451126099e-02
-1.753971129655838013e-01
5.864141136407852173e-02
1.346262078732252121e-02
-2.717034704983234406e-02
1.535025835037231445e-01
-1.048229169100522995e-02
-1.256621815264225006e-02
-1.192873995751142502e-02
6.774292886257171631e-02
-1.053706705570220947e-01
-2.364424020051956177e-01
7.509831339120864868e-02
-1.350796036422252655e-02
7.579904049634933472e-02
8.550151251256465912e-03
-6.277918815612792969e-02
-1.706887409090995789e-02
-1.318807899951934814e-01
5.790106020867824554e-03
-2.301974780857563019e-02
-1.444234848022460938e-01
-1.035386845469474792e-01
7.459440827369689941e-02
1.784833818674087524e-01
1.101208701729774475e-01
-3.399452194571495056e-02
-2.969885766506195068e-01
-1.226613745093345642e-01
1.770926564931869507e-01
-1.121987476944923401e-01
4.766371473670005798e-02
-2.623039484024047852e-02
-1.169292554259300232e-01
-1.651261150836944580e-01
-1.208721473813056946e-01
-7.807421684265136719e-02
-3.736644983291625977e-02
-2.053983360528945923e-01
1.444266587495803833e-01
-2.752089798450469971e-01
6.733153015375137329e-02
-6.655142456293106079e-02
-8.333741873502731323e-02
4.284475743770599365e-02
4.247261211276054382e-02
-2.069738134741783142e-02
8.256773650646209717e-02
2.198303490877151489e-02
-1.743102669715881348e-01
-3.874906338751316071e-03
1.332996189594268799e-01
-5.270053073763847351e-02
7.764770835638046265e-02
7.390721142292022705e-02
8.756573498249053955e-02
-6.524512916803359985e-02
1.027459147735498846e-04
-5.342993885278701782e-02
-1.268333494663238525e-01
1.864111423492431641e-01
-5.198609828948974609e-02
4.670358076691627502e-02
-7.532649673521518707e-03
7.519296556711196899e-02
9.825782617554068565e-04
-7.835967093706130981e-02
-6.202419102191925049e-02
1.174549087882041931e-01
-1.238939166069030762e-01
7.799658924341201782e-02
-6.310257129371166229e-03
1.639776676893234253e-01
5.518173333257436752e-03
-5.399476736783981323e-03
1.686725616455078125e-01
-1.558487117290496826e-01
-2.981176134198904037e-03
-1.145983263850212097e-01
9.929610043764114380e-02
-1.363172680139541626e-01
5.816196091473102570e-03
-1.004288122057914734e-01
8.602906018495559692e-02
4.833254218101501465e-02
7.201629877090454102e-02
2.598187886178493500e-02
-5.316537618637084961e-02
4.334891587495803833e-02
4.713965207338333130e-02
-8.155035972595214844e-02
1.296736896038055420e-01
-7.076088339090347290e-02
-1.105309501290321350e-01
1.484258770942687988e-01
7.868468761444091797e-02
2.192270457744598389e-01
-8.415605872869491577e-02
-1.690189540386199951e-01
6.628454476594924927e-02
1.779660582542419434e-02
9.696022421121597290e-02
-1.106883808970451355e-01
1.209704112261533737e-02
-2.074971050024032593e-01
-1.837087720632553101e-01
1.348530873656272888e-02
1.249571330845355988e-02
-1.518082525581121445e-02
1.609042286872863770e-01
1.602954231202602386e-02
7.766664773225784302e-02
1.544242259114980698e-02
2.102278470993041992e-01
6.658557802438735962e-03
2.894586324691772461e-02
-5.910416692495346069e-02
3.963709250092506409e-02
-3.524532541632652283e-02
4.078249260783195496e-02
-8.556085824966430664e-02
-8.730436116456985474e-02
3.392971586436033249e-03
-1.468191891908645630e-01
1.608627438545227051e-01
-3.443443775177001953e-02
-1.964471340179443359e-01
-7.757769525051116943e-02
2.061381936073303223e-01
-2.409005723893642426e-02
5.571709200739860535e-02
3.187384456396102905e-02
-5.720572173595428467e-02
3.561299061402678490e-03
2.939136140048503876e-02
1.253090947866439819e-01
7.625357061624526978e-02
-1.004932895302772522e-01
1.759095676243305206e-02
3.192473435774445534e-03
2.485651522874832153e-02
-1.279443651437759399e-01
5.332174524664878845e-02
-8.781676739454269409e-02
-2.319621667265892029e-02
-1.029677093029022217e-01
-1.117216423153877258e-01
1.788297109305858612e-02
1.075942292809486389e-01
-6.080075399950146675e-04
-4.297868907451629639e-02
3.886208310723304749e-02
1.208399236202239990e-01
3.822362422943115234e-02
-3.822122141718864441e-02
-1.102968901395797729e-01
2.620294503867626190e-02
7.980525493621826172e-03
3.784630820155143738e-02
1.220043003559112549e-01
-5.015641450881958008e-02
7.286255061626434326e-02
1.558835525065660477e-02
1.127508878707885742e-01
7.501123100519180298e-02
-2.266879007220268250e-02
8.340651541948318481e-02
1.079926118254661560e-01
-6.033224985003471375e-02
1.165328398346900940e-01
-4.833514988422393799e-02
3.550107404589653015e-02
-1.258818507194519043e-01
3.453449532389640808e-02
2.207614295184612274e-02
-2.044103853404521942e-02
-2.553048171103000641e-02
-9.746225550770759583e-03
-1.586526483297348022e-01
1.867868565022945404e-02
-3.739896416664123535e-02
1.333873420953750610e-01
7.338486146181821823e-03
5.026387795805931091e-02
3.691609576344490051e-02
-1.780171245336532593e-01
-1.095785852521657944e-02
-1.553255170583724976e-01
-6.604129076004028320e-02
-8.200921863317489624e-02
2.062619924545288086e-01
-7.183967623859643936e-03
1.627518422901630402e-02
2.856218256056308746e-02
4.726027324795722961e-02
-1.027384772896766663e-01
-1.032020822167396545e-01
-1.338618099689483643e-01
3.822277858853340149e-02
2.460426539182662964e-01
1.490321457386016846e-01
-8.536250889301300049e-02
-1.872165948152542114e-01
1.180239301174879074e-02
-1.050826087594032288e-01
2.546279691159725189e-02
1.614427193999290466e-02
1.151844114065170288e-01
-2.325955219566822052e-02
1.373866349458694458e-01
-1.634749472141265869e-01
1.414118111133575439e-01
-1.910373717546463013e-01
-9.169754385948181152e-02
-2.616321109235286713e-02
1.033481135964393616e-01
-1.489772833883762360e-02
3.713910654187202454e-02
1.086098998785018921e-01
2.949048280715942383e-01
7.739949971437454224e-02
-5.314444750547409058e-02
-5.578830093145370483e-02
-1.315886825323104858e-01
8.241152763366699219e-02
4.655529558658599854e-02
2.032901793718338013e-01
-2.447852492332458496e-01
-1.267345547676086426e-01
-7.441619038581848145e-02
1.858628690242767334e-01
-1.400979459285736084e-01
8.244059979915618896e-02
-1.295333206653594971e-01
-1.433044821023941040e-01
3.128925710916519165e-02
-6.916599720716476440e-02
-1.156066358089447021e-01
2.045166790485382080e-01
1.022327616810798645e-01
-1.008406840264797211e-02
1.691677719354629517e-01
-5.513734742999076843e-02
-3.338561579585075378e-02
-1.257664859294891357e-01
-1.921652853488922119e-01
-1.039394661784172058e-01
8.047991991043090820e-02
-9.276197850704193115e-02
-6.860940903425216675e-02
1.146695911884307861e-01
2.222015336155891418e-02
-2.058634310960769653e-01
-8.105514198541641235e-02
8.621864765882492065e-02
-2.151292413473129272e-01
-6.934054195880889893e-02
-1.707756668329238892e-01
1.368043720722198486e-01
-2.404255419969558716e-02
1.881645768880844116e-01
9.930095821619033813e-02
-5.602140352129936218e-02
-2.104155719280242920e-01
1.381743401288986206e-01
2.688128054141998291e-01
-5.869706347584724426e-02
1.319976300001144409e-01
-2.838760428130626678e-02
-3.101081401109695435e-02
-2.090958654880523682e-01
-5.185692384839057922e-02
8.091853559017181396e-02
6.450893357396125793e-03
-1.886943280696868896e-01
1.817779988050460815e-01
-3.663656860589981079e-02
8.546662330627441406e-02
6.913180649280548096e-02
-1.058825775980949402e-01
-1.223776768893003464e-02
5.433203279972076416e-02
-2.902405858039855957e-01
2.963051944971084595e-02
-5.767156369984149933e-03
6.398110091686248779e-02
-1.714753359556198120e-01
-6.171557679772377014e-02
-1.027019470930099487e-01
5.317944288253784180e-02
9.307690709829330444e-02
1.340358145534992218e-02
1.446141600608825684e-01
-2.107674442231655121e-02
-8.277717232704162598e-02
6.458836048841476440e-02
-1.350349783897399902e-01
3.756805509328842163e-02
-1.734710931777954102e-01
-7.622692734003067017e-03
4.205689579248428345e-02
-1.524083763360977173e-01
2.215117914602160454e-03
2.048669010400772095e-01
-2.543942444026470184e-02
-1.206476315855979919e-01
7.040128856897354126e-02
-1.717673800885677338e-02
-1.296528382226824760e-03
-4.830532521009445190e-02
-9.502580016851425171e-02
-1.881275624036788940e-01
-1.051311269402503967e-01
-1.396043151617050171e-01
-2.396851927042007446e-01
-3.072830103337764740e-02
-1.349393278360366821e-01
5.339170247316360474e-02
-1.127130985260009766e-01
9.320095926523208618e-02
-7.867854833602905273e-02
2.188203781843185425e-01
-7.366214692592620850e-02
2.305507659912109375e-02
1.121961697936058044e-01
-2.148977667093276978e-02
-8.912457525730133057e-02
1.259809732437133789e-01
-3.134107962250709534e-02
2.596457600593566895e-01
7.165252417325973511e-02
-9.132127463817596436e-02
7.656470686197280884e-02
1.280928254127502441e-01
2.558299303054809570e-01
1.799579709768295288e-01
5.070992745459079742e-03
-3.089827112853527069e-02
-6.887092441320419312e-02
-6.884081661701202393e-02
-9.288926608860492706e-03
3.694708272814750671e-02
4.867610707879066467e-02
-8.495584130287170410e-02
3.707329556345939636e-02
3.974799811840057373e-02
1.750008463859558105e-01
-6.085065659135580063e-03
-1.846977323293685913e-01
-7.043830305337905884e-02
-1.013481840491294861e-01
-1.267257183790206909e-01
1.968046873807907104e-01
1.544039100408554077e-01
-1.431267410516738892e-01
2.981624305248260498e-01
1.149605363607406616e-01
-4.516297951340675354e-02
-1.615740172564983368e-02
7.516121119260787964e-02
4.552549868822097778e-02
-1.846422106027603149e-01
7.145465910434722900e-02
-1.271070092916488647e-01
1.575054526329040527e-01
-1.098971068859100342e-01
-8.416246622800827026e-03
-7.566619664430618286e-02
-3.188257664442062378e-02
4.108249023556709290e-02
3.775310814380645752e-01
9.326652437448501587e-02
-6.498184055089950562e-02
9.795288741588592529e-02
-6.689647678285837173e-03
-1.209360733628273010e-01
-6.930588930845260620e-02
-8.114312589168548584e-02
1.452722102403640747e-01
7.211302220821380615e-02
1.536574214696884155e-01
1.744083594530820847e-03
-7.740408647805452347e-03
-1.792270392179489136e-01
9.490028023719787598e-02
1.108650565147399902e-01
-1.965940743684768677e-01
5.209153518080711365e-02
-9.500241279602050781e-02
-1.268903911113739014e-01
-1.596790179610252380e-02
2.720435522496700287e-02
3.132510930299758911e-02
4.440728109329938889e-03
9.898504614830017090e-02
8.887198567390441895e-02
-9.977214038372039795e-02
-1.493128091096878052e-01
3.122712858021259308e-02
1.905347853899002075e-01
-1.785462200641632080e-01
-4.657215625047683716e-02
3.693366423249244690e-02
1.233600527048110962e-01
-1.071442216634750366e-01
-4.494536668062210083e-02
-1.011638566851615906e-01
-4.752824455499649048e-02
5.655916035175323486e-02
1.983390897512435913e-01
2.183141745626926422e-02
2.458729967474937439e-02
-1.709283329546451569e-02
-7.764115929603576660e-02
-9.342902153730392456e-02
-1.034352108836174011e-01
6.172211468219757080e-02
-3.819581866264343262e-02
3.801632439717650414e-03
5.326518416404724121e-02
3.820448182523250580e-03
1.037471070885658264e-01
1.398312766104936600e-02
-9.879476577043533325e-02
-4.738238081336021423e-02
1.002733595669269562e-02
-1.703814268112182617e-01
1.233219634741544724e-02
-9.574624150991439819e-02
1.171853765845298767e-01
1.155810430645942688e-01
1.477835420519113541e-02
5.295290797948837280e-02
-4.128159023821353912e-03
9.199652820825576782e-02
2.090596780180931091e-02
1.957106441259384155e-01
4.040208458900451660e-02
2.030165307223796844e-02
-1.070517003536224365e-01
-5.154981464147567749e-02
-2.518179267644882202e-02
-4.305010288953781128e-02
-5.676575750112533569e-02
-9.849642217159271240e-02
-1.317936778068542480e-01
-1.629368066787719727e-01
-2.131690457463264465e-02
-1.677152365446090698e-01
6.372599303722381592e-02
-6.114318966865539551e-02
-8.111256361007690430e-02
4.165480658411979675e-02
9.880238026380538940e-02
-2.272005230188369751e-01
-3.554114326834678650e-02
4.673342406749725342e-02
-5.702565610408782959e-02
-3.414992615580558777e-02
-5.607189610600471497e-02
-1.050696447491645813e-01
-1.624679267406463623e-01
1.544983685016632080e-01
8.882208727300167084e-03
1.189663410186767578e-01
1.766021549701690674e-01
-9.531684219837188721e-02
-8.343116939067840576e-02
-6.802500039339065552e-02
-3.473281860351562500e-02
-6.008931621909141541e-02
5.023533478379249573e-02
1.278016250580549240e-02
1.113784238696098328e-01
1.607076525688171387e-01
-9.791690111160278320e-02
4.606497287750244141e-02
4.825046285986900330e-02
3.566922619938850403e-02
1.017175498418509960e-03
1.748443543910980225e-01
1.127353683114051819e-01
1.664074361324310303e-01
2.212551385164260864e-01
-3.963788226246833801e-02
5.142365582287311554e-03
2.668582201004028320e-01
1.619543880224227905e-02
4.432474821805953979e-02
3.298145160079002380e-02
-6.567305326461791992e-02
1.114250421524047852e-01
-1.093735825270414352e-02
4.244598373770713806e-02
1.955873705446720123e-02
-2.261973917484283447e-03
1.451157927513122559e-01
7.852423936128616333e-02
3.723935037851333618e-02
1.201364248991012573e-01
4.576055333018302917e-02
1.211447566747665405e-01
1.643453165888786316e-02
7.615301012992858887e-02
4.551308974623680115e-02
-1.148419380187988281e-01
2.805153466761112213e-02
1.057352349162101746e-01
7.783089298754930496e-03
8.994936943054199219e-02
8.195481263101100922e-03
-5.054456181824207306e-03
-1.593975573778152466e-01
9.907255321741104126e-02
-3.603211045265197754e-02
3.708695992827415466e-02
8.609384298324584961e-02
9.059499204158782959e-02
8.393088728189468384e-02
-1.686962991952896118e-01
2.093206048011779785e-01
-1.032281816005706787e-01
1.060458123683929443e-01
5.738766491413116455e-02
7.593762129545211792e-02
-2.684731408953666687e-02
-3.587464615702629089e-02
-1.053059622645378113e-01
-5.310557037591934204e-02
-2.134970426559448242e-01
-2.594334185123443604e-01
-3.441896662116050720e-02
-9.804548323154449463e-02
4.988219961524009705e-02
5.515943840146064758e-02
-4.285500850528478622e-03
1.540096700191497803e-01
1.862897165119647980e-02
1.544263064861297607e-01
-9.227785468101501465e-02
-9.618768841028213501e-02
1.121489629149436951e-01
1.865401417016983032e-01
8.896948769688606262e-03
2.791804075241088867e-01
-4.891098663210868835e-02
2.452705055475234985e-01
1.164560392498970032e-01
-1.883058547973632812e-01
-2.433839067816734314e-02
-6.583018600940704346e-02
-8.641927689313888550e-02
-1.180190891027450562e-01
1.210467368364334106e-01
2.651852965354919434e-01
-2.388460375368595123e-02
-1.037304103374481201e-01
-3.071007318794727325e-02
-6.477399915456771851e-02
1.276258081197738647e-01
7.597157359123229980e-02
3.696440905332565308e-02
-2.016387283802032471e-01
-1.168727874755859375e-01
-3.389380872249603271e-02
1.904076337814331055e-01
3.911702707409858704e-02
-1.314869616180658340e-02
1.536983549594879150e-01
-7.806711643934249878e-02
1.059010252356529236e-01
1.916247010231018066e-01
-8.828221261501312256e-02
-1.379979997873306274e-01
-1.019189730286598206e-01
4.686987027525901794e-02
-3.710364997386932373e-01
-1.400164049118757248e-02
2.638119161128997803e-01
8.167888224124908447e-02
2.803163230419158936e-02
3.412184864282608032e-02
-8.175051212310791016e-02
-1.359943747520446777e-01
9.608840197324752808e-02
-1.437375247478485107e-01
5.516306683421134949e-02
-7.302416488528251648e-03
-2.032712996006011963e-01
-1.727488338947296143e-01
2.733233571052551270e-01
-2.155199050903320312e-01
-1.921873837709426880e-01
-3.742969930171966553e-01
-1.423126310110092163e-01
1.010853573679924011e-01
-1.719849407672882080e-01
-5.991968140006065369e-02
-1.070920228958129883e-01
1.351463645696640015e-01
-5.860065668821334839e-02
2.748749591410160065e-02
-2.613102495670318604e-01
-1.980964839458465576e-02
-4.116486012935638428e-01
-1.243053451180458069e-01
-1.224297657608985901e-01
-3.656374290585517883e-02
-1.596093177795410156e-01
-3.442165255546569824e-02
-5.751698836684226990e-02
-1.877929419279098511e-01
-8.447729982435703278e-03
-2.805481553077697754e-01
-4.122936353087425232e-02
6.321525573730468750e-02
-6.898432970046997070e-02
-3.126459419727325439e-01
-2.208337485790252686e-01
2.722003497183322906e-02
-2.306711487472057343e-02
-5.248504132032394409e-02
-1.946786195039749146e-01
-6.507614254951477051e-02
4.019407182931900024e-02
1.356862336397171021e-01
-7.046537101268768311e-02
-1.749953329563140869e-01
-1.365374028682708740e-01
1.282185465097427368e-01
3.816889133304357529e-03
3.218690454959869385e-01
8.768536150455474854e-02
-2.160981744527816772e-01
-1.742367297410964966e-01
6.374394893646240234e-02
-6.744728237390518188e-02
5.575106665492057800e-02
-2.279192507266998291e-01
8.921713382005691528e-02
-5.917131528258323669e-02
1.738618463277816772e-01
-1.988771557807922363e-01
-1.798383146524429321e-02
-6.052781268954277039e-02
-5.143687129020690918e-02
-2.563521452248096466e-02
2.537145651876926422e-02
1.023236736655235291e-01
-6.528769433498382568e-02
-1.529329568147659302e-01
1.196178570389747620e-01
-1.374827474355697632e-01
-5.812132731080055237e-03
-5.528269708156585693e-02
-1.499421596527099609e-01
1.641949862241744995e-01
2.038299851119518280e-02
2.099981158971786499e-01
-1.582335531711578369e-01
-2.758056484162807465e-02
1.394587010145187378e-01
-3.747250512242317200e-02
-1.862538307905197144e-01
4.489438235759735107e-02
-5.731679499149322510e-02
-7.283511012792587280e-02
-8.743512444198131561e-03
-1.251328885555267334e-01
1.827123016119003296e-02
6.415992230176925659e-02
-1.831080298870801926e-03
1.491457372903823853e-01
-1.111640315502882004e-02
2.782647963613271713e-03
1.802837699651718140e-01
2.748892903327941895e-01
-7.377084344625473022e-02
-3.384615480899810791e-02
4.927884042263031006e-02
1.712981909513473511e-01
-1.395167261362075806e-01
-7.146621495485305786e-02
-8.807765692472457886e-02
2.315314114093780518e-02
-7.971388287842273712e-03
1.604898720979690552e-01
-1.276260055601596832e-02
1.632847934961318970e-01
-1.553385108709335327e-01
1.900495961308479309e-02
8.303118497133255005e-02
1.068803668022155762e-01
-1.349427253007888794e-01
-1.515730917453765869e-01
-4.826475307345390320e-02
2.615218982100486755e-02
-9.943445771932601929e-02
1.401542127132415771e-01
2.528996393084526062e-02
-1.284428685903549194e-01
-1.579024046659469604e-01
-2.382940202951431274e-01
-1.497864723205566406e-01
-5.968531593680381775e-02
-2.159998267889022827e-01
-1.238567158579826355e-01
1.534999012947082520e-01
2.146828360855579376e-02
8.660640567541122437e-02
1.135936286300420761e-02
-4.367124661803245544e-02
-1.580691486597061157e-01
-2.608141303062438965e-01
1.651882529258728027e-01
-1.127291992306709290e-01
-1.653852760791778564e-01
-1.182703301310539246e-01
-1.601142287254333496e-01
7.585602998733520508e-02
1.399097740650177002e-01
1.466702669858932495e-01
-3.147929310798645020e-01
1.424952298402786255e-01
-3.781250119209289551e-02
-1.512339264154434204e-01
7.559604197740554810e-02
4.758641123771667480e-02
-3.356036543846130371e-02
-3.880318626761436462e-02
2.983912080526351929e-02
-7.049173861742019653e-02
7.540158182382583618e-02
-1.249983385205268860e-01
1.928600519895553589e-01
9.220915287733078003e-02
-2.871531806886196136e-02
8.827736973762512207e-02
-2.296238392591476440e-02
6.379336863756179810e-02
-1.526557058095932007e-01
1.812824755907058716e-01
-1.518640965223312378e-01
4.312062636017799377e-03
-2.465438842773437500e-01
-1.529934406280517578e-01
1.916257590055465698e-01
-1.487716916017234325e-03
-1.279707401990890503e-01
-6.589663028717041016e-02
-1.318818423897027969e-02
1.558109521865844727e-01
-1.369534581899642944e-01
4.887239262461662292e-02
-2.858255989849567413e-02
1.780734769999980927e-02
-2.190208621323108673e-02
1.304864436388015747e-01
-1.517379730939865112e-01
9.767267107963562012e-02
5.104818195104598999e-02
1.106103584170341492e-01
-4.032532125711441040e-02
-4.567863885313272476e-03
-2.308685928583145142e-01
-1.574200810864567757e-03
-1.645621657371520996e-01
1.124444380402565002e-01
1.063217520713806152e-01
-1.524689793586730957e-01
-8.150483667850494385e-02
-9.037206321954727173e-02
-1.480077207088470459e-02
-2.141356766223907471e-01
7.572957128286361694e-02
1.557990461587905884e-01
-1.707016825675964355e-01
8.242261409759521484e-02
-4.367700219154357910e-02
-9.751611948013305664e-02
-1.071200445294380188e-01
7.043054699897766113e-02
-1.037202924489974976e-01
-1.872933804988861084e-01
-7.989625632762908936e-02
7.999520003795623779e-02
-2.591567859053611755e-02
3.098876401782035828e-02
-1.075765639543533325e-01
8.135566860437393188e-02
1.218736022710800171e-01
1.917662620544433594e-01
-1.044987142086029053e-02
2.467207051813602448e-02
-1.861656010150909424e-01
-2.977705001831054688e-02
1.106944456696510315e-01
1.519784033298492432e-01
-1.464908123016357422e-01
-4.818017408251762390e-02
1.289693117141723633e-01
-2.315647006034851074e-01
-9.293682873249053955e-02
-1.126346066594123840e-01
-6.510412693023681641e-02
2.737397551536560059e-01
1.644648760557174683e-01
-4.651689901947975159e-02
4.546802863478660583e-02
-4.506309702992439270e-02
2.052477151155471802e-01
2.821729481220245361e-01
-2.464693970978260040e-02
-2.077813595533370972e-01
-8.550157397985458374e-02
9.402912855148315430e-02
1.562206298112869263e-01
2.472862973809242249e-02
-6.613141298294067383e-02
-3.539093956351280212e-02
-4.190297424793243408e-02
4.185914993286132812e-03
7.662575691938400269e-02
-1.194800809025764465e-02
-1.326502710580825806e-01
-2.151585929095745087e-02
1.600274816155433655e-02
1.894884705543518066e-01
4.371070116758346558e-02
-1.803261972963809967e-02
-2.043344974517822266e-01
-1.791495978832244873e-01
-1.835698485374450684e-01
1.338521111756563187e-02
-1.001355573534965515e-01
-1.011554896831512451e-01
1.459540612995624542e-02
4.805131629109382629e-02
7.975385338068008423e-02
-5.148820951581001282e-02
1.320235729217529297e-01
9.529224038124084473e-02
7.746390253305435181e-02
-3.205978125333786011e-02
1.494235992431640625e-01
-5.856256932020187378e-03
2.581097781658172607e-01
1.160922348499298096e-01
-2.223813235759735107e-01
-1.082956641912460327e-01
-2.397168427705764771e-03
1.988953948020935059e-01
-3.670911118388175964e-02
1.350197941064834595e-01
1.057083979249000549e-01
1.591707617044448853e-01
2.548289299011230469e-01
6.897584348917007446e-02
-2.606524853035807610e-03
-9.927327185869216919e-02
-9.453237056732177734e-02
7.378258556127548218e-02
6.185016781091690063e-02
4.640188068151473999e-02
-1.164743676781654358e-01
1.544953975826501846e-02
8.294289559125900269e-02
2.299792468547821045e-01
-8.332100510597229004e-02
6.672330666333436966e-03
1.866316646337509155e-01
-1.776180416345596313e-01
-8.409012854099273682e-02
-5.594178289175033569e-02
-1.609187573194503784e-01
-1.407862007617950439e-01
-1.645584404468536377e-01
1.484386920928955078e-01
-6.230620294809341431e-02
6.922966986894607544e-02
1.751176714897155762e-01
-1.162495762109756470e-01
5.262150429189205170e-03
-1.741278469562530518e-01
2.852066047489643097e-02
-1.101455371826887131e-02
9.328028559684753418e-02
-4.606657195836305618e-03
-4.091661423444747925e-02
1.021183207631111145e-01
-9.424368292093276978e-02
-1.602266542613506317e-02
1.500398814678192139e-01
3.439142927527427673e-02
4.776914790272712708e-02
-2.333730086684226990e-02
4.152370989322662354e-02
-5.452792719006538391e-02
-1.054336950182914734e-01
-2.828386984765529633e-02
4.246422648429870605e-02
5.255943164229393005e-02
-1.100464612245559692e-01
-2.651012837886810303e-01
-8.252728730440139771e-02
-7.675430923700332642e-02
-6.320219952613115311e-03
1.070721969008445740e-01
-5.280059576034545898e-02
-3.528518369421362877e-03
5.210847035050392151e-02
5.986403301358222961e-02
4.075531661510467529e-02
-1.200035363435745239e-01
3.704147413372993469e-02
-2.219544351100921631e-02
-2.670082263648509979e-02
-1.330040246248245239e-01
1.569235473871231079e-01
5.925307050347328186e-03
1.008344292640686035e-01
-1.537370681762695312e-01
8.427833765745162964e-02
-8.789055794477462769e-02
3.969229757785797119e-02
1.612915694713592529e-01
-2.784398756921291351e-02
-7.373663038015365601e-02
-1.283874809741973877e-01
-2.593513391911983490e-02
4.662122577428817749e-02
-4.625050351023674011e-02
-1.190715506672859192e-01
-6.949750334024429321e-02
-3.579672053456306458e-02
2.306064963340759277e-02
1.413975507020950317e-01
5.693266913294792175e-02
-3.131325915455818176e-02
1.016353294253349304e-01
1.638980023562908173e-02
-6.294251978397369385e-02
8.623643219470977783e-02
-1.077130786143243313e-03
6.118310615420341492e-02
1.779658198356628418e-01
-7.700708508491516113e-02
-2.465311903506517410e-03
4.570877552032470703e-02
-1.271904539316892624e-02
-1.727632284164428711e-01
-2.692106924951076508e-02
6.456147134304046631e-02
6.447053700685501099e-02
-7.753758132457733154e-02
-7.571191340684890747e-02
-1.121415421366691589e-01
4.362427443265914917e-02
2.345946058630943298e-02
-2.170866169035434723e-02
7.952716946601867676e-02
4.187664389610290527e-02
-6.020755507051944733e-03
6.083026155829429626e-02
7.044684141874313354e-02
-5.702298879623413086e-02
-1.792516745626926422e-02
-7.236717641353607178e-02
1.273234784603118896e-01
-7.785729318857192993e-02
-2.629303038120269775e-01
-2.200596965849399567e-02
5.012259259819984436e-02
8.853197097778320312e-03
-2.971248514950275421e-02
1.194527596235275269e-01
1.261981278657913208e-01
-2.963831648230552673e-02
1.115178912878036499e-01
-1.244482304900884628e-02
-2.575026266276836395e-02
1.876550167798995972e-01
8.981996774673461914e-02
-6.541258655488491058e-03
1.172575503587722778e-01
-1.223945990204811096e-01
3.029089793562889099e-02
9.631352871656417847e-02
1.060039922595024109e-01
-6.634400039911270142e-02
7.225986570119857788e-02
1.306202728301286697e-02
-1.205280497670173645e-01
6.971713900566101074e-02
-3.051362372934818268e-02
1.263547986745834351e-01
-1.916665211319923401e-02
-3.021937236189842224e-02
2.243832126259803772e-02
-6.541998125612735748e-03
2.111732661724090576e-01
8.041213452816009521e-02
-1.552189737558364868e-01
3.955478221178054810e-02
1.443548798561096191e-01
-1.590056866407394409e-01
-9.848606586456298828e-02
4.269205778837203979e-02
-1.253149509429931641e-01
7.454904913902282715e-02
3.460373356938362122e-02
5.983016639947891235e-02
-3.358833026140928268e-03
1.926742792129516602e-01
-7.309039682149887085e-02
-1.254765596240758896e-02
5.680345743894577026e-02
-2.046713232994079590e-01
4.834697395563125610e-02
2.839456498622894287e-02
-1.468953043222427368e-01
-2.215905934572219849e-01
1.444600429385900497e-02
8.764438331127166748e-02
6.410750793293118477e-04
8.233217149972915649e-02
2.012574225664138794e-01
-6.276643276214599609e-02
1.001183129847049713e-02
-8.220963180065155029e-02
-2.251381985843181610e-02
1.770493201911449432e-02
-2.568807005882263184e-01
6.238461285829544067e-02
5.521683394908905029e-02
-2.221281081438064575e-01
-1.766231507062911987e-01
-1.035472080111503601e-01
9.030392765998840332e-02
-1.402874290943145752e-01
-8.605869114398956299e-02
7.988408952951431274e-02
-4.436816275119781494e-02
2.098270878195762634e-02
-8.438961952924728394e-02
-4.879908263683319092e-02
-6.132881343364715576e-02
-9.848529845476150513e-02
-6.619778275489807129e-02
-1.091164499521255493e-01
-8.106206357479095459e-02
-1.586240157485008240e-02
-7.317564636468887329e-02
1.731824129819869995e-02
1.076484993100166321e-01
8.910441398620605469e-02
2.180522307753562927e-02
5.283322185277938843e-02
-1.105991974472999573e-01
-4.548287391662597656e-02
1.797654181718826294e-01
1.538284868001937866e-01
6.758955866098403931e-02
6.661026924848556519e-02
6.683385372161865234e-02
2.608365118503570557e-01
1.497818976640701294e-01
-1.946018934249877930e-01
9.313667565584182739e-02
-1.005113963037729263e-02
1.023208647966384888e-01
9.707197546958923340e-03
1.747520267963409424e-01
1.056819688528776169e-02
-2.120955884456634521e-01
-3.024196811020374298e-02
-8.585817366838455200e-02
4.479017481207847595e-02
-6.635783612728118896e-02
-7.063589245080947876e-02
-2.931181155145168304e-02
-8.410495519638061523e-02
1.501163840293884277e-01
-2.062518335878849030e-02
1.298072636127471924e-01
6.506605539470911026e-03
6.084500998258590698e-02
-1.288260519504547119e-01
-7.574450969696044922e-02
-1.197071149945259094e-01
-8.462107926607131958e-02
4.336980637162923813e-03
3.551542386412620544e-02
-1.150033622980117798e-01
-2.362857386469841003e-02
1.549172401428222656e-01
-2.017108052968978882e-01
7.783765345811843872e-02
-9.885206818580627441e-02
-3.863042593002319336e-02
6.943292915821075439e-02
-4.135327041149139404e-02
-2.898320928215980530e-02
5.623252317309379578e-02
-2.327347360551357269e-02
6.728627532720565796e-02
7.427477976307272911e-04
-8.683639019727706909e-02
8.668544143438339233e-02
-4.030404239892959595e-02
-4.161665961146354675e-02
-8.741390891373157501e-03
1.871138960123062134e-01
-5.823451653122901917e-02
3.333495557308197021e-02
-1.974926292896270752e-01
5.276017636060714722e-02
-1.329917013645172119e-01
-1.497812420129776001e-01
-1.462997347116470337e-01
-1.192057877779006958e-01
-1.577153503894805908e-01
-6.317534297704696655e-02
-9.812521189451217651e-02
5.951090157032012939e-02
-2.135218679904937744e-02
-1.262067407369613647e-01
-1.248766388744115829e-02
-5.802856385707855225e-02
-1.958275884389877319e-01
9.084118902683258057e-02
2.122956514358520508e-02
-7.532415445894002914e-03
6.069229170680046082e-02
-4.904520511627197266e-02
2.618296444416046143e-01
-2.830360531806945801e-01
-1.266653984785079956e-01
6.470305845141410828e-03
-2.758601680397987366e-02
-2.935711443424224854e-01
-3.594557642936706543e-01
-5.168935656547546387e-02
1.390133649110794067e-01
1.676164008677005768e-02
1.774645783007144928e-02
1.377508044242858887e-01
4.103987663984298706e-02
-9.670493751764297485e-02
5.392895638942718506e-02
-7.223918288946151733e-02
2.509010732173919678e-01
-2.257887870073318481e-01
-1.320948749780654907e-01
-2.725306749343872070e-01
-1.068248078227043152e-01
-1.876262761652469635e-02
-3.326269239187240601e-02
1.231720447540283203e-01
2.897577360272407532e-02
2.054132893681526184e-02
-1.677309274673461914e-01
9.930433705449104309e-03
-1.370875388383865356e-01
-2.155221700668334961e-01
1.969498395919799805e-01
6.176872551441192627e-02
-1.515522152185440063e-01
-2.796603739261627197e-01
-1.637178063392639160e-01
-1.192175596952438354e-01
-6.016473099589347839e-02
-1.639237105846405029e-01
-2.017717808485031128e-01
7.191542536020278931e-02
-1.215228289365768433e-01
2.334792912006378174e-01
1.524098664522171021e-01
-2.234597802162170410e-01
-2.759210951626300812e-02
7.749055325984954834e-02
-1.094997525215148926e-01
-1.012346073985099792e-01
-1.725476086139678955e-01
-4.261434450745582581e-02
1.053576990962028503e-01
1.715397983789443970e-01
-7.417748123407363892e-02
3.097125701606273651e-02
-6.254854053258895874e-02
-2.842483520507812500e-01
-1.261648982763290405e-01
2.656286060810089111e-01
1.406932473182678223e-01
-7.115364819765090942e-02
-3.452483192086219788e-02
-3.494587540626525879e-01
-1.543532460927963257e-01
9.037840366363525391e-02
-5.357677116990089417e-02
7.098630070686340332e-02
1.930324435234069824e-01
6.960304826498031616e-02
-1.629314720630645752e-01
2.071383744478225708e-01
-1.315453946590423584e-01
-7.102809380739927292e-03
-9.027155488729476929e-02
-2.735359072685241699e-01
-8.179734647274017334e-02
-2.545386850833892822e-01
9.308847039937973022e-02
-7.618510723114013672e-02
1.923035085201263428e-01
-1.557012498378753662e-01
2.161966264247894287e-01
8.482094854116439819e-02
2.571758255362510681e-02
-1.036445349454879761e-01
7.596270879730582237e-04
9.862817823886871338e-02
-1.135092154145240784e-01
1.275550127029418945e-01
4.223996773362159729e-02
5.412822216749191284e-02
-6.748925149440765381e-02
-1.085563600063323975e-01
1.289263814687728882e-01
-4.971995949745178223e-03
-3.112165033817291260e-01
1.664959341287612915e-01
-4.264861345291137695e-02
1.470619291067123413e-01
-8.345655351877212524e-02
-1.012118458747863770e-01
-1.575996577739715576e-01
-8.813410252332687378e-02
-1.771602183580398560e-01
-1.291407793760299683e-01
8.296598680317401886e-03
6.442544609308242798e-02
-8.969520777463912964e-02
2.369131296873092651e-01
-2.592249028384685516e-02
5.242668092250823975e-02
2.807069718837738037e-01
1.052342727780342102e-01
2.666429616510868073e-02
1.780704827979207039e-03
6.217962596565485001e-03
-2.956866100430488586e-02
-5.549987778067588806e-02
-9.810531139373779297e-02
-8.277143537998199463e-02
1.747798733413219452e-02
6.735812872648239136e-02
1.294681578874588013e-01
4.921538382768630981e-02
-8.443324826657772064e-03
1.689663380384445190e-01
1.095640007406473160e-02
8.568859845399856567e-02
9.915900230407714844e-02
2.535416185855865479e-01
6.259267032146453857e-02
1.582375466823577881e-01
-1.225508898496627808e-01
5.400488618761301041e-03
5.541974306106567383e-02
3.478547930717468262e-02
8.597838878631591797e-02
-1.118629723787307739e-01
8.149220794439315796e-02
7.551651448011398315e-02
4.748167097568511963e-02
8.015133440494537354e-02
1.272563934326171875e-01
1.365358978509902954e-01
-7.060694694519042969e-02
1.053845882415771484e-01
-6.531082093715667725e-02
1.356412619352340698e-01
-6.585380434989929199e-02
1.737418919801712036e-01
2.316147983074188232e-01
-1.522775292396545410e-01
1.156023144721984863e-01
1.590469479560852051e-01
8.159840852022171021e-02
1.438489407300949097e-01
-2.368537336587905884e-02
-2.977526374161243439e-02
8.087919652462005615e-02
-1.398014556616544724e-02
2.185656130313873291e-01
2.087395638227462769e-01
-1.096898168325424194e-01
4.301062598824501038e-02
8.957643061876296997e-02
-2.934076450765132904e-02
-4.345935210585594177e-02
7.511749863624572754e-02
6.886047869920730591e-02
3.556948900222778320e-02
-1.235219612717628479e-01
-1.518128216266632080e-01
-1.537020504474639893e-01
9.501519799232482910e-02
3.292389959096908569e-02
8.022565394639968872e-02
4.592078924179077148e-02
7.770098745822906494e-02
-9.977331757545471191e-02
-4.926678165793418884e-02
1.502416580915451050e-01
-7.219272851943969727e-02
1.568653881549835205e-01
3.105461224913597107e-02
-4.653417319059371948e-02
-1.625535450875759125e-02
-3.686358034610748291e-02
-4.186761379241943359e-02
9.769506286829710007e-04
8.043924346566200256e-03
9.859099984169006348e-02
-2.748061204329133034e-03
-1.683320552110671997e-01
-6.513701379299163818e-02
1.030758582055568695e-02
1.572261005640029907e-01
1.849797070026397705e-01
4.754206165671348572e-02
-4.304744768887758255e-03
1.187060847878456116e-01
5.279490351676940918e-02
-8.367615938186645508e-02
-8.724453859031200409e-03
-2.514996193349361420e-02
-1.304834932088851929e-01
-1.569275707006454468e-01
-1.482199430465698242e-01
-5.064653232693672180e-02
5.884884670376777649e-02
1.345524564385414124e-03
2.627757564187049866e-02
7.733267545700073242e-02
1.840601675212383270e-02
-1.044823899865150452e-01
-1.471811085939407349e-01
1.324713528156280518e-01
-6.188196130096912384e-03
-3.775528818368911743e-02
3.942948207259178162e-02
-3.218936920166015625e-02
1.200070306658744812e-01
-5.651894025504589081e-05
-1.513191685080528259e-02
1.470596194267272949e-01
2.343021333217620850e-02
1.975949406623840332e-01
-4.630413278937339783e-02
4.113996028900146484e-02
8.937580883502960205e-02
-3.095233254134654999e-02
-6.243968382477760315e-02
4.593292996287345886e-02
-4.098639264702796936e-02
-6.429595407098531723e-03
-4.484918341040611267e-02
6.246098317205905914e-03
8.738391101360321045e-02
1.683238148689270020e-02
-9.014209359884262085e-02
-1.118332799524068832e-02
3.048713877797126770e-02
1.679222732782363892e-01
-1.393123716115951538e-01
7.458882778882980347e-02
7.273804396390914917e-02
3.553578257560729980e-02
-1.757253892719745636e-02
-6.828420609235763550e-02
-1.323676854372024536e-02
4.273591190576553345e-02
-1.276621688157320023e-02
-1.863348670303821564e-02
-1.176785901188850403e-01
-7.459171116352081299e-02
6.676162034273147583e-02
-7.424783706665039062e-02
6.438888609409332275e-02
1.924549788236618042e-01
1.767516285181045532e-01
9.806242771446704865e-03
-2.069193273782730103e-01
1.206775978207588196e-01
5.999848712235689163e-03
1.686425879597663879e-02
-1.295965611934661865e-01
4.336122795939445496e-02
-1.776314675807952881e-01
1.184225976467132568e-01
-2.562905661761760712e-02
-1.387370098382234573e-02
-2.011805400252342224e-02
-1.914341934025287628e-02
-2.005214989185333252e-02
1.058129891753196716e-01
-5.868821963667869568e-02
4.780680686235427856e-02
8.678117394447326660e-02
5.094806849956512451e-02
1.315632462501525879e-01
5.014197155833244324e-02
1.222653388977050781e-01
1.052146628499031067e-01
-1.919773519039154053e-01
4.206357896327972412e-02
-1.537148058414459229e-01
-8.046335726976394653e-02
-9.542921185493469238e-02
-7.285884022712707520e-02
-4.280761629343032837e-02
-2.171802371740341187e-01
-4.088724404573440552e-02
-1.357149798423051834e-02
-5.390850827097892761e-02
-1.300115883350372314e-01
-9.130594879388809204e-02
1.924893073737621307e-02
-2.327494323253631592e-01
-8.631318062543869019e-02
6.540191825479269028e-03
-8.630740642547607422e-02
1.293213758617639542e-02
-1.609304845333099365e-01
9.153492003679275513e-02
-4.358886182308197021e-02
4.309148341417312622e-02
4.581633582711219788e-02
1.165945902466773987e-01
1.227614879608154297e-01
2.453697323799133301e-01
4.011381044983863831e-02
1.644758284091949463e-01
-1.081379577517509460e-01
1.405584905296564102e-02
2.532806806266307831e-02
1.128074824810028076e-01
7.118908315896987915e-02
1.545564085245132446e-01
1.074621379375457764e-01
5.005202069878578186e-02
2.641538977622985840e-01
5.600529909133911133e-02
-6.127126514911651611e-02
-1.877390965819358826e-02
-7.903360575437545776e-02
-3.483062377199530602e-03
4.121150076389312744e-02
-8.186323195695877075e-02
3.897138684988021851e-02
-9.941231459379196167e-02
-1.615575253963470459e-01
-6.378807872533798218e-02
1.008964627981185913e-01
-1.966529041528701782e-01
-1.729512810707092285e-01
-1.908724606037139893e-01
-2.522035539150238037e-01
2.949093841016292572e-02
-9.500198066234588623e-02
1.272688060998916626e-01
3.582347556948661804e-02
-1.484375149011611938e-01
-8.035121113061904907e-02
-9.086193889379501343e-02
-3.305910155177116394e-03
3.108972311019897461e-02
-9.890034049749374390e-02
-8.121626079082489014e-02
2.357090450823307037e-02
1.947319954633712769e-01
-2.832220867276191711e-02
3.747161477804183960e-02
8.933903276920318604e-02
-2.170003950595855713e-02
-8.342815190553665161e-02
5.517417564988136292e-02
-5.247421935200691223e-02
5.519362166523933411e-02
-4.474332556128501892e-02
-7.183361053466796875e-02
2.271123602986335754e-02
3.133303299546241760e-02
1.916703023016452789e-02
1.068005152046680450e-02
-2.689323574304580688e-02
-5.175638943910598755e-02
1.844529435038566589e-02
1.108832098543643951e-02
-6.240588054060935974e-02
-2.310079522430896759e-02
-3.374864906072616577e-02
-8.066625893115997314e-02
2.313091009855270386e-01
5.473648756742477417e-02
-2.491271495819091797e-02
-4.709625244140625000e-02
7.390598207712173462e-02
-1.798108518123626709e-01
1.308020651340484619e-01
-2.254508621990680695e-02
1.023515760898590088e-01
-5.635010451078414917e-02
1.001444682478904724e-01
-1.527135372161865234e-01
1.187618002295494080e-01
-6.802391260862350464e-02
-1.093617677688598633e-01
-9.949085116386413574e-02
8.834924548864364624e-02
2.881664596498012543e-02
-8.460007607936859131e-03
-7.430500537157058716e-02
-4.529708996415138245e-02
1.612579971551895142e-01
-3.999770805239677429e-02
1.993645541369915009e-02
-1.509486138820648193e-01
-2.440984098939225078e-04
1.297726109623908997e-02
-1.848499104380607605e-02
1.244610548019409180e-02
-5.493537336587905884e-02
-1.174639910459518433e-01
-1.514429450035095215e-01
1.854875683784484863e-01
-1.520849168300628662e-01
-1.900207102298736572e-01
-1.955585181713104248e-02
-6.370581686496734619e-04
1.256327927112579346e-01
-4.535844922065734863e-02
-8.884473890066146851e-02
9.957285970449447632e-02
-8.594955503940582275e-02
-2.860851818695664406e-04
4.830007255077362061e-02
1.425382643938064575e-01
-1.138877272605895996e-01
-1.838936842978000641e-02
-2.324504554271697998e-01
6.647977232933044434e-02
-1.748373731970787048e-02
-5.473791807889938354e-02
1.707467138767242432e-01
8.680736273527145386e-02
-7.278671115636825562e-02
-1.676833927631378174e-01
1.260174512863159180e-01
3.963447734713554382e-02
1.206867471337318420e-01
-3.901491686701774597e-02
1.320671737194061279e-01
-1.015981212258338928e-01
9.055165946483612061e-02
-5.774385854601860046e-02
2.907592616975307465e-02
2.477492578327655792e-02
-1.130788922309875488e-01
-1.761883795261383057e-01
2.123701870441436768e-01
3.648445010185241699e-02
1.927235163748264313e-02
1.069111526012420654e-01
7.835344970226287842e-02
7.285879552364349365e-02
-6.750734150409698486e-02
-1.035792380571365356e-01
-4.581337794661521912e-02
-7.577020674943923950e-02
1.286736726760864258e-01
-7.816897332668304443e-02
5.456035584211349487e-02
-1.802778989076614380e-02
-3.911935538053512573e-02
-3.234229609370231628e-02
-5.417742207646369934e-02
1.419903934001922607e-01
9.925935417413711548e-03
-1.488516330718994141e-01
-6.053447350859642029e-02
7.025426626205444336e-02
4.738751053810119629e-02
-2.939897179603576660e-01
-1.495365332812070847e-02
-1.853912770748138428e-01
-1.246201023459434509e-01
5.070127919316291809e-02
2.723625488579273224e-02
-9.844212234020233154e-02
2.616439759731292725e-01
-1.159116923809051514e-01
-2.534465119242668152e-02
-9.677282720804214478e-02
-1.066851764917373657e-01
5.300654843449592590e-02
-2.053239196538925171e-01
5.406405404210090637e-02
1.396755427122116089e-01
-1.506442856043577194e-02
8.420117199420928955e-02
1.239846423268318176e-01
-7.647954672574996948e-02
6.139355525374412537e-02
-2.082792669534683228e-01
-4.996868222951889038e-02
-1.084394678473472595e-01
3.499362245202064514e-02
-1.902782171964645386e-01
-1.087347045540809631e-01
-2.561077661812305450e-02
-7.903353869915008545e-02
5.891988053917884827e-02
-8.701064437627792358e-02
1.703979671001434326e-01
8.843932300806045532e-02
2.682109735906124115e-02
-1.896786242723464966e-01
2.817681618034839630e-02
3.224277794361114502e-01
-5.912162736058235168e-02
-7.109791785478591919e-02
-8.395138382911682129e-02
-8.694484084844589233e-02
-1.642344892024993896e-01
1.707946509122848511e-01
2.194004505872726440e-02
-3.362679854035377502e-02
-2.211987739428877831e-03
-6.654073484241962433e-03
5.977911874651908875e-02
2.179120667278766632e-02
-1.740737557411193848e-01
1.278895139694213867e-01
6.991621106863021851e-02
-2.655671536922454834e-01
4.448680207133293152e-02
-1.250118017196655273e-01
-4.065088555216789246e-02
7.969393581151962280e-02
-1.311016082763671875e-01
-4.574851691722869873e-02
7.939988374710083008e-02
-5.118765309453010559e-02
1.678188741207122803e-01
1.176636964082717896e-01
-1.272087395191192627e-01
-7.059887051582336426e-02
2.371384762227535248e-02
1.174862608313560486e-01
-2.082207053899765015e-02
-1.997101455926895142e-01
-1.254833638668060303e-01
-2.816734090447425842e-02
6.419961899518966675e-02
-3.672973439097404480e-02
5.156329367309808731e-03
6.391116231679916382e-02
-1.997158676385879517e-01
-1.417594254016876221e-01
1.822727024555206299e-01
5.602144822478294373e-02
2.985346131026744843e-02
-7.424862682819366455e-02
-1.817715018987655640e-01
-1.162248700857162476e-01
8.165507763624191284e-02
-3.465446457266807556e-02
2.163843512535095215e-01
9.514144062995910645e-02
8.868872374296188354e-02
-3.283714875578880310e-02
1.454744935035705566e-01
-2.596868388354778290e-02
4.582897201180458069e-02
-1.401944272220134735e-02
1.097469963133335114e-02
-2.330162078142166138e-01
-5.531739071011543274e-02
8.488313853740692139e-02
4.176240786910057068e-02
2.294154092669487000e-02
-5.004101246595382690e-02
1.370700001716613770e-01
-4.304036125540733337e-02
-2.555112726986408234e-02
-1.936789304018020630e-01
1.024183332920074463e-01
-1.151111945509910583e-01
-1.435694396495819092e-01
9.104778617620468140e-02
5.583222582936286926e-02
-1.425446420907974243e-01
7.756034284830093384e-02
5.612964555621147156e-02
5.741324648261070251e-02
-8.829098194837570190e-02
-6.664865650236606598e-03
1.329471319913864136e-01
-6.109432876110076904e-02
-6.391748040914535522e-02
-2.434842474758625031e-02
-1.702263951301574707e-01
-1.817433396354317665e-03
-9.154658764600753784e-03
3.837618231773376465e-02
2.961970306932926178e-02
7.716890424489974976e-02
-5.053556337952613831e-02
-1.655953470617532730e-03
6.561388075351715088e-02
-2.675803005695343018e-02
4.608632624149322510e-02
5.900555476546287537e-02
2.214211523532867432e-01
1.372991222888231277e-02
-4.408062994480133057e-02
-4.921211861073970795e-03
-4.935893043875694275e-02
2.947648987174034119e-02
1.400634646415710449e-01
2.162283845245838165e-02
-4.939004033803939819e-02
-1.434916723519563675e-02
1.532737612724304199e-01
1.454423815011978149e-01
-4.951044544577598572e-02
2.417694404721260071e-02
1.415456533432006836e-01
1.662649661302566528e-01
-6.187769398093223572e-02
-8.916055411100387573e-02
-5.222334340214729309e-02
-8.226049691438674927e-02
-6.337773799896240234e-02
-9.998047351837158203e-02
1.382669340819120407e-02
-6.636472791433334351e-02
-2.913585118949413300e-02
-7.439721375703811646e-02
2.205047160387039185e-01
3.209396451711654663e-02
-8.507026731967926025e-02
4.936500266194343567e-02
1.405605375766754150e-01
-2.984786964952945709e-02
-5.958592146635055542e-02
4.555525258183479309e-03
-4.247914999723434448e-02
2.123479917645454407e-02
-4.499560594558715820e-02
7.864790968596935272e-03
1.024286448955535889e-01
-3.839381039142608643e-02
-1.702850461006164551e-01
1.665139943361282349e-02
-3.833204880356788635e-02
1.868534237146377563e-01
-1.036716401576995850e-01
-1.236346215009689331e-01
7.212889939546585083e-02
6.356394290924072266e-02
-6.980618089437484741e-02
5.855191871523857117e-02
-4.334181919693946838e-02
-7.813657075166702271e-02
-8.753373287618160248e-03
4.746191948652267456e-02
-6.373107898980379105e-03
-3.744428604841232300e-02
-7.545441389083862305e-02
9.383857995271682739e-02
1.135639566928148270e-02
-2.234201729297637939e-01
-1.671251505613327026e-01
7.665690779685974121e-02
-7.024308294057846069e-02
-6.820271909236907959e-02
8.868413046002388000e-03
1.561148911714553833e-01
-2.788130752742290497e-02
-3.029546141624450684e-02
2.355753630399703979e-02
8.680032193660736084e-02
3.701052442193031311e-02
-8.887583017349243164e-02
-1.038485541939735413e-01
1.247617527842521667e-01
-1.038072630763053894e-01
-1.164172068238258362e-01
-1.269532293081283569e-01
6.717240810394287109e-02
-1.071287915110588074e-01
-1.394378244876861572e-01
-1.157221123576164246e-01
-7.822652347385883331e-03
2.067231759428977966e-02
-5.495073273777961731e-02
1.245048642158508301e-01
1.708973571658134460e-02
-5.878048390150070190e-02
5.351222679018974304e-02
-4.948213696479797363e-02
7.310680579394102097e-03
-6.299248337745666504e-02
-1.162595152854919434e-01
5.378836393356323242e-02
2.043507620692253113e-02
5.194699391722679138e-02
1.809752285480499268e-01
-5.399825796484947205e-02
4.373826459050178528e-02
6.448518484830856323e-03
-9.569138288497924805e-03
8.799444139003753662e-02
-2.303769113495945930e-03
1.227688044309616089e-01
-8.789625018835067749e-02
3.835300356149673462e-02
1.348549276590347290e-01
3.680373728275299072e-02
-5.202701687812805176e-02
-2.121476642787456512e-02
8.106809854507446289e-02
-4.851785674691200256e-02
-4.125386103987693787e-02
8.101622015237808228e-02
3.717885538935661316e-02
1.761456131935119629e-01
4.192466381937265396e-03
2.613390982151031494e-02
-1.627762615680694580e-02
2.395963482558727264e-02
7.132562994956970215e-02
-8.646719157695770264e-02
-1.179359927773475647e-01
3.074433468282222748e-02
-1.458178013563156128e-01
-4.062937945127487183e-02
-1.708160154521465302e-02
-1.760191619396209717e-01
9.408808499574661255e-02
1.101893484592437744e-01
-1.780809909105300903e-01
7.037816196680068970e-02
6.643718481063842773e-02
3.590990975499153137e-02
-1.874948590993881226e-01
1.170801222324371338e-01
1.491421163082122803e-01
5.557644739747047424e-02
2.888882532715797424e-02
6.961748003959655762e-02
9.559272229671478271e-02
-5.766702070832252502e-02
-1.716316863894462585e-02
7.477566599845886230e-02
3.938997164368629456e-02
-9.953023493289947510e-02
4.233704134821891785e-02
-4.754256922751665115e-03
8.978081494569778442e-02
8.669800311326980591e-02
-8.680729568004608154e-02
-1.518355011940002441e-01
1.663355231285095215e-01
3.399127349257469177e-02
7.769592106342315674e-02
-6.753790657967329025e-04
1.069460958242416382e-01
-1.074501797556877136e-01
5.016672611236572266e-02
1.820450276136398315e-01
-1.096679456532001495e-02
1.686214096844196320e-02
-5.177022889256477356e-02
2.077795267105102539e-01
-7.934688590466976166e-03
5.779714137315750122e-02
1.396024078130722046e-01
8.132176101207733154e-02
-6.333325989544391632e-03
-2.824507281184196472e-02
-3.942227736115455627e-02
-5.100718885660171509e-02
5.784144625067710876e-02
-1.021182984113693237e-01
-7.417736202478408813e-02
-8.454129099845886230e-02
3.118097782135009766e-01
5.945102125406265259e-02
4.904264211654663086e-02
-1.570206433534622192e-01
3.021607361733913422e-02
-5.462071672081947327e-02
1.256064325571060181e-01
1.534426659345626831e-01
-4.879552870988845825e-02
1.024771779775619507e-01
-6.054643169045448303e-02
-1.914456933736801147e-01
-1.773412525653839111e-01
-6.472475081682205200e-02
-1.529536396265029907e-02
1.544537842273712158e-01
-4.688394069671630859e-02
-3.848483040928840637e-02
5.346687510609626770e-03
-6.895551085472106934e-02
-4.105284810066223145e-02
-3.446572646498680115e-02
5.023747682571411133e-02
-1.065180301666259766e-01
-5.846010148525238037e-02
-9.170084446668624878e-02
3.381471335887908936e-02
8.685307204723358154e-02
-1.002027541399002075e-01
7.885763049125671387e-02
-5.894571915268898010e-02
1.985673606395721436e-01
-2.373291254043579102e-01
1.333171725273132324e-01
-7.949577271938323975e-02
-2.190420217812061310e-02
1.310852617025375366e-01
-4.572202637791633606e-02
-1.803123801946640015e-01
-1.663144677877426147e-01
-1.533654332160949707e-01
-2.045452781021595001e-02
-7.509412616491317749e-02
7.549705356359481812e-02
6.125631555914878845e-02
-2.860830724239349365e-02
-1.481493711471557617e-01
-1.112660691142082214e-01
2.320246696472167969e-01
-4.944588243961334229e-02
1.785217318683862686e-03
7.298655807971954346e-02
-4.701551795005798340e-02
-1.888512670993804932e-01
-6.207986921072006226e-02
-7.410519570112228394e-02
-1.167662069201469421e-02
5.289652617648243904e-04
1.778830438852310181e-01
-5.329169332981109619e-02
-3.183925524353981018e-02
-3.881390439346432686e-03
1.316823065280914307e-01
4.468393698334693909e-02
6.872721016407012939e-02
-6.131593137979507446e-02
3.544333949685096741e-02
1.969296112656593323e-02
1.106408834457397461e-01
-6.732597202062606812e-02
-5.502034723758697510e-02
-3.651940077543258667e-02
-8.257336169481277466e-02
-1.776003837585449219e-02
3.874019905924797058e-02
4.483468085527420044e-02
1.319382786750793457e-01
-9.149634838104248047e-02
1.169637739658355713e-01
1.783981025218963623e-01
9.216962754726409912e-02
5.538064986467361450e-02
4.140125587582588196e-02
1.037130355834960938e-01
-8.415418863296508789e-02
-8.527679741382598877e-02
1.532246638089418411e-02
-3.280676156282424927e-02
-5.126454308629035950e-02
1.560418605804443359e-01
-1.821800768375396729e-01
2.126572877168655396e-01
-1.176093965768814087e-01
-2.560067176818847656e-01
1.645462214946746826e-01
1.794752664864063263e-02
-5.431281402707099915e-02
-2.370745688676834106e-01
1.259901374578475952e-01
5.261929705739021301e-02
1.680014431476593018e-01
-1.381150335073471069e-01
-7.787615805864334106e-02
-1.848219707608222961e-02
-1.523961275815963745e-01
1.851349920034408569e-01
3.009725809097290039e-01
7.155998051166534424e-02
1.397212743759155273e-01
-1.189507320523262024e-01
-3.603952750563621521e-02
5.244385823607444763e-02
-6.807348132133483887e-02
1.059942618012428284e-01
1.484379470348358154e-01
-3.747932612895965576e-02
-5.618299543857574463e-02
2.503732033073902130e-02
1.829367727041244507e-01
-9.815882146358489990e-02
4.516581073403358459e-02
7.175543345510959625e-03
-8.880664408206939697e-02
-9.103199839591979980e-02
-1.355973631143569946e-01
7.354314625263214111e-02
-4.256128147244453430e-02
-1.144260540604591370e-01
1.365057677030563354e-01
-4.406913369894027710e-02
-8.245373517274856567e-02
2.292529195547103882e-01
1.622343510389328003e-01
1.347172707319259644e-01
1.178912073373794556e-01
1.226574853062629700e-01
-1.170245483517646790e-01
2.742639482021331787e-01
4.331265017390251160e-02
-6.998495757579803467e-02
2.796548418700695038e-02
-3.934420272707939148e-02
4.592271894216537476e-02
1.389831863343715668e-02
-1.528313457965850830e-01
-2.168794423341751099e-01
-9.354186803102493286e-02
-1.400979980826377869e-02
-1.666311547160148621e-02
2.526122331619262695e-01
-4.644100554287433624e-03
-1.721537858247756958e-01
5.207984521985054016e-02
-2.245150879025459290e-02
-1.478590965270996094e-01
-8.032441139221191406e-02
-1.212426424026489258e-01
2.966551296412944794e-02
-5.258892104029655457e-02
1.256580799818038940e-01
1.893884316086769104e-02
-8.353445678949356079e-02
1.021706964820623398e-03
-1.376833766698837280e-01
4.016647487878799438e-02
5.404438823461532593e-02
4.408719763159751892e-02
-8.455438166856765747e-02
-1.226818040013313293e-01
9.532874077558517456e-02
4.599550738930702209e-02
8.572795242071151733e-02
-1.782929175533354282e-03
1.101671084761619568e-01
1.039872094988822937e-01
1.470458507537841797e-01
-5.416591092944145203e-02
-5.769994109869003296e-02
1.032869666814804077e-01
-5.293910205364227295e-02
1.072290986776351929e-01
-1.401111669838428497e-02
1.839937269687652588e-01
1.634294092655181885e-01
-2.802251279354095459e-01
-1.634244322776794434e-01
4.835575073957443237e-02
-4.743115603923797607e-02
-7.348112761974334717e-02
-1.098494902253150940e-01
8.837556093931198120e-02
5.215709656476974487e-02
1.039991825819015503e-01
-1.009079441428184509e-01
1.276854332536458969e-02
-3.955419659614562988e-01
-1.336824744939804077e-01
9.509428590536117554e-02
2.773908525705337524e-02
-3.247334063053131104e-01
-1.342661380767822266e-01
-1.814049482345581055e-01
5.396839976310729980e-02
-1.536877709440886974e-03
-1.183429360389709473e-01
1.513877660036087036e-01
2.925474010407924652e-02
-5.118830129504203796e-02
-5.450813565403223038e-03
2.257853187620639801e-02
2.718691527843475342e-01
-4.000247716903686523e-01
-1.694539040327072144e-01
-9.155573695898056030e-02
-3.081203103065490723e-01
-3.355183601379394531e-01
-1.163997799158096313e-01
-1.246201917529106140e-01
1.655954634770750999e-03
1.163936555385589600e-01
-2.025127410888671875e-01
-1.984168589115142822e-01
-1.151121780276298523e-01
-3.713059797883033752e-02
1.774799674749374390e-01
-1.455042213201522827e-01
-9.057248383760452271e-02
1.743212342262268066e-02
1.332919858396053314e-02
8.353721350431442261e-02
1.454626917839050293e-01
-7.320693880319595337e-02
-1.812186241149902344e-01
1.065750867128372192e-01
-3.791745007038116455e-02
4.820561408996582031e-02
9.789208415895700455e-04
-8.981299586594104767e-03
8.942301385104656219e-03
1.192359328269958496e-01
1.935351872816681862e-03
-9.394291788339614868e-02
-9.000758640468120575e-03
2.159847354050725698e-04
1.103855371475219727e-01
3.775509074330329895e-02
-9.153813123703002930e-02
-4.889775998890399933e-03
-8.536612242460250854e-02
1.510723382234573364e-01
-4.804650694131851196e-02
-1.916331425309181213e-02
-1.216987296938896179e-01
-2.881563007831573486e-01
1.188227981328964233e-01
-2.765435576438903809e-01
-1.471014171838760376e-01
6.736013293266296387e-02
8.588257245719432831e-03
1.797091960906982422e-01
-2.244386449456214905e-02
1.806385666131973267e-01
-1.786345690488815308e-01
-5.074809119105339050e-02
-4.933962598443031311e-02
3.749373555183410645e-02
-1.064764801412820816e-02
-1.609109193086624146e-01
-1.876303553581237793e-01
-2.700230777263641357e-01
5.272289738059043884e-02
9.495685994625091553e-02
-2.314502606168389320e-03
-3.063029423356056213e-02
1.581309586763381958e-01
-3.844846785068511963e-02
-5.221928283572196960e-02
-3.600919991731643677e-02
7.680335640907287598e-02
5.141640082001686096e-02
-1.556357741355895996e-01
-1.060576960444450378e-01
1.324837505817413330e-01
-7.915105670690536499e-02
1.604353040456771851e-01
2.299985289573669434e-02
1.294236034154891968e-01
-1.771192625164985657e-02
-3.479857444763183594e-01
-5.562716349959373474e-02
-4.346902295947074890e-02
5.570147931575775146e-02
1.583074592053890228e-02
-9.571849554777145386e-02
-1.183204501867294312e-01
-8.758750557899475098e-02
9.178941696882247925e-02
6.975501775741577148e-02
1.253281831741333008e-01
3.586314246058464050e-02
8.090981282293796539e-03
-1.896600052714347839e-02
-1.017161831259727478e-02
-1.284785866737365723e-01
7.302604615688323975e-02
-6.221342086791992188e-02
1.558575313538312912e-02
-5.213803425431251526e-02
-1.558619551360607147e-02
-9.146616607904434204e-02
-2.033657394349575043e-02
6.925830990076065063e-02
1.396177057176828384e-02
1.216509640216827393e-01
2.054070532321929932e-01
-2.612574771046638489e-02
-1.251126825809478760e-01
3.276306018233299255e-02
4.627592489123344421e-02
-9.894259274005889893e-02
3.177436813712120056e-02
-1.617991924285888672e-01
2.342200279235839844e-01
-7.894550263881683350e-02
9.319005161523818970e-02
7.789602130651473999e-02
9.631019830703735352e-02
-7.057292759418487549e-02
6.249737739562988281e-02
1.242702379822731018e-01
1.640746444463729858e-01
1.538231521844863892e-01
-1.804651170969009399e-01
-8.191523700952529907e-02
-5.713045597076416016e-02
1.494876891374588013e-01
7.330361753702163696e-03
1.840800791978836060e-02
-4.240322485566139221e-02
-1.982450634241104126e-01
1.293695271015167236e-01
3.699490055441856384e-02
-1.166571527719497681e-01
1.919796876609325409e-02
-1.914867609739303589e-01
1.612090766429901123e-01
1.357231568545103073e-02
-2.242545038461685181e-02
-1.815130002796649933e-02
1.387294288724660873e-02
-4.909004643559455872e-02
3.586391359567642212e-02
8.293634653091430664e-02
1.940566003322601318e-01
-5.847826972603797913e-02
-1.888017207384109497e-01
-3.779755532741546631e-02
-1.583226472139358521e-01
-4.192280024290084839e-02
-7.332690805196762085e-02
-7.637195289134979248e-02
1.817228943109512329e-01
-7.480753958225250244e-02
1.328797191381454468e-01
-1.285556554794311523e-01
6.424842029809951782e-02
-1.597966253757476807e-01
1.655470579862594604e-02
9.299326688051223755e-02
1.668945513665676117e-02
-2.146316021680831909e-01
-4.095388576388359070e-02
-1.462278962135314941e-01
1.226378977298736572e-01
-9.338396787643432617e-02
1.393599361181259155e-01
-6.816475093364715576e-02
-1.401337981224060059e-01
-8.184453845024108887e-02
1.825800687074661255e-01
-5.627849698066711426e-02
2.374475002288818359e-01
-6.334401667118072510e-02
4.026023671030998230e-02
-3.008730709552764893e-02
1.028180122375488281e-01
-1.000210866332054138e-01
-1.554951816797256470e-01
-7.553578354418277740e-03
1.166757866740226746e-01
-5.127411708235740662e-02
1.078605931252241135e-02
2.641868777573108673e-02
-9.800305962562561035e-02
-1.137547045946121216e-01
-9.950043261051177979e-02
-1.372376829385757446e-01
1.447268016636371613e-02
-2.735289186239242554e-02
-1.497481167316436768e-01
-5.399004742503166199e-02
9.116773307323455811e-02
5.372809246182441711e-02
8.035800606012344360e-02
1.408937722444534302e-01
-1.532538533210754395e-01
-2.445716857910156250e-01
-2.261938899755477905e-01
-8.719080127775669098e-03
9.967614710330963135e-02
-2.222284860908985138e-02
4.347225651144981384e-02
-2.410912886261940002e-02
-5.320440605282783508e-02
-2.270340323448181152e-01
-9.724527597427368164e-02
1.704038828611373901e-01
-8.981088548898696899e-02
4.111236706376075745e-02
-1.579341590404510498e-01
7.664489001035690308e-02
1.200209185481071472e-01
-1.472022011876106262e-02
4.674004018306732178e-02
-6.282062828540802002e-02
-6.801594793796539307e-02
4.962352104485034943e-04
1.079904213547706604e-01
1.626434177160263062e-01
4.204966872930526733e-02
-2.342875674366950989e-02
1.659681946039199829e-01
-1.157947033643722534e-01
-6.705518811941146851e-02
2.864482998847961426e-02
2.919765561819076538e-02
2.107254602015018463e-02
-5.908053833991289139e-03
1.108014583587646484e-01
-1.172097749076783657e-03
-6.692794710397720337e-02
-1.174484342336654663e-01
-9.554699063301086426e-02
-2.207973152399063110e-01
-9.682901948690414429e-02
-2.835736796259880066e-02
-2.395346015691757202e-02
-1.490536332130432129e-01
1.176201477646827698e-01
-6.064879149198532104e-02
-5.207580700516700745e-02
4.213181883096694946e-02
-5.047994107007980347e-02
5.323525518178939819e-02
-1.286574359983205795e-02
9.555158764123916626e-02
-7.711355574429035187e-04
1.037041842937469482e-01
3.006180748343467712e-02
-1.313957758247852325e-02
-5.405218154191970825e-02
9.671083092689514160e-02
4.992121458053588867e-02
-1.591247767210006714e-01
8.895594626665115356e-02
-1.423224806785583496e-01
-3.811418544501066208e-03
-1.794893890619277954e-01
-3.565220534801483154e-02
1.171717941761016846e-01
2.058912999927997589e-02
-1.015687286853790283e-01
1.714200824499130249e-01
-1.828019320964813232e-01
-7.654087245464324951e-02
2.681775018572807312e-03
7.394547760486602783e-02
-5.673163756728172302e-02
-5.345985293388366699e-02
-8.503636717796325684e-02
-4.341053962707519531e-02
4.904175549745559692e-02
1.129288598895072937e-01
1.217909157276153564e-01
9.360550343990325928e-02
-1.866726763546466827e-02
-2.085938602685928345e-01
-5.929105728864669800e-02
-1.213443949818611145e-01
-1.411817967891693115e-01
5.793786048889160156e-02
8.264428377151489258e-02
8.976802229881286621e-02
5.988045781850814819e-02
-8.863618224859237671e-02
1.856467314064502716e-02
-8.631831407546997070e-02
-1.011351272463798523e-01
-6.231423839926719666e-02
-8.005145937204360962e-03
1.344695389270782471e-01
4.475913010537624359e-04
-5.649123340845108032e-04
7.812575250864028931e-02
-8.802906423807144165e-02
9.752696007490158081e-02
9.645392000675201416e-02
-9.211730957031250000e-02
-6.499198265373706818e-03
-3.020177185535430908e-01
8.927506953477859497e-02
-1.583462767302989960e-02
7.001411914825439453e-02
3.852205350995063782e-02
1.158747524023056030e-01
1.307691782712936401e-01
1.609087921679019928e-02
1.321944743394851685e-01
1.802288889884948730e-01
9.380265325307846069e-02
1.159229651093482971e-01
1.021828129887580872e-01
7.347972691059112549e-02
1.375838518142700195e-01
-1.441087722778320312e-01
1.442431807518005371e-01
2.002404779195785522e-01
1.176155433058738708e-01
1.559146400541067123e-02
-1.373041979968547821e-02
-8.769657462835311890e-02
-1.796970814466476440e-01
5.361811071634292603e-02
1.486813463270664215e-02
2.136443927884101868e-02
-5.835006386041641235e-02
-1.408216208219528198e-01
1.598894149065017700e-01
-2.489954084157943726e-01
1.825791150331497192e-01
-2.074643969535827637e-02
-7.958044111728668213e-02
3.209583461284637451e-02
-3.621833398938179016e-02
5.893256142735481262e-02
-2.979063242673873901e-02
-1.573252677917480469e-01
2.527793496847152710e-02
-1.761701554059982300e-01
-1.119906455278396606e-01
6.260294467210769653e-02
-3.635185956954956055e-02
-5.843090638518333435e-02
5.700857564806938171e-02
-3.493963181972503662e-02
-4.318828508257865906e-02
7.426352053880691528e-02
-6.526093930006027222e-02
-2.848932743072509766e-01
-9.595591574907302856e-02
1.104904264211654663e-01
8.659239113330841064e-02
1.108309254050254822e-01
2.967436425387859344e-02
4.223407804965972900e-02
1.022992357611656189e-01
3.565009310841560364e-02
2.729564160108566284e-02
1.372799626551568508e-03
1.058889478445053101e-01
-5.380894243717193604e-02
-1.693286597728729248e-01
1.189553663134574890e-01
2.060810923576354980e-01
2.324422635138034821e-02
-3.181440532207489014e-01
1.249838322401046753e-01
-9.828637540340423584e-02
3.996327891945838928e-02
1.532137952744960785e-02
3.857118077576160431e-03
-1.414095610380172729e-01
1.834408193826675415e-01
4.390768706798553467e-02
-6.408680230379104614e-02
2.300838381052017212e-02
-1.905660033226013184e-01
2.669323086738586426e-01
-1.866524070501327515e-01
-4.380775615572929382e-03
2.682986259460449219e-01
-6.870457530021667480e-02
-1.615525782108306885e-01
1.228000409901142120e-02
7.183639705181121826e-02
-2.754982374608516693e-02
9.750989824533462524e-02
3.721067681908607483e-02
-1.613869667053222656e-01
-1.137455105781555176e-01
2.566141188144683838e-01
-6.859669089317321777e-02
-8.732433617115020752e-02
-6.694424152374267578e-02
-9.261829406023025513e-02
3.109792061150074005e-02
4.091926291584968567e-02
3.901527961716055870e-03
2.602177672088146210e-02
1.436029225587844849e-01
-1.127261593937873840e-01
-1.993884742259979248e-01
-1.720982044935226440e-01
-1.099843680858612061e-01
-5.422735586762428284e-02
-2.607285231351852417e-02
-1.091861426830291748e-01
-7.113750278949737549e-02
-7.401956617832183838e-02
-1.451576501131057739e-01
3.137610107660293579e-02
-1.403717994689941406e-01
4.551497474312782288e-02
-9.876421838998794556e-02
-7.220377679914236069e-03
-4.703200235962867737e-02
2.676508724689483643e-01
1.186935603618621826e-01
-1.552201956510543823e-01
5.612754449248313904e-02
-4.820077866315841675e-02
2.116549462080001831e-01
-1.522481292486190796e-01
1.152628585696220398e-01
3.393725678324699402e-02
4.181676730513572693e-02
-7.652464509010314941e-02
-2.520565986633300781e-01
-1.853458732366561890e-01
-2.292878739535808563e-02
-1.681227982044219971e-01
-7.027037441730499268e-02
-9.618087112903594971e-02
-7.200479507446289062e-02
1.947885304689407349e-01
-2.369110006839036942e-06
-1.453936845064163208e-01
-1.152147725224494934e-01
3.496313467621803284e-03
3.920694068074226379e-02
1.601188778877258301e-01
1.706799566745758057e-01
-4.772843047976493835e-02
-1.298443078994750977e-01
3.781669586896896362e-02
7.314303517341613770e-02
1.717475503683090210e-01
-1.382998973131179810e-01
2.989303767681121826e-01
-5.063326284289360046e-02
4.976034164428710938e-02
-1.208243370056152344e-01
6.728995591402053833e-02
-3.860063850879669189e-02
-1.574350297451019287e-01
-9.316367655992507935e-02
1.466270387172698975e-01
1.461562421172857285e-02
8.559796959161758423e-02
-3.696108981966972351e-02
1.990928649902343750e-01
5.513538792729377747e-02
1.240117326378822327e-01
-6.085043773055076599e-02
-5.012060329318046570e-02
-3.488239273428916931e-02
1.575374007225036621e-01
5.727238953113555908e-02
-6.555672734975814819e-02
1.034966185688972473e-01
7.974504679441452026e-02
6.841704249382019043e-02
-1.947745084762573242e-01
9.480176120996475220e-02
-2.996101677417755127e-01
4.680836200714111328e-02
-1.418926864862442017e-01
1.483760401606559753e-02
-8.283466845750808716e-02
-9.175764769315719604e-02
1.146096959710121155e-01
-8.044870942831039429e-02
9.216181188821792603e-02
-1.197904348373413086e-01
1.828673668205738068e-02
5.096850544214248657e-02
-1.335536390542984009e-01
-8.526913076639175415e-02
2.261024713516235352e-01
5.564358085393905640e-02
-1.043546497821807861e-01
-3.162168860435485840e-01
-2.550287544727325439e-01
-1.440273076295852661e-01
1.956757456064224243e-01
-4.888845980167388916e-02
-1.047427728772163391e-01
-1.174978092312812805e-01
-8.198158442974090576e-02
-3.292682394385337830e-02
1.982417106628417969e-01
1.350767817348241806e-02
-2.188904732465744019e-01
