1.945779286324977875e-02
-9.353382140398025513e-02
-1.013898998498916626e-01
-1.977165490388870239e-01
-1.808584034442901611e-01
5.578615516424179077e-02
2.016703970730304718e-02
4.495966248214244843e-03
1.340265572071075439e-01
-1.426139771938323975e-01
-6.870547309517860413e-03
2.112784236669540405e-01
7.276590913534164429e-02
1.579802930355072021e-01
1.062648072838783264e-01
8.249215036630630493e-02
-5.585975572466850281e-02
3.730365633964538574e-02
5.973541364073753357e-02
-1.361277997493743896e-01
-8.064550347626209259e-03
-1.235435903072357178e-01
8.660183846950531006e-02
1.960904300212860107e-01
-2.121579051017761230e-01
7.468580268323421478e-03
2.067721039056777954e-01
1.463684737682342529e-01
-8.766870945692062378e-02
-1.887366622686386108e-01
-7.787462323904037476e-02
-1.962307691574096680e-01
2.108760327100753784e-01
-4.311910271644592285e-02
5.062180384993553162e-02
5.069031938910484314e-02
5.972465872764587402e-02
2.819955581799149513e-03
5.382684618234634399e-02
5.472837015986442566e-02
-1.327870488166809082e-01
9.438073635101318359e-02
1.975183635950088501e-01
1.483780518174171448e-02
1.218842864036560059e-01
8.880168199539184570e-02
-1.436295211315155029e-01
6.036563590168952942e-02
-2.021307498216629028e-01
6.253088265657424927e-02
1.080719679594039917e-01
-8.044163882732391357e-02
-1.161375343799591064e-01
2.248391956090927124e-01
1.496180146932601929e-01
5.413523409515619278e-03
-2.759286575019359589e-02
-5.226985737681388855e-02
-5.162806250154972076e-03
8.759336918592453003e-02
-1.102400273084640503e-01
3.133603036403656006e-01
6.393475085496902466e-02
-1.333946138620376587e-01
-2.388094514608383179e-01
-1.419330388307571411e-01
2.536479532718658447e-01
1.644466221332550049e-01
-1.043973639607429504e-01
-2.784557044506072998e-01
2.037331461906433105e-01
1.704302057623863220e-02
-1.017082631587982178e-01
2.532181562855839729e-03
2.444943971931934357e-02
-1.183278635144233704e-01
1.179915666580200195e-01
-5.217732861638069153e-02
-2.015636563301086426e-01
2.990909619256854057e-03
3.265958130359649658e-01
-2.426249533891677856e-01
-2.526687681674957275e-01
3.014574348926544189e-01
3.063061833381652832e-01
-1.906381100416183472e-01
1.011128872632980347e-01
-2.144012749195098877e-01
-1.565418541431427002e-01
-6.540437042713165283e-02
1.369698792695999146e-01
4.804896935820579529e-02
-6.425459682941436768e-02
3.984375298023223877e-01
-9.993920475244522095e-02
2.627436220645904541e-01
-1.341161578893661499e-01
1.708006262779235840e-01
2.113840132951736450e-01
-1.654417514801025391e-01
-4.271844401955604553e-02
-2.917157113552093506e-02
-5.448716133832931519e-02
-2.134972065687179565e-01
-7.094615697860717773e-02
9.127934277057647705e-02
1.554390043020248413e-01
2.507958710193634033e-01
-1.067002043128013611e-01
-2.613118290901184082e-01
3.409102931618690491e-02
-1.843357086181640625e-02
1.211400851607322693e-01
1.192355081439018250e-01
1.664535254240036011e-01
-1.979044526815414429e-01
-2.036611549556255341e-02
-2.116420269012451172e-01
-7.339724898338317871e-02
-8.208242245018482208e-03
-3.496789559721946716e-02
5.672894790768623352e-02
-2.032690197229385376e-01
3.479149425402283669e-03
-1.532654017210006714e-01
9.991331398487091064e-02
-1.850397326052188873e-02
1.111025065183639526e-01
-4.725007712841033936e-02
-8.958964794874191284e-02
-2.259478867053985596e-01
2.933802306652069092e-01
1.930785179138183594e-02
-2.313021104782819748e-03
1.039358228445053101e-01
-3.787760138511657715e-01
-1.578516699373722076e-02
-2.072540223598480225e-01
-1.883039921522140503e-01
3.928399458527565002e-02
8.488722890615463257e-02
1.231707185506820679e-01
-1.684185266494750977e-01
1.990218609571456909e-01
8.525142446160316467e-03
-1.930250972509384155e-01
-5.836315080523490906e-02
-3.643533959984779358e-02
-1.250401884317398071e-01
-6.512961536645889282e-02
1.121542677283287048e-01
-2.018396258354187012e-01
2.089624404907226562e-01
2.051047682762145996e-01
1.625622361898422241e-01
-4.188215360045433044e-02
1.228369474411010742e-01
1.421544253826141357e-01
1.828709989786148071e-01
-1.034259870648384094e-01
-2.461568801663815975e-04
1.163298860192298889e-01
2.345968931913375854e-01
-1.503360569477081299e-01
2.234169468283653259e-02
-3.787801042199134827e-02
1.406142488121986389e-02
-3.891107812523841858e-02
-1.050134934484958649e-02
5.556657537817955017e-02
-1.066164076328277588e-01
7.287339121103286743e-02
2.202439457178115845e-01
2.760703563690185547e-01
-1.142443194985389709e-01
-7.534310221672058105e-02
-1.843479722738265991e-01
-3.371165990829467773e-01
-2.847749590873718262e-01
1.240920182317495346e-02
1.837997138500213623e-01
1.657594293355941772e-01
-1.543771028518676758e-01
8.827258832752704620e-03
1.422023773193359375e-01
-1.303363144397735596e-01
2.084689401090145111e-02
-2.711851149797439575e-02
-3.876588940620422363e-01
1.676710508763790131e-02
-1.737602613866329193e-02
-1.139683574438095093e-01
-7.671630382537841797e-02
3.516218438744544983e-02
2.167257666587829590e-01
1.983580738306045532e-01
1.568827033042907715e-01
2.332843691110610962e-01
3.427585065364837646e-01
7.310086488723754883e-02
-1.116442754864692688e-01
2.489265054464340210e-01
2.939105965197086334e-02
-4.663703031837940216e-03
-1.142623052000999451e-01
-3.191607072949409485e-02
2.224962264299392700e-01
3.324633231386542320e-03
1.855771094560623169e-01
-7.482843101024627686e-02
1.786880940198898315e-01
1.297228634357452393e-01
5.620279163122177124e-02
-9.570678323507308960e-02
1.340384334325790405e-01
-3.182659149169921875e-01
1.752686500549316406e-01
-1.197832524776458740e-01
-8.213143795728683472e-02
3.241851925849914551e-01
1.416081041097640991e-01
2.633488476276397705e-01
2.168105915188789368e-03
-2.736003510653972626e-02
-4.001371935009956360e-02
1.120756417512893677e-01
-8.973056450486183167e-03
-1.730982810258865356e-01
2.100933492183685303e-01
-7.002044469118118286e-02
1.382154077291488647e-01
-1.858955174684524536e-01
2.193381935358047485e-01
1.385242044925689697e-01
-3.181849792599678040e-02
-2.168302834033966064e-01
1.027918830513954163e-01
-6.045171990990638733e-02
1.144726946949958801e-01
-3.775347173213958740e-01
-1.545850336551666260e-01
-1.741787195205688477e-01
2.549932301044464111e-01
1.945679336786270142e-01
1.777560263872146606e-01
-6.689621508121490479e-02
2.537081539630889893e-01
-1.655918508768081665e-01
-3.234828412532806396e-01
-1.208305507898330688e-01
2.034436762332916260e-01
1.173485666513442993e-01
-9.437818080186843872e-02
-4.017375782132148743e-02
-2.297267168760299683e-01
-4.081395268440246582e-02
-9.714089334011077881e-02
-9.334862232208251953e-02
-6.687381118535995483e-02
1.647885073907673359e-03
2.473214864730834961e-01
2.498779632151126862e-02
1.977122575044631958e-01
-4.446024447679519653e-02
3.399109467864036560e-02
1.073980629444122314e-01
1.202296987175941467e-01
1.414731889963150024e-01
1.842086911201477051e-01
1.620605885982513428e-01
1.750998497009277344e-01
2.413915693759918213e-01
2.071423083543777466e-01
9.174183942377567291e-03
-1.130567714571952820e-01
-1.777728945016860962e-01
3.862937912344932556e-02
9.694252908229827881e-02
-2.566492855548858643e-01
-1.274560112506151199e-02
2.331604063510894775e-02
-2.330754101276397705e-01
-2.178965806961059570e-01
1.172542646527290344e-01
1.097664833068847656e-01
5.170711874961853027e-02
2.408484220504760742e-01
2.498748749494552612e-01
-2.384010255336761475e-01
-6.567350029945373535e-02
-8.055143058300018311e-03
-1.203963980078697205e-01
-1.551934480667114258e-01
1.326664984226226807e-01
-2.989386906847357750e-03
3.220599517226219177e-02
1.383949071168899536e-01
2.189495414495468140e-01
-2.133110910654067993e-01
-1.145255044102668762e-01
8.645319379866123199e-03
-7.563693076372146606e-02
1.960554569959640503e-01
-3.712418721988797188e-03
7.518209517002105713e-03
1.321534961462020874e-01
-1.098752468824386597e-01
-2.209888100624084473e-01
1.978216459974646568e-03
-1.981452852487564087e-01
-8.721500635147094727e-03
-2.293712198734283447e-01
1.009963974356651306e-01
-9.129937738180160522e-02
-1.148954108357429504e-01
-5.808963999152183533e-02
-6.493026763200759888e-02
-1.744973361492156982e-01
-3.975723683834075928e-02
4.226049408316612244e-02
-4.113124683499336243e-02
-1.541196554899215698e-01
1.141175925731658936e-01
2.330812960863113403e-01
7.910641282796859741e-02
2.494188398122787476e-01
-7.383095473051071167e-02
2.902523577213287354e-01
-5.597049742937088013e-02
1.769770830869674683e-01
2.954016625881195068e-02
1.390348076820373535e-01
-8.513489365577697754e-02
3.341268002986907959e-01
-7.181368768215179443e-02
-6.434102356433868408e-02
3.757545948028564453e-01
-3.511676490306854248e-01
2.906472980976104736e-02
-2.360839545726776123e-01
4.951581731438636780e-02
-1.117417663335800171e-01
-1.181201264262199402e-01
-1.719923913478851318e-01
-2.363797277212142944e-01
-4.837877675890922546e-02
-1.938450932502746582e-01
2.564126253128051758e-01
-2.243650378659367561e-03
1.822780631482601166e-02
-2.484231591224670410e-01
-1.279454827308654785e-01
-9.891532361507415771e-02
1.664212197065353394e-01
2.110002189874649048e-02
-3.294093012809753418e-01
-1.927010118961334229e-01
-3.875932991504669189e-01
5.260232090950012207e-02
1.207068562507629395e-01
-4.764852300286293030e-02
-3.311632871627807617e-01
1.405714601278305054e-01
1.056233048439025879e-01
2.036640346050262451e-01
1.131607890129089355e-01
3.151295483112335205e-01
1.788964867591857910e-01
1.204656735062599182e-01
-6.760859489440917969e-02
-3.432353259995579720e-03
-7.752749323844909668e-02
2.018879055976867676e-01
8.447390794754028320e-02
4.115189984440803528e-02
1.549519747495651245e-01
-9.343700855970382690e-02
-2.129812240600585938e-01
1.278907805681228638e-01
2.341903299093246460e-01
-2.114249020814895630e-01
-2.881442606449127197e-01
-1.178817264735698700e-02
-6.969115231186151505e-03
-6.308615207672119141e-02
3.618331253528594971e-02
-7.422310858964920044e-02
-1.318355351686477661e-01
8.148758113384246826e-02
9.105426073074340820e-02
-1.052331924438476562e-01
2.258411347866058350e-01
1.194493696093559265e-01
2.797622680664062500e-01
1.932241767644882202e-01
1.344148814678192139e-01
-4.055173322558403015e-02
-5.841446574777364731e-03
1.335815042257308960e-01
-1.653296649456024170e-01
-2.169478088617324829e-01
-1.043413653969764709e-01
1.249553486704826355e-01
-2.371332198381423950e-01
2.351309359073638916e-01
2.461640536785125732e-01
-3.024595603346824646e-02
-2.308567166328430176e-01
1.010492891073226929e-01
-1.384769678115844727e-01
-7.725525647401809692e-02
8.993355184793472290e-02
6.858301907777786255e-02
1.389568001031875610e-01
9.109663660638034344e-04
-3.967131674289703369e-02
2.264986634254455566e-01
-1.144334375858306885e-01
-1.929731220006942749e-01
-1.263415534049272537e-02
-6.166536733508110046e-02
1.862381026148796082e-02
-5.690514668822288513e-02
1.545749022625386715e-03
-3.915851563215255737e-02
-1.301936656236648560e-01
-5.864994600415229797e-03
-1.104172095656394958e-01
-1.212679520249366760e-01
-1.863461434841156006e-01
1.599456928670406342e-02
4.707870259881019592e-02
-2.730303108692169189e-01
-1.643828302621841431e-02
-2.904523611068725586e-01
-6.909100711345672607e-02
1.441121846437454224e-01
-1.045706048607826233e-01
1.852006316184997559e-01
-1.364911207929253578e-03
4.443732276558876038e-02
-4.970879480242729187e-02
1.561935152858495712e-02
1.597949713468551636e-01
1.425615847110748291e-01
-1.544270515441894531e-01
-1.781643182039260864e-01
1.154717430472373962e-01
-9.118728339672088623e-02
6.717973947525024414e-02
-6.943459808826446533e-02
5.244944617152214050e-02
-1.157677769660949707e-01
-1.421770174056291580e-02
-1.301298886537551880e-01
2.000508755445480347e-01
-9.310860931873321533e-02
-7.281047757714986801e-03
-2.392369881272315979e-02
1.016090996563434601e-02
-8.124932646751403809e-02
1.493126302957534790e-01
1.171109825372695923e-01
-1.896296143531799316e-01
-3.317585960030555725e-02
-1.605980098247528076e-01
6.589224189519882202e-02
1.713096648454666138e-01
1.490927338600158691e-01
2.410412132740020752e-01
-7.806111127138137817e-02
-1.353427860885858536e-02
1.189620494842529297e-01
1.151078566908836365e-01
-1.781381070613861084e-01
9.887058287858963013e-02
-3.826114162802696228e-02
6.383422762155532837e-02
-6.763509660959243774e-02
9.790017455816268921e-02
1.868397146463394165e-01
-7.118118554353713989e-02
1.562008708715438843e-01
-2.443986386060714722e-01
1.270180344581604004e-01
-4.521409049630165100e-02
-1.597182899713516235e-01
-6.808769702911376953e-02
1.239975765347480774e-01
1.497426480054855347e-01
-2.435770183801651001e-01
-8.558299392461776733e-02
-1.086482405662536621e-01
3.710608929395675659e-02
-2.040436416864395142e-01
-1.674718856811523438e-01
-5.679913237690925598e-02
2.700323425233364105e-02
-2.215930819511413574e-01
-7.112487219274044037e-03
-4.796728491783142090e-02
-2.032859176397323608e-01
-1.053333356976509094e-01
-2.379650622606277466e-01
-2.192746400833129883e-01
4.618803039193153381e-02
2.260373830795288086e-01
-2.063976600766181946e-02
4.978496953845024109e-02
1.471086144447326660e-01
6.380725651979446411e-02
2.659383118152618408e-01
-1.760898716747760773e-02
-2.264935337007045746e-02
-1.433845013380050659e-01
8.095828443765640259e-02
-5.605781450867652893e-02
9.978816658258438110e-02
2.168360799551010132e-01
2.583754956722259521e-01
1.027986928820610046e-01
3.576501905918121338e-01
2.390605211257934570e-01
-6.089231371879577637e-02
1.607367843389511108e-01
-1.139018982648849487e-01
-1.881718933582305908e-01
-3.811255693435668945e-01
4.639302194118499756e-02
-1.369462460279464722e-01
-2.678243815898895264e-02
9.405838698148727417e-02
-1.608217507600784302e-02
3.592129945755004883e-01
-3.742356598377227783e-02
-1.376315057277679443e-01
-1.597130894660949707e-01
1.457164585590362549e-01
8.261701464653015137e-02
-6.326232850551605225e-02
1.167885884642601013e-01
8.035541325807571411e-02
2.145886421203613281e-01
-1.146476045250892639e-01
-1.625438779592514038e-01
2.175041586160659790e-01
-2.475856989622116089e-01
1.093798130750656128e-01
4.434038326144218445e-02
-1.701190918684005737e-01
-3.439954668283462524e-02
-1.737667918205261230e-01
-2.181157320737838745e-01
6.639526039361953735e-02
-9.971167892217636108e-02
-9.747441112995147705e-02
1.173256561160087585e-01
-2.037222236394882202e-01
1.178663298487663269e-01
-2.478921413421630859e-01
2.803820371627807617e-01
-3.007865138351917267e-02
-4.321492835879325867e-02
1.526995152235031128e-01
-3.641523048281669617e-02
-1.904588192701339722e-01
-1.791581511497497559e-01
-3.688481822609901428e-02
1.130161508917808533e-01
-6.597598642110824585e-02
2.168936654925346375e-02
-7.137411832809448242e-02
-3.312737867236137390e-02
1.443674564361572266e-01
5.245517566800117493e-02
1.925122141838073730e-01
7.927360385656356812e-02
-3.304934203624725342e-01
1.035462096333503723e-01
-1.699814200401306152e-01
-1.474928259849548340e-01
2.542764320969581604e-02
-1.992120444774627686e-01
-1.767479628324508667e-01
1.362144714221358299e-03
-6.207808852195739746e-02
-4.029380083084106445e-01
2.050477415323257446e-01
-2.891558222472667694e-02
-5.535301938652992249e-02
-9.792220592498779297e-02
-1.372327655553817749e-01
-1.553680747747421265e-01
-2.215398401021957397e-01
1.658756099641323090e-02
-1.850598603487014771e-01
1.025151908397674561e-01
-5.895539745688438416e-02
2.391216754913330078e-01
1.682490110397338867e-01
-1.047327183187007904e-02
-9.731484949588775635e-02
2.228574901819229126e-01
-1.983665376901626587e-01
8.174346387386322021e-02
1.239230781793594360e-01
1.907726377248764038e-01
-7.511111348867416382e-02
4.522164538502693176e-02
-2.800879776477813721e-01
-8.399412781000137329e-02
1.239890903234481812e-01
-1.760109066963195801e-01
5.319435149431228638e-02
-6.045126542448997498e-02
-9.586346149444580078e-02
1.148968115448951721e-01
-2.564757168292999268e-01
-2.799331583082675934e-02
-2.075522579252719879e-02
-4.792450740933418274e-02
1.456262767314910889e-01
2.102011889219284058e-01
1.663755476474761963e-01
-7.443533092737197876e-02
-6.293755769729614258e-02
-2.160015851259231567e-01
-4.478295519948005676e-02
-4.827556759119033813e-02
-8.799980580806732178e-02
-1.787135899066925049e-01
9.460847824811935425e-02
-1.735891401767730713e-01
1.567924618721008301e-01
1.612121053040027618e-02
2.280475646257400513e-01
2.757237553596496582e-01
-4.279605299234390259e-02
9.530691057443618774e-02
3.398380056023597717e-02
-2.780455648899078369e-01
-1.155732199549674988e-01
-1.092334985733032227e-01
-9.054468572139739990e-02
-2.138420753180980682e-02
-1.908187717199325562e-01
1.510856300592422485e-01
-8.774977922439575195e-02
-7.828562706708908081e-02
-2.521088421344757080e-01
-4.781597107648849487e-02
3.478806093335151672e-02
-1.895461678504943848e-01
-2.892485857009887695e-01
4.205112159252166748e-02
-1.169183999300003052e-01
5.654769018292427063e-02
-1.340010464191436768e-01
7.602288573980331421e-02
2.657508552074432373e-01
-9.562938660383224487e-02
1.753655821084976196e-01
1.749742031097412109e-01
2.619463577866554260e-02
-3.664353117346763611e-02
1.258963495492935181e-01
-5.694995075464248657e-02
1.382823288440704346e-01
-1.129367575049400330e-01
-2.658147178590297699e-02
2.112138085067272186e-02
-1.672114878892898560e-01
4.799383133649826050e-02
-6.662207306362688541e-04
2.871981859207153320e-01
-1.438678056001663208e-01
-1.299159824848175049e-01
1.659840941429138184e-01
-9.951889514923095703e-02
2.127728611230850220e-01
3.546708822250366211e-02
-1.349652707576751709e-01
-6.532301753759384155e-02
2.417227067053318024e-02
1.347851455211639404e-01
-2.130895704030990601e-01
-4.808825254440307617e-02
5.149266868829727173e-02
3.210811018943786621e-01
1.593852788209915161e-01
7.153581827878952026e-02
-8.668619394302368164e-02
-1.907961368560791016e-01
1.456613745540380478e-02
4.038788750767707825e-02
-4.824864678084850311e-03
-1.867512017488479614e-01
-6.591243296861648560e-02
-6.047968566417694092e-02
-8.317428827285766602e-02
1.545543521642684937e-01
1.244739741086959839e-01
1.747957170009613037e-01
4.886797443032264709e-02
-7.560817152261734009e-02
-1.048174872994422913e-01
-3.218922913074493408e-01
-1.724753975868225098e-01
1.524244844913482666e-01
8.458042144775390625e-02
5.966345220804214478e-02
2.460107654333114624e-01
4.806540161371231079e-02
1.438132487237453461e-02
-2.378559410572052002e-01
-7.666127383708953857e-02
-4.195433109998703003e-02
-3.144766390323638916e-01
-1.523925215005874634e-01
-8.388007432222366333e-02
-1.105761677026748657e-01
-3.296046257019042969e-01
-2.581928297877311707e-02
1.444995850324630737e-01
3.295821547508239746e-01
-7.167137414216995239e-02
-1.354125589132308960e-01
1.599450558423995972e-01
3.825191780924797058e-02
2.191895097494125366e-01
-2.507054246962070465e-02
7.407395541667938232e-02
4.316880553960800171e-02
-2.204083651304244995e-01
-8.693856745958328247e-02
-3.310553133487701416e-01
1.942884735763072968e-02
-9.402234107255935669e-02
-1.281127333641052246e-01
-1.686557829380035400e-01
2.081138268113136292e-02
1.810110062360763550e-01
-8.440698683261871338e-02
-9.818699955940246582e-02
4.020470380783081055e-02
-8.297035098075866699e-02
-1.477843374013900757e-01
-2.028175145387649536e-01
-6.231767125427722931e-03
-3.817159682512283325e-02
-2.954917848110198975e-01
6.697883456945419312e-02
-4.375918582081794739e-02
-1.869432628154754639e-01
-4.730308055877685547e-02
2.254720628261566162e-01
-1.671618372201919556e-01
1.513831168413162231e-01
-2.942114174365997314e-01
3.858153149485588074e-02
-2.640698552131652832e-01
1.678420975804328918e-02
-2.373428195714950562e-01
-1.950191408395767212e-01
8.721193671226501465e-02
1.212454959750175476e-02
1.056426241993904114e-01
-2.023763805627822876e-01
1.415928602218627930e-01
-1.814066916704177856e-01
4.109421372413635254e-02
-1.117944121360778809e-01
-5.517961829900741577e-02
1.379547524265944958e-03
1.859873533248901367e-01
-4.153665900230407715e-02
-3.584541752934455872e-02
-1.338124871253967285e-01
-1.899185962975025177e-02
-1.194024682044982910e-01
2.225477099418640137e-01
8.149085193872451782e-02
-1.765640974044799805e-01
-5.062827840447425842e-02
-1.874567866325378418e-01
-2.157857269048690796e-01
1.243159770965576172e-01
1.494552642107009888e-01
-2.415457367897033691e-01
-3.299381434917449951e-01
2.585241198539733887e-01
1.130598559975624084e-01
-6.106626987457275391e-02
-1.430384665727615356e-01
-8.800046145915985107e-02
2.274077385663986206e-01
1.168710663914680481e-01
8.490158617496490479e-02
5.694840475916862488e-02
1.757821738719940186e-01
-1.366565972566604614e-01
1.850052028894424438e-01
-1.292300224304199219e-02
1.971686482429504395e-01
3.013700619339942932e-02
-9.011277556419372559e-02
-1.061463728547096252e-01
1.059278771281242371e-01
-1.808778569102287292e-02
2.018267810344696045e-01
1.143777072429656982e-01
-1.759510254487395287e-03
2.011755481362342834e-02
-2.561523616313934326e-01
-2.135385572910308838e-01
-1.071844100952148438e-01
2.351893931627273560e-01
-4.250492155551910400e-02
-1.064569354057312012e-01
-1.009508669376373291e-01
8.051934093236923218e-02
-1.096609085798263550e-01
-2.928765714168548584e-01
2.208213508129119873e-01
-2.357332259416580200e-01
-1.562508791685104370e-01
-1.178858429193496704e-01
1.032804176211357117e-01
-2.625818848609924316e-01
2.083630561828613281e-01
2.832867205142974854e-02
1.301470249891281128e-01
2.110386490821838379e-01
5.539622530341148376e-02
5.558801442384719849e-02
8.233529515564441681e-03
1.706636846065521240e-01
1.616511493921279907e-01
3.429958522319793701e-01
-3.679269552230834961e-02
1.255480479449033737e-02
-6.985381990671157837e-02
2.003437839448451996e-02
-1.738047450780868530e-01
3.969503194093704224e-02
1.918246001005172729e-01
-2.476996183395385742e-02
-7.259503751993179321e-02
7.805799692869186401e-02
1.992961913347244263e-01
-1.922256201505661011e-01
8.838824927806854248e-02
-1.631200462579727173e-01
1.274559497833251953e-01
-1.367312967777252197e-01
3.154952526092529297e-01
8.778748102486133575e-03
-1.042404845356941223e-01
1.863173395395278931e-01
1.259676069021224976e-01
2.016518637537956238e-02
-1.929169297218322754e-01
-1.965420991182327271e-01
1.570323556661605835e-01
-1.719164997339248657e-01
6.818728893995285034e-02
-7.732607424259185791e-02
2.379021374508738518e-03
-9.315013885498046875e-02
-1.670537702739238739e-02
-1.527434587478637695e-01
1.158646717667579651e-01
7.914253324270248413e-02
-6.728284526616334915e-03
-3.533876687288284302e-02
5.175382271409034729e-02
1.640404462814331055e-01
-9.624410420656204224e-02
-9.493963420391082764e-02
7.283834367990493774e-02
5.503990501165390015e-02
1.275936365127563477e-01
-1.884743571281433105e-03
-8.654522150754928589e-02
1.466210931539535522e-01
-9.455300122499465942e-02
6.929861754179000854e-02
-1.968709975481033325e-01
2.744818925857543945e-01
3.029366135597229004e-01
2.406269907951354980e-01
-2.218466550111770630e-01
-2.708065807819366455e-01
1.057118251919746399e-01
1.465286016464233398e-01
-5.427559837698936462e-02
1.159979924559593201e-01
6.247384101152420044e-02
3.587799668312072754e-01
1.275448799133300781e-01
-1.710241734981536865e-01
-2.009286284446716309e-01
3.408703207969665527e-02
-2.940721996128559113e-02
1.104684099555015564e-01
1.893552094697952271e-01
9.094537794589996338e-02
-1.807550936937332153e-01
2.897483408451080322e-01
1.920116543769836426e-01
3.551359102129936218e-02
4.907969385385513306e-02
2.684623599052429199e-01
8.663053065538406372e-02
3.672501817345619202e-02
-1.419590413570404053e-01
-1.371755003929138184e-01
-1.104672476649284363e-01
-1.134909614920616150e-01
-8.952527493238449097e-02
-1.676936000585556030e-01
-1.081578433513641357e-01
-8.455546945333480835e-02
-9.866443276405334473e-02
1.712926179170608521e-01
-1.503168791532516479e-01
1.118339523673057556e-01
2.609112858772277832e-01
-1.159088686108589172e-01
-3.305881982669234276e-03
-1.348787099123001099e-01
3.544660657644271851e-02
-1.020476147532463074e-01
1.155056878924369812e-01
-1.424124240875244141e-01
1.472407579421997070e-01
1.062062978744506836e-01
1.657496988773345947e-01
8.049499988555908203e-02
5.594331771135330200e-02
-2.346833795309066772e-01
1.712331771850585938e-01
-1.358129680156707764e-01
-8.679383993148803711e-02
2.974800206720829010e-02
1.974657773971557617e-01
-7.014978677034378052e-02
-9.361253678798675537e-02
6.863575428724288940e-02
-1.604819297790527344e-01
-1.753951609134674072e-01
1.776950210332870483e-01
5.543062463402748108e-02
-5.935468897223472595e-02
-1.392911523580551147e-01
-2.408174425363540649e-01
-4.307232424616813660e-02
2.722730040550231934e-01
-8.407485485076904297e-02
8.843694813549518585e-03
1.577170565724372864e-02
5.893824249505996704e-02
4.498719051480293274e-02
8.526536077260971069e-02
-2.148087918758392334e-01
3.387381434440612793e-01
-1.715635210275650024e-01
2.341512739658355713e-01
-1.778731793165206909e-01
1.160724312067031860e-01
1.481897532939910889e-01
2.516161799430847168e-01
-1.152143925428390503e-01
2.629063129425048828e-01
4.448128119111061096e-02
-7.441216707229614258e-02
8.887386322021484375e-02
1.547452658414840698e-01
6.308873742818832397e-02
-1.193297952413558960e-01
8.791359513998031616e-02
-8.267023414373397827e-02
-6.758070737123489380e-02
1.765771582722663879e-02
-1.283842474222183228e-01
-9.248628467321395874e-02
-7.602766901254653931e-02
1.088513731956481934e-01
3.225378990173339844e-01
1.913278549909591675e-01
8.318555355072021484e-02
-2.986692264676094055e-02
1.699575930833816528e-01
1.516409777104854584e-02
9.199460595846176147e-02
2.386571019887924194e-01
3.974016755819320679e-02
1.045795530080795288e-01
2.243280410766601562e-01
3.052129745483398438e-01
3.210936114192008972e-02
-2.261123210191726685e-01
2.597721517086029053e-01
5.239659175276756287e-02
-2.436108328402042389e-02
1.196469441056251526e-01
-9.521829336881637573e-02
1.299903839826583862e-01
-7.158015668392181396e-02
1.516593992710113525e-01
1.200812757015228271e-01
-4.504018723964691162e-01
1.553175002336502075e-01
-1.462652832269668579e-01
2.846999764442443848e-01
3.364773467183113098e-02
-7.545115053653717041e-02
2.136384546756744385e-01
1.659501343965530396e-01
9.577700868248939514e-03
5.669622495770454407e-02
3.467645347118377686e-01
5.064236000180244446e-02
-6.567472219467163086e-02
1.284236460924148560e-02
2.166507989168167114e-01
4.177751019597053528e-02
1.210917308926582336e-01
1.028292179107666016e-01
-2.081679403781890869e-01
-1.983573883771896362e-01
-2.020119428634643555e-01
8.791702985763549805e-02
1.061355322599411011e-01
-1.453540623188018799e-01
-1.136948689818382263e-01
9.575361013412475586e-02
1.949835717678070068e-01
-1.741714477539062500e-01
1.751246396452188492e-03
2.359429001808166504e-01
6.788183748722076416e-02
-1.301066875457763672e-01
-1.533680129796266556e-03
3.248184621334075928e-01
-1.740219742059707642e-01
-3.773071616888046265e-02
1.970384456217288971e-02
1.567100584506988525e-01
1.112575978040695190e-01
-2.822499275207519531e-01
-1.802239418029785156e-01
5.801113788038492203e-03
-4.611953720450401306e-02
1.171381324529647827e-01
5.349368229508399963e-02
1.921030133962631226e-01
7.504284381866455078e-02
1.813565790653228760e-01
-2.033390998840332031e-01
6.238787621259689331e-02
9.203656017780303955e-02
1.520434916019439697e-01
6.469865888357162476e-02
-1.539993006736040115e-02
-1.398432254791259766e-01
4.387141019105911255e-02
-1.024550199508666992e-01
-9.090840816497802734e-02
-7.232053577899932861e-02
6.358599290251731873e-03
5.803897604346275330e-02
1.621555536985397339e-01
-1.658848971128463745e-01
2.257159352302551270e-01
-2.207637727260589600e-01
1.222067549824714661e-01
1.636667698621749878e-01
8.581310510635375977e-02
-7.241654396057128906e-02
2.911927402019500732e-01
-7.237205654382705688e-02
2.128143310546875000e-01
-1.079928725957870483e-01
-1.885942965745925903e-01
2.997272014617919922e-01
4.071452468633651733e-02
1.062199124135077000e-03
-9.759424626827239990e-02
1.625536382198333740e-01
1.780011057853698730e-01
-2.595085501670837402e-01
1.963017731904983521e-01
-3.125495612621307373e-01
-2.531107962131500244e-01
-7.557646930217742920e-02
-9.080434590578079224e-02
7.860039174556732178e-02
1.251320391893386841e-01
-5.554335657507181168e-03
1.502344477921724319e-02
-9.285198897123336792e-02
9.748882800340652466e-02
1.750833392143249512e-01
1.460523158311843872e-01
2.498695999383926392e-01
-1.585590839385986328e-01
2.177813947200775146e-01
8.094133809208869934e-03
-3.441922739148139954e-02
-9.488141164183616638e-03
-3.974843397736549377e-02
-2.192358225584030151e-01
-2.466770261526107788e-01
-1.976788938045501709e-01
-1.557185053825378418e-01
-2.324587553739547729e-01
1.527127325534820557e-01
-6.036016717553138733e-02
-3.098252462223172188e-03
1.889878213405609131e-01
1.627068221569061279e-01
-5.579637363553047180e-02
1.172994524240493774e-01
5.547053366899490356e-02
3.875930309295654297e-01
-2.221835553646087646e-01
-2.067345380783081055e-01
-3.044947795569896698e-02
2.876002192497253418e-01
-1.715907156467437744e-01
-3.006805777549743652e-01
1.568415910005569458e-01
-2.143388092517852783e-01
2.718518376350402832e-01
-2.243280410766601562e-02
2.994563281536102295e-01
1.629459857940673828e-01
-1.508916169404983521e-01
1.498788595199584961e-01
-1.228257548063993454e-02
-6.209590658545494080e-02
1.942581385374069214e-01
1.048380434513092041e-01
-3.207847476005554199e-01
-3.233268857002258301e-02
-2.073459886014461517e-02
1.988721042871475220e-01
1.710077673196792603e-01
-1.366459429264068604e-01
1.104116812348365784e-01
-2.077696621417999268e-01
-2.996033132076263428e-01
-3.279694169759750366e-02
2.681415975093841553e-01
1.071563065052032471e-01
-2.051697112619876862e-03
1.205184832215309143e-01
3.401495516300201416e-01
6.680955737829208374e-02
1.328522153198719025e-02
-1.851927489042282104e-01
1.779492646455764771e-01
-6.073787435889244080e-02
2.058994621038436890e-01
1.961195468902587891e-01
2.151735723018646240e-01
-1.368907988071441650e-01
1.009274572134017944e-01
1.181510910391807556e-01
2.121561318635940552e-01
-2.530613243579864502e-01
-2.894178926944732666e-01
1.821920089423656464e-02
-8.207539469003677368e-02
-5.044899880886077881e-03
2.048274427652359009e-01
-3.056530095636844635e-02
-6.561160087585449219e-02
1.068787127733230591e-01
-3.498787283897399902e-01
-3.934269845485687256e-01
-2.119361013174057007e-01
2.084990441799163818e-01
1.047925930470228195e-02
-1.631975919008255005e-01
-3.159524798393249512e-01
1.062700059264898300e-02
3.862226307392120361e-01
-8.208583295345306396e-02
-4.173035174608230591e-02
-8.593404293060302734e-02
-8.951161801815032959e-02
-3.616478741168975830e-01
-5.223643407225608826e-02
-1.961754858493804932e-01
1.344222575426101685e-01
-1.124896630644798279e-01
2.826833911240100861e-02
2.012321650981903076e-01
-4.433488100767135620e-02
3.979146480560302734e-02
2.987540066242218018e-01
-6.754622608423233032e-02
6.316391378641128540e-02
-2.026403099298477173e-01
-2.191871963441371918e-02
-1.431427150964736938e-02
-1.084997728466987610e-01
1.955474466085433960e-01
7.432034611701965332e-02
6.312631070613861084e-02
-6.694383919239044189e-02
-1.641301438212394714e-02
2.298683226108551025e-01
-2.449048012495040894e-01
2.567985057830810547e-01
-5.446099210530519485e-03
3.338814079761505127e-01
2.102718502283096313e-01
-7.972759753465652466e-02
1.645373106002807617e-01
1.531416326761245728e-01
-7.229875773191452026e-02
2.154630422592163086e-02
2.720331251621246338e-01
3.113029897212982178e-01
7.223204523324966431e-02
-9.852125495672225952e-02
1.743346452713012695e-01
1.487724035978317261e-01
1.254767179489135742e-02
-3.814198970794677734e-01
-2.928669154644012451e-01
-1.122791171073913574e-01
-2.081978470087051392e-01
3.923072814941406250e-01
-1.821255125105381012e-02
2.404985725879669189e-01
-1.522650867700576782e-01
-1.245749145746231079e-01
1.588556468486785889e-01
-7.599204778671264648e-02
1.488569080829620361e-01
2.186791598796844482e-01
-1.768549978733062744e-01
-4.026975110173225403e-02
-8.144484460353851318e-02
8.079335838556289673e-02
1.376670747995376587e-01
-1.132058203220367432e-01
1.657560914754867554e-01
7.076437026262283325e-02
-2.929544150829315186e-01
3.253027051687240601e-02
1.947778612375259399e-01
2.336433380842208862e-01
1.914774626493453979e-01
-1.427052915096282959e-02
1.141683161258697510e-01
1.930869519710540771e-01
-1.930987983942031860e-01
1.095712184906005859e-01
-9.737549722194671631e-02
2.971270680427551270e-02
-2.089418917894363403e-01
2.493608146905899048e-01
1.306468397378921509e-01
-3.720595240592956543e-01
-1.043879054486751556e-02
3.165340283885598183e-03
-2.042909115552902222e-01
1.687896549701690674e-01
-7.599706947803497314e-02
-1.302020400762557983e-01
-3.681283593177795410e-01
1.462252289056777954e-01
1.125407218933105469e-01
-1.104371249675750732e-01
-1.048625558614730835e-01
-2.266974896192550659e-01
-2.704334259033203125e-01
-1.347271353006362915e-01
3.172629475593566895e-01
-6.544632464647293091e-02
-1.736720502376556396e-01
-7.051185518503189087e-02
-2.485285885632038116e-02
1.227156892418861389e-01
1.950091682374477386e-03
-9.775026887655258179e-02
2.026570439338684082e-01
-1.097406148910522461e-01
-2.087620049715042114e-01
-1.175844445824623108e-01
9.817609190940856934e-02
8.397436887025833130e-02
-9.736367315053939819e-02
-1.983289420604705811e-01
2.297482192516326904e-01
-5.685599520802497864e-02
-6.265903264284133911e-02
1.200899928808212280e-01
5.992956832051277161e-02
-2.208907902240753174e-01
1.178670227527618408e-01
-1.797403953969478607e-02
1.942663192749023438e-01
5.915359035134315491e-02
-2.500173151493072510e-01
-7.040451467037200928e-02
1.597337722778320312e-01
1.711670458316802979e-01
-6.148839741945266724e-02
-1.768647283315658569e-01
1.664926260709762573e-01
-9.441091865301132202e-02
7.248201221227645874e-02
-2.546451091766357422e-01
-8.489514142274856567e-02
-1.216039881110191345e-01
-1.002240777015686035e-01
6.543131172657012939e-02
-6.931714713573455811e-02
-2.111685089766979218e-02
-1.765896975994110107e-01
3.416264057159423828e-02
-2.357307970523834229e-01
-1.469876021146774292e-01
-1.630616560578346252e-02
-1.650154143571853638e-01
-1.643173843622207642e-01
-1.238683909177780151e-01
8.288884162902832031e-02
1.092862039804458618e-01
1.336380690336227417e-01
1.459402590990066528e-01
8.740895241498947144e-02
1.965744644403457642e-01
2.390273362398147583e-01
1.635054200887680054e-01
-2.857809960842132568e-01
2.552815675735473633e-01
-1.720792949199676514e-01
2.873376607894897461e-01
-1.964054442942142487e-02
6.793920695781707764e-02
1.131998151540756226e-01
-1.249881535768508911e-01
3.237086161971092224e-02
-1.041974872350692749e-01
-9.072194248437881470e-02
-1.764965951442718506e-01
8.450201898813247681e-02
-1.560798883438110352e-01
1.568410843610763550e-01
-2.116943746805191040e-01
-7.060267031192779541e-02
-1.186924800276756287e-01
6.622368469834327698e-03
8.503971993923187256e-02
-2.313644587993621826e-01
-1.478976011276245117e-01
-1.359607428312301636e-01
2.015734836459159851e-02
-1.187431961297988892e-01
-5.313198640942573547e-02
3.341238498687744141e-01
-2.090263925492763519e-02
9.366931021213531494e-02
1.246792003512382507e-01
3.525428101420402527e-02
-6.271141767501831055e-02
-1.252074688673019409e-01
-7.737427949905395508e-02
9.440819174051284790e-02
-8.091408759355545044e-02
1.008009761571884155e-01
-1.245137527585029602e-01
-7.046276330947875977e-02
7.916791737079620361e-02
2.112040519714355469e-01
1.401359140872955322e-01
1.061087325215339661e-01
2.598858475685119629e-01
-9.074757993221282959e-02
7.540505379438400269e-02
-1.960505545139312744e-01
-1.931759715080261230e-02
1.880274862051010132e-01
1.388598233461380005e-01
6.224854663014411926e-02
2.462012916803359985e-01
2.905027270317077637e-01
2.705706655979156494e-01
2.517801523208618164e-02
-1.950990259647369385e-01
-2.613912336528301239e-02
-5.976301431655883789e-02
-5.788380280137062073e-02
1.624005660414695740e-02
1.174945682287216187e-01
1.307960450649261475e-01
2.460934035480022430e-02
-9.795112162828445435e-02
1.269125789403915405e-01
4.234144464135169983e-02
1.997203677892684937e-01
2.630460262298583984e-01
-3.030073642730712891e-02
-1.675684303045272827e-01
8.276121318340301514e-02
1.233927682042121887e-01
6.726721674203872681e-02
-2.798012495040893555e-01
-1.095607280731201172e-01
-1.165285855531692505e-01
1.140355244278907776e-01
1.858512163162231445e-01
3.800255805253982544e-02
2.203468233346939087e-02
8.013903349637985229e-02
1.732585579156875610e-01
-6.764008104801177979e-02
-8.239372819662094116e-02
-1.592703163623809814e-01
-5.306631326675415039e-02
-2.924124337732791901e-02
-1.532733589410781860e-01
-2.396812895312905312e-03
4.802967235445976257e-02
8.718743920326232910e-02
7.740554958581924438e-02
-1.014493107795715332e-01
-7.570498436689376831e-02
1.748658567667007446e-01
-1.534021943807601929e-01
-9.421252459287643433e-02
1.966054551303386688e-02
-3.487694635987281799e-02
4.512693360447883606e-02
-6.496480852365493774e-02
3.010204136371612549e-01
-1.671597659587860107e-01
3.882011398673057556e-02
-1.401105523109436035e-02
2.227804511785507202e-01
-8.849918376654386520e-04
3.186444938182830811e-01
-1.654420047998428345e-01
-2.177984863519668579e-01
-2.496539801359176636e-01
9.630430489778518677e-02
6.145782396197319031e-02
-1.182039603590965271e-01
-4.017324745655059814e-02
-7.387304306030273438e-02
1.916374117136001587e-01
-1.744466125965118408e-01
1.468981802463531494e-01
-3.468756331130862236e-03
9.811678528785705566e-02
6.164920702576637268e-02
1.647643744945526123e-01
2.929193712770938873e-02
2.715575136244297028e-02
-2.399005144834518433e-01
-1.368006616830825806e-01
1.017849966883659363e-01
-9.235230833292007446e-02
1.236538887023925781e-01
-1.961306482553482056e-01
-1.469502151012420654e-01
2.052020132541656494e-01
-8.566988259553909302e-02
8.194562792778015137e-02
2.453830791637301445e-03
9.767457842826843262e-02
-1.448855847120285034e-01
1.279521882534027100e-01
8.100721240043640137e-02
-2.818635851144790649e-02
1.250213831663131714e-01
-1.634154282510280609e-02
-1.948451250791549683e-01
5.232803989201784134e-03
1.646610908210277557e-02
-1.459798663854598999e-01
1.056102886795997620e-01
-1.110928691923618317e-02
1.426091343164443970e-01
-4.504951462149620056e-02
8.218528330326080322e-02
5.698637291789054871e-02
-3.995660692453384399e-03
-4.802510887384414673e-02
-1.520671844482421875e-01
2.209434807300567627e-01
-9.286583214998245239e-02
5.165475234389305115e-02
1.690501905977725983e-02
6.794320791959762573e-02
-3.129978775978088379e-01
5.085502192378044128e-02
-2.020937204360961914e-01
9.850664436817169189e-02
-6.770037114620208740e-02
1.137909293174743652e-01
1.318282186985015869e-01
8.674685657024383545e-02
-1.836319267749786377e-01
-1.818405389785766602e-01
-7.613784074783325195e-02
-2.271116822957992554e-01
1.820105500519275665e-02
3.161901980638504028e-02
-1.852528005838394165e-02
-6.177257001399993896e-02
-9.673338383436203003e-02
2.025029808282852173e-01
2.258038669824600220e-01
1.227288395166397095e-01
-1.766862571239471436e-01
2.314696311950683594e-01
1.444687396287918091e-01
1.360450088977813721e-01
1.945236623287200928e-01
9.057699143886566162e-02
-1.446898132562637329e-01
2.095830291509628296e-01
3.728804588317871094e-01
-2.127254903316497803e-01
3.787037357687950134e-02
-4.627469927072525024e-02
5.191808566451072693e-02
6.088028103113174438e-02
-1.912678927183151245e-01
-2.972232550382614136e-02
-5.852174013853073120e-03
-5.485024675726890564e-02
-1.180138289928436279e-01
-1.883916258811950684e-01
-1.770242303609848022e-01
8.338349312543869019e-02
3.338044136762619019e-02
-1.574817672371864319e-02
-1.895550936460494995e-01
2.176489830017089844e-01
-3.592816740274429321e-02
-2.350476197898387909e-02
-4.311874508857727051e-02
9.984415024518966675e-02
-3.784452676773071289e-01
1.591243892908096313e-01
-2.404612004756927490e-01
-5.445240065455436707e-03
-2.950599193572998047e-01
-1.065439730882644653e-02
-2.900928556919097900e-01
7.807186990976333618e-02
-1.274326294660568237e-01
1.349877566099166870e-01
1.943941861391067505e-01
4.681194573640823364e-02
1.705402433872222900e-01
-1.320319473743438721e-01
4.394282400608062744e-02
9.537369012832641602e-02
1.258727014064788818e-01
9.274283796548843384e-02
-3.996878489851951599e-02
-6.980788707733154297e-02
-2.181970179080963135e-01
-1.776200085878372192e-01
-9.321317821741104126e-02
9.690050780773162842e-02
2.976044714450836182e-01
1.772120296955108643e-01
4.493678361177444458e-02
-2.459128648042678833e-01
1.739659011363983154e-01
1.220740973949432373e-01
7.966767996549606323e-02
2.195084393024444580e-01
2.377849668264389038e-01
1.068617925047874451e-01
-2.314370274543762207e-01
-1.887441426515579224e-02
-2.194464206695556641e-01
-1.414649561047554016e-02
-1.908221840858459473e-01
1.568916141986846924e-01
-1.634770482778549194e-01
-2.219871580600738525e-01
-3.117733299732208252e-01
5.306486040353775024e-02
-2.372719794511795044e-01
1.279697716236114502e-01
-1.337044090032577515e-01
-3.243919014930725098e-01
-4.999198764562606812e-02
-8.999706804752349854e-02
-7.236664742231369019e-02
-2.751437723636627197e-01
-1.426105946302413940e-01
5.894116312265396118e-02
-7.563604414463043213e-02
-3.785178661346435547e-01
7.285898923873901367e-02
-2.131603658199310303e-01
2.462746389210224152e-02
-1.896088123321533203e-01
1.796695291996002197e-01
3.802268579602241516e-02
9.172018617391586304e-03
-1.105414852499961853e-01
1.906295269727706909e-01
1.992414705455303192e-02
-1.589820533990859985e-02
7.757978979498147964e-03
5.880982428789138794e-02
-9.715887717902660370e-03
5.994740873575210571e-02
-6.495776772499084473e-02
-3.825539350509643555e-01
-1.105356262996792793e-03
-1.556942611932754517e-01
-1.210007220506668091e-01
1.433678418397903442e-01
-1.190987899899482727e-01
2.967496216297149658e-01
-3.562950715422630310e-02
-3.623736500740051270e-01
-9.764574468135833740e-02
1.231197416782379150e-01
2.059217840433120728e-01
-1.348570138216018677e-01
7.493557874113321304e-03
2.753435447812080383e-02
8.882529288530349731e-02
-7.432724535465240479e-02
6.027154251933097839e-02
1.105959415435791016e-01
3.285690248012542725e-01
-3.566027805209159851e-02
-8.375035971403121948e-02
1.154774948954582214e-01
1.194009482860565186e-01
1.081697791814804077e-01
2.070886194705963135e-01
7.196985185146331787e-02
1.243483275175094604e-01
3.461954370141029358e-02
-1.757714301347732544e-01
-2.681614756584167480e-01
1.742188930511474609e-01
2.687418460845947266e-01
-1.569626927375793457e-01
2.304211817681789398e-02
1.172806695103645325e-02
1.521468460559844971e-01
-2.042235583066940308e-01
-6.361335515975952148e-02
3.834656178951263428e-01
-2.904852032661437988e-01
-2.400567084550857544e-01
-1.870530098676681519e-01
2.915804982185363770e-01
-2.817082405090332031e-01
2.885171473026275635e-01
-1.714296042919158936e-01
1.821389943361282349e-01
-1.183424443006515503e-01
-4.238819237798452377e-03
1.582527756690979004e-01
2.757242135703563690e-02
8.500373363494873047e-02
4.147841334342956543e-01
-6.492533534765243530e-02
2.079508412862196565e-04
1.953594237565994263e-01
-4.497021064162254333e-02
-1.008388474583625793e-01
-1.715225167572498322e-02
4.782284959219396114e-04
4.874614626169204712e-02
1.946262866258621216e-01
-1.422927975654602051e-01
-2.352826595306396484e-01
6.256484892219305038e-03
-2.267490178346633911e-01
1.405878365039825439e-01
1.043301448225975037e-02
-2.383197098970413208e-02
-1.688296943902969360e-01
-3.490354418754577637e-01
4.181197285652160645e-02
1.410539895296096802e-01
-1.618487536907196045e-01
1.376329921185970306e-02
-1.149182766675949097e-01
-1.999326050281524658e-01
-4.014674574136734009e-03
5.292987450957298279e-02
1.268537193536758423e-01
1.603111810982227325e-02
-5.733091011643409729e-02
4.123534634709358215e-02
6.568795442581176758e-02
1.026497706770896912e-01
-5.656591430306434631e-02
3.253782689571380615e-01
3.389437124133110046e-02
3.512232005596160889e-02
-3.415445387363433838e-01
-5.770401284098625183e-02
1.006223633885383606e-01
-9.945404529571533203e-02
-3.449008613824844360e-02
1.747818589210510254e-01
-7.047175895422697067e-03
-2.021927833557128906e-01
-1.010769084095954895e-01
-8.711982518434524536e-02
-3.061499595642089844e-01
1.904580928385257721e-02
-1.223916262388229370e-01
2.085320502519607544e-01
-2.298206537961959839e-01
-1.568074524402618408e-01
-2.340701781213283539e-02
-9.513791650533676147e-02
2.780287563800811768e-01
2.020703703165054321e-01
-2.502424120903015137e-01
-1.155855655670166016e-01
-7.843658328056335449e-02
1.838646680116653442e-01
-1.658599972724914551e-01
-1.551156938076019287e-01
6.448388099670410156e-02
1.062676757574081421e-01
-2.239314094185829163e-02
-1.245133578777313232e-01
1.001610886305570602e-02
-1.598364114761352539e-01
-6.474145501852035522e-02
-2.549104094505310059e-01
-8.284557610750198364e-02
1.467870473861694336e-01
-2.212398350238800049e-01
-5.704467371106147766e-02
-3.492084145545959473e-01
-6.738299876451492310e-02
3.975964616984128952e-03
8.651286363601684570e-02
1.263586309505626559e-04
1.132579073309898376e-01
3.449984267354011536e-02
2.641823887825012207e-01
-1.109813898801803589e-01
-1.742033213376998901e-01
1.660263240337371826e-01
-2.258472889661788940e-01
-1.140451803803443909e-01
1.683951471932232380e-03
-2.142794877290725708e-01
-6.043621525168418884e-02
-1.350510418415069580e-01
7.135704904794692993e-02
-2.356868423521518707e-02
-7.639210671186447144e-02
1.762845553457736969e-02
-4.405140131711959839e-02
-2.294098287820816040e-01
7.355867326259613037e-02
9.326817095279693604e-02
8.918192237615585327e-02
-8.851267397403717041e-02
1.719356775283813477e-01
3.331994116306304932e-01
-1.636050343513488770e-01
-7.414030283689498901e-02
1.348184943199157715e-01
-5.280901095829904079e-04
-2.455930411815643311e-01
1.877698153257369995e-01
1.496242880821228027e-01
-7.929424196481704712e-02
-1.321589648723602295e-01
1.878604739904403687e-01
1.187746301293373108e-01
6.304089725017547607e-02
-2.113957107067108154e-01
1.407687067985534668e-01
-9.652668982744216919e-02
-1.345189213752746582e-01
-3.390264138579368591e-02
-2.200045138597488403e-01
4.211169853806495667e-02
-2.826558053493499756e-02
4.604413174092769623e-03
-1.535115540027618408e-01
-6.622626632452011108e-02
9.475279366597533226e-04
-6.953985244035720825e-02
1.260922402143478394e-01
1.147152185440063477e-01
-4.553294926881790161e-02
-5.562338978052139282e-02
8.571194857358932495e-02
-9.057059139013290405e-02
-4.639728367328643799e-02
-4.254489019513130188e-02
9.513080120086669922e-02
2.602520287036895752e-01
-8.189567178487777710e-02
-1.604154407978057861e-01
-6.158043444156646729e-02
2.097443342208862305e-01
-2.120497822761535645e-01
1.477849185466766357e-01
1.556300818920135498e-01
-7.779241353273391724e-02
1.451431512832641602e-01
1.058446913957595825e-01
-1.037030946463346481e-02
-2.974960952997207642e-02
-2.022390961647033691e-01
9.421313554048538208e-02
6.828076392412185669e-02
-1.032822579145431519e-01
1.041139438748359680e-01
7.610199600458145142e-02
1.130512803792953491e-01
-2.079891115427017212e-01
1.538632363080978394e-01
-1.315855979919433594e-01
-1.443470120429992676e-01
-2.705319225788116455e-01
1.328073441982269287e-01
1.385576208122074604e-03
-2.600980103015899658e-01
-7.967998832464218140e-02
2.403766810894012451e-01
-1.970738321542739868e-01
1.176529452204704285e-01
2.362986356019973755e-01
-2.759093344211578369e-01
5.534984916448593140e-02
1.633833162486553192e-03
-1.414465010166168213e-01
5.566016212105751038e-02
-2.117884159088134766e-01
1.471343487501144409e-01
-5.151882767677307129e-02
7.589416205883026123e-02
-8.671473711729049683e-02
-2.930146455764770508e-01
1.853227913379669189e-01
2.598613500595092773e-01
9.151663631200790405e-02
-2.760880254209041595e-02
-1.176615208387374878e-01
2.192660868167877197e-01
-1.874811202287673950e-01
1.528923362493515015e-01
-1.009866818785667419e-01
-5.518097802996635437e-02
-5.491251125931739807e-02
-1.183397024869918823e-01
2.492670156061649323e-02
-1.731555610895156860e-01
-1.091609895229339600e-01
7.601126283407211304e-02
7.709328830242156982e-02
-1.482094451785087585e-02
-6.798715889453887939e-02
-1.722159385681152344e-01
-6.477499753236770630e-02
-3.434429690241813660e-02
-2.012935094535350800e-02
7.580023258924484253e-02
3.066024482250213623e-01
8.898098766803741455e-02
-9.445711970329284668e-02
1.419521272182464600e-01
-1.836276203393936157e-01
7.298903912305831909e-02
4.424284026026725769e-02
1.667452454566955566e-01
-1.788630932569503784e-01
9.605868905782699585e-02
4.446468874812126160e-02
2.738085687160491943e-01
-7.983928173780441284e-02
5.667310953140258789e-02
-5.909692496061325073e-02
-1.402554064989089966e-01
2.264509350061416626e-01
-2.179308235645294189e-01
1.785608977079391479e-01
-8.426584303379058838e-02
-4.709097091108560562e-03
-1.319008767604827881e-01
6.487701088190078735e-02
9.960358589887619019e-02
-2.017837315797805786e-01
-1.754602342844009399e-01
-1.537441555410623550e-02
1.782456934452056885e-01
1.561545580625534058e-01
7.611835747957229614e-02
-9.320491552352905273e-02
9.050989896059036255e-02
-1.412262469530105591e-01
-1.050678715109825134e-01
7.229308038949966431e-02
-1.183693557977676392e-01
-8.632031083106994629e-02
2.116441577672958374e-01
1.173227801918983459e-01
-1.677094548940658569e-01
1.120333522558212280e-01
8.886559307575225830e-02
9.807119145989418030e-03
1.562996655702590942e-01
1.050292178988456726e-01
-2.492380738258361816e-01
1.349745094776153564e-01
-7.626956701278686523e-02
-1.246615573763847351e-01
2.449956387281417847e-01
-1.755898743867874146e-01
-1.743758171796798706e-01
7.832438498735427856e-02
1.291854232549667358e-01
2.356691956520080566e-01
-1.918983012437820435e-01
8.120255172252655029e-02
-2.548572421073913574e-01
-2.782880365848541260e-01
-2.892498672008514404e-01
1.550956815481185913e-01
1.719821393489837646e-01
-8.239641785621643066e-02
-4.322102293372154236e-02
-2.167103067040443420e-02
-1.602376699447631836e-01
-1.194495111703872681e-01
-1.937230825424194336e-01
-2.411150634288787842e-01
-1.611976176500320435e-01
1.740493029356002808e-01
1.412898600101470947e-01
-9.841009974479675293e-03
-1.549796015024185181e-01
-3.444179520010948181e-02
6.702107191085815430e-02
9.605229645967483521e-02
2.980503141880035400e-01
1.944429129362106323e-01
1.907996237277984619e-01
-3.446539863944053650e-02
-1.345362812280654907e-01
-7.270374149084091187e-02
-8.036643266677856445e-02
-2.478790879249572754e-01
-1.816668659448623657e-01
1.086058914661407471e-01
1.391443759202957153e-01
1.846229434013366699e-01
-8.867127448320388794e-02
-1.932101100683212280e-01
7.912923395633697510e-02
4.859756305813789368e-02
2.043493688106536865e-01
-1.303860545158386230e-02
3.055314905941486359e-02
-1.632123887538909912e-01
-5.800413712859153748e-02
2.512194961309432983e-02
-8.332698047161102295e-02
1.347222477197647095e-01
4.833264648914337158e-02
1.517313271760940552e-01
-5.342652648687362671e-02
-1.087758392095565796e-01
2.713271975517272949e-01
9.929504245519638062e-02
1.145458221435546875e-01
-1.484038084745407104e-01
-5.972706153988838196e-02
-8.100224286317825317e-02
1.355537772178649902e-01
-1.411703974008560181e-01
1.764777489006519318e-02
3.411519527435302734e-01
-2.383465766906738281e-01
8.011054992675781250e-02
1.460364311933517456e-01
-5.306416377425193787e-02
1.620659232139587402e-01
8.687932044267654419e-02
9.178843349218368530e-02
7.152202725410461426e-02
7.454907894134521484e-02
1.882758885622024536e-01
1.354634761810302734e-01
-1.293026655912399292e-01
1.186348423361778259e-01
-1.442960649728775024e-01
-8.147416263818740845e-02
-4.835902154445648193e-02
1.604645699262619019e-01
2.201121747493743896e-01
-8.201538026332855225e-02
-1.678068041801452637e-01
-4.042633250355720520e-02
-1.307976990938186646e-02
-1.087857503443956375e-02
4.980511590838432312e-02
7.323957979679107666e-02
1.424684282392263412e-02
2.574621438980102539e-01
-2.680611908435821533e-01
1.124998331069946289e-01
8.459126949310302734e-02
2.229266315698623657e-01
1.632577776908874512e-01
-1.465908735990524292e-01
-5.458322167396545410e-02
1.718074232339859009e-01
-1.206224709749221802e-01
-2.057739906013011932e-02
-1.839583516120910645e-01
5.707592889666557312e-02
-2.254223972558975220e-01
3.033493757247924805e-01
-9.162078797817230225e-02
-1.540062576532363892e-01
-6.772495806217193604e-02
2.677942626178264618e-02
1.954174190759658813e-01
-9.469471871852874756e-02
5.025181919336318970e-02
1.518274843692779541e-01
-1.977036148309707642e-01
1.613653898239135742e-01
-2.640079855918884277e-01
1.344572156667709351e-01
-1.175932064652442932e-01
-2.905925810337066650e-01
-1.276647448539733887e-01
2.071361988782882690e-01
-1.130422577261924744e-01
-9.930635988712310791e-02
-1.868390440940856934e-01
1.145661175251007080e-01
4.015513509511947632e-02
8.175217546522617340e-03
1.739775575697422028e-02
1.213194653391838074e-01
1.257222611457109451e-02
6.293471902608871460e-02
4.281426966190338135e-02
1.465909034013748169e-01
-9.231919050216674805e-02
-4.376736655831336975e-02
1.703251153230667114e-01
8.019885979592800140e-03
3.408942744135856628e-02
-2.791787497699260712e-02
7.333490531891584396e-03
-6.774514168500900269e-02
7.429073750972747803e-02
1.196363419294357300e-01
-3.524850681424140930e-02
-4.783171042799949646e-02
4.653133451938629150e-02
1.022169142961502075e-01
-2.046665996313095093e-01
1.170926094055175781e-01
3.453495800495147705e-01
-1.231302842497825623e-01
3.781882813200354576e-03
-2.588182315230369568e-02
1.719520427286624908e-02
-9.035931527614593506e-02
-1.305764168500900269e-01
1.203960273414850235e-02
-2.013968378305435181e-01
2.650865614414215088e-01
-1.242892146110534668e-01
-1.432145684957504272e-01
-2.049755007028579712e-01
-5.410789325833320618e-02
-1.736042946577072144e-01
9.032332152128219604e-02
9.425628930330276489e-02
1.002985760569572449e-01
1.019854247570037842e-01
-9.609695523977279663e-02
-1.424103416502475739e-02
-1.192527785897254944e-01
1.521443724632263184e-01
4.526991769671440125e-02
-2.148828655481338501e-01
-1.648685932159423828e-01
-1.004036515951156616e-02
1.633963584899902344e-01
-1.100788265466690063e-02
-1.389990001916885376e-01
-1.344497650861740112e-01
1.720213703811168671e-02
9.475006908178329468e-02
-1.393130719661712646e-01
-1.017893701791763306e-01
1.418883800506591797e-01
3.253131508827209473e-01
-9.800186753273010254e-02
4.365551471710205078e-02
-7.598258089274168015e-03
-1.407237350940704346e-01
6.913915276527404785e-02
3.994929194450378418e-01
-1.796087473630905151e-01
-1.113071516156196594e-01
1.370440721511840820e-01
1.395159363746643066e-01
-1.542138159275054932e-01
-4.905907809734344482e-02
-1.327317208051681519e-01
-1.502632200717926025e-01
2.423263937234878540e-01
-1.090881414711475372e-02
-2.685915231704711914e-01
-3.244046494364738464e-02
1.706887036561965942e-02
-7.623365521430969238e-02
5.575466901063919067e-02
-3.067615330219268799e-01
-3.915613144636154175e-02
-6.758360564708709717e-02
-4.969110339879989624e-02
-8.310668170452117920e-03
-1.136322785168886185e-02
-1.111985370516777039e-01
3.034438192844390869e-01
-1.993858441710472107e-02
8.117362111806869507e-02
1.231534555554389954e-01
-1.735417358577251434e-02
-1.481842994689941406e-02
7.027195394039154053e-02
-3.306460380554199219e-01
6.980287376791238785e-03
-2.208379209041595459e-01
7.192087918519973755e-02
2.061835303902626038e-02
1.285053342580795288e-01
1.282986551523208618e-01
-6.438815034925937653e-03
-1.137090288102626801e-02
2.005963027477264404e-02
3.734622895717620850e-02
-3.661235868930816650e-01
1.161516234278678894e-01
4.938438534736633301e-02
-6.931743770837783813e-02
-7.609938085079193115e-02
2.142027765512466431e-01
1.821861416101455688e-01
6.177720427513122559e-02
2.363509237766265869e-01
-7.744509726762771606e-02
-2.797606289386749268e-01
8.280738443136215210e-02
-1.347151845693588257e-01
-1.478075236082077026e-01
-1.797952353954315186e-01
2.949510812759399414e-01
9.292490780353546143e-02
2.698811329901218414e-02
1.362364441156387329e-01
-2.355886250734329224e-01
3.057625330984592438e-02
-9.751812368631362915e-02
1.309573203325271606e-01
1.938722096383571625e-02
-1.163689047098159790e-01
8.267252147197723389e-02
8.043786883354187012e-02
-1.652887910604476929e-01
8.684279024600982666e-02
1.221878267824649811e-02
-8.519253879785537720e-02
2.349455840885639191e-02
1.523727178573608398e-01
-4.566136002540588379e-02
-8.810368925333023071e-02
1.014125421643257141e-01
-5.046301707625389099e-02
1.652626097202301025e-01
-1.355785280466079712e-01
-5.503422766923904419e-02
1.915965676307678223e-01
-6.085482239723205566e-02
6.194821000099182129e-02
1.984711140394210815e-01
-2.829972207546234131e-01
8.804743736982345581e-02
6.170935556292533875e-02
7.650257088243961334e-03
2.715288698673248291e-01
-1.270095258951187134e-01
6.627278029918670654e-02
-1.833583712577819824e-01
-1.478953510522842407e-01
3.798514977097511292e-02
-1.373012512922286987e-01
1.065913587808609009e-01
1.089452281594276428e-01
1.901752799749374390e-01
-2.971785068511962891e-01
-9.335415065288543701e-02
-2.551731765270233154e-01
2.508789114654064178e-02
-7.206881791353225708e-02
-7.068654149770736694e-02
1.083333417773246765e-01
5.659431591629981995e-02
2.139642834663391113e-02
-6.425190716981887817e-02
-1.610058993101119995e-01
-1.395639181137084961e-01
-9.764908254146575928e-02
-1.182898879051208496e-01
5.128372926265001297e-03
1.453696936368942261e-01
-1.597293913364410400e-01
5.327366292476654053e-02
1.149363964796066284e-01
9.062749892473220825e-02
4.688766226172447205e-02
2.603772878646850586e-01
-3.713409900665283203e-01
1.616224795579910278e-01
-1.729244291782379150e-01
-8.997015655040740967e-02
-1.457067131996154785e-01
-1.077175140380859375e-01
1.390470471233129501e-02
-6.283074617385864258e-02
1.060725301504135132e-01
1.918604969978332520e-02
-6.904438883066177368e-02
1.810756027698516846e-01
-1.003519818186759949e-01
-1.199559792876243591e-01
3.882285952568054199e-02
-1.985864341259002686e-01
-2.165810167789459229e-01
-2.293117344379425049e-01
4.719175398349761963e-02
-3.052634596824645996e-01
-8.279200643301010132e-02
2.159343063831329346e-01
9.733954071998596191e-02
-3.134212493896484375e-01
-1.005096659064292908e-01
1.771645694971084595e-01
3.757663071155548096e-02
2.460795044898986816e-01
-1.005668714642524719e-01
-4.261324554681777954e-02
6.873901933431625366e-02
1.832829564809799194e-01
1.686858013272285461e-02
2.881154716014862061e-01
3.480812162160873413e-02
5.356751009821891785e-02
-1.909253299236297607e-01
1.187520995736122131e-01
1.863603293895721436e-01
-4.256532527506351471e-03
-4.851096495985984802e-02
8.365648239850997925e-02
-1.990964869037270546e-03
-8.171552419662475586e-02
-3.233556821942329407e-02
-2.203842103481292725e-01
5.222997069358825684e-02
1.920803934335708618e-01
-3.388614952564239502e-01
-1.082325726747512817e-01
1.503053754568099976e-01
3.357190266251564026e-02
2.353001087903976440e-01
-2.239829748868942261e-01
9.873510152101516724e-02
6.315004825592041016e-02
-2.001084238290786743e-01
-2.497026175260543823e-01
3.135971352458000183e-02
2.201665341854095459e-01
-1.124179884791374207e-01
-9.177908301353454590e-02
6.942553073167800903e-02
-5.719367787241935730e-02
-2.806076705455780029e-01
-6.240791082382202148e-02
-2.105575799942016602e-02
-1.959543861448764801e-02
1.944046914577484131e-01
-1.958025395870208740e-01
-6.041316315531730652e-02
6.204887852072715759e-02
-1.101424023509025574e-01
1.630386710166931152e-01
1.225790828466415405e-01
-2.054668962955474854e-01
-1.794918775558471680e-01
-2.024310380220413208e-01
3.070329129695892334e-01
1.561203449964523315e-01
-7.236403226852416992e-02
-1.683733165264129639e-01
-1.790434867143630981e-01
-2.084362059831619263e-01
-1.332892477512359619e-01
1.183929741382598877e-01
-7.458791136741638184e-02
7.279696315526962280e-02
-2.435004524886608124e-02
-4.206769168376922607e-02
-9.594019502401351929e-02
1.858159601688385010e-01
6.263144314289093018e-02
-1.619996279478073120e-01
1.754459589719772339e-01
5.032173171639442444e-02
2.316082119941711426e-01
4.434528574347496033e-02
-1.438619196414947510e-01
-1.019243821501731873e-01
-1.082946434617042542e-01
-2.962556779384613037e-01
-2.397721409797668457e-01
-1.604120433330535889e-01
-8.199044317007064819e-02
1.875032782554626465e-01
7.348549365997314453e-02
-1.179944723844528198e-01
-3.055551350116729736e-01
1.421272605657577515e-01
1.545503139495849609e-01
1.855785101652145386e-01
-2.762870788574218750e-01
2.569896578788757324e-01
1.149454414844512939e-01
-9.153964370489120483e-02
-9.255689382553100586e-02
-1.422517001628875732e-01
3.425502181053161621e-01
-6.074459105730056763e-02
-1.454612463712692261e-01
2.209382653236389160e-01
5.745514482259750366e-02
8.875509351491928101e-02
-4.878867417573928833e-02
-6.975585967302322388e-02
3.352465108036994934e-02
2.723073661327362061e-01
1.710296124219894409e-01
-2.284921854734420776e-01
-1.039920374751091003e-01
-8.273774385452270508e-02
1.784431934356689453e-01
1.046537980437278748e-01
3.929916769266128540e-02
9.265143424272537231e-02
9.111820161342620850e-02
-1.228883713483810425e-01
7.455775141716003418e-02
-8.572903275489807129e-02
-9.185779839754104614e-02
-7.923477888107299805e-02
-3.457283228635787964e-02
-2.890574038028717041e-01
2.787598669528961182e-01
-2.184507623314857483e-02
-2.248070575296878815e-02
3.098338246345520020e-01
2.257868349552154541e-01
2.677452862262725830e-01
1.493847519159317017e-01
9.331817179918289185e-02
2.934687733650207520e-01
3.309971094131469727e-02
-3.319694101810455322e-01
2.362196445465087891e-01
-2.091676443815231323e-01
1.597299128770828247e-01
1.145860925316810608e-01
6.835009902715682983e-02
2.327876538038253784e-02
2.249904125928878784e-01
-8.922145515680313110e-02
8.528552949428558350e-03
-2.644477188587188721e-01
-4.687912389636039734e-02
1.128825023770332336e-01
-1.950857192277908325e-01
7.392824627459049225e-04
-5.799200385808944702e-02
1.880990117788314819e-01
3.267247974872589111e-01
-1.790886223316192627e-01
-5.727973300963640213e-03
1.566517800092697144e-01
-1.404493600130081177e-01
6.020353361964225769e-02
8.281652629375457764e-02
6.888485699892044067e-02
-2.120505869388580322e-01
-4.106055945158004761e-02
-1.009608991444110870e-02
-2.534152474254369736e-03
-2.795470654964447021e-01
-2.952264621853828430e-02
-1.641858220100402832e-01
-2.298521697521209717e-01
8.005291223526000977e-02
-1.423221975564956665e-01
1.554292440414428711e-01
-4.385404661297798157e-02
-7.792549580335617065e-02
-1.340646147727966309e-01
3.866173326969146729e-02
4.442365095019340515e-02
-7.404829841107130051e-03
1.568782515823841095e-02
-3.568254783749580383e-02
2.052528783679008484e-02
2.096969336271286011e-01
5.293184146285057068e-02
-2.200010567903518677e-01
-3.160193562507629395e-02
-1.214534323662519455e-02
5.483933538198471069e-02
-9.317641705274581909e-02
-7.783633470535278320e-02
4.077354446053504944e-02
1.721304059028625488e-01
-1.386542152613401413e-02
3.339473530650138855e-02
2.694666087627410889e-01
-3.662116825580596924e-01
1.215902864933013916e-01
-2.287657186388969421e-02
5.007421225309371948e-02
-2.169463038444519043e-01
8.254407346248626709e-02
-1.110799461603164673e-01
-1.337492093443870544e-02
-1.947295218706130981e-01
-2.129738032817840576e-01
2.428059875965118408e-01
1.386138647794723511e-01
1.504220664501190186e-01
1.567663401365280151e-01
-1.699797511100769043e-01
2.038962990045547485e-01
5.799913778901100159e-02
3.294924646615982056e-02
-1.172482296824455261e-01
2.571414709091186523e-01
-2.882718574255704880e-03
6.979167461395263672e-02
2.627348713576793671e-02
3.015140257775783539e-02
-1.737838238477706909e-02
6.203332915902137756e-02
-9.397000074386596680e-02
-8.948183804750442505e-02
-1.116780564188957214e-01
1.286813914775848389e-01
-2.723276056349277496e-02
1.276741027832031250e-01
-9.445670247077941895e-02
-3.082805573940277100e-01
2.709960341453552246e-01
-1.406881064176559448e-01
-1.805317550897598267e-01
3.487692400813102722e-02
-2.292029708623886108e-01
-4.072520881891250610e-03
-1.048231348395347595e-01
1.141186505556106567e-01
1.556691974401473999e-01
-9.959294646978378296e-02
1.475170701742172241e-01
-3.461906220763921738e-03
-2.940271794795989990e-01
-2.267692983150482178e-01
-1.796868396922945976e-03
3.827020227909088135e-01
1.099906563758850098e-01
8.817034959793090820e-02
-2.231188304722309113e-02
1.993185430765151978e-01
-9.916752576828002930e-02
-2.804759889841079712e-02
1.640987247228622437e-01
-1.223969534039497375e-01
3.901756554841995239e-02
6.213192269206047058e-02
-1.222898885607719421e-01
-1.390547901391983032e-01
-8.746898174285888672e-02
5.053824931383132935e-02
-2.967629432678222656e-01
-1.458762139081954956e-01
-8.214718103408813477e-02
2.543231658637523651e-02
-2.680790424346923828e-01
1.255292296409606934e-01
2.022627368569374084e-02
-2.277457155287265778e-02
6.304211914539337158e-02
-2.790180444717407227e-01
-1.495118141174316406e-01
-2.353994101285934448e-01
-1.044826582074165344e-01
-2.125715836882591248e-02
-6.274943053722381592e-02
-6.028349325060844421e-02
-1.038102060556411743e-01
4.658837616443634033e-02
9.788963198661804199e-02
1.847591437399387360e-02
1.604744940996170044e-01
-2.867720276117324829e-02
-3.007196784019470215e-01
2.354186028242111206e-01
-8.989427983760833740e-02
-2.462246716022491455e-01
8.038585633039474487e-02
-6.504219025373458862e-02
8.385130204260349274e-03
-9.671936184167861938e-02
-7.180771976709365845e-02
-2.230539321899414062e-01
1.123005226254463196e-01
-1.811423599720001221e-01
-1.667550504207611084e-01
8.486133068799972534e-02
-9.706591814756393433e-02
-1.445263326168060303e-01
-3.601113706827163696e-02
9.876982867717742920e-02
-9.641236811876296997e-02
1.555816456675529480e-02
1.929457783699035645e-01
1.769067347049713135e-01
-1.257252693176269531e-01
-1.550210565328598022e-01
1.618605703115463257e-01
-2.217342406511306763e-01
-1.372635662555694580e-01
1.402174383401870728e-01
-2.528816834092140198e-02
-2.282886654138565063e-01
-6.315185874700546265e-02
2.611984498798847198e-02
1.078567374497652054e-02
-2.342022806406021118e-01
1.230112835764884949e-02
-1.672252118587493896e-01
-2.686186879873275757e-02
2.444487065076828003e-01
-1.004898995161056519e-01
-1.217625215649604797e-01
-1.543272733688354492e-01
2.154515683650970459e-02
-1.165402010083198547e-01
8.839115500450134277e-03
-8.362063020467758179e-02
-1.476098001003265381e-01
1.327979378402233124e-02
-1.531977206468582153e-01
-1.973442584276199341e-01
2.289489060640335083e-01
3.704590722918510437e-02
-5.260386317968368530e-02
2.528880238533020020e-01
1.127767488360404968e-01
-2.840990126132965088e-01
1.006072759628295898e-01
-1.662544310092926025e-01
-5.776343867182731628e-03
-1.014781966805458069e-01
-9.323556721210479736e-02
8.282039314508438110e-02
-2.383053861558437347e-02
1.348014771938323975e-01
-2.552379071712493896e-01
-2.585156261920928955e-01
7.400660216808319092e-02
1.532816737890243530e-01
6.286190450191497803e-02
1.979551166296005249e-01
1.525442600250244141e-01
-2.289547771215438843e-01
5.072009749710559845e-03
-1.115489527583122253e-01
1.090617999434471130e-01
8.029815740883350372e-03
2.243745326995849609e-01
-1.440609842538833618e-01
-6.340225040912628174e-02
8.635858446359634399e-02
-9.293188899755477905e-02
-5.475774034857749939e-02
-1.854527927935123444e-02
1.068226173520088196e-01
-1.468548476696014404e-01
-1.855069249868392944e-01
-1.304624695330858231e-02
3.342390060424804688e-02
-1.797380298376083374e-02
-1.329029444605112076e-02
3.385392427444458008e-01
-4.715385660529136658e-02
4.538444429636001587e-02
-7.123743742704391479e-02
-2.250546067953109741e-01
-3.217706107534468174e-04
-3.303211033344268799e-01
1.327395788393914700e-03
-5.230528488755226135e-02
-4.096882790327072144e-02
-1.126017794013023376e-01
-2.589591741561889648e-01
1.008205190300941467e-01
-4.972331225872039795e-02
7.203025743365287781e-03
-4.235406219959259033e-02
-1.681128591299057007e-01
6.925208866596221924e-02
-8.667730540037155151e-02
3.126008212566375732e-01
-6.067508831620216370e-02
1.107183247804641724e-01
-2.356741875410079956e-01
-2.103393971920013428e-01
-7.502821832895278931e-02
-1.190340369939804077e-01
-8.469567447900772095e-02
1.098058894276618958e-01
-2.008564956486225128e-02
1.226346567273139954e-02
2.645229734480381012e-02
-1.663784682750701904e-01
-1.262823045253753662e-01
1.946487650275230408e-02
1.922336667776107788e-01
7.817131280899047852e-02
-9.910295158624649048e-02
1.251745074987411499e-01
-1.198965683579444885e-01
3.461961448192596436e-02
1.229620352387428284e-01
2.083253813907504082e-03
2.138324826955795288e-01
5.480514466762542725e-02
1.524072289466857910e-01
1.754370629787445068e-01
4.439111053943634033e-02
-2.907668948173522949e-01
-1.156637258827686310e-02
-8.719046413898468018e-02
-1.736426502466201782e-01
1.345637887716293335e-01
4.668793827295303345e-02
8.614614605903625488e-03
2.704693377017974854e-01
7.163637131452560425e-02
4.913586378097534180e-02
-2.629473209381103516e-01
1.709411591291427612e-01
-6.451947987079620361e-02
1.167786121368408203e-01
-2.574355006217956543e-01
-2.545485459268093109e-02
1.438479572534561157e-01
-1.843432337045669556e-01
-2.279720306396484375e-01
-1.589153110980987549e-01
3.130847215652465820e-02
-1.525646895170211792e-01
-4.090939834713935852e-02
4.326251149177551270e-02
1.157854795455932617e-01
-2.026659846305847168e-01
-1.278425334021449089e-03
8.603584766387939453e-02
2.113825269043445587e-02
3.350093066692352295e-01
-2.325552999973297119e-01
-1.099457144737243652e-01
1.710702478885650635e-01
-1.876097768545150757e-01
2.146192491054534912e-01
5.248025432229042053e-02
1.268190294504165649e-01
1.874156743288040161e-01
1.716590821743011475e-01
1.116531938314437866e-01
2.642827108502388000e-02
2.570810541510581970e-02
-1.801544427871704102e-01
1.332101374864578247e-01
-1.747509986162185669e-01
7.136586308479309082e-02
1.135487034916877747e-01
-1.017999127507209778e-01
1.564488112926483154e-01
-1.345594376325607300e-01
-5.445578321814537048e-02
-1.927704662084579468e-01
5.684912577271461487e-02
-4.726123809814453125e-02
1.009131371974945068e-01
-3.565214574337005615e-02
-2.156842797994613647e-01
-1.156530454754829407e-01
-1.445390135049819946e-01
1.120719090104103088e-01
1.943454444408416748e-01
2.531724609434604645e-02
8.078771084547042847e-02
-9.355172514915466309e-02
1.057959422469139099e-01
-8.488951623439788818e-02
-3.194715082645416260e-02
-2.154335826635360718e-01
1.359581202268600464e-01
7.121193688362836838e-03
-1.367163956165313721e-01
-3.121304884552955627e-02
1.904259473085403442e-01
1.217419877648353577e-01
-1.534148454666137695e-01
1.645207591354846954e-02
1.286528818309307098e-02
-8.211617171764373779e-02
5.059812963008880615e-02
7.298644632101058960e-02
-2.616353332996368408e-02
-1.563451290130615234e-01
-1.001445576548576355e-02
2.303665690124034882e-02
-1.131049245595932007e-01
-6.160811334848403931e-02
1.980243027210235596e-01
-3.829998150467872620e-02
-1.065947189927101135e-01
-5.727748572826385498e-02
8.060122281312942505e-02
1.585024744272232056e-01
2.576292306184768677e-02
-2.141274660825729370e-01
-1.105571612715721130e-01
1.009017135947942734e-02
-3.361919224262237549e-01
-1.790355592966079712e-01
-5.930396541953086853e-02
-1.616855859756469727e-01
-2.478107623755931854e-02
-5.742650479078292847e-02
-2.710489034652709961e-01
1.926657408475875854e-01
-2.538062632083892822e-01
-8.550232648849487305e-02
-3.218660056591033936e-01
6.921220570802688599e-02
5.690208077430725098e-02
-2.953785657882690430e-01
-1.481273919343948364e-01
-7.371358573436737061e-02
-1.331834197044372559e-01
-1.946620047092437744e-01
-1.456127911806106567e-01
2.781043350696563721e-01
-1.228245720267295837e-01
-4.479527473449707031e-02
1.785782426595687866e-01
-1.799805313348770142e-01
3.669945895671844482e-02
-1.053844019770622253e-01
-1.085643842816352844e-01
1.573531031608581543e-01
-1.057817265391349792e-01
1.419702768325805664e-01
-5.137170478701591492e-02
-1.217498928308486938e-01
-6.450562924146652222e-02
1.195479482412338257e-01
-1.590600758790969849e-01
-9.318010509014129639e-02
-3.051996696740388870e-03
-4.782381933182477951e-03
1.478177309036254883e-01
-1.661132723093032837e-01
1.152234375476837158e-01
1.158702652901411057e-02
-3.995836898684501648e-02
8.983677625656127930e-02
2.545305192470550537e-01
1.011936366558074951e-01
-4.313320294022560120e-02
1.954322904348373413e-01
6.363755464553833008e-02
1.019132137298583984e-01
-2.760197967290878296e-02
-1.604722738265991211e-01
1.477150171995162964e-01
1.558237969875335693e-01
3.015584684908390045e-02
-3.484581783413887024e-02
1.427985578775405884e-01
-1.407851576805114746e-01
9.430390596389770508e-02
-2.084657549858093262e-01
3.037492334842681885e-01
2.314139530062675476e-02
-2.761778533458709717e-01
-8.197769522666931152e-02
-7.139496039599180222e-03
1.691689714789390564e-03
-2.835560776293277740e-02
-3.006264269351959229e-01
-1.283288151025772095e-01
2.098492980003356934e-01
-2.518041804432868958e-02
-1.095944736152887344e-02
-4.361995961517095566e-03
-1.688571721315383911e-01
-1.410594433546066284e-01
-3.891604766249656677e-02
-7.379385828971862793e-02
1.290530413389205933e-01
8.847514539957046509e-02
-4.115212336182594299e-02
-3.542264997959136963e-01
4.379169046878814697e-01
-6.523267179727554321e-02
-2.089134454727172852e-01
1.092916652560234070e-01
-2.719710469245910645e-01
1.944936364889144897e-01
2.298349738121032715e-01
-1.581848114728927612e-01
-1.876912564039230347e-01
1.037196218967437744e-01
-2.441636621952056885e-01
-4.194737225770950317e-02
-3.944511711597442627e-02
1.693416684865951538e-01
8.173186331987380981e-02
1.675975024700164795e-01
1.675205528736114502e-01
2.356485873460769653e-01
3.375675082206726074e-01
1.688130199909210205e-01
2.323741614818572998e-01
-2.727476954460144043e-01
-1.804009675979614258e-01
3.248461782932281494e-01
1.181941553950309753e-01
-4.122586548328399658e-02
-1.751151531934738159e-01
-1.869343817234039307e-01
3.641232252120971680e-01
-4.067596048116683960e-02
2.990871369838714600e-01
-2.203111350536346436e-01
-1.083609759807586670e-01
-6.082465872168540955e-02
2.944041192531585693e-01
1.277975589036941528e-01
-1.004257202148437500e-01
-1.338527202606201172e-01
-6.239061802625656128e-02
2.339646220207214355e-01
6.727724522352218628e-02
-1.192782297730445862e-01
-1.620854586362838745e-01
1.547533571720123291e-01
5.245276167988777161e-02
-5.798700079321861267e-02
-2.117506265640258789e-01
-9.648847579956054688e-02
6.772007793188095093e-02
-1.850162297487258911e-01
7.613499462604522705e-02
2.240733057260513306e-02
-2.403531968593597412e-01
2.815497517585754395e-01
-1.151242256164550781e-01
-1.428233236074447632e-01
7.424695789813995361e-02
1.622428148984909058e-01
-7.972455024719238281e-02
-4.477916657924652100e-02
6.078583374619483948e-02
-1.801733076572418213e-01
4.566112533211708069e-02
-2.203597575426101685e-01
-1.571868658065795898e-01
2.808016836643218994e-01
2.564529478549957275e-01
-4.685362428426742554e-02
1.125457882881164551e-01
-1.290754079818725586e-01
-2.730668522417545319e-02
2.016688585281372070e-01
-1.573120802640914917e-01
-1.488038152456283569e-01
-2.592206001281738281e-01
-1.326163858175277710e-01
1.652376055717468262e-01
9.244707226753234863e-02
1.703311502933502197e-01
7.774224970489740372e-03
-6.283251941204071045e-02
-1.533181071281433105e-01
4.148423671722412109e-02
5.326994508504867554e-02
-9.476791322231292725e-02
-6.152760609984397888e-02
1.358590722084045410e-01
2.912926971912384033e-01
1.202358165755867958e-03
8.670200407505035400e-02
1.214608997106552124e-01
1.754360795021057129e-01
1.076476424932479858e-01
-7.933358848094940186e-02
5.056066438555717468e-03
2.317877560853958130e-01
-1.423712670803070068e-01
-2.507046163082122803e-01
1.886828839778900146e-01
4.661741200834512711e-03
1.340536680072546005e-02
3.449174761772155762e-02
1.467044278979301453e-02
6.946460809558629990e-03
9.531077742576599121e-02
-4.066454246640205383e-02
-1.751303523778915405e-01
1.851082891225814819e-01
-2.638793885707855225e-01
1.699595153331756592e-01
-5.097230523824691772e-02
-1.280377805233001709e-01
8.828410506248474121e-02
1.844674162566661835e-02
-4.824849963188171387e-02
2.963506579399108887e-01
1.234874203801155090e-01
2.861304767429828644e-02
-2.434127181768417358e-01
5.229358375072479248e-02
1.864094734191894531e-01
2.423247247934341431e-01
2.010159380733966827e-02
2.107143253087997437e-01
1.400241702795028687e-01
5.730028823018074036e-02
3.797574713826179504e-02
-1.681617796421051025e-01
-6.513390690088272095e-02
2.541387975215911865e-01
-3.517344295978546143e-01
-5.484025552868843079e-02
1.143384911119937897e-02
-3.327384591102600098e-01
2.202618867158889771e-01
-6.889541633427143097e-03
-1.352207511663436890e-01
1.206436604261398315e-01
-8.007528632879257202e-02
8.271966129541397095e-02
1.475910395383834839e-01
5.300276353955268860e-02
1.399671137332916260e-01
-1.532597541809082031e-01
4.687763005495071411e-02
1.936332434415817261e-01
1.597749143838882446e-01
1.595838516950607300e-01
7.981774955987930298e-02
-7.568293809890747070e-02
7.085575163364410400e-02
-3.085618615150451660e-01
-1.706753820180892944e-01
-4.277306422591209412e-02
-2.838118970394134521e-01
-4.509970173239707947e-02
3.921272605657577515e-02
1.298874318599700928e-01
-6.450066715478897095e-02
9.257441759109497070e-02
-1.707753688097000122e-01
-5.198292061686515808e-02
-1.954767480492591858e-02
-1.573949009180068970e-01
9.133763611316680908e-02
1.126424819231033325e-01
2.856015861034393311e-01
-8.580109477043151855e-02
-9.727772325277328491e-02
2.343039028346538544e-02
2.304694242775440216e-02
-1.917193382978439331e-01
-1.300026178359985352e-01
1.046892106533050537e-01
1.173625215888023376e-01
2.647778987884521484e-01
1.435961481183767319e-02
-3.392663598060607910e-02
-1.960097998380661011e-02
-4.272769019007682800e-02
7.252808660268783569e-02
-1.943007707595825195e-01
4.506218805909156799e-02
1.850217580795288086e-01
1.615615785121917725e-01
1.328628212213516235e-01
3.012802638113498688e-02
8.731227368116378784e-02
-1.124380603432655334e-01
-3.025262653827667236e-01
2.737695276737213135e-01
1.048221737146377563e-01
-3.251661658287048340e-01
1.370315402746200562e-01
7.232065498828887939e-02
-1.721097379922866821e-01
-3.072951436042785645e-01
1.064815968275070190e-01
-1.172266751527786255e-01
-2.238637208938598633e-02
-8.371061086654663086e-02
1.206035315990447998e-01
1.349103003740310669e-01
-6.886952370405197144e-02
5.289910733699798584e-02
7.326967269182205200e-02
1.101862490177154541e-01
-1.504552364349365234e-01
2.008969634771347046e-01
-1.909527033567428589e-01
1.578336656093597412e-01
-4.189928472042083740e-01
2.140714526176452637e-01
-3.769030794501304626e-02
-5.642430111765861511e-02
-1.269989013671875000e-01
-1.010760068893432617e-01
-2.713283896446228027e-01
1.604304015636444092e-01
2.644272446632385254e-01
1.619037985801696777e-01
6.833858788013458252e-02
6.657823920249938965e-02
-3.495171666145324707e-01
3.431209623813629150e-01
-3.203484416007995605e-01
-9.676795452833175659e-03
1.111128255724906921e-01
-1.091189458966255188e-01
-6.982816755771636963e-02
4.582558944821357727e-02
-6.024186313152313232e-02
-1.162152215838432312e-01
1.419128179550170898e-01
-2.408713400363922119e-01
2.354168705642223358e-02
2.373172529041767120e-02
1.348424702882766724e-01
5.197468772530555725e-02
-1.206314712762832642e-01
-9.990666806697845459e-02
-2.654578685760498047e-01
-1.952981352806091309e-01
-1.612264104187488556e-02
-1.255039721727371216e-01
-5.604897812008857727e-02
3.079838454723358154e-01
-6.928306818008422852e-02
-2.340871989727020264e-01
-1.077369526028633118e-01
-1.590541005134582520e-01
3.218748271465301514e-01
-2.465797960758209229e-01
3.500975295901298523e-02
1.324726939201354980e-01
-9.857111610472202301e-03
1.574739664793014526e-01
2.898266315460205078e-01
-1.065444722771644592e-01
-2.674449980258941650e-01
3.386849164962768555e-01
-1.735589653253555298e-01
3.321271389722824097e-02
-2.050333172082901001e-01
2.221991121768951416e-01
-1.727467328310012817e-01
-1.059167552739381790e-02
-2.825203537940979004e-01
1.543788462877273560e-01
-2.611638307571411133e-01
-2.079975754022598267e-01
-2.275898605585098267e-01
1.527420133352279663e-01
-5.037032440304756165e-02
2.934831008315086365e-02
-1.057713180780410767e-01
-2.373849302530288696e-01
2.065187543630599976e-01
2.822676301002502441e-01
1.964000798761844635e-02
2.675286233425140381e-01
7.633150368928909302e-02
-1.804445534944534302e-01
1.986797153949737549e-01
-1.595738083124160767e-01
-2.394388467073440552e-01
-7.420832663774490356e-02
5.659523885697126389e-03
3.272874653339385986e-02
-1.137698534876108170e-02
-4.469216614961624146e-02
-1.398672610521316528e-01
3.086427412927150726e-02
4.015590250492095947e-02
1.849777102470397949e-01
5.549807567149400711e-03
-1.078490614891052246e-01
4.751951619982719421e-02
9.997178614139556885e-02
4.995386675000190735e-02
-3.532744571566581726e-02
1.144496649503707886e-01
-1.264611631631851196e-01
-9.962956607341766357e-02
-1.001199930906295776e-01
2.646644599735736847e-02
-6.750689446926116943e-02
2.014608383178710938e-01
2.589122056961059570e-01
1.419662833213806152e-01
-5.494838953018188477e-02
-1.273577064275741577e-01
1.346213519573211670e-01
-1.067648008465766907e-01
7.923483848571777344e-02
8.848749101161956787e-02
1.142233237624168396e-01
2.059410810470581055e-01
-9.160953015089035034e-02
1.199784204363822937e-01
1.710723042488098145e-01
1.524832993745803833e-01
5.686784908175468445e-02
-4.777072928845882416e-03
-8.482756465673446655e-02
-5.360418464988470078e-03
1.420431882143020630e-01
-8.437717042397707701e-06
-1.140848472714424133e-01
2.105502486228942871e-01
-1.673624068498611450e-01
-8.849938213825225830e-02
-2.240719199180603027e-01
1.345542818307876587e-01
2.214823663234710693e-01
8.656199276447296143e-02
-2.871690876781940460e-02
-4.873755201697349548e-02
1.606624871492385864e-01
-1.210083141922950745e-01
4.432785511016845703e-02
-3.768112659454345703e-01
2.064037322998046875e-01
1.371077895164489746e-01
-1.394849419593811035e-01
-5.902872607111930847e-02
-3.938963636755943298e-02
-1.837261207401752472e-02
5.693623423576354980e-02
-5.058971792459487915e-02
1.843439340591430664e-01
-1.346279028803110123e-02
-2.531250119209289551e-01
7.066953182220458984e-02
-4.261861369013786316e-02
7.253475487232208252e-02
-7.769474387168884277e-02
-1.432307213544845581e-01
7.686883211135864258e-02
3.683679550886154175e-02
-5.628200620412826538e-02
1.064402014017105103e-01
-3.785366192460060120e-02
1.558312475681304932e-01
-2.882731854915618896e-01
-1.223849654197692871e-01
-1.160487309098243713e-01
-1.158330142498016357e-01
6.685061007738113403e-02
-3.495805338025093079e-02
1.209121942520141602e-02
2.459778785705566406e-01
-1.502151191234588623e-01
1.738626956939697266e-01
-1.892903260886669159e-02
2.484356164932250977e-01
3.725301474332809448e-03
9.799911826848983765e-02
1.171271204948425293e-01
1.542055308818817139e-01
1.839334815740585327e-01
6.018908321857452393e-02
-3.122281730175018311e-01
1.702619940042495728e-01
1.467851828783750534e-02
1.387400478124618530e-01
7.471227645874023438e-02
9.396673738956451416e-02
3.054979629814624786e-02
-9.964799135923385620e-02
-2.831368148326873779e-02
-4.272871837019920349e-02
4.994980618357658386e-02
-7.325658202171325684e-02
-9.000666439533233643e-02
1.313004791736602783e-01
-8.097369223833084106e-03
2.833752036094665527e-01
-2.261124849319458008e-01
9.362763166427612305e-02
3.512292206287384033e-01
1.742637157440185547e-02
6.514850258827209473e-02
2.544010430574417114e-02
3.768393397331237793e-02
-7.972301542758941650e-02
-2.266270667314529419e-01
1.866031140089035034e-01
-4.824157431721687317e-02
9.797114878892898560e-02
-8.193045109510421753e-02
-1.237586066126823425e-01
9.731075167655944824e-02
3.856110200285911560e-02
9.630138427019119263e-02
-1.062064692378044128e-01
-2.482365071773529053e-02
1.976549029350280762e-01
-2.119083404541015625e-01
-1.650085151195526123e-01
-1.256145238876342773e-01
2.543186768889427185e-02
1.688162237405776978e-02
1.697117276489734650e-02
-9.133465588092803955e-02
2.498411089181900024e-01
1.273935735225677490e-01
-2.151054590940475464e-01
1.638219356536865234e-01
4.625036939978599548e-02
1.697548329830169678e-01
-2.208381295204162598e-01
-2.752254344522953033e-02
-9.811323881149291992e-02
2.347612679004669189e-01
-9.405049681663513184e-02
2.072037458419799805e-01
1.408383399248123169e-01
-5.539122223854064941e-02
-1.084724888205528259e-01
1.319236457347869873e-01
-2.067524045705795288e-01
-9.468917734920978546e-03
6.322238594293594360e-02
4.499996721278876066e-04
-1.136434599757194519e-01
-2.472224682569503784e-01
-8.890990167856216431e-02
5.460743233561515808e-02
9.491266682744026184e-03
-1.950359642505645752e-01
1.385899037122726440e-01
-5.306619405746459961e-02
-8.875068277120590210e-02
9.267818927764892578e-02
1.889517903327941895e-01
2.682491540908813477e-01
-2.299933880567550659e-01
-8.372031897306442261e-02
-1.171284466981887817e-01
8.139238506555557251e-02
-8.107773028314113617e-03
-1.969448924064636230e-01
1.975798606872558594e-01
2.276292257010936737e-02
-2.082937583327293396e-02
-2.353824824094772339e-01
1.139442399144172668e-01
1.700988262891769409e-01
1.746502518653869629e-01
-4.557448439300060272e-03
-2.131249308586120605e-01
-6.481104344129562378e-02
8.798922598361968994e-02
-1.780494302511215210e-01
1.816682070493698120e-01
-1.743748486042022705e-01
2.761814892292022705e-01
5.160989239811897278e-02
-1.089637726545333862e-01
2.185874432325363159e-01
-5.689333006739616394e-02
2.546380162239074707e-01
1.730546206235885620e-01
-1.310190558433532715e-01
6.964743137359619141e-02
6.183233112096786499e-02
7.112830132246017456e-02
7.438500225543975830e-02
-2.504306286573410034e-02
3.785688057541847229e-02
2.269491553306579590e-01
-6.451194733381271362e-02
1.414242535829544067e-01
-8.233848027884960175e-03
-2.523447573184967041e-01
5.797709804028272629e-03
-7.074785232543945312e-02
-2.067319899797439575e-01
-8.992790430784225464e-02
-1.466236263513565063e-01
2.171012610197067261e-01
-7.734156399965286255e-02
7.192867994308471680e-02
1.388552188873291016e-01
-1.005040779709815979e-01
-9.154197573661804199e-02
2.185836061835289001e-02
9.434890747070312500e-02
-1.546260863542556763e-01
-2.419477552175521851e-01
3.156725168228149414e-01
2.761952579021453857e-02
7.903632521629333496e-02
-2.358671724796295166e-01
2.090666890144348145e-01
-1.224662065505981445e-01
8.948450535535812378e-02
2.291382998228073120e-01
-2.402608990669250488e-01
4.911819472908973694e-02
8.028419315814971924e-02
1.814034730195999146e-01
-4.071490094065666199e-02
1.353888660669326782e-01
1.351831257343292236e-01
2.488588541746139526e-02
2.645967528223991394e-02
1.493925154209136963e-01
1.753341406583786011e-01
-2.267001569271087646e-02
-7.222341373562812805e-03
7.364717125892639160e-02
4.762949049472808838e-02
-9.941732883453369141e-02
2.010898441076278687e-01
5.621892213821411133e-02
2.494134753942489624e-01
-1.624232679605484009e-01
-7.824333757162094116e-02
4.347917065024375916e-02
5.043206736445426941e-03
-1.499762237071990967e-01
2.528293430805206299e-02
1.991778761148452759e-01
7.269873470067977905e-02
2.088377028703689575e-01
2.134668081998825073e-01
1.683785319328308105e-01
1.061078235507011414e-01
-2.402601242065429688e-01
3.869261965155601501e-02
-1.300249099731445312e-01
1.177626624703407288e-01
4.606643691658973694e-02
1.277738660573959351e-01
-1.614458709955215454e-01
1.602547019720077515e-01
1.555252075195312500e-01
7.866653800010681152e-02
-2.532573938369750977e-01
5.322112888097763062e-02
2.116738855838775635e-01
2.202463522553443909e-02
2.934794723987579346e-01
1.044161245226860046e-02
-6.818745285272598267e-02
-8.118613809347152710e-02
-1.030041575431823730e-01
-7.647951692342758179e-02
8.588269352912902832e-02
1.064687892794609070e-01
-1.803361922502517700e-01
2.367123402655124664e-02
7.381558418273925781e-02
5.892883986234664917e-02
6.420776247978210449e-02
-7.032464444637298584e-02
8.259832859039306641e-02
2.737445533275604248e-01
7.138968259096145630e-02
-1.416335552930831909e-01
-2.231120467185974121e-01
-3.813054412603378296e-03
-7.405723631381988525e-02
-3.167653456330299377e-02
2.746998891234397888e-02
-1.972026675939559937e-01
2.331529259681701660e-01
1.961160451173782349e-03
2.384627163410186768e-01
9.881990402936935425e-02
-1.365262717008590698e-01
-5.293832346796989441e-02
1.207708939909934998e-01
6.518217921257019043e-02
1.272358000278472900e-01
1.165977306663990021e-02
9.563226252794265747e-02
-8.187325298786163330e-02
-5.104468669742345810e-03
-2.143213711678981781e-02
-5.909298732876777649e-02
-1.438757628202438354e-01
1.461537778377532959e-01
6.053811684250831604e-02
-2.554227411746978760e-01
1.777174770832061768e-01
-2.406525425612926483e-02
-2.387084811925888062e-01
-3.481503576040267944e-03
1.477779000997543335e-01
5.470509827136993408e-02
-1.646456420421600342e-01
-1.616891026496887207e-01
1.710054427385330200e-01
-4.871248826384544373e-02
-2.764730155467987061e-01
-1.519648134708404541e-01
-3.369610756635665894e-03
4.577971994876861572e-01
2.566082403063774109e-02
1.338366325944662094e-02
6.134905293583869934e-02
-2.537179887294769287e-01
-5.390350706875324249e-03
-6.787860393524169922e-02
-2.370663860347121954e-04
1.491061896085739136e-01
-1.790839247405529022e-02
9.454408660531044006e-03
-8.879595994949340820e-02
1.757331788539886475e-01
-1.446675062179565430e-01
-2.257336825132369995e-01
-1.018303632736206055e-01
1.937804520130157471e-01
1.181970611214637756e-01
-8.078779280185699463e-02
-8.048965781927108765e-02
3.234132826328277588e-01
2.503419816493988037e-01
-1.937649697065353394e-01
8.813192695379257202e-02
-9.183497726917266846e-02
-7.457342930138111115e-03
-2.071743607521057129e-01
9.167208336293697357e-03
-7.931048423051834106e-02
2.714935317635536194e-02
2.938930392265319824e-01
1.378808617591857910e-01
1.248212382197380066e-01
1.945188343524932861e-01
-8.259914070367813110e-02
-1.670162975788116455e-01
-5.569166690111160278e-02
-1.241763010621070862e-01
6.148603931069374084e-02
7.552009820938110352e-02
-4.203492775559425354e-02
-1.758704930543899536e-01
1.362822204828262329e-01
-1.616519838571548462e-01
2.100032940506935120e-02
1.786596775054931641e-01
-1.037701070308685303e-01
-1.811023056507110596e-01
2.267177700996398926e-01
8.015224337577819824e-02
-2.499668896198272705e-01
6.759761366993188858e-03
-1.793252117931842804e-02
2.781000733375549316e-01
-2.062392979860305786e-01
-2.008100003004074097e-01
-3.060363531112670898e-01
1.243060156702995300e-01
-1.201233863830566406e-01
-2.536980509757995605e-01
7.169649470597505569e-03
3.571601957082748413e-02
5.715302750468254089e-02
1.444976627826690674e-01
-7.390133291482925415e-02
6.413261592388153076e-02
-1.758312731981277466e-01
1.217901110649108887e-01
4.491611197590827942e-02
2.218644320964813232e-02
1.805154681205749512e-01
5.656700581312179565e-02
-1.116652414202690125e-01
-9.753490798175334930e-03
8.489969372749328613e-02
-9.718015789985656738e-02
8.322697877883911133e-02
1.949556171894073486e-01
-1.757496409118175507e-02
-1.763548552989959717e-01
5.543457344174385071e-02
-2.337815910577774048e-01
1.223562881350517273e-01
-2.526687085628509521e-02
-4.431704804301261902e-02
-1.213521603494882584e-02
3.220521509647369385e-01
5.001241341233253479e-02
-1.186355054378509521e-01
-1.787447482347488403e-01
1.515907943248748779e-01
1.386186182498931885e-01
6.851154565811157227e-02
-1.339581608772277832e-01
-2.044235765933990479e-01
-2.448127865791320801e-01
-1.586933284997940063e-01
3.444009460508823395e-03
1.451661288738250732e-01
-3.300445154309272766e-02
5.720159411430358887e-02
2.742336988449096680e-01
-1.440928727388381958e-01
-2.068698108196258545e-01
-3.551657497882843018e-02
-6.829992635175585747e-04
5.458480864763259888e-02
1.012010616250336170e-03
1.693070679903030396e-01
2.391709834337234497e-01
-9.373661875724792480e-02
1.004551127552986145e-01
-4.708852246403694153e-02
1.003820970654487610e-01
7.791898399591445923e-02
-3.004415519535541534e-02
9.082981199026107788e-02
-5.897385627031326294e-02
1.895571649074554443e-01
-5.198134854435920715e-02
2.844352424144744873e-01
-1.449824422597885132e-01
3.047173283994197845e-02
-2.790843509137630463e-02
1.201427914202213287e-02
-8.807870000600814819e-02
-8.524872362613677979e-02
-2.385958731174468994e-01
-1.700166165828704834e-01
-2.199256047606468201e-02
2.034272402524948120e-01
8.118443191051483154e-02
1.147688403725624084e-01
2.541271783411502838e-02
-1.021946594119071960e-01
1.604849398136138916e-01
-1.195471361279487610e-01
-3.413911908864974976e-02
-6.700305640697479248e-02
-4.053130149841308594e-01
-1.501499563455581665e-01
-2.648117542266845703e-01
-7.407727092504501343e-02
-7.640419155359268188e-02
-2.445772290229797363e-01
-1.155413165688514709e-01
2.828813791275024414e-01
8.911224454641342163e-02
2.137532383203506470e-01
-6.684669852256774902e-02
-5.062194913625717163e-02
1.837732046842575073e-01
-2.769418656826019287e-01
-1.992766708135604858e-01
-1.992816179990768433e-01
7.160685211420059204e-02
-1.893235743045806885e-01
7.718504220247268677e-02
-9.247192740440368652e-02
-1.105192974209785461e-01
-2.299277931451797485e-01
-9.336722083389759064e-03
-9.387944824993610382e-03
1.575144827365875244e-01
9.525305032730102539e-02
2.346705794334411621e-01
3.748531267046928406e-02
2.006443031132221222e-02
8.114641159772872925e-02
-8.074892312288284302e-02
9.584072232246398926e-02
1.083564907312393188e-01
3.853197768330574036e-02
-2.156897448003292084e-02
3.010053932666778564e-01
-5.479415506124496460e-02
-2.011610418558120728e-01
1.617505587637424469e-02
1.785740256309509277e-01
-1.383369788527488708e-02
-2.887268960475921631e-01
-9.179443866014480591e-02
1.736939251422882080e-01
6.746762245893478394e-02
-9.869634173810482025e-03
1.481902748346328735e-01
-7.149483263492584229e-02
2.271363288164138794e-01
9.931176900863647461e-02
-3.351123258471488953e-02
-9.207582473754882812e-02
9.199196100234985352e-02
2.946307137608528137e-02
-6.909805536270141602e-02
-1.995860636234283447e-01
1.870063245296478271e-01
-1.067757382988929749e-01
1.069699153304100037e-01
-2.800397276878356934e-01
1.124054044485092163e-01
1.194070801138877869e-01
-2.927485667169094086e-02
-1.368400454521179199e-01
3.198029398918151855e-01
2.081726193428039551e-01
-2.869847714900970459e-01
-3.353514894843101501e-02
1.366303116083145142e-01
-2.279825694859027863e-02
-1.462125182151794434e-01
1.325824558734893799e-01
1.185810267925262451e-01
-8.321250230073928833e-02
2.853647246956825256e-02
-6.889554858207702637e-02
4.291896522045135498e-02
-1.340522021055221558e-01
1.077784821391105652e-01
5.695322528481483459e-02
-1.108404770493507385e-01
-1.070830747485160828e-01
1.951369643211364746e-01
3.742466121912002563e-02
-1.274859458208084106e-01
-2.695937454700469971e-01
-1.346118301153182983e-01
1.032728627324104309e-01
1.542077958583831787e-01
-2.175972796976566315e-02
-1.254539787769317627e-01
1.024091914296150208e-01
-1.867852360010147095e-01
-2.332670800387859344e-02
-2.257445007562637329e-01
1.135860159993171692e-01
1.117434278130531311e-01
2.232206761837005615e-01
1.306682229042053223e-01
8.971022814512252808e-02
-1.036870628595352173e-01
-2.096288949251174927e-01
-1.167976111173629761e-01
1.783165037631988525e-01
-1.623735427856445312e-01
1.342370174825191498e-02
7.807994633913040161e-02
-6.518261134624481201e-02
1.390549391508102417e-01
-5.473886057734489441e-02
-1.633312702178955078e-01
-1.892692297697067261e-01
-6.240832433104515076e-02
6.660390645265579224e-02
-2.021071165800094604e-01
1.137064173817634583e-01
1.188887581229209900e-01
3.978229314088821411e-02
-2.093321382999420166e-01
-1.699753850698471069e-02
-1.072723716497421265e-01
-1.210614889860153198e-01
-1.396960914134979248e-01
5.359673872590065002e-02
2.757756970822811127e-03
-3.411452472209930420e-02
-3.147961199283599854e-01
-1.722798645496368408e-01
-8.120114356279373169e-02
3.614625707268714905e-02
-8.026938140392303467e-02
-1.339059602469205856e-02
-7.363690435886383057e-02
9.737692773342132568e-02
-2.469149231910705566e-01
1.249079406261444092e-01
3.551799803972244263e-02
-2.429136484861373901e-01
-4.329684376716613770e-02
-7.171254605054855347e-02
7.544491440057754517e-02
1.278970390558242798e-01
-7.101507484912872314e-02
8.776567131280899048e-02
-1.381208095699548721e-02
-7.423111051321029663e-02
6.430635601282119751e-02
-4.819040745496749878e-02
-6.873311847448348999e-02
1.686614006757736206e-01
3.351942077279090881e-02
6.767308712005615234e-02
3.227073848247528076e-01
-1.223873719573020935e-01
3.188561275601387024e-02
-2.207940816879272461e-01
