2.283932119607925415e-01
-9.226178377866744995e-02
-1.073690364137291908e-04
-6.922841072082519531e-02
1.474014073610305786e-01
1.902881860733032227e-01
-8.059678599238395691e-03
1.887030750513076782e-01
3.875078633427619934e-02
-1.576252467930316925e-02
-6.845269352197647095e-02
-2.487003207206726074e-01
-4.771419987082481384e-02
-1.251051276922225952e-01
-1.378307342529296875e-01
4.760142415761947632e-02
2.071842178702354431e-02
4.158867895603179932e-02
-4.303840547800064087e-02
-5.084872990846633911e-02
1.221541985869407654e-01
2.476062998175621033e-02
-7.132413331419229507e-03
-1.812755130231380463e-02
1.146253347396850586e-01
-8.725585415959358215e-03
1.853641271591186523e-01
-1.670163720846176147e-01
-5.441694706678390503e-02
4.808888584375381470e-02
-8.565691858530044556e-02
1.169549301266670227e-01
-7.076097279787063599e-02
2.671219408512115479e-02
-3.247505128383636475e-01
1.384212076663970947e-01
5.690786615014076233e-02
-2.578638494014739990e-01
5.790884420275688171e-02
2.573893219232559204e-02
3.307961672544479370e-02
-7.996286451816558838e-02
-2.053381316363811493e-02
1.452758610248565674e-01
-3.524685278534889221e-02
8.453298360109329224e-03
-8.163576573133468628e-02
9.537523239850997925e-02
8.133751899003982544e-02
-1.468992829322814941e-01
-3.788327053189277649e-02
1.857927739620208740e-01
-1.618258096277713776e-02
4.393817484378814697e-02
-9.208997711539268494e-03
-5.773923918604850769e-02
2.712708711624145508e-02
-2.086261212825775146e-01
2.040492594242095947e-01
1.756892725825309753e-02
5.739014223217964172e-02
1.098773553967475891e-01
-4.526694864034652710e-02
-3.037056513130664825e-02
-8.818343281745910645e-02
1.166965365409851074e-01
-6.844486296176910400e-02
-6.388071179389953613e-02
-3.817855566740036011e-02
6.420675665140151978e-02
8.271685987710952759e-02
-1.393515318632125854e-01
9.725181385874748230e-03
-1.771148061379790306e-03
-2.947182208299636841e-02
-5.053221061825752258e-02
2.146186493337154388e-02
-7.994429767131805420e-02
9.084703400731086731e-03
1.380837708711624146e-01
-2.643397077918052673e-02
1.091291755437850952e-01
-9.087142348289489746e-02
-1.774002462625503540e-01
-1.800525933504104614e-01
-8.415878564119338989e-02
1.293647140264511108e-01
-4.347022622823715210e-02
3.242529928684234619e-03
1.590580940246582031e-01
7.026452803984284401e-04
-5.958620831370353699e-02
1.656735241413116455e-01
-6.457688659429550171e-02
-8.629205077886581421e-02
1.210183575749397278e-01
2.017212063074111938e-01
-2.472597807645797729e-01
-8.819965645670890808e-03
-5.901721492409706116e-02
5.081156268715858459e-02
2.535547018051147461e-01
2.325231134891510010e-01
2.362614423036575317e-01
-7.957840710878372192e-02
-9.161708503961563110e-02
6.003141775727272034e-02
-1.663193851709365845e-01
2.206649333238601685e-01
-6.759291887283325195e-02
-6.466156989336013794e-02
-1.023000702261924744e-01
2.301124781370162964e-01
7.150150835514068604e-02
6.221225857734680176e-02
2.905524149537086487e-02
-1.195264309644699097e-01
2.635688781738281250e-01
-1.519107222557067871e-01
-4.433909058570861816e-02
5.493496730923652649e-02
-5.391046032309532166e-02
1.995841562747955322e-01
-1.974297873675823212e-02
1.861864030361175537e-01
-2.670546807348728180e-02
-8.338958770036697388e-02
8.406788110733032227e-02
2.882072515785694122e-02
4.139415174722671509e-02
-1.410816162824630737e-01
9.667719155550003052e-02
-1.711139678955078125e-01
-1.560690719634294510e-02
1.218157261610031128e-01
5.843953788280487061e-02
6.301568448543548584e-02
-4.836045205593109131e-03
4.453158006072044373e-02
3.185627236962318420e-02
-2.189584672451019287e-01
7.474687695503234863e-02
-5.362945422530174255e-02
1.590373218059539795e-01
5.031375586986541748e-02
5.845485255122184753e-02
2.890528738498687744e-02
-1.373696327209472656e-01
-2.640898823738098145e-01
2.728881128132343292e-02
-2.174236178398132324e-01
-1.616534143686294556e-01
-1.223146077245473862e-02
-7.760858535766601562e-02
6.159023195505142212e-02
-1.149550899863243103e-01
1.198327317833900452e-01
1.899877339601516724e-01
-2.181757539510726929e-01
4.019291698932647705e-02
-9.249994158744812012e-02
3.367928043007850647e-02
8.813155442476272583e-02
-7.489489391446113586e-03
-5.236208811402320862e-02
-6.923171877861022949e-02
-9.089711308479309082e-02
-2.401646077632904053e-01
5.269907787442207336e-02
-4.914861638098955154e-04
7.191137410700321198e-03
1.422323882579803467e-01
-6.016867235302925110e-02
-1.140910312533378601e-01
6.032373011112213135e-02
1.930941492319107056e-01
1.415916681289672852e-01
8.252865821123123169e-02
-1.622794717550277710e-01
4.272990301251411438e-02
4.031204804778099060e-02
-7.397702336311340332e-02
1.018255129456520081e-01
-6.290673464536666870e-02
1.633167499676346779e-03
1.589351296424865723e-01
-1.078439876437187195e-01
1.866188347339630127e-01
-1.087986305356025696e-01
-1.063984036445617676e-01
2.033268511295318604e-01
2.833339758217334747e-02
5.686703324317932129e-02
-1.501160711050033569e-01
-1.771995984017848969e-02
-4.698727279901504517e-02
-1.311448663473129272e-01
1.214464828372001648e-01
1.562550663948059082e-01
1.951345801353454590e-01
-4.312568530440330505e-02
2.134645730257034302e-02
-5.450651794672012329e-02
-1.597708165645599365e-01
2.225068956613540649e-01
-1.112367212772369385e-01
9.077084809541702271e-02
3.058202378451824188e-02
1.428634971380233765e-01
1.384430229663848877e-01
-1.819241908378899097e-03
1.218308415263891220e-02
4.871234670281410217e-02
1.952401250600814819e-01
-2.076162099838256836e-01
5.079402029514312744e-02
-1.472924351692199707e-01
-3.386009857058525085e-02
1.454692184925079346e-01
7.555898278951644897e-03
1.467611193656921387e-01
8.950769901275634766e-02
-1.863106489181518555e-01
1.084682080545462668e-04
-3.404189646244049072e-02
9.470552206039428711e-02
5.287810787558555603e-02
-2.645644545555114746e-01
-1.485371440649032593e-01
-5.929924920201301575e-02
2.227856963872909546e-02
-1.691029518842697144e-01
-1.300281845033168793e-02
-1.394704170525074005e-02
-1.223271340131759644e-02
-7.333824783563613892e-02
-2.425105571746826172e-01
1.132043153047561646e-01
-9.822852164506912231e-02
2.498636208474636078e-02
-1.986210606992244720e-02
6.313274055719375610e-02
-1.594833582639694214e-01
1.858989447355270386e-01
-3.160804808139801025e-01
-6.537918001413345337e-02
-3.186540901660919189e-01
1.143198236823081970e-01
-1.113158836960792542e-01
-1.660838723182678223e-01
-1.289816051721572876e-01
1.035827100276947021e-01
1.086530834436416626e-01
1.505749672651290894e-01
-2.975115776062011719e-01
6.097397953271865845e-02
-1.257779356092214584e-02
-3.669596835970878601e-02
-4.160432890057563782e-02
-1.561413854360580444e-01
2.183573395013809204e-01
6.427606940269470215e-02
-9.746856242418289185e-02
-7.632005214691162109e-02
-5.514766648411750793e-02
-5.719987675547599792e-04
-7.866393774747848511e-02
-5.960859730839729309e-02
-1.119893044233322144e-01
2.845286764204502106e-02
9.050938487052917480e-02
8.808257430791854858e-02
-3.766071051359176636e-02
5.188881978392601013e-02
1.566823720932006836e-01
-9.261993691325187683e-03
9.240010380744934082e-02
-1.053064246661961079e-03
-7.031062990427017212e-02
-2.033032849431037903e-02
7.018363568931818008e-03
1.935730725526809692e-01
-3.361557424068450928e-02
-1.349981427192687988e-01
-1.885438114404678345e-01
2.928374335169792175e-02
9.207147359848022461e-02
3.627963364124298096e-02
2.513958886265754700e-02
1.033864915370941162e-02
2.013197727501392365e-02
4.778285697102546692e-02
-1.908435225486755371e-01
7.372626662254333496e-02
1.836977452039718628e-01
4.954921081662178040e-02
-1.911641210317611694e-01
1.340647041797637939e-02
1.053237542510032654e-01
-1.707983314990997314e-01
2.631832845509052277e-02
-2.120879441499710083e-01
1.116068512201309204e-01
-4.400750249624252319e-02
-1.111858487129211426e-01
9.638211876153945923e-02
-1.745529025793075562e-01
1.221022233366966248e-01
1.958964578807353973e-02
8.025199174880981445e-02
-3.262377679347991943e-01
5.650334805250167847e-02
7.574250549077987671e-02
-6.500441581010818481e-02
2.403021603822708130e-02
-8.837193995714187622e-02
-2.227242663502693176e-02
8.021948486566543579e-02
-1.317314654588699341e-01
2.574412897229194641e-02
7.457140088081359863e-02
1.573716253042221069e-01
-1.382114589214324951e-01
8.566107600927352905e-02
-2.998788952827453613e-01
9.750923514366149902e-02
-1.389829665422439575e-01
-1.595825552940368652e-01
-2.494116872549057007e-01
-2.647897005081176758e-01
7.112147659063339233e-02
2.409686595201492310e-01
-2.005525678396224976e-01
1.249097138643264771e-01
-2.486287802457809448e-01
1.251972466707229614e-01
-1.718372702598571777e-01
1.254661381244659424e-01
-1.826283037662506104e-01
7.933337986469268799e-02
-2.119017839431762695e-01
-1.557083129882812500e-01
-2.193136364221572876e-01
2.197333425283432007e-01
2.501420117914676666e-02
-1.821019500494003296e-01
-2.334455847740173340e-01
2.325301915407180786e-01
-2.389459311962127686e-01
2.827211618423461914e-01
-1.240634992718696594e-01
-1.870924048125743866e-02
-1.930629462003707886e-02
1.626838697120547295e-03
1.505224127322435379e-02
-7.831891626119613647e-02
2.763262689113616943e-01
-4.592401161789894104e-02
-2.281957492232322693e-02
-1.162411924451589584e-02
1.498899906873703003e-01
-1.322824601083993912e-02
9.941831976175308228e-02
-1.230637952685356140e-01
-1.450946182012557983e-02
1.642722450196743011e-02
-2.667865455150604248e-01
6.182952597737312317e-02
5.037935450673103333e-02
-1.428885199129581451e-02
1.187101304531097412e-01
-9.114905446767807007e-02
1.517635583877563477e-01
2.221405692398548126e-02
-1.160683557391166687e-01
-2.072379887104034424e-01
-7.262407243251800537e-02
1.423763632774353027e-01
1.189018040895462036e-01
-1.497181504964828491e-01
-4.159657657146453857e-02
-1.389927864074707031e-01
-5.074338242411613464e-02
5.502370372414588928e-02
1.758087077178061008e-03
-1.080277338624000549e-01
-5.938728153705596924e-02
6.882397830486297607e-02
-1.307524740695953369e-01
8.323233574628829956e-03
7.669322937726974487e-02
4.891880601644515991e-02
-1.658468395471572876e-01
9.924544394016265869e-02
6.374814361333847046e-02
-1.655558645725250244e-01
5.685196816921234131e-02
-1.703824251890182495e-01
1.047864109277725220e-01
2.986194740515202284e-04
-1.445482820272445679e-01
2.169063538312911987e-01
-1.579827815294265747e-01
-7.029851526021957397e-02
2.003693282604217529e-01
5.460555106401443481e-02
-1.390107274055480957e-01
1.230629086494445801e-01
1.264561712741851807e-01
-1.443843692541122437e-01
-1.336342096328735352e-01
1.163006480783224106e-02
-1.715776324272155762e-02
2.423500418663024902e-01
1.495542526245117188e-01
-6.144610233604907990e-03
-1.913958787918090820e-01
1.590691357851028442e-01
-1.419061124324798584e-01
-1.409677565097808838e-01
4.878285154700279236e-02
2.795002982020378113e-02
-1.646901071071624756e-01
4.608524963259696960e-02
1.674821823835372925e-01
-1.089452356100082397e-01
6.159944459795951843e-02
6.879046559333801270e-02
-1.610853075981140137e-01
1.539062410593032837e-01
-1.341258436441421509e-01
9.415434300899505615e-02
-6.394974887371063232e-02
3.745697140693664551e-01
-3.846735134720802307e-02
-7.356111891567707062e-03
-8.111310750246047974e-02
-8.677161484956741333e-02
-1.112301647663116455e-01
4.701756685972213745e-02
8.461293578147888184e-02
-1.632989346981048584e-01
-3.416639864444732666e-01
-1.257014572620391846e-01
-2.925160825252532959e-01
1.830140501260757446e-01
2.726229131221771240e-01
-5.566459149122238159e-02
2.654073201119899750e-02
1.369998324662446976e-02
-1.399783492088317871e-01
-8.493085950613021851e-02
1.158381924033164978e-01
-1.115786726586520672e-03
-1.201839968562126160e-01
8.586952835321426392e-02
9.302762150764465332e-02
1.150338798761367798e-01
-5.731770768761634827e-03
4.066695272922515869e-02
6.589157134294509888e-02
1.537982672452926636e-01
-4.034793972969055176e-01
-7.573041319847106934e-02
-3.404918313026428223e-02
-9.728451818227767944e-02
-2.773614972829818726e-02
-1.478582322597503662e-01
1.786783039569854736e-01
-5.699627799913287163e-04
-6.520184874534606934e-02
2.294686138629913330e-01
2.460014820098876953e-01
3.446761518716812134e-03
2.198264449834823608e-01
6.571539677679538727e-03
-2.387843653559684753e-02
-8.402100205421447754e-02
-3.389621675014495850e-01
-1.235759817063808441e-02
1.853849738836288452e-01
-6.841412186622619629e-02
-1.513325273990631104e-01
-9.458226710557937622e-02
1.556241214275360107e-01
1.275370568037033081e-01
4.367101937532424927e-02
1.483686715364456177e-01
1.395869404077529907e-01
1.320194900035858154e-01
-1.460779365152120590e-02
-7.229302078485488892e-02
-2.573095820844173431e-02
3.300591837614774704e-03
-1.130769681185483932e-02
-7.362469285726547241e-02
3.292415663599967957e-02
4.784559458494186401e-02
1.702602766454219818e-02
2.689884789288043976e-02
4.215499851852655411e-03
-3.627299517393112183e-02
-5.251101031899452209e-02
-4.269590973854064941e-02
-3.202462568879127502e-02
-9.117113053798675537e-02
-5.946255289018154144e-03
-2.638332247734069824e-01
1.778289228677749634e-01
1.203690394759178162e-01
-2.845622301101684570e-01
-1.107297986745834351e-01
-2.797052450478076935e-02
2.328782528638839722e-02
-2.540162205696105957e-01
1.927391439676284790e-01
1.443008780479431152e-01
-3.956482931971549988e-02
1.350724101066589355e-01
1.204058006405830383e-01
-4.623722657561302185e-02
8.602550625801086426e-02
-5.829490348696708679e-02
1.793902069330215454e-01
-1.832388043403625488e-01
1.149460393935441971e-02
-8.644858747720718384e-02
-1.461413204669952393e-01
4.427012056112289429e-02
2.461553364992141724e-02
2.232424616813659668e-01
2.634652331471443176e-02
-1.062745824456214905e-01
-3.588838130235671997e-02
2.073135972023010254e-01
-3.104827105998992920e-01
1.449797600507736206e-01
-2.303884737193584442e-02
9.642489254474639893e-03
-1.711242198944091797e-01
1.518043279647827148e-01
9.300395846366882324e-02
-8.271012455224990845e-02
-3.152146562933921814e-02
8.302326500415802002e-02
-7.349871844053268433e-02
7.498786319047212601e-03
2.135293930768966675e-02
2.013507671654224396e-02
-1.458839625120162964e-01
4.401243105530738831e-02
-5.911350995302200317e-02
-1.007248554378747940e-02
1.207974180579185486e-01
2.020989209413528442e-01
9.433749318122863770e-02
-2.907652221620082855e-02
6.087034940719604492e-02
4.328277707099914551e-02
-5.686253309249877930e-02
9.947460144758224487e-02
-1.121281529776751995e-03
-2.229917049407958984e-01
-4.012666642665863037e-02
-3.837484400719404221e-03
-1.436919420957565308e-01
6.235288083553314209e-02
2.107411995530128479e-02
-2.043659240007400513e-01
2.367719076573848724e-02
1.719826161861419678e-01
2.422074601054191589e-02
-9.835124015808105469e-02
6.723713874816894531e-02
-4.756774380803108215e-02
5.208394955843687057e-03
1.409926414489746094e-01
-1.929342895746231079e-01
-9.215138107538223267e-02
-4.336938261985778809e-02
9.269420802593231201e-02
1.506596356630325317e-01
-6.312002241611480713e-02
3.539293408393859863e-01
-2.863262780010700226e-02
1.354387681931257248e-02
-5.873685702681541443e-02
-1.347072869539260864e-01
3.521896153688430786e-02
-1.219575479626655579e-02
9.654785692691802979e-02
-1.592515110969543457e-01
-1.271776761859655380e-02
-8.697462268173694611e-03
1.681915670633316040e-01
-9.954119473695755005e-02
1.508258096873760223e-02
6.180978938937187195e-02
6.493995338678359985e-02
-1.715841591358184814e-01
-8.999687433242797852e-02
-8.570874482393264771e-02
8.841664344072341919e-02
-9.190531075000762939e-02
1.415084451436996460e-01
1.058127656579017639e-01
-6.750511378049850464e-02
6.453246623277664185e-02
-1.851445436477661133e-02
-8.931896835565567017e-02
3.033211827278137207e-02
-1.188225019723176956e-02
7.215559482574462891e-02
3.972804173827171326e-02
2.309031933546066284e-01
-4.089311510324478149e-02
1.901457011699676514e-01
1.935344003140926361e-02
-1.018587946891784668e-01
-1.256698369979858398e-01
6.357450038194656372e-02
1.682727336883544922e-01
-1.631091386079788208e-01
5.280858650803565979e-02
-1.407798528671264648e-01
1.425551176071166992e-01
2.638272941112518311e-01
-7.285596430301666260e-02
-2.148438394069671631e-01
-1.548361480236053467e-01
3.206512033939361572e-01
-2.414547801017761230e-01
1.077885255217552185e-01
4.545388370752334595e-02
-2.002266496419906616e-01
-2.121108770370483398e-02
6.104541569948196411e-02
1.724215149879455566e-01
9.893597662448883057e-02
1.196036040782928467e-01
5.245794355869293213e-02
2.740149572491645813e-02
1.030064299702644348e-01
-5.650062486529350281e-02
-1.166675835847854614e-01
4.704885650426149368e-03
-1.869918256998062134e-01
-1.951451897621154785e-01
4.593037068843841553e-02
5.787100642919540405e-02
8.971472829580307007e-02
-1.463637650012969971e-01
9.143457561731338501e-02
1.625488251447677612e-01
-6.450770795345306396e-02
-9.001533500850200653e-03
1.706514656543731689e-01
-1.422749012708663940e-01
-2.359562069177627563e-01
-6.709032505750656128e-02
-1.199735030531883240e-01
6.493751704692840576e-02
-9.747207164764404297e-03
-1.056178286671638489e-01
-2.916870266199111938e-02
-8.776666596531867981e-03
2.454899251461029053e-01
-2.949064597487449646e-02
-4.379644244909286499e-02
1.035187020897865295e-01
1.041135042905807495e-01
-2.019887045025825500e-02
3.845113143324851990e-02
1.008102148771286011e-01
2.627708576619625092e-02
-2.045581042766571045e-01
1.305130571126937866e-01
1.700130999088287354e-01
8.890097588300704956e-02
1.219153478741645813e-01
-1.041669026017189026e-02
1.059824749827384949e-01
3.319879621267318726e-02
-3.426730334758758545e-01
4.174046963453292847e-02
-1.493255048990249634e-01
1.716443002223968506e-01
-1.814634501934051514e-01
9.351647645235061646e-02
1.133846938610076904e-01
7.886254787445068359e-02
1.447193473577499390e-01
-1.047063618898391724e-03
-1.025083940476179123e-02
-5.175471305847167969e-02
5.036161467432975769e-02
-1.752262413501739502e-01
5.883728340268135071e-02
-1.491933315992355347e-01
3.298761695623397827e-02
5.911509040743112564e-03
1.689242422580718994e-01
-6.302925944328308105e-02
1.711972802877426147e-02
2.139358967542648315e-02
1.471689343452453613e-01
2.420696616172790527e-01
-3.254947066307067871e-01
-7.928474992513656616e-02
1.002776995301246643e-01
2.113188803195953369e-01
-3.572627305984497070e-01
1.666846573352813721e-01
-1.059089079499244690e-01
-1.070267632603645325e-01
-1.978123039007186890e-01
-4.562111943960189819e-02
7.291729748249053955e-02
-8.984857052564620972e-02
3.229977935552597046e-02
-9.860324673354625702e-03
-3.601388260722160339e-02
-9.426864236593246460e-02
2.911716699600219727e-01
-1.858076900243759155e-01
-1.985409408807754517e-01
2.890728712081909180e-01
2.318865209817886353e-01
-8.949449658393859863e-02
2.970359623432159424e-01
-2.714369893074035645e-01
5.951156616210937500e-01
-6.732974201440811157e-02
2.220630943775177002e-01
1.002293750643730164e-01
3.093368709087371826e-01
7.870943844318389893e-02
1.703250557184219360e-01
5.490142107009887695e-02
-4.674963653087615967e-02
-6.198669597506523132e-02
1.906683444976806641e-01
-2.289528250694274902e-01
-9.585330635309219360e-02
-8.913544565439224243e-02
-1.873226761817932129e-01
1.293351948261260986e-01
-5.354597046971321106e-02
1.131493132561445236e-02
4.864496737718582153e-02
-3.102772831916809082e-01
4.940729588270187378e-02
2.855764925479888916e-01
3.767414018511772156e-02
1.194046214222908020e-01
-1.357107609510421753e-01
-1.728393733501434326e-01
2.146344780921936035e-01
-1.134907007217407227e-01
-1.899347752332687378e-01
3.708101063966751099e-02
-1.181981042027473450e-01
1.122623458504676819e-01
-2.630060911178588867e-01
-1.133654266595840454e-01
8.399162441492080688e-02
-8.344366401433944702e-02
-8.606921136379241943e-02
-6.040076166391372681e-02
-1.119609363377094269e-02
4.446418955922126770e-02
-2.424670904874801636e-01
1.036379486322402954e-01
1.680195629596710205e-01
-1.722138188779354095e-02
-1.490972470492124557e-03
-4.459376633167266846e-02
-2.457828633487224579e-02
1.611686795949935913e-01
-2.628254890441894531e-01
4.937300458550453186e-02
-1.207411289215087891e-01
1.631153225898742676e-01
-4.543246328830718994e-02
5.278557073324918747e-03
1.278773397207260132e-01
7.047974318265914917e-02
1.215448155999183655e-01
-3.581160679459571838e-02
3.869394585490226746e-02
-1.306208670139312744e-01
2.064834088087081909e-01
-4.017738997936248779e-02
1.441888213157653809e-01
-2.353910729289054871e-02
-1.322151720523834229e-01
1.321719586849212646e-01
1.111962571740150452e-01
1.681730449199676514e-01
7.336025685071945190e-02
1.798097789287567139e-01
2.369074374437332153e-01
-5.715267360210418701e-02
2.209453582763671875e-01
-3.386138975620269775e-01
3.330722078680992126e-02
-2.755586057901382446e-02
-8.748028427362442017e-02
-2.981107234954833984e-01
-5.764960497617721558e-02
-2.740734517574310303e-01
4.797104895114898682e-01
3.569120913743972778e-02
1.912620663642883301e-01
-1.327919065952301025e-01
2.149706035852432251e-01
-6.764804571866989136e-02
1.431448906660079956e-01
-1.183459088206291199e-01
2.595156244933605194e-02
-8.265240490436553955e-02
-1.394316405057907104e-01
1.268170624971389771e-01
1.447296440601348877e-01
-7.070306688547134399e-02
3.313200771808624268e-01
-3.158020377159118652e-01
-1.203846335411071777e-01
-6.916737183928489685e-03
1.716202795505523682e-01
2.807544767856597900e-01
2.510835528373718262e-01
-1.942463964223861694e-02
1.437390297651290894e-01
-2.119650542736053467e-01
2.148072468116879463e-03
-2.521461062133312225e-02
1.803248375654220581e-01
-1.091262400150299072e-01
1.274816095829010010e-01
6.338796019554138184e-02
-1.249364614486694336e-01
-1.749952435493469238e-01
4.202868044376373291e-02
-4.128872230648994446e-02
2.288411259651184082e-01
-3.470169305801391602e-01
-5.075346305966377258e-02
7.709416002035140991e-02
1.422824561595916748e-01
-1.683399677276611328e-01
-3.917501866817474365e-02
-2.817342616617679596e-02
2.792119085788726807e-01
-2.707501947879791260e-01
-1.645287424325942993e-01
-1.784072965383529663e-01
-2.751862406730651855e-01
7.698873430490493774e-02
-2.316663786768913269e-02
1.250156015157699585e-01
2.455551922321319580e-01
-6.237851977348327637e-01
-1.047305539250373840e-01
-1.463178396224975586e-01
-1.401433199644088745e-01
-7.944411784410476685e-02
-8.394388109445571899e-02
1.335632801055908203e-01
1.764640361070632935e-01
-6.436781585216522217e-02
-7.617661356925964355e-02
-1.809365004301071167e-01
2.849220111966133118e-02
1.996621042490005493e-01
-1.517391800880432129e-01
1.394321024417877197e-01
-1.812789887189865112e-01
7.139169424772262573e-02
-6.699241697788238525e-02
-5.606594309210777283e-02
5.708223208785057068e-02
1.914542540907859802e-02
-1.724276393651962280e-01
8.265133202075958252e-02
-8.898273110389709473e-02
-8.020369708538055420e-02
2.829445004463195801e-01
1.894548386335372925e-01
2.102752327919006348e-01
3.250465728342533112e-03
-1.354733258485794067e-01
-2.402977272868156433e-02
2.323683165013790131e-02
1.854322254657745361e-01
-2.403874509036540985e-02
3.430100902915000916e-02
2.023624479770660400e-01
-1.815469115972518921e-01
1.031293720006942749e-01
-2.037744969129562378e-01
-1.589746959507465363e-02
-4.737307876348495483e-02
8.567166328430175781e-02
6.908474117517471313e-02
5.571373179554939270e-02
-2.533650994300842285e-01
-1.163807809352874756e-01
-7.010621577501296997e-02
8.997748047113418579e-02
-3.939038142561912537e-02
2.579145133495330811e-01
4.478527233004570007e-02
1.361541301012039185e-01
-6.795288622379302979e-02
-1.386847048997879028e-01
-6.720692664384841919e-02
-7.602303475141525269e-02
1.759063825011253357e-02
3.400040790438652039e-02
2.949966117739677429e-02
1.416876465082168579e-01
-1.142312139272689819e-01
-3.283688724040985107e-01
-2.291403114795684814e-01
-1.334336698055267334e-01
2.087306082248687744e-01
2.094905525445938110e-01
-6.219297274947166443e-02
3.493159115314483643e-01
-9.077484905719757080e-02
2.127231471240520477e-02
1.662611067295074463e-01
1.167577207088470459e-01
-1.443037241697311401e-01
1.902230530977249146e-01
1.913025677204132080e-01
-1.854038238525390625e-01
-1.308935582637786865e-01
1.032544374465942383e-01
-1.104435175657272339e-01
4.297372996807098389e-01
-1.952152252197265625e-01
-9.261129796504974365e-02
-1.642627418041229248e-01
2.707761526107788086e-01
-1.256996989250183105e-01
-5.329768732190132141e-02
2.370436303317546844e-02
2.932115085422992706e-02
-2.097286283969879150e-01
1.762018054723739624e-01
2.103972285985946655e-01
-3.238365352153778076e-01
-3.713190928101539612e-02
4.756897687911987305e-02
-1.118404716253280640e-01
3.453870713710784912e-01
-4.248986542224884033e-01
-9.663616120815277100e-02
1.358927190303802490e-01
-1.686448752880096436e-01
-9.632663428783416748e-02
-2.287015169858932495e-01
1.540212929248809814e-01
-1.361986845731735229e-01
-1.476215571165084839e-02
2.954791784286499023e-01
1.526827216148376465e-01
-3.352169319987297058e-02
1.099950447678565979e-01
-2.457699030637741089e-01
1.021895855665206909e-01
-1.148917712271213531e-02
-4.713908210396766663e-02
2.894379198551177979e-02
-1.390538271516561508e-02
-5.770717188715934753e-02
1.249935552477836609e-01
-2.755808643996715546e-02
3.182034566998481750e-02
7.425745576620101929e-02
-1.609661579132080078e-01
-1.207263022661209106e-01
-9.135813266038894653e-02
1.445069015026092529e-01
-1.981113338842988014e-03
-1.582767069339752197e-01
7.245168089866638184e-02
-4.581147804856300354e-02
-1.453162282705307007e-01
-3.689442574977874756e-01
7.326255738735198975e-02
-5.062351468950510025e-03
-1.082418300211429596e-02
1.903684735298156738e-01
-9.279207885265350342e-02
2.197686880826950073e-01
-1.922136731445789337e-02
6.897604465484619141e-02
-1.303806006908416748e-01
-5.608596652746200562e-02
-7.491160649806261063e-03
1.319253444671630859e-01
-8.090703189373016357e-02
-2.002460509538650513e-01
-1.957855969667434692e-01
2.663605473935604095e-02
-5.130758509039878845e-02
-3.788108751177787781e-02
4.513470530509948730e-01
-1.973351389169692993e-01
-4.052137210965156555e-02
-6.283314526081085205e-02
-1.220266297459602356e-01
-3.172208070755004883e-01
-1.381784081459045410e-01
2.125832438468933105e-01
6.784182786941528320e-02
-1.586654037237167358e-01
1.329529136419296265e-01
-3.585475981235504150e-01
3.840288147330284119e-02
-2.296377122402191162e-01
2.926777489483356476e-02
-1.615988314151763916e-01
-4.172861203551292419e-02
-4.235158860683441162e-02
-1.645104028284549713e-02
-2.192723751068115234e-02
7.884006947278976440e-02
-5.520207341760396957e-03
1.220618635416030884e-01
-1.913993991911411285e-02
4.248909652233123779e-02
-1.907528638839721680e-01
1.103040128946304321e-01
1.538277268409729004e-01
-6.283488124608993530e-02
-1.313380748033523560e-01
4.619057476520538330e-02
-1.053922623395919800e-01
-3.039619922637939453e-01
1.425136178731918335e-01
6.939674261957406998e-03
-2.303368002176284790e-01
9.959797561168670654e-02
2.972042560577392578e-01
-9.070020169019699097e-02
-8.648436516523361206e-02
-1.781440973281860352e-01
-2.619047276675701141e-02
-1.169255077838897705e-01
3.042663335800170898e-01
-2.807779423892498016e-02
-5.826037004590034485e-02
-3.642721846699714661e-02
3.493370115756988525e-02
-3.009076230227947235e-02
-1.739556938409805298e-01
1.107885241508483887e-01
3.876164183020591736e-02
-1.034894213080406189e-01
1.795150637626647949e-01
1.414244621992111206e-01
-3.056034073233604431e-02
2.591179013252258301e-01
-2.563056647777557373e-01
2.148070186376571655e-02
-7.375426590442657471e-02
4.018584266304969788e-03
-2.029538713395595551e-02
7.608466595411300659e-02
8.360806852579116821e-02
2.632571756839752197e-01
-1.435642838478088379e-01
-3.768019750714302063e-02
-2.802870934829115868e-03
1.119676977396011353e-02
-5.565927550196647644e-02
-1.372736543416976929e-01
1.445391774177551270e-01
-6.482418626546859741e-02
-1.242838948965072632e-01
-2.588460920378565788e-04
-1.563609242439270020e-01
5.515928938984870911e-02
-4.404039978981018066e-01
1.140428483486175537e-01
1.180457547307014465e-01
1.141722723841667175e-01
-9.485661983489990234e-02
6.419565761461853981e-05
1.201597005128860474e-01
-2.127891220152378082e-02
-4.168418645858764648e-01
4.993779119104146957e-03
3.866092860698699951e-02
-5.968677997589111328e-02
-2.941017448902130127e-01
1.774446368217468262e-01
-5.582516640424728394e-02
-1.078706160187721252e-01
-2.782929129898548126e-02
-6.646738946437835693e-02
-1.527391970157623291e-01
2.064559757709503174e-01
-1.353939771652221680e-01
1.114284619688987732e-01
-3.345444425940513611e-02
7.953356951475143433e-02
-1.097178459167480469e-02
-4.277109205722808838e-01
4.617120027542114258e-01
-4.432027041912078857e-02
1.417136341333389282e-01
-5.243549495935440063e-02
-1.624158620834350586e-01
2.836851179599761963e-01
-3.005741238594055176e-01
-4.540121927857398987e-02
1.044571325182914734e-01
1.632549911737442017e-01
-3.112970851361751556e-02
-1.564747691154479980e-01
-2.260079793632030487e-02
1.811051815748214722e-01
-2.850419282913208008e-01
-3.204782307147979736e-02
-2.960072830319404602e-02
-7.464198023080825806e-02
-5.368284136056900024e-02
4.112036898732185364e-02
5.833269283175468445e-02
-1.376383155584335327e-01
6.053163111209869385e-02
1.142659261822700500e-01
-1.061094924807548523e-01
-5.975795537233352661e-02
-4.181184619665145874e-02
-2.194142639636993408e-01
7.661761716008186340e-03
2.118665874004364014e-01
-2.103173732757568359e-01
2.241402417421340942e-01
-3.820655345916748047e-01
-5.272080376744270325e-02
-1.993807107210159302e-01
1.800688803195953369e-01
2.275523543357849121e-01
-2.439327389001846313e-01
1.558228731155395508e-01
-1.092349588871002197e-01
-6.393066048622131348e-02
-8.762941509485244751e-02
-3.362679481506347656e-01
1.082837358117103577e-01
1.405271440744400024e-01
-1.134602800011634827e-01
-1.248682569712400436e-02
1.715714335441589355e-01
-1.905803829431533813e-01
2.103937268257141113e-01
-4.517031311988830566e-01
1.585451215505599976e-01
-6.305426824837923050e-03
-2.614209428429603577e-02
4.398040100932121277e-02
-1.142381653189659119e-01
5.538694933056831360e-02
2.633474469184875488e-01
1.914326250553131104e-01
-4.800627008080482483e-02
-4.743231832981109619e-02
3.386080265045166016e-02
2.094623297452926636e-01
-1.168507412075996399e-01
3.301967978477478027e-01
1.431407928466796875e-01
-1.054805293679237366e-01
-5.566864460706710815e-02
-4.801547527313232422e-02
2.281861007213592529e-01
-2.847231328487396240e-01
-3.504672273993492126e-02
-1.333150733262300491e-02
1.447236686944961548e-01
-3.655986785888671875e-01
8.920775353908538818e-02
-8.456420153379440308e-02
1.883809119462966919e-01
-2.036713510751724243e-01
-1.348526775836944580e-01
-3.873478993773460388e-02
-9.275701642036437988e-02
-1.114439293742179871e-01
2.586137317121028900e-02
-3.871533647179603577e-02
2.067908644676208496e-02
-1.219494491815567017e-01
9.400583058595657349e-02
-1.963376253843307495e-01
1.605487316846847534e-01
3.429818749427795410e-01
7.347162812948226929e-02
1.240456178784370422e-01
6.758270412683486938e-02
4.388359487056732178e-01
-3.588379621505737305e-01
5.403739213943481445e-01
-6.015180796384811401e-02
4.348039925098419189e-01
5.274140089750289917e-02
-2.853521406650543213e-01
3.465560376644134521e-01
-5.127575993537902832e-01
9.698387980461120605e-02
1.454013139009475708e-01
-4.055734723806381226e-02
-1.399765070527791977e-02
-4.152362048625946045e-02
-1.161347143352031708e-02
1.053796485066413879e-01
-8.078182488679885864e-02
-2.959133498370647430e-02
1.274984329938888550e-01
-2.089368253946304321e-01
1.663142293691635132e-01
1.246750131249427795e-01
2.433910816907882690e-01
-1.343979686498641968e-01
2.115050703287124634e-01
-1.103309821337461472e-02
3.008429706096649170e-01
1.214120537042617798e-01
-3.900206387042999268e-01
-2.376303225755691528e-01
4.696601256728172302e-02
2.116759270429611206e-01
-4.795876443386077881e-01
6.374523788690567017e-02
-3.985435962677001953e-01
-3.697611019015312195e-02
-2.528192996978759766e-01
1.556715667247772217e-01
4.758050739765167236e-01
-1.713708937168121338e-01
3.878518939018249512e-01
-1.919795721769332886e-01
8.310485631227493286e-03
-8.827579021453857422e-02
-3.040390908718109131e-01
2.277016192674636841e-01
-1.006780564785003662e-01
-1.391596645116806030e-01
-1.096018552780151367e-01
6.901641190052032471e-02
-1.772871017456054688e-01
1.991143971681594849e-01
-3.160656243562698364e-02
-8.907666057348251343e-02
3.149740770459175110e-02
9.146059304475784302e-02
-1.189237982034683228e-01
-1.801046133041381836e-01
-2.245076699182391167e-03
-8.879563771188259125e-03
2.773632667958736420e-02
-1.021061316132545471e-01
3.345349431037902832e-02
3.245508298277854919e-02
3.707482516765594482e-01
-8.245378732681274414e-02
4.771405458450317383e-01
1.520168036222457886e-01
-1.013770177960395813e-01
-1.959784887731075287e-02
-1.468446403741836548e-01
1.911471188068389893e-01
-2.349075376987457275e-01
1.524971127510070801e-01
-9.940074756741523743e-03
8.920917659997940063e-02
5.185493826866149902e-01
-1.079603433609008789e-01
2.664765343070030212e-02
5.279820039868354797e-02
4.596489295363426208e-02
-3.312134444713592529e-01
2.438242137432098389e-01
-4.697029292583465576e-02
4.573675990104675293e-01
-1.488574128597974777e-02
-2.517897263169288635e-02
1.703238487243652344e-01
-1.659696102142333984e-01
1.781066134572029114e-02
-1.162031516432762146e-01
-4.448305116966366768e-04
-8.157104253768920898e-02
5.757065862417221069e-02
3.088463246822357178e-01
-1.348653994500637054e-02
1.210081055760383606e-01
-3.334270119667053223e-01
4.736968576908111572e-01
-4.735501110553741455e-02
-2.428712844848632812e-01
9.561455808579921722e-03
-2.703155279159545898e-01
1.388177126646041870e-01
-4.170952141284942627e-01
1.437592357397079468e-01
2.432232946157455444e-01
-3.125785663723945618e-02
1.501296013593673706e-01
-1.153843030333518982e-01
-9.808101691305637360e-03
-2.688764035701751709e-02
1.306031793355941772e-01
4.238461703062057495e-02
7.218993455171585083e-02
-1.550123989582061768e-01
2.721498906612396240e-02
1.039659231901168823e-01
1.620418727397918701e-01
-3.502961620688438416e-02
1.206863820552825928e-01
1.132416203618049622e-01
2.930077910423278809e-01
-1.568327248096466064e-01
3.168093264102935791e-01
-3.008333146572113037e-01
2.148977667093276978e-02
-1.055547520518302917e-01
-5.386084318161010742e-02
-8.176658302545547485e-02
9.136693552136421204e-03
-2.905124127864837646e-01
3.512606918811798096e-01
-3.905315324664115906e-02
4.828628003597259521e-01
-1.203730609267950058e-02
5.637833476066589355e-01
-4.157489165663719177e-02
2.132804505527019501e-02
-2.087389528751373291e-01
-5.485311616212129593e-03
9.072826802730560303e-02
7.572210580110549927e-02
-1.871222257614135742e-01
4.691312089562416077e-02
-9.499400109052658081e-02
2.955093048512935638e-02
1.510866731405258179e-01
9.148781001567840576e-02
1.009855195879936218e-01
-1.007113084197044373e-01
-2.553953230381011963e-02
-1.927564740180969238e-01
-1.544213294982910156e-01
-7.025549560785293579e-02
2.043177001178264618e-02
-2.190467715263366699e-01
7.055538892745971680e-02
4.074633494019508362e-02
-1.915396749973297119e-02
5.009597539901733398e-02
-1.427818536758422852e-01
3.251012861728668213e-01
1.097245067358016968e-01
-2.400548607110977173e-01
-1.154320091009140015e-01
-3.114563412964344025e-02
-4.373608157038688660e-02
6.546866893768310547e-02
5.501070991158485413e-02
-3.402994712814688683e-03
-1.041429713368415833e-01
1.788577884435653687e-01
-8.248169720172882080e-02
2.820693850517272949e-01
1.882672756910324097e-01
2.719621062278747559e-01
-1.473933905363082886e-01
1.925117373466491699e-01
-9.525761008262634277e-02
-2.049531936645507812e-01
1.588090807199478149e-01
-4.822579398751258850e-02
1.726286858320236206e-01
-8.961252868175506592e-02
9.638439118862152100e-02
8.267468214035034180e-02
-5.941708758473396301e-02
-3.123914599418640137e-01
1.204033475369215012e-02
1.635476201772689819e-01
1.374455690383911133e-01
-9.153663367033004761e-02
-2.767540216445922852e-01
3.698906898498535156e-01
9.321898967027664185e-02
-7.471166551113128662e-02
-1.210439577698707581e-01
-6.524959951639175415e-02
-2.274332046508789062e-01
-1.246669441461563110e-01
1.366884559392929077e-01
1.832866519689559937e-01
5.479749292135238647e-02
-1.872839480638504028e-01
6.193206086754798889e-02
3.702739998698234558e-02
2.746424265205860138e-02
2.934907078742980957e-01
9.202056378126144409e-02
2.405381798744201660e-01
-4.753793776035308838e-02
-9.777450561523437500e-02
1.570127718150615692e-02
-3.669030964374542236e-02
2.147918790578842163e-01
1.188945770263671875e-01
1.154785528779029846e-01
1.580342501401901245e-01
-1.970582008361816406e-01
1.722753979265689850e-02
-4.275059327483177185e-02
-1.269289255142211914e-01
-1.102188676595687866e-01
1.925765872001647949e-01
1.056887432932853699e-01
3.840539231896400452e-02
-2.469264268875122070e-01
1.013086270540952682e-02
-3.166949003934860229e-02
2.077178210020065308e-01
2.468298561871051788e-02
3.026193976402282715e-01
9.157979488372802734e-02
-9.274916956201195717e-04
-6.410694122314453125e-02
-1.195702403783798218e-01
1.107536628842353821e-01
-2.135948389768600464e-01
1.063042134046554565e-01
1.887241303920745850e-01
1.196908578276634216e-01
-5.213055014610290527e-02
-1.714307256042957306e-02
-1.531402766704559326e-01
3.677035216242074966e-03
1.045399010181427002e-01
7.596026360988616943e-02
-4.836569540202617645e-03
-5.285697802901268005e-02
-3.086690902709960938e-01
1.314933001995086670e-01
-2.194266319274902344e-01
1.218126863241195679e-01
-3.462533280253410339e-02
-1.650035530328750610e-01
-5.100470781326293945e-02
1.272591575980186462e-02
2.287669777870178223e-01
3.146428465843200684e-01
-1.505643725395202637e-01
-5.214329343289136887e-03
-1.924492269754409790e-01
1.753369718790054321e-02
-1.883321553468704224e-01
1.535881608724594116e-01
-3.280827030539512634e-02
-5.126619338989257812e-02
2.267562318593263626e-03
-1.941491849720478058e-02
2.177028208971023560e-01
-1.370345652103424072e-01
9.198294021189212799e-03
5.310761625878512859e-04
2.670697867870330811e-01
-1.211784873157739639e-02
2.284455150365829468e-01
-1.535752266645431519e-01
-2.117599099874496460e-01
-6.743904948234558105e-02
-9.378603845834732056e-02
-1.208375915884971619e-01
-2.503173351287841797e-01
2.042978443205356598e-02
-1.610174477100372314e-01
3.121145963668823242e-01
5.543842166662216187e-02
-1.295427680015563965e-01
-3.359647393226623535e-01
1.743692308664321899e-01
2.878015041351318359e-01
3.916444778442382812e-01
3.448236361145973206e-02
-4.678468406200408936e-02
-2.211873829364776611e-01
5.727248638868331909e-02
1.370545327663421631e-01
6.431451439857482910e-02
-1.805640757083892822e-02
3.010149300098419189e-01
-2.101635187864303589e-01
-7.292928546667098999e-02
1.242221742868423462e-01
8.582185022532939911e-03
-2.903742194175720215e-01
-1.037957146763801575e-01
-1.553395669907331467e-02
-1.385717988014221191e-01
-1.467804908752441406e-01
2.273731492459774017e-02
-1.908308640122413635e-02
-7.219979166984558105e-02
-2.622112035751342773e-01
2.040414363145828247e-01
3.101551160216331482e-02
9.768362343311309814e-02
-2.248311974108219147e-02
-6.995652616024017334e-02
1.226358115673065186e-01
4.683079570531845093e-02
8.887311816215515137e-02
-5.610049143433570862e-02
-1.472352892160415649e-01
-2.366068065166473389e-01
1.257635653018951416e-02
6.460687518119812012e-02
1.030447408556938171e-01
-2.626114189624786377e-01
-2.430722713470458984e-01
-1.304530352354049683e-01
7.288709282875061035e-02
-8.310806751251220703e-02
-7.873918116092681885e-02
5.401984229683876038e-02
3.628484904766082764e-02
-5.288282781839370728e-02
1.512349098920822144e-01
1.276327669620513916e-01
-7.104399148374795914e-03
1.697748899459838867e-01
-3.188179433345794678e-01
1.579303145408630371e-01
1.987546384334564209e-01
-8.687005192041397095e-02
1.233905479311943054e-01
2.094967203447595239e-04
-1.424950659275054932e-01
6.880987435579299927e-02
-5.884170904755592346e-02
2.050369828939437866e-01
-1.659004390239715576e-01
-7.328389585018157959e-02
2.883201465010643005e-02
6.361773610115051270e-02
2.304060943424701691e-02
2.061131894588470459e-01
-2.039859890937805176e-01
-4.512949963100254536e-04
-2.720544114708900452e-02
2.722434140741825104e-02
-4.111562967300415039e-01
1.734741330146789551e-01
-1.224055811762809753e-01
-1.038649380207061768e-01
-2.312868386507034302e-01
5.692335776984691620e-03
1.722440123558044434e-01
-2.523582279682159424e-01
-2.739806175231933594e-01
1.951594948768615723e-01
1.826328188180923462e-01
1.476238518953323364e-01
-2.461428195238113403e-01
1.328693926334381104e-01
-1.747520864009857178e-01
-4.108422994613647461e-02
-9.786956012248992920e-02
-1.422109361737966537e-02
-4.772506058216094971e-01
-8.944149315357208252e-02
-1.629869192838668823e-01
4.665436446666717529e-01
-8.631302416324615479e-02
-1.996113508939743042e-01
1.825229972600936890e-01
-1.077905818819999695e-01
-9.229179471731185913e-03
2.930860817432403564e-01
2.184385806322097778e-01
-6.519192829728126526e-03
-1.661026477813720703e-01
1.052471324801445007e-01
-1.327054351568222046e-01
-1.549999928101897240e-03
-6.969898194074630737e-02
3.860377073287963867e-01
-7.703736424446105957e-02
9.480217099189758301e-02
-1.337349712848663330e-01
1.328395307064056396e-01
-2.715215981006622314e-01
-1.628669053316116333e-01
1.426357328891754150e-01
-1.969551593065261841e-01
3.126765415072441101e-02
4.392148461192846298e-03
-3.176610544323921204e-02
1.025304347276687622e-01
-3.512622714042663574e-01
1.145260781049728394e-01
9.525825083255767822e-02
3.719124794006347656e-01
-1.679947376251220703e-01
-3.075779080390930176e-01
1.675617843866348267e-01
1.541864275932312012e-01
-5.461679100990295410e-01
-8.907803567126393318e-04
-1.065995767712593079e-01
-2.542012035846710205e-01
-3.230915665626525879e-01
1.300345808267593384e-01
-9.606514126062393188e-03
-1.252815872430801392e-01
-2.296052873134613037e-01
-2.699003815650939941e-01
1.256554871797561646e-01
-1.825013458728790283e-01
-3.476262390613555908e-01
7.682634890079498291e-02
-1.456990987062454224e-01
-5.557483807206153870e-02
-1.504659205675125122e-01
1.025383993983268738e-01
-1.339508444070816040e-01
2.380570769309997559e-02
-2.642734348773956299e-01
-5.939143011346459389e-04
4.990412667393684387e-02
-3.464357182383537292e-02
4.532914608716964722e-02
-1.718657165765762329e-01
-1.733494251966476440e-01
1.995196342468261719e-01
-4.723158851265907288e-02
3.185712099075317383e-01
7.427587360143661499e-02
-7.337875664234161377e-02
1.369671523571014404e-01
1.258012466132640839e-02
-1.646364927291870117e-01
5.579349771142005920e-02
-1.619655340909957886e-01
5.089927092194557190e-02
-3.638466354459524155e-03
6.872999668121337891e-02
-5.813246369361877441e-01
1.013864874839782715e-01
-1.522733569145202637e-01
9.668207913637161255e-02
-4.982624948024749756e-01
1.300504356622695923e-01
-1.292832791805267334e-01
-2.024031803011894226e-02
-6.152435764670372009e-02
-1.024662107229232788e-01
-1.487484574317932129e-01
4.392868652939796448e-02
7.143292576074600220e-02
3.507868945598602295e-02
-1.690943241119384766e-01
-8.222050964832305908e-03
-2.528974711894989014e-01
-5.083880200982093811e-02
-3.362018465995788574e-01
1.281406078487634659e-02
2.145127952098846436e-01
4.209009408950805664e-01
2.848279476165771484e-01
-7.931870967149734497e-02
2.100542187690734863e-01
7.855583727359771729e-02
-1.801910102367401123e-01
1.537600532174110413e-02
1.059780791401863098e-01
2.083849608898162842e-01
-6.783770024776458740e-02
-1.422667056322097778e-01
-3.028977513313293457e-01
-6.350188702344894409e-02
-1.012199744582176208e-01
1.859174221754074097e-01
1.438714861869812012e-01
-9.831620007753372192e-02
-3.418264538049697876e-02
1.982444077730178833e-01
5.234898254275321960e-02
-1.990805715322494507e-01
3.523296117782592773e-01
6.261544674634933472e-02
2.244884967803955078e-01
6.515464186668395996e-02
-1.731334328651428223e-01
2.916332185268402100e-01
-2.807205319404602051e-01
1.052435338497161865e-01
2.624324988573789597e-03
3.291677236557006836e-01
-3.077367842197418213e-01
-1.290584802627563477e-01
-7.607901096343994141e-02
3.348402082920074463e-01
-2.505830824375152588e-01
-3.194486796855926514e-01
8.864910900592803955e-02
-2.019943147897720337e-01
9.935546666383743286e-02
2.836346626281738281e-02
-1.235180497169494629e-01
1.813959032297134399e-01
-3.209927976131439209e-01
-2.323558628559112549e-01
1.128561645746231079e-01
-4.659219831228256226e-02
-1.627659350633621216e-01
-4.028693307191133499e-03
-2.171619236469268799e-01
-1.340537369251251221e-01
-5.390720814466476440e-02
1.335241086781024933e-02
-2.247665636241436005e-02
1.551103126257658005e-02
-1.589790731668472290e-01
1.568817719817161560e-02
9.387975186109542847e-02
1.168309245258569717e-02
-8.383882790803909302e-02
-7.653072476387023926e-02
-3.207504982128739357e-03
-7.397498190402984619e-02
1.334920674562454224e-01
5.773266777396202087e-02
1.412283331155776978e-01
-7.749105989933013916e-02
1.604090631008148193e-01
-1.502478029578924179e-02
-1.716729849576950073e-01
-2.805903553962707520e-03
9.812150150537490845e-02
6.565132737159729004e-02
4.516253247857093811e-02
5.049256980419158936e-02
-4.772621989250183105e-01
2.055783197283744812e-02
-1.896855086088180542e-01
1.132405549287796021e-01
3.675749599933624268e-01
3.127492070198059082e-01
-1.182065531611442566e-02
-3.050510957837104797e-02
2.728221416473388672e-01
-2.016094177961349487e-01
1.911437325179576874e-02
-1.235036477446556091e-01
-4.687939956784248352e-02
5.742356181144714355e-02
3.043553233146667480e-02
3.698714822530746460e-02
-3.051106631755828857e-01
4.430888965725898743e-02
-7.897336781024932861e-02
6.843629293143749237e-03
7.088379561901092529e-02
3.502359986305236816e-01
3.643993735313415527e-01
-4.213465377688407898e-02
1.841781777329742908e-03
-1.077265292406082153e-01
-2.161254435777664185e-01
1.863541081547737122e-02
-1.818401217460632324e-01
2.370429635047912598e-01
7.972551137208938599e-02
-6.732334196567535400e-02
-3.518232107162475586e-01
7.101466506719589233e-02
1.906610652804374695e-02
8.031293004751205444e-02
-4.845994338393211365e-02
-1.864455044269561768e-01
8.556961268186569214e-02
2.143714427947998047e-01
3.251739740371704102e-01
-1.471618115901947021e-01
3.585116267204284668e-01
5.159993097186088562e-02
-1.235464513301849365e-01
1.031648367643356323e-01
-8.548497408628463745e-02
6.405086070299148560e-02
-2.442596256732940674e-01
-3.438702598214149475e-02
1.373339742422103882e-01
3.135856389999389648e-01
4.829168915748596191e-01
-3.185882866382598877e-01
-4.882057011127471924e-02
2.351265549659729004e-01
9.487511962652206421e-02
-4.702946543693542480e-01
2.967978119850158691e-01
-1.240341961383819580e-01
3.823601305484771729e-01
1.491263955831527710e-01
-3.030537627637386322e-02
3.251586556434631348e-01
-3.222844600677490234e-01
-6.863444298505783081e-02
2.420451492071151733e-02
-6.906032562255859375e-02
-9.864386171102523804e-02
6.527654826641082764e-02
-6.468473374843597412e-02
-2.021482586860656738e-01
-1.480818241834640503e-01
1.952067948877811432e-02
-3.944979980587959290e-02
8.898216485977172852e-02
1.025820299983024597e-01
-7.621468603610992432e-02
3.030294366180896759e-02
9.287057816982269287e-02
9.186068922281265259e-02
-1.389934271574020386e-01
1.717746704816818237e-01
-1.665502637624740601e-01
8.119498938322067261e-02
-1.363943237811326981e-02
2.331283837556838989e-01
-9.824391454458236694e-02
3.182781860232353210e-02
2.419139444828033447e-02
1.041140034794807434e-01
5.565336346626281738e-02
5.249789729714393616e-02
5.955161899328231812e-02
4.679468646645545959e-02
-1.523962914943695068e-01
-3.707233369350433350e-01
-1.601630635559558868e-02
5.458872765302658081e-02
3.420644626021385193e-02
1.687789452262222767e-03
1.136741116642951965e-01
2.907531261444091797e-01
1.208579400554299355e-03
2.528343796730041504e-01
-1.971026808023452759e-01
-1.650172024965286255e-01
3.774010017514228821e-02
3.371986001729965210e-02
3.165661096572875977e-01
-1.182649433612823486e-01
-1.300523895770311356e-02
-2.586683332920074463e-01
1.926208138465881348e-01
7.021123170852661133e-02
-2.986668050289154053e-01
-1.428779680281877518e-02
1.834791153669357300e-01
2.804750800132751465e-01
5.986151471734046936e-02
-1.034622341394424438e-01
-1.810647249221801758e-01
-1.380974352359771729e-01
-1.611320525407791138e-01
1.736198514699935913e-01
8.809900842607021332e-03
1.165498495101928711e-01
-1.443718224763870239e-01
-3.964580595493316650e-01
-7.423394173383712769e-02
-8.037120848894119263e-02
2.570892684161663055e-02
-3.321815729141235352e-01
-1.233191415667533875e-01
1.732938736677169800e-01
7.027820497751235962e-02
1.249633170664310455e-02
3.557003103196620941e-03
3.052705526351928711e-01
1.143453493714332581e-01
-2.141238600015640259e-01
7.279622554779052734e-02
-1.284897476434707642e-01
-3.086370602250099182e-02
-5.111540108919143677e-02
-8.584731258451938629e-04
-4.432518035173416138e-02
-1.006796956062316895e-01
-9.205587208271026611e-02
-1.714816391468048096e-01
1.998211145401000977e-01
1.261505782604217529e-01
3.155206441879272461e-01
-3.070741593837738037e-01
2.811100184917449951e-01
4.339069128036499023e-02
-3.479275703430175781e-01
1.534599810838699341e-02
-9.656257182359695435e-02
8.789490908384323120e-03
-1.332778576761484146e-02
-5.684916302561759949e-02
1.368364095687866211e-01
2.116914093494415283e-01
-1.851817071437835693e-01
-6.103318929672241211e-02
-1.467608064413070679e-01
2.548490762710571289e-01
1.933732926845550537e-01
8.190670609474182129e-02
-1.479049324989318848e-01
-2.024969607591629028e-01
-1.780477315187454224e-01
-6.192525383085012436e-03
2.001240104436874390e-01
-8.349498361349105835e-02
-1.132686808705329895e-01
-1.178110465407371521e-01
-1.259610354900360107e-01
-1.731553077697753906e-01
-2.055002301931381226e-01
1.139136254787445068e-01
-1.011660769581794739e-01
8.005103096365928650e-03
-1.197067797183990479e-01
1.371816098690032959e-01
-8.592807687819004059e-03
2.849819064140319824e-01
-6.944927573204040527e-02
-2.217126078903675079e-03
-1.544827818870544434e-01
2.939047813415527344e-01
1.037449389696121216e-01
4.129897803068161011e-02
-9.794683009386062622e-02
-7.346743345260620117e-02
7.129448931664228439e-03
8.575534075498580933e-02
1.050549447536468506e-01
-4.716037213802337646e-02
-1.899505704641342163e-01
9.289053082466125488e-02
2.280824035406112671e-01
1.017226129770278931e-01
-1.519770547747612000e-02
-1.083428859710693359e-01
-1.437229216098785400e-01
1.208535134792327881e-01
-4.573696479201316833e-02
1.139952391386032104e-01
7.214136421680450439e-02
-2.582893073558807373e-01
-8.273616433143615723e-02
7.445426285266876221e-02
1.181636974215507507e-01
-1.535379439592361450e-01
9.214840084314346313e-02
2.558967769145965576e-01
-4.192169755697250366e-02
2.821725606918334961e-01
9.599461406469345093e-02
9.336183220148086548e-02
-5.102014914155006409e-02
1.979117393493652344e-01
2.765810191631317139e-01
-7.107875496149063110e-02
-4.109956324100494385e-02
-4.763161763548851013e-02
-1.325330138206481934e-01
2.279650270938873291e-01
-1.169261559844017029e-01
7.279130816459655762e-02
-2.214653193950653076e-01
2.266818732023239136e-01
1.512704044580459595e-01
2.560528814792633057e-01
-1.252417266368865967e-01
-8.885143697261810303e-02
-2.030731886625289917e-01
6.162996217608451843e-02
-1.666852384805679321e-01
-1.193126067519187927e-01
-1.182349026203155518e-01
3.541884198784828186e-02
-1.524337679147720337e-01
6.998114287853240967e-02
7.500478625297546387e-02
-4.560624435544013977e-02
-2.089424580335617065e-01
1.555835008621215820e-01
5.776570737361907959e-02
2.827071771025657654e-02
-1.373575534671545029e-02
-1.409217268228530884e-01
3.860257565975189209e-03
-2.676238678395748138e-02
1.612890511751174927e-02
-2.023786157369613647e-01
1.740744262933731079e-01
1.105276122689247131e-01
-1.072247102856636047e-01
-1.146376878023147583e-01
-6.761049479246139526e-02
1.189326122403144836e-01
-1.187756657600402832e-01
1.780848391354084015e-02
1.688851416110992432e-02
-1.487240195274353027e-01
-2.277650237083435059e-01
1.992608457803726196e-01
1.488778442144393921e-01
-3.260596841573715210e-02
6.429065018892288208e-02
-1.021306142210960388e-01
-1.245555952191352844e-01
-1.016752049326896667e-01
-1.848987638950347900e-01
3.233191743493080139e-02
-2.241571694612503052e-01
4.617840424180030823e-02
-6.286529451608657837e-02
9.842700511217117310e-02
7.215415686368942261e-02
1.908816099166870117e-01
-1.983985863626003265e-02
5.139649659395217896e-02
-6.548097729682922363e-02
1.917304843664169312e-01
1.218670457601547241e-01
2.537799179553985596e-01
-1.435058414936065674e-01
-1.089080646634101868e-01
-2.788694500923156738e-01
7.022796571254730225e-02
2.084976285696029663e-01
-2.392279654741287231e-01
-2.631739974021911621e-01
3.091282546520233154e-01
1.965683847665786743e-01
1.844083219766616821e-01
-2.677436470985412598e-01
1.556036174297332764e-01
-2.406248748302459717e-01
9.929580986499786377e-02
1.704468727111816406e-01
-1.057568714022636414e-01
-4.946587234735488892e-02
-4.733430966734886169e-02
-7.596736401319503784e-02
2.139433659613132477e-02
-2.687031589448451996e-02
1.123450398445129395e-01
1.674746572971343994e-01
9.156326763331890106e-03
-7.014501839876174927e-02
3.387459740042686462e-02
3.401260450482368469e-02
6.188584864139556885e-02
-9.945313632488250732e-02
8.263067901134490967e-02
3.620410561561584473e-01
4.362239688634872437e-02
-2.395643591880798340e-01
4.995869100093841553e-02
-1.452224999666213989e-01
3.254291415214538574e-01
-7.335726171731948853e-03
4.197466373443603516e-02
-1.139486487954854965e-02
6.505049020051956177e-02
-1.555310655385255814e-02
1.692170202732086182e-01
6.449845433235168457e-02
5.915267020463943481e-02
-1.240493655204772949e-01
2.505309581756591797e-01
-2.090274691581726074e-01
-9.729712619446218014e-04
-3.434566855430603027e-01
1.503963917493820190e-01
-1.356611698865890503e-01
1.114667505025863647e-01
4.497437551617622375e-02
-8.337635546922683716e-02
-2.949682176113128662e-01
5.377669632434844971e-02
1.245781257748603821e-01
3.123607635498046875e-01
-3.391104042530059814e-01
1.293211728334426880e-01
-1.611144542694091797e-01
8.845055103302001953e-02
-1.329019367694854736e-01
-2.208270132541656494e-02
4.479284584522247314e-02
-7.258012145757675171e-02
-2.910653948783874512e-01
-2.102334946393966675e-01
5.828374251723289490e-02
9.880993515253067017e-02
-1.256838738918304443e-01
-3.322710841894149780e-02
1.719512939453125000e-01
-6.150760501623153687e-02
-2.534857690334320068e-01
1.867578923702239990e-01
1.515741050243377686e-01
-7.029199600219726562e-02
1.578524559736251831e-01
-8.247026801109313965e-02
-8.013363182544708252e-02
1.114367842674255371e-01
-1.041036993265151978e-01
1.775442063808441162e-01
-1.939178705215454102e-01
-3.420663252472877502e-02
4.455119371414184570e-02
1.045725345611572266e-01
-5.104177445173263550e-02
1.029178872704505920e-02
4.356080666184425354e-02
9.374541230499744415e-03
-5.562213063240051270e-02
6.785418093204498291e-02
7.088496536016464233e-02
6.334338337182998657e-02
-1.573833525180816650e-01
-9.834046661853790283e-02
-2.820397615432739258e-01
-3.745187446475028992e-02
8.599610067903995514e-03
5.150360986590385437e-02
2.037119818851351738e-03
6.108291819691658020e-02
1.463535279035568237e-01
1.937645524740219116e-01
-5.179618299007415771e-02
-1.591289639472961426e-01
-1.557665765285491943e-01
-3.544344380497932434e-02
2.305779010057449341e-01
-1.474628895521163940e-01
4.418570548295974731e-02
2.913457155227661133e-01
1.933760046958923340e-01
8.026272803544998169e-02
-7.036737166345119476e-03
3.380526974797248840e-02
-1.942560635507106781e-02
-7.582496851682662964e-02
1.286631077527999878e-01
-3.044415637850761414e-02
-9.832323342561721802e-02
1.629476994276046753e-02
5.542254820466041565e-02
-3.913019597530364990e-02
2.318379729986190796e-01
-2.306412206962704659e-03
-1.259435415267944336e-01
7.691904902458190918e-02
3.120165131986141205e-02
2.266690880060195923e-01
1.049377471208572388e-01
8.759659528732299805e-02
9.523956477642059326e-02
-7.090792059898376465e-02
-1.112419813871383667e-01
-2.598033472895622253e-02
9.400399029254913330e-02
9.662291407585144043e-02
-8.848266303539276123e-02
6.721651554107666016e-02
-2.603905200958251953e-01
-5.190645530819892883e-02
-2.234284579753875732e-01
-7.003492861986160278e-02
-3.771668076515197754e-01
3.027981817722320557e-01
-8.855114132165908813e-02
-1.021998748183250427e-01
1.189225614070892334e-01
-7.042427361011505127e-02
3.891613800078630447e-03
1.205948740243911743e-01
1.696014255285263062e-01
1.087792590260505676e-01
-1.883527785539627075e-01
2.273484319448471069e-01
-2.751775979995727539e-01
-3.223457932472229004e-02
-9.627179824747145176e-04
-6.656053662300109863e-02
-2.909508645534515381e-01
-8.991973102092742920e-02
4.258709028363227844e-02
8.049524575471878052e-02
-9.120507538318634033e-02
6.541402637958526611e-02
-1.264525577425956726e-02
4.507153853774070740e-02
-1.083362773060798645e-01
-9.502058476209640503e-02
1.641456484794616699e-01
-1.439051181077957153e-01
8.633296936750411987e-02
-7.972195744514465332e-02
-8.573234826326370239e-02
-1.003651414066553116e-02
-4.760143160820007324e-02
1.631977260112762451e-01
-1.648141890764236450e-01
2.161921933293342590e-02
1.445308178663253784e-01
-5.072456598281860352e-02
-7.226164638996124268e-02
-4.236751049757003784e-02
9.396409988403320312e-02
3.523203358054161072e-02
-1.110750883817672729e-01
7.885694503784179688e-02
-1.566018611192703247e-01
9.293852001428604126e-02
3.587394952774047852e-03
1.249495297670364380e-01
2.923339605331420898e-01
1.007228791713714600e-01
-3.650136664509773254e-02
-3.544274717569351196e-02
1.953205466270446777e-01
-1.591747105121612549e-01
8.083205670118331909e-02
1.946986094117164612e-02
-2.956607043743133545e-01
-6.069757044315338135e-02
4.925482347607612610e-02
-9.718881547451019287e-02
1.585811227560043335e-01
1.746770739555358887e-01
1.587296575307846069e-01
1.041200198233127594e-02
-8.290831744670867920e-02
2.046417295932769775e-01
6.241573020815849304e-02
-3.308050706982612610e-02
-1.505863945931196213e-02
8.489458262920379639e-02
1.251799911260604858e-01
3.974181041121482849e-02
-1.222107484936714172e-01
1.181537732481956482e-01
-2.064081430435180664e-01
6.964141875505447388e-02
6.403642892837524414e-02
-1.491311751306056976e-02
-1.388184875249862671e-01
-9.161131829023361206e-02
4.629972577095031738e-02
1.577602177858352661e-01
2.063177973031997681e-01
7.428465038537979126e-02
5.349979549646377563e-02
-5.066868662834167480e-02
-1.086927279829978943e-01
-1.339439749717712402e-01
-9.460219182074069977e-03
2.224098592996597290e-01
-1.088336855173110962e-01
-8.739314973354339600e-02
-2.257330268621444702e-01
3.996272757649421692e-02
-1.509774923324584961e-01
9.673903882503509521e-02
2.584413290023803711e-01
2.424522340297698975e-01
5.021965876221656799e-02
-2.564387582242488861e-02
9.250379353761672974e-02
-1.318277716636657715e-01
-1.512902081012725830e-01
-2.093189209699630737e-01
1.176121607422828674e-01
2.596892118453979492e-01
2.914058975875377655e-02
-5.144456401467323303e-02
-4.242589175701141357e-01
-5.936761200428009033e-02
4.108607023954391479e-02
-1.137629747390747070e-01
-1.382895931601524353e-02
-7.613741327077150345e-03
-7.665850967168807983e-02
6.439973413944244385e-02
-1.920754015445709229e-01
1.477245837450027466e-01
-1.010126769542694092e-01
1.440453925170004368e-03
-1.379254907369613647e-01
-5.864689126610755920e-02
7.075896859169006348e-02
-5.914597585797309875e-02
1.330718100070953369e-01
1.137220636010169983e-01
1.975615881383419037e-02
-8.566165715456008911e-02
7.791680097579956055e-02
2.014434337615966797e-01
4.796441178768873215e-03
4.440872371196746826e-02
-6.929875165224075317e-02
2.738776244223117828e-02
1.504341140389442444e-02
2.058694884181022644e-02
-2.915709977969527245e-03
1.305977404117584229e-01
-1.487754136323928833e-01
9.550852328538894653e-02
-3.516146838665008545e-01
1.236134488135576248e-02
-1.225154660642147064e-02
4.876382648944854736e-02
-1.639508008956909180e-01
4.044141173362731934e-01
6.891345977783203125e-02
-2.008841633796691895e-01
2.770408689975738525e-01
7.264345884323120117e-03
-1.550747007131576538e-01
8.661064505577087402e-02
6.056538969278335571e-02
1.615051627159118652e-01
-1.984902769327163696e-01
1.529194712638854980e-01
-1.246469095349311829e-01
2.464223653078079224e-01
2.416660077869892120e-02
-3.985178470611572266e-02
-1.129809319972991943e-01
2.971145808696746826e-01
5.675629153847694397e-02
-1.172428578138351440e-01
-6.831934303045272827e-02
-1.526812314987182617e-01
2.972242236137390137e-01
-2.927737496793270111e-02
1.056511551141738892e-01
4.908666759729385376e-02
-1.993652731180191040e-01
1.759084761142730713e-01
-1.247292533516883850e-01
1.176184415817260742e-01
-2.398737473413348198e-03
-8.489488065242767334e-02
-1.741694360971450806e-01
2.436536923050880432e-02
9.386574476957321167e-02
6.123297382146120071e-03
-1.373594254255294800e-01
2.444916777312755585e-02
9.543733298778533936e-02
-2.465776354074478149e-02
-2.842188440263271332e-02
1.284564733505249023e-01
6.762454658746719360e-02
-1.333892494440078735e-01
-2.511435747146606445e-01
1.687856204807758331e-02
-2.577900514006614685e-02
-7.281474769115447998e-02
-7.945142686367034912e-02
-1.145645976066589355e-02
3.684379160404205322e-01
1.374028325080871582e-01
9.655415266752243042e-02
2.451669611036777496e-02
-3.056104481220245361e-01
-3.732392564415931702e-02
-2.105566818499937654e-05
3.113311529159545898e-01
2.917965315282344818e-02
-1.419940888881683350e-01
-2.784419953823089600e-01
