-2.528463602066040039e-01
-3.708908334374427795e-02
1.119939237833023071e-01
6.634403020143508911e-02
-1.639813184738159180e-01
-1.725558005273342133e-02
1.065683364868164062e-02
1.613547205924987793e-01
8.030914515256881714e-02
1.771420240402221680e-01
5.088618770241737366e-02
4.147641302552074194e-04
-2.908938005566596985e-02
2.671740017831325531e-03
1.322529762983322144e-01
1.025851070880889893e-02
1.849994361400604248e-01
4.408155754208564758e-02
5.515068769454956055e-02
1.634006351232528687e-01
2.533687837421894073e-02
8.690953999757766724e-02
2.091696262359619141e-01
1.688709259033203125e-01
-3.402092726901173592e-03
3.814325481653213501e-02
-1.687980741262435913e-01
1.763604283332824707e-01
-3.386647626757621765e-02
-1.021669134497642517e-01
-2.025194168090820312e-01
-1.010320410132408142e-01
1.384990941733121872e-02
-2.661335654556751251e-02
-4.475352168083190918e-02
9.652099758386611938e-02
1.304855346679687500e-01
1.443965584039688110e-01
1.134667992591857910e-01
-2.274760752916336060e-01
-1.241564974188804626e-01
-1.960705965757369995e-01
3.360157832503318787e-02
-2.369296550750732422e-02
6.350421812385320663e-03
7.263275329023599625e-03
-1.120876744389533997e-01
1.582565158605575562e-01
9.861046820878982544e-02
7.812505587935447693e-03
-2.551080472767353058e-02
4.363375902175903320e-02
3.225237503647804260e-02
2.759976126253604889e-02
-2.888028323650360107e-02
-3.127381438389420509e-03
-1.213184520602226257e-01
-6.472448259592056274e-02
1.639154851436614990e-01
7.074595987796783447e-02
-1.804751753807067871e-01
1.837001889944076538e-01
1.371177844703197479e-02
1.766289919614791870e-01
-1.276006642729043961e-02
-1.363703757524490356e-01
-1.633741110563278198e-01
2.413148246705532074e-02
-8.582126349210739136e-02
-1.200500726699829102e-01
4.999336972832679749e-02
-6.689772754907608032e-02
-9.198700077831745148e-03
-6.761396676301956177e-02
1.464270949363708496e-01
-1.200621277093887329e-01
-1.275644898414611816e-01
-1.474150419235229492e-01
9.325589239597320557e-02
1.457888484001159668e-01
-8.931114524602890015e-02
-9.444966912269592285e-02
9.261248260736465454e-02
-2.131512761116027832e-01
7.619747519493103027e-02
2.936527691781520844e-02
5.795454233884811401e-02
1.788073480129241943e-01
-4.556155204772949219e-02
1.944591104984283447e-02
-1.523021310567855835e-01
-1.765144020318984985e-01
1.414541006088256836e-01
-1.295761168003082275e-01
1.594922691583633423e-02
-1.932712495326995850e-01
-2.393495850265026093e-02
6.168014369904994965e-03
5.340148508548736572e-02
7.337135076522827148e-02
1.401022635400295258e-02
-1.780049949884414673e-01
-1.099930554628372192e-01
1.277437955141067505e-01
6.077437102794647217e-02
-1.199168786406517029e-01
1.443018466234207153e-01
8.761176466941833496e-02
-7.274594902992248535e-02
-3.075130656361579895e-02
-2.763506211340427399e-02
-5.709313601255416870e-02
-6.866414844989776611e-02
-1.172499954700469971e-01
1.026150733232498169e-01
-3.604556992650032043e-02
-1.388839036226272583e-01
-3.336381539702415466e-02
1.149661466479301453e-02
7.870899140834808350e-02
2.283432632684707642e-01
-7.331384718418121338e-02
1.406930238008499146e-01
-8.149056881666183472e-02
8.222199976444244385e-02
-4.700420890003442764e-03
-1.142656058073043823e-01
-1.123753488063812256e-01
1.315284222364425659e-01
-4.743452300317585468e-04
4.639357700943946838e-02
-5.308773741126060486e-02
-1.397820264101028442e-01
2.097040116786956787e-01
4.205336049199104309e-02
1.715375632047653198e-01
8.814650028944015503e-02
-1.491824984550476074e-01
1.290288865566253662e-01
-1.175395678728818893e-02
1.098405756056308746e-02
4.207374528050422668e-02
-4.336931928992271423e-02
7.953996211290359497e-02
9.030018746852874756e-02
-1.219224035739898682e-01
1.063602417707443237e-01
1.266340166330337524e-01
-6.236232817173004150e-02
1.384740788489580154e-02
-7.218357175588607788e-02
9.711045026779174805e-02
-4.161131219007074833e-04
3.218183666467666626e-02
-3.454433977603912354e-01
9.588904678821563721e-03
-1.458674576133489609e-02
-5.876367911696434021e-02
-1.736499555408954620e-02
1.951604485511779785e-01
-5.890487506985664368e-02
-8.762632310390472412e-02
-3.104974515736103058e-02
-2.076875865459442139e-01
6.242254003882408142e-02
-5.671656131744384766e-02
-5.526628345251083374e-02
-1.998659521341323853e-01
9.789459407329559326e-03
8.490015566349029541e-02
7.000017911195755005e-02
1.299035549163818359e-02
-2.343523129820823669e-02
-4.452446475625038147e-02
1.204059496521949768e-01
-1.604669913649559021e-02
1.490370184183120728e-01
-1.675059087574481964e-02
5.763886123895645142e-02
-7.742932438850402832e-02
-1.020385995507240295e-01
1.698265671730041504e-01
-1.479396596550941467e-02
-6.024835631251335144e-02
2.372909337282180786e-02
-6.260520964860916138e-02
-1.521634310483932495e-01
7.046673446893692017e-02
4.665817692875862122e-02
-1.746163070201873779e-01
8.274345844984054565e-02
-1.690817251801490784e-02
-1.300813537091016769e-02
4.712752997875213623e-02
-1.303897146135568619e-02
-1.262208968400955200e-01
6.913653761148452759e-02
1.387668997049331665e-01
-7.958912849426269531e-02
-1.047196015715599060e-01
-1.450542919337749481e-02
1.241995468735694885e-01
-1.823039501905441284e-01
-8.635796606540679932e-02
-7.911738008260726929e-02
8.842368423938751221e-02
-1.094203814864158630e-01
-1.161235198378562927e-01
1.714401505887508392e-02
8.812465518712997437e-02
-1.015242412686347961e-01
-2.623853087425231934e-02
4.369982331991195679e-02
-6.063193455338478088e-02
8.432400971651077271e-02
4.786585271358489990e-02
-2.186660468578338623e-01
1.119649857282638550e-01
1.147835776209831238e-01
-1.108851656317710876e-01
-1.262532323598861694e-01
3.686613962054252625e-02
-1.434081643819808960e-01
-1.411972474306821823e-02
1.054996922612190247e-01
-9.468720108270645142e-02
7.130792737007141113e-02
5.746673047542572021e-02
-5.685934331268072128e-03
-1.282530575990676880e-01
-5.441008135676383972e-02
1.160545647144317627e-01
-8.709838241338729858e-02
-6.426669657230377197e-02
8.793298900127410889e-02
8.030383288860321045e-02
1.155734136700630188e-01
3.353536128997802734e-02
-7.820979505777359009e-02
5.812320113182067871e-02
1.958891004323959351e-02
1.966989785432815552e-01
-3.292070329189300537e-02
2.655129730701446533e-01
-1.161289587616920471e-01
1.013181656599044800e-01
2.308844029903411865e-01
4.321111366152763367e-03
2.109798602759838104e-02
1.027217209339141846e-01
7.056402415037155151e-02
1.203861907124519348e-01
7.177907973527908325e-02
1.908887550234794617e-02
-9.909867495298385620e-02
-2.064694613218307495e-01
-1.361276488751173019e-02
9.208178520202636719e-02
1.030381321907043457e-01
-1.053212881088256836e-01
-1.894038021564483643e-01
1.546010375022888184e-01
-1.918244361877441406e-02
3.822725964710116386e-03
-9.452989697456359863e-02
2.268649637699127197e-02
5.681623518466949463e-02
3.607013786677271128e-04
1.048787385225296021e-01
-1.505675017833709717e-01
-1.723929941654205322e-01
1.807114183902740479e-01
-1.337956637144088745e-02
-1.535299271345138550e-01
-1.073844581842422485e-01
-1.504411995410919189e-01
-1.888963878154754639e-01
1.515751481056213379e-01
-1.820944845676422119e-01
1.789077818393707275e-01
8.945866674184799194e-02
5.834539607167243958e-02
-7.775989919900894165e-02
6.920845061540603638e-02
1.430224776268005371e-01
1.103767454624176025e-01
1.169468238949775696e-01
-6.135134398937225342e-02
1.069527491927146912e-01
-2.509284950792789459e-02
3.762279078364372253e-02
1.441569477319717407e-01
7.052979618310928345e-02
2.914254553616046906e-02
2.040135264396667480e-01
-5.027630925178527832e-02
1.572110801935195923e-01
-8.878412097692489624e-02
-1.585010886192321777e-01
2.961760014295578003e-02
-1.493132263422012329e-01
-1.012082546949386597e-01
1.269752085208892822e-01
8.344166725873947144e-02
-1.753351837396621704e-01
1.045960783958435059e-01
-1.789345890283584595e-01
-4.465289413928985596e-02
-1.766643971204757690e-01
-3.134684637188911438e-02
8.400568366050720215e-02
4.635117575526237488e-02
2.468967437744140625e-02
-7.481941580772399902e-02
-2.023982070386409760e-02
-1.790335923433303833e-01
-1.060596331954002380e-01
-1.562628597021102905e-01
5.144427344202995300e-02
-1.709262877702713013e-01
5.734679102897644043e-02
-1.422975212335586548e-01
2.341178618371486664e-02
-1.992590427398681641e-01
1.405114424414932728e-03
1.470063626766204834e-01
1.162678077816963196e-01
-1.620869524776935577e-02
-2.407013624906539917e-01
1.286412775516510010e-01
-2.030504681169986725e-02
3.613966703414916992e-02
1.080914735794067383e-01
6.454935669898986816e-02
-6.964413076639175415e-02
-1.554211527109146118e-01
-1.470769345760345459e-01
1.110193952918052673e-01
2.339485660195350647e-02
-1.239352971315383911e-01
1.261579245328903198e-01
-1.590050607919692993e-01
-5.506519600749015808e-02
2.163200229406356812e-01
-1.386217027902603149e-01
4.890695214271545410e-02
1.951663345098495483e-01
6.253028661012649536e-02
-2.776134908199310303e-01
1.114644110202789307e-01
2.257174812257289886e-02
-6.636025011539459229e-02
-6.335777044296264648e-02
7.117579132318496704e-02
3.684568032622337341e-02
1.064361482858657837e-01
5.850807577371597290e-02
-1.841262797825038433e-03
1.362431645393371582e-01
-1.905711442232131958e-01
1.222256198525428772e-01
4.589456319808959961e-02
6.775634735822677612e-02
-1.560018509626388550e-01
-3.504709154367446899e-02
4.477968066930770874e-02
1.802110671997070312e-02
-6.914824247360229492e-02
-4.039347171783447266e-02
2.673303242772817612e-03
-7.561336457729339600e-02
6.849496811628341675e-02
-7.439945638179779053e-02
-6.344855576753616333e-02
-5.164783075451850891e-02
3.086657077074050903e-02
7.523520616814494133e-04
1.109668835997581482e-01
1.075667440891265869e-01
-1.471902132034301758e-01
7.983180880546569824e-02
-1.124636232852935791e-01
4.123749956488609314e-02
-3.190410137176513672e-02
-1.950184553861618042e-01
9.624189138412475586e-02
-5.129357054829597473e-02
-3.507120069116353989e-03
-1.794132739305496216e-01
1.253904104232788086e-01
9.145946800708770752e-02
-1.007258445024490356e-01
6.402931362390518188e-02
-7.930309325456619263e-02
1.602054536342620850e-01
-4.570654034614562988e-02
1.004127264022827148e-01
1.136710960417985916e-02
-2.414630725979804993e-02
1.184599101543426514e-02
-2.255385965108871460e-01
1.273850053548812866e-01
4.949868842959403992e-02
-5.767197534441947937e-02
2.185990102589130402e-02
-1.367063671350479126e-01
9.024453908205032349e-02
1.056193113327026367e-01
-6.069848686456680298e-02
1.110221371054649353e-01
6.878620386123657227e-02
1.178456172347068787e-01
5.156992375850677490e-02
4.322054982185363770e-02
8.753194659948348999e-02
-9.826415777206420898e-02
3.064040839672088623e-02
1.207516044378280640e-01
-4.717238247394561768e-02
6.863406300544738770e-02
-1.362240524031221867e-03
6.715466827154159546e-02
1.339182108640670776e-01
1.022404655814170837e-01
3.846938535571098328e-02
7.801494747400283813e-02
-3.535153716802597046e-02
6.218152120709419250e-02
9.448183327913284302e-02
1.910155117511749268e-01
-9.688374400138854980e-02
1.858778111636638641e-02
-7.162433862686157227e-02
8.799372613430023193e-02
-7.217152044177055359e-03
2.286538667976856232e-02
5.608541518449783325e-02
6.929213553667068481e-02
9.654047898948192596e-03
-2.883467376232147217e-01
-1.228401213884353638e-01
1.608918011188507080e-01
-8.513129502534866333e-02
1.094663366675376892e-01
-3.257431462407112122e-02
3.970970213413238525e-02
-9.357044100761413574e-02
-7.033373415470123291e-02
-7.814414054155349731e-02
-4.461099952459335327e-02
-7.388222217559814453e-02
1.845843344926834106e-01
1.096049770712852478e-01
8.692228794097900391e-02
7.549019902944564819e-02
-8.035283535718917847e-02
5.503446329385042191e-03
4.719017818570137024e-02
5.170723423361778259e-02
2.623742818832397461e-02
-4.963706247508525848e-03
3.015486709773540497e-02
-3.087034076452255249e-02
1.353485584259033203e-01
-1.371253579854965210e-01
3.202831000089645386e-02
1.133119314908981323e-01
-1.284430772066116333e-01
1.002894714474678040e-01
1.470992416143417358e-01
-4.039026796817779541e-02
6.448188424110412598e-02
1.432037446647882462e-02
-2.864389121532440186e-01
3.643514215946197510e-02
-4.433285072445869446e-02
1.436259895563125610e-01
-1.034283339977264404e-01
1.967662014067173004e-02
8.470518514513969421e-03
-3.209755942225456238e-02
-3.073520958423614502e-02
-5.428011529147624969e-03
1.778379315510392189e-03
-3.735450282692909241e-02
-4.142592474818229675e-02
5.986978113651275635e-02
-9.183420985937118530e-02
-8.068476617336273193e-02
-5.174984037876129150e-02
-3.588853403925895691e-02
8.121001534163951874e-03
-9.972342848777770996e-02
-4.327885061502456665e-02
-6.162981316447257996e-02
2.260107733309268951e-02
-1.612181589007377625e-02
1.547963619232177734e-01
-5.625610798597335815e-02
-6.711368262767791748e-02
-7.983382791280746460e-02
-1.364107131958007812e-01
1.156242862343788147e-01
-7.320149987936019897e-02
-1.316380053758621216e-01
4.702358506619930267e-03
-1.363576650619506836e-01
-1.232048645615577698e-01
-9.867104887962341309e-02
3.020836710929870605e-01
8.257476985454559326e-02
3.571534529328346252e-02
-5.549149587750434875e-02
-1.791083812713623047e-01
1.710620373487472534e-01
1.325830537825822830e-02
1.079676747322082520e-01
-1.058450043201446533e-01
3.790891729295253754e-03
1.820513047277927399e-02
-9.663338214159011841e-02
1.518001407384872437e-01
2.164642363786697388e-01
4.825544729828834534e-02
6.927108019590377808e-02
1.584383845329284668e-02
1.227725073695182800e-01
2.981447800993919373e-02
6.043972820043563843e-02
2.149840258061885834e-02
-8.183248341083526611e-02
1.914694458246231079e-01
-1.409752480685710907e-02
1.268656104803085327e-01
-3.969772160053253174e-02
-1.174068450927734375e-01
1.713034138083457947e-02
-8.882650732994079590e-02
-7.521905004978179932e-03
2.161189913749694824e-01
-6.714387238025665283e-02
-6.187369301915168762e-02
1.957211047410964966e-01
1.726598590612411499e-01
2.697468176484107971e-02
4.153847694396972656e-03
1.626391410827636719e-01
-8.772051334381103516e-02
1.236970275640487671e-01
1.602296233177185059e-01
4.240254312753677368e-02
1.460470166057348251e-02
-1.662740707397460938e-01
4.896994307637214661e-02
-4.908625036478042603e-02
9.806057065725326538e-02
1.114226132631301880e-01
-8.730743825435638428e-02
9.263709187507629395e-02
-2.083385549485683441e-02
-1.442290246486663818e-01
8.143652230501174927e-02
-1.138571184128522873e-02
5.931904539465904236e-03
1.315080821514129639e-01
-3.955188766121864319e-02
-2.243920043110847473e-02
-1.942986063659191132e-02
-9.066711179912090302e-03
1.028542146086692810e-01
1.254287362098693848e-02
1.755836904048919678e-01
1.457070559263229370e-01
1.102322712540626526e-01
6.778264045715332031e-02
6.021677330136299133e-02
2.672008574008941650e-01
-1.104659140110015869e-01
-5.441208556294441223e-02
-2.679974399507045746e-02
2.727174572646617889e-02
1.784924119710922241e-01
1.328424215316772461e-01
-4.833007603883743286e-02
-1.228757668286561966e-02
-4.584657400846481323e-02
-9.259117394685745239e-02
-9.061592072248458862e-02
1.037248894572257996e-01
1.223341599106788635e-01
9.936337918043136597e-02
5.209137499332427979e-02
-4.977810382843017578e-02
-2.317201644182205200e-01
-3.146886825561523438e-02
2.622084226459264755e-03
1.204611137509346008e-01
-5.730151385068893433e-02
4.547362402081489563e-02
-1.515209823846817017e-01
-1.222637519240379333e-01
-1.042787823826074600e-02
1.168565005064010620e-01
1.007044613361358643e-01
5.494865775108337402e-02
-1.788688637316226959e-02
-7.935538887977600098e-02
7.333835214376449585e-02
4.525125026702880859e-02
4.849774390459060669e-02
9.680567018222063780e-05
2.169770561158657074e-02
-4.314270988106727600e-02
-5.815671011805534363e-02
1.757094562053680420e-01
2.448851941153407097e-03
6.389961391687393188e-02
-1.945213414728641510e-02
9.547006338834762573e-02
1.630128473043441772e-01
-6.331878900527954102e-02
1.267530620098114014e-01
1.253227423876523972e-02
6.088985502719879150e-02
-2.615157887339591980e-02
-2.037607878446578979e-01
-9.089770726859569550e-03
6.167010590434074402e-02
9.284354001283645630e-02
-1.597996950149536133e-01
-1.122899353504180908e-01
-2.151861973106861115e-02
3.290951251983642578e-02
-5.868223682045936584e-02
-1.547259241342544556e-01
3.556351736187934875e-02
-2.439259551465511322e-02
7.608625292778015137e-02
5.009856820106506348e-02
-1.931389868259429932e-01
-8.747837692499160767e-02
-1.388056874275207520e-01
3.892746567726135254e-02
4.263753071427345276e-02
-8.196169137954711914e-02
-5.551026016473770142e-02
-9.587085247039794922e-02
1.004779115319252014e-01
3.658126667141914368e-02
-1.310870647430419922e-01
3.460725024342536926e-02
-3.463347256183624268e-02
5.330544710159301758e-02
4.789508879184722900e-02
-1.260608881711959839e-01
8.863208442926406860e-02
-1.955152601003646851e-01
-1.899199187755584717e-02
1.089578792452812195e-01
-4.905861988663673401e-02
-3.887683898210525513e-02
1.855411678552627563e-01
-1.299252063035964966e-01
-6.896663922816514969e-03
3.793499991297721863e-02
-8.372369408607482910e-02
-1.989464163780212402e-01
3.376060724258422852e-02
-5.721116438508033752e-02
-1.565343737602233887e-01
3.078261017799377441e-02
7.591757923364639282e-02
6.685709953308105469e-02
-1.024787724018096924e-01
2.003344744443893433e-01
-7.411541446344926953e-05
-2.572196125984191895e-01
-2.000044435262680054e-01
-6.476994603872299194e-02
2.453859895467758179e-01
-7.592087984085083008e-02
-2.678287588059902191e-02
-2.853927947580814362e-02
-1.678441762924194336e-01
7.416573911905288696e-02
8.621867746114730835e-03
9.925653040409088135e-02
2.024449706077575684e-01
1.317750811576843262e-01
-1.840846240520477295e-01
-8.543619513511657715e-02
-5.565591529011726379e-02
-5.734494421631097794e-03
2.145400270819664001e-02
-4.160676896572113037e-02
-5.312954634428024292e-02
9.552639722824096680e-02
-1.426208950579166412e-02
6.028495728969573975e-02
3.196648508310317993e-02
1.926870457828044891e-02
-2.516682744026184082e-01
1.106501277536153793e-02
8.171422779560089111e-02
4.218716174364089966e-02
-5.926007777452468872e-02
-6.286631524562835693e-02
1.753171235322952271e-01
-1.614781022071838379e-01
6.768217682838439941e-02
-2.048612758517265320e-02
-2.746505476534366608e-02
-1.442577391862869263e-01
-7.626391947269439697e-02
-9.588178363628685474e-04
-8.664568513631820679e-02
-1.378866285085678101e-01
8.635725080966949463e-02
4.747170954942703247e-02
2.596489898860454559e-02
-9.781144559383392334e-02
7.106251269578933716e-02
6.676150113344192505e-02
-8.122118562459945679e-02
-1.407447606325149536e-01
4.735412076115608215e-02
1.557461619377136230e-01
-7.320386916399002075e-02
9.498915635049343109e-03
-8.386264741420745850e-02
1.059797778725624084e-01
1.137100905179977417e-01
9.031531214714050293e-02
-3.318617120385169983e-02
-8.233083784580230713e-02
-6.454261392354965210e-02
6.695349700748920441e-03
1.926264911890029907e-02
3.977930638939142227e-03
1.229962520301342010e-02
-2.780415676534175873e-02
-3.312150388956069946e-02
7.729070633649826050e-02
1.355289518833160400e-01
-5.810886248946189880e-02
-5.467660725116729736e-02
-4.639186710119247437e-02
1.843627691268920898e-01
-8.966029435396194458e-02
3.372137248516082764e-02
3.091269358992576599e-02
1.883380264043807983e-01
1.394368559122085571e-01
-1.571575701236724854e-01
4.939550161361694336e-02
-1.059171184897422791e-02
4.648257791996002197e-02
-1.343000829219818115e-01
-3.110088221728801727e-02
6.684581935405731201e-02
3.095971792936325073e-02
1.512370109558105469e-01
-1.600582748651504517e-01
8.499502390623092651e-02
1.656457036733627319e-01
-5.423555895686149597e-02
-9.780719876289367676e-02
-7.515396177768707275e-02
8.489096164703369141e-02
5.020224303007125854e-02
1.251022964715957642e-01
2.129525877535343170e-02
6.728351116180419922e-02
-1.299651712179183960e-01
9.417802095413208008e-02
1.357394456863403320e-01
-6.099510565400123596e-02
9.617349505424499512e-02
-6.504798680543899536e-02
8.588312566280364990e-02
-1.115465089678764343e-01
-2.241419851779937744e-01
3.449393063783645630e-02
9.209345281124114990e-02
-1.904452294111251831e-01
2.884078025817871094e-01
-2.007964625954627991e-02
5.946702510118484497e-02
8.836080878973007202e-02
9.596470743417739868e-02
9.525375207886099815e-04
-1.846692897379398346e-02
-3.943878784775733948e-02
-2.841180749237537384e-02
1.401727199554443359e-01
1.757290773093700409e-02
-1.701961904764175415e-01
1.483530551195144653e-01
9.840777516365051270e-02
1.387332752346992493e-02
4.232255276292562485e-03
2.135556004941463470e-02
9.644824266433715820e-02
2.525818906724452972e-02
-3.205543383955955505e-02
4.971326142549514771e-02
-1.496887058019638062e-01
-5.066082999110221863e-02
-1.851732656359672546e-02
1.214221566915512085e-01
-9.996397420763969421e-03
-9.254592657089233398e-02
1.057271845638751984e-02
-1.032483056187629700e-01
1.906675696372985840e-01
-5.678383260965347290e-02
-1.994446069002151489e-01
-1.326571404933929443e-01
-8.872335404157638550e-02
-1.657448559999465942e-01
7.099237293004989624e-03
3.770249709486961365e-02
-1.621652208268642426e-02
-4.699462559074163437e-03
-1.040364652872085571e-01
-3.610906749963760376e-02
2.070171386003494263e-02
5.233190953731536865e-02
2.077336758375167847e-01
9.628592431545257568e-02
-1.385860443115234375e-01
2.372408844530582428e-02
1.070147827267646790e-01
-1.699184775352478027e-01
2.533119171857833862e-02
1.237714663147926331e-01
6.525383889675140381e-02
2.598937042057514191e-02
-1.281702369451522827e-01
2.357132434844970703e-01
-7.457920908927917480e-02
-4.876670241355895996e-02
6.531511247158050537e-02
7.342905551195144653e-02
-6.704153865575790405e-02
2.306883409619331360e-02
2.033439837396144867e-02
5.665993085131049156e-04
1.449138578027486801e-02
1.865958981215953827e-02
1.208198592066764832e-01
-3.710440918803215027e-02
2.695643110200762749e-03
1.131525933742523193e-01
4.457099735736846924e-02
-1.425828486680984497e-01
2.556828856468200684e-01
-6.785071920603513718e-03
-9.150958061218261719e-02
1.987804844975471497e-02
-3.529375493526458740e-01
2.431748211383819580e-01
4.297846928238868713e-02
-7.965338299982249737e-04
1.767664253711700439e-01
5.553190782666206360e-02
-6.428508460521697998e-02
-2.495475811883807182e-03
-2.676364034414291382e-02
-9.330554306507110596e-02
-6.490257382392883301e-02
2.537022233009338379e-01
1.706994511187076569e-02
1.413091272115707397e-01
-2.290510572493076324e-03
6.182485818862915039e-02
-1.864310801029205322e-01
1.240453273057937622e-01
4.400870576500892639e-02
2.219713479280471802e-01
-1.296249311417341232e-02
-1.797820776700973511e-01
-9.133410453796386719e-02
-7.204591482877731323e-02
-2.068350911140441895e-01
-3.169587580487132072e-04
-8.891274034976959229e-02
2.683940692804753780e-04
6.530922651290893555e-02
-8.821581304073333740e-02
1.438107043504714966e-01
6.899971980601549149e-03
-1.287275105714797974e-01
1.388680487871170044e-01
2.142629623413085938e-01
1.482081562280654907e-01
7.786433398723602295e-02
-2.471278607845306396e-01
-5.949167162179946899e-02
-2.634782902896404266e-02
1.208131834864616394e-01
-1.662405878305435181e-01
-9.749714285135269165e-02
2.471301704645156860e-02
-1.337408423423767090e-01
-1.688584126532077789e-02
-2.735698521137237549e-01
1.946842819452285767e-01
-1.511459052562713623e-01
-1.431116312742233276e-01
2.342219054698944092e-01
1.560415625572204590e-01
3.108372092247009277e-01
-4.847967997193336487e-02
6.097651273012161255e-02
4.819973185658454895e-02
-1.362020671367645264e-01
-1.419303007423877716e-03
-1.504672691226005554e-02
-4.034098237752914429e-02
-1.385967433452606201e-01
-4.057791456580162048e-02
2.187294140458106995e-02
-2.866742312908172607e-01
-7.171453535556793213e-02
-1.090727094560861588e-02
-7.200299203395843506e-02
2.210242487490177155e-02
-1.445684283971786499e-01
1.580414026975631714e-01
-1.704996973276138306e-01
6.530388444662094116e-02
1.082418411970138550e-01
-5.772640556097030640e-02
-5.935632809996604919e-02
-9.560352563858032227e-02
-2.888149023056030273e-01
1.499183475971221924e-01
8.579135686159133911e-02
-7.690572738647460938e-02
9.667027741670608521e-03
-1.801929324865341187e-01
1.526332739740610123e-02
-7.566878944635391235e-02
-4.818622022867202759e-02
-1.301394402980804443e-01
1.663090735673904419e-01
2.638220041990280151e-02
-1.621655821800231934e-01
1.853952533565461636e-03
6.509623490273952484e-03
-2.323843985795974731e-01
-1.262978017330169678e-01
4.662757739424705505e-02
1.856650598347187042e-02
1.876704245805740356e-01
-3.683571889996528625e-02
1.984691247344017029e-02
-2.542014420032501221e-02
-6.265947222709655762e-02
-2.432330138981342316e-02
8.743349462747573853e-02
7.012598961591720581e-02
1.026297584176063538e-01
2.437423355877399445e-02
1.118489354848861694e-01
-2.829481661319732666e-01
1.528454273939132690e-01
5.601352453231811523e-02
2.388015091419219971e-01
8.891328237950801849e-03
6.993175297975540161e-02
-7.873161882162094116e-02
6.213011220097541809e-02
7.688341289758682251e-02
-1.314970292150974274e-02
6.452278047800064087e-02
-1.151438504457473755e-01
6.853093206882476807e-02
5.335578322410583496e-02
-7.870940864086151123e-02
1.226082891225814819e-01
2.894042618572711945e-02
5.746145918965339661e-02
9.436057507991790771e-02
-1.603037118911743164e-01
-2.820079401135444641e-02
2.657156251370906830e-02
2.015915811061859131e-01
-1.340855658054351807e-01
-3.399053961038589478e-02
-1.079413741827011108e-01
-1.938081346452236176e-02
7.521497458219528198e-02
-1.409148722887039185e-01
7.957640290260314941e-02
-7.962430268526077271e-02
-8.683778345584869385e-02
1.578904390335083008e-01
-1.745738387107849121e-01
1.908387094736099243e-01
-2.177874147891998291e-01
-6.766758859157562256e-02
-1.125604147091507912e-03
-1.464856564998626709e-01
7.529257237911224365e-02
-3.925114125013351440e-02
-2.130166254937648773e-02
1.310962811112403870e-02
-3.778244368731975555e-03
3.601888194680213928e-03
-1.569807380437850952e-01
6.441744416952133179e-02
9.130477160215377808e-02
-2.589185349643230438e-02
-9.833092242479324341e-02
-1.375719308853149414e-01
8.153375238180160522e-02
1.510210186243057251e-01
-7.664917409420013428e-02
-9.245659410953521729e-02
8.808108419179916382e-02
-1.100545749068260193e-01
-1.639287024736404419e-01
4.793936014175415039e-02
-1.242529451847076416e-01
-4.430786520242691040e-02
-6.455194205045700073e-02
-1.021033972501754761e-01
-5.758102983236312866e-02
9.407177567481994629e-02
7.395906746387481689e-02
2.452072221785783768e-03
1.430563442409038544e-02
1.111575961112976074e-01
9.846773929893970490e-03
-4.617195203900337219e-02
-1.114273816347122192e-01
-1.018582805991172791e-01
9.422681480646133423e-02
3.666578233242034912e-02
-4.731937497854232788e-02
-5.320731177926063538e-02
-6.067762151360511780e-02
7.665923237800598145e-02
6.828065030276775360e-03
4.212788864970207214e-02
2.843405306339263916e-02
1.176285091787576675e-02
-1.215555816888809204e-01
-6.490723043680191040e-02
-8.617500960826873779e-02
-5.490267649292945862e-02
7.001330703496932983e-02
9.477140381932258606e-03
8.480480313301086426e-02
1.230084244161844254e-02
1.966897994279861450e-01
-5.459669977426528931e-02
1.676804870367050171e-01
3.249775618314743042e-02
-1.239593923091888428e-01
5.108338221907615662e-02
1.032990366220474243e-01
7.031469047069549561e-02
-4.192611947655677795e-02
6.244994327425956726e-02
1.123788729310035706e-01
-6.400103680789470673e-03
-1.094972193241119385e-01
2.845744974911212921e-02
-6.284878402948379517e-02
-1.219029203057289124e-01
3.703275928273797035e-03
1.382231563329696655e-01
1.421728730201721191e-02
-1.518069580197334290e-02
3.153485059738159180e-02
-7.254648022353649139e-03
-1.446068435907363892e-01
1.590583920478820801e-01
-8.963760733604431152e-02
7.925377041101455688e-02
-6.688387691974639893e-02
6.576381623744964600e-02
-6.003696098923683167e-02
-4.505225643515586853e-02
-1.796630024909973145e-01
-2.886493317782878876e-02
-4.104642570018768311e-02
-4.913901165127754211e-02
7.319108396768569946e-02
-1.250943988561630249e-01
-1.253103911876678467e-01
-1.943427138030529022e-02
1.721559315919876099e-01
-1.888242214918136597e-01
1.087254956364631653e-01
1.096666231751441956e-02
-1.046588420867919922e-01
-1.046446189284324646e-01
-1.267783492803573608e-01
-1.407524198293685913e-01
2.466798573732376099e-02
-4.637452214956283569e-02
-6.625654548406600952e-02
5.154795944690704346e-02
-4.500288888812065125e-02
-1.000402569770812988e-01
3.731219470500946045e-02
8.507324755191802979e-02
-9.654685854911804199e-02
-8.035702258348464966e-02
-4.187357146292924881e-03
1.486352980136871338e-01
-5.269361659884452820e-02
1.544615179300308228e-01
-1.535387933254241943e-01
2.173400670289993286e-02
1.562327742576599121e-01
-6.301310658454895020e-02
-9.513195604085922241e-03
-5.937938019633293152e-02
-5.197262763977050781e-02
1.420634053647518158e-02
-1.717680878937244415e-02
5.368071794509887695e-02
2.537924237549304962e-02
5.399634316563606262e-02
8.785499632358551025e-02
-1.198903024196624756e-01
-6.719107180833816528e-02
-1.261667460203170776e-01
-1.092594861984252930e-01
2.208336442708969116e-02
1.214635279029607773e-02
1.410864889621734619e-01
5.200678855180740356e-02
-1.265367716550827026e-01
1.224288493394851685e-01
7.825188338756561279e-02
-2.070671506226062775e-02
1.834258437156677246e-01
-1.412199288606643677e-01
1.126951649785041809e-01
-3.748853504657745361e-02
-6.289761979132890701e-03
-8.299881964921951294e-02
-6.186826154589653015e-02
1.621807366609573364e-01
-1.585164666175842285e-01
-7.864375412464141846e-02
-5.532579496502876282e-02
1.997211016714572906e-03
-2.665990591049194336e-01
7.269220054149627686e-02
1.768185645341873169e-01
5.835346505045890808e-02
9.068512171506881714e-02
-2.264578789472579956e-01
9.536545723676681519e-02
9.760238975286483765e-02
-1.240609958767890930e-01
1.565358936786651611e-01
3.379059210419654846e-02
-2.675295993685722351e-02
4.402105137705802917e-02
-1.976974867284297943e-02
2.323497273027896881e-02
3.461864590644836426e-02
-7.118773460388183594e-02
4.620591923594474792e-02
-1.540345102548599243e-01
4.555898904800415039e-02
7.455883175134658813e-02
1.794539205729961395e-02
-1.358361821621656418e-02
-8.115319162607192993e-02
-5.651164054870605469e-02
1.181938946247100830e-01
-3.318066522479057312e-02
8.869732916355133057e-02
-8.468186855316162109e-02
-4.354199767112731934e-02
1.472497433423995972e-01
-4.846418276429176331e-02
-8.684572763741016388e-03
-1.335280537605285645e-01
1.674761064350605011e-03
-8.653331547975540161e-02
5.365772545337677002e-02
1.694660075008869171e-02
1.581473834812641144e-02
5.242833867669105530e-02
4.889517650008201599e-02
1.141676008701324463e-01
2.291732877492904663e-01
6.501137465238571167e-02
1.602267101407051086e-02
-2.162004858255386353e-01
2.600435316562652588e-01
1.421726308763027191e-02
-7.242108136415481567e-02
-3.003946244716644287e-01
1.883316785097122192e-01
1.727120578289031982e-02
-2.403135150671005249e-01
7.551687769591808319e-03
1.266554296016693115e-01
-2.259369008243083954e-03
-5.204641073942184448e-02
-6.469401717185974121e-02
7.117287814617156982e-02
1.375422477722167969e-01
7.876598834991455078e-02
1.898773610591888428e-01
-7.092789560556411743e-02
2.260220050811767578e-02
-5.017415620386600494e-03
-1.547650247812271118e-01
6.217262521386146545e-02
1.049117818474769592e-01
-7.243701070547103882e-02
1.226347908377647400e-01
-1.006329506635665894e-01
-9.197224676609039307e-02
-4.289927333593368530e-02
6.764393299818038940e-02
2.248847298324108124e-02
1.063572391867637634e-01
-4.127303510904312134e-02
-7.054381072521209717e-02
-4.973166808485984802e-02
-1.288895457983016968e-01
-5.176947638392448425e-02
3.558236733078956604e-02
8.845511078834533691e-02
6.189203634858131409e-02
5.450157076120376587e-02
-2.408731728792190552e-02
-6.184270605444908142e-02
2.056015841662883759e-02
6.925900280475616455e-02
-1.968552544713020325e-02
8.778080344200134277e-02
8.211006224155426025e-02
-5.677608773112297058e-03
-1.455091834068298340e-01
4.701877385377883911e-02
-1.627352088689804077e-02
1.773185580968856812e-01
-3.898868337273597717e-02
-7.673319429159164429e-02
4.987998306751251221e-02
-1.718150526285171509e-01
7.145568728446960449e-02
8.067847788333892822e-02
-3.560618311166763306e-02
-6.481783837080001831e-02
-5.787123367190361023e-02
-7.882501184940338135e-02
2.149135023355484009e-01
6.163932010531425476e-02
-1.224185004830360413e-01
1.222491934895515442e-01
-1.564120799303054810e-01
2.724122954532504082e-03
-9.522187709808349609e-02
1.729780584573745728e-01
5.414176732301712036e-02
-8.754377812147140503e-02
-8.236718922853469849e-02
-1.330727990716695786e-02
4.733098670840263367e-02
4.595946148037910461e-02
-9.125535190105438232e-02
-6.294561084359884262e-03
-4.081363230943679810e-02
-3.005049563944339752e-02
6.717807799577713013e-02
-6.368956714868545532e-02
5.557456985116004944e-02
-2.960369884967803955e-01
1.579032242298126221e-01
2.949910424649715424e-02
-7.231795787811279297e-02
-1.354351937770843506e-01
-5.437631160020828247e-03
4.831886291503906250e-02
-3.133746981620788574e-02
-7.906420528888702393e-02
-1.710529997944831848e-02
1.019642651081085205e-01
1.138760894536972046e-01
1.545504331588745117e-01
3.824456408619880676e-02
-4.855978768318891525e-03
2.644039876759052277e-02
-1.156312078237533569e-01
5.646601319313049316e-02
-1.042151749134063721e-01
-4.880797490477561951e-02
-1.026598364114761353e-01
-4.347173497080802917e-02
1.382956802845001221e-01
-6.956634670495986938e-02
-1.051273718476295471e-01
1.164684295654296875e-01
2.054298073053359985e-01
1.019745320081710815e-01
4.990555346012115479e-02
1.838598251342773438e-01
-5.193683505058288574e-02
-1.367923468351364136e-01
7.839327678084373474e-03
-2.229370176792144775e-01
2.031697146594524384e-02
-1.015205383300781250e-01
-1.047296747565269470e-01
-1.657238453626632690e-01
5.303245037794113159e-02
-4.697924107313156128e-02
1.375010311603546143e-01
-3.719638288021087646e-02
-5.780473724007606506e-02
-8.391444385051727295e-02
-7.168972492218017578e-02
2.722251974046230316e-02
-1.500372439622879028e-01
1.037611812353134155e-01
6.622208654880523682e-02
-8.988399058580398560e-02
-4.330189526081085205e-02
2.878709696233272552e-02
-1.769597455859184265e-02
1.413286626338958740e-01
1.491801738739013672e-01
-1.007613614201545715e-01
-3.731715306639671326e-02
4.650785028934478760e-02
-1.995607316493988037e-01
-1.818508803844451904e-01
1.085582077503204346e-01
1.666938662528991699e-01
6.207251548767089844e-02
2.877009473741054535e-02
-5.050110444426536560e-02
-1.420949548482894897e-01
-6.291648745536804199e-02
4.295192286372184753e-02
-2.366461604833602905e-02
1.933875121176242828e-02
9.431056678295135498e-02
4.513681679964065552e-02
-7.105814665555953979e-02
-1.007713750004768372e-01
-2.559033967554569244e-02
1.694424077868461609e-02
4.700224846601486206e-02
1.252136230468750000e-01
-1.297875493764877319e-01
-1.275205016136169434e-01
1.815291345119476318e-01
-1.499947458505630493e-01
1.566107571125030518e-02
-7.848819345235824585e-02
-1.007094681262969971e-01
5.881528928875923157e-02
-4.709287732839584351e-02
7.835022360086441040e-02
-1.216774731874465942e-01
7.231993228197097778e-02
-1.136950589716434479e-02
1.120278909802436829e-01
-3.204514458775520325e-02
-8.632501959800720215e-02
1.279098242521286011e-01
-5.792120844125747681e-02
1.247471570968627930e-01
1.742551773786544800e-01
1.726057380437850952e-01
9.433431178331375122e-02
2.543269395828247070e-01
6.660674512386322021e-02
8.674878627061843872e-02
-5.077888257801532745e-03
1.839034375734627247e-03
9.673315286636352539e-02
4.812783002853393555e-02
1.788202859461307526e-02
-5.185978487133979797e-02
6.432908773422241211e-02
7.605361752212047577e-03
1.546086966991424561e-01
-2.735672751441597939e-03
1.514613479375839233e-01
1.356135606765747070e-01
5.031306296586990356e-02
5.902404338121414185e-02
-1.282387673854827881e-01
-1.825584024190902710e-01
1.143250241875648499e-02
-1.041796952486038208e-01
-7.750421762466430664e-02
-4.159747809171676636e-02
-1.748903095722198486e-02
-8.421537280082702637e-02
2.704221569001674652e-02
2.050882205367088318e-02
3.994345199316740036e-03
-2.588726766407489777e-02
1.088225021958351135e-01
-2.122355438768863678e-02
-1.556431353092193604e-01
-1.366971284151077271e-01
-1.329115591943264008e-02
-1.418736204504966736e-02
1.071350947022438049e-01
1.518801599740982056e-02
-2.506015449762344360e-02
-9.915613383054733276e-02
6.582498084753751755e-03
-5.700826179236173630e-03
-2.408839762210845947e-01
1.535254418849945068e-01
4.562160745263099670e-02
2.481688000261783600e-02
-3.739017248153686523e-02
1.369419135153293610e-02
2.489314414560794830e-03
9.144041687250137329e-02
-1.301113218069076538e-01
-1.822335571050643921e-01
-8.165197074413299561e-02
1.044998988509178162e-01
6.036226823925971985e-02
1.113075837492942810e-01
2.644634246826171875e-02
1.011598184704780579e-01
-8.697997778654098511e-02
7.215639948844909668e-02
-5.085144564509391785e-02
-9.231421351432800293e-02
-2.804675400257110596e-01
2.861246839165687561e-02
-1.523879766464233398e-01
-6.583908945322036743e-02
-1.781507879495620728e-01
-5.070758610963821411e-02
-1.144509017467498779e-01
-1.575272530317306519e-01
5.396852269768714905e-02
3.487596660852432251e-02
3.070542030036449432e-02
9.472425282001495361e-02
1.896927505731582642e-01
-1.713423877954483032e-01
-2.303536422550678253e-02
-9.465624392032623291e-02
-1.625669002532958984e-01
-7.164657860994338989e-02
-2.188122421503067017e-01
-1.387949939817190170e-02
1.285119354724884033e-01
-3.994725644588470459e-02
-8.761519193649291992e-02
1.240371610037982464e-03
-1.158377155661582947e-01
-9.506625682115554810e-02
-2.781840786337852478e-02
6.676153838634490967e-02
-1.779778162017464638e-03
-3.225910663604736328e-02
8.988085389137268066e-02
3.996291384100914001e-02
8.185924589633941650e-02
-1.108082309365272522e-01
-4.069102555513381958e-02
-5.009867250919342041e-03
8.707903325557708740e-02
-1.061689555644989014e-01
1.036538854241371155e-01
-9.249668568372726440e-03
-9.940592944622039795e-02
1.124086789786815643e-02
8.015270531177520752e-02
-6.827893853187561035e-02
2.738503552973270416e-02
1.203128322958946228e-02
-6.609847396612167358e-02
1.203096471726894379e-02
-7.709997892379760742e-02
-1.779216825962066650e-01
7.316102832555770874e-02
-7.623567432165145874e-02
-6.028681248426437378e-02
1.535954922437667847e-01
-1.097017303109169006e-01
-4.997234791517257690e-02
7.039886713027954102e-02
2.538605928421020508e-01
-5.389941856265068054e-02
1.640559136867523193e-01
-5.126144364476203918e-02
-1.222051121294498444e-02
-1.146935299038887024e-02
1.208273023366928101e-01
5.052060261368751526e-02
2.255179584026336670e-01
-3.873474150896072388e-02
3.945477306842803955e-02
1.060071587562561035e-02
4.264834150671958923e-02
-5.146171152591705322e-02
-1.194694042205810547e-01
1.179945766925811768e-01
3.280534446239471436e-01
1.053594872355461121e-01
-9.841386228799819946e-02
-5.775086581707000732e-02
1.054380834102630615e-01
1.438076943159103394e-01
-1.880556493997573853e-01
1.992034912109375000e-01
-9.935253113508224487e-02
-5.786437541246414185e-02
9.330802410840988159e-02
-1.082165092229843140e-01
9.256833046674728394e-02
9.831202030181884766e-02
1.970083266496658325e-02
2.826680243015289307e-01
-5.052524805068969727e-02
4.514988139271736145e-02
7.398904860019683838e-02
-1.056305598467588425e-02
1.067001223564147949e-01
1.431858241558074951e-01
-1.102293133735656738e-01
-5.836055055260658264e-02
1.170297712087631226e-02
2.043481916189193726e-01
1.090438216924667358e-01
-5.557684227824211121e-02
1.180818304419517517e-01
4.901484400033950806e-02
-8.080334216356277466e-02
-6.924411654472351074e-02
1.005555316805839539e-01
6.863157451152801514e-02
1.521693542599678040e-02
7.107679545879364014e-02
2.085565216839313507e-02
9.106454998254776001e-02
4.101396724581718445e-02
2.827223762869834900e-02
1.302309185266494751e-01
9.198328107595443726e-02
-2.177602052688598633e-02
-2.326228618621826172e-01
-4.661301895976066589e-02
2.905285172164440155e-02
-7.696828246116638184e-02
2.151309698820114136e-01
-1.625825613737106323e-01
4.462559707462787628e-03
2.929678000509738922e-02
8.201639354228973389e-02
-1.153350546956062317e-01
1.264177411794662476e-01
-1.021739020943641663e-01
1.273596435785293579e-01
-1.143325236625969410e-03
1.987542398273944855e-02
4.207021370530128479e-02
-8.982366323471069336e-02
-8.389877527952194214e-02
1.049760058522224426e-01
2.908868342638015747e-02
-4.648045822978019714e-02
2.888282993808388710e-03
5.837336648255586624e-03
-4.313104227185249329e-02
-1.497686654329299927e-01
-1.830735355615615845e-01
-5.688779428601264954e-02
-1.083301976323127747e-01
-1.101158112287521362e-01
1.321649700403213501e-01
-6.327544152736663818e-02
1.211693976074457169e-02
-4.185210913419723511e-02
-1.124006416648626328e-02
-3.606026992201805115e-02
1.648438721895217896e-01
-1.286255121231079102e-01
5.296343937516212463e-03
-9.708948433399200439e-02
-1.147916838526725769e-01
-1.714863255620002747e-02
-3.499876707792282104e-02
9.533738344907760620e-02
-2.651103958487510681e-02
7.138101011514663696e-02
-3.706973046064376831e-02
-2.306798659265041351e-02
2.701027989387512207e-01
-4.640234634280204773e-02
2.552557364106178284e-02
5.199286341667175293e-02
4.235125705599784851e-02
-1.353952139616012573e-01
1.777127087116241455e-01
8.864897303283214569e-03
5.446757003664970398e-02
1.738470979034900665e-02
-1.261944323778152466e-01
1.213614195585250854e-01
-1.139565259218215942e-01
-2.464036196470260620e-01
1.539023313671350479e-02
-1.913475990295410156e-01
-9.579459577798843384e-02
-1.061232835054397583e-01
-1.099467054009437561e-01
8.312018960714340210e-02
1.328707635402679443e-01
-1.993419826030731201e-01
-4.118163138628005981e-02
-7.873794063925743103e-03
-7.671289145946502686e-02
1.529464423656463623e-01
-5.809462070465087891e-02
-1.240250170230865479e-01
2.646527625620365143e-02
-1.299193799495697021e-01
1.317470967769622803e-01
-1.114932633936405182e-02
1.291080564260482788e-01
-7.237216085195541382e-02
6.587648391723632812e-02
1.200298666954040527e-01
2.793335914611816406e-01
7.015583664178848267e-02
1.679690629243850708e-01
1.567442156374454498e-02
8.347727358341217041e-02
-8.340286463499069214e-02
-1.137031912803649902e-01
3.776550292968750000e-02
-9.584487974643707275e-02
7.541710138320922852e-02
-2.045143842697143555e-01
1.225716993212699890e-01
3.972167521715164185e-02
9.643826633691787720e-02
-9.058552235364913940e-02
-1.021915003657341003e-01
-2.068649828433990479e-01
5.620814487338066101e-02
-6.012693792581558228e-02
-6.256297230720520020e-03
-4.108947888016700745e-02
2.056149393320083618e-01
-1.236761808395385742e-01
5.215851962566375732e-02
-6.858962774276733398e-02
-1.273784190416336060e-01
-6.137465685606002808e-02
1.638885028660297394e-02
-6.369283050298690796e-02
1.942717842757701874e-02
1.172419413924217224e-01
1.707097440958023071e-01
-6.738591194152832031e-02
1.056190133094787598e-01
-6.362701952457427979e-02
-9.652140736579895020e-02
-5.117217078804969788e-02
-4.896980151534080505e-02
8.674646168947219849e-02
2.850582450628280640e-02
-5.079391971230506897e-02
-4.280122369527816772e-02
2.063009440898895264e-01
2.159231752157211304e-01
9.383618086576461792e-02
4.599010571837425232e-02
2.312925457954406738e-01
1.841153502464294434e-01
-1.146336644887924194e-02
-2.634873054921627045e-02
1.181522617116570473e-03
1.213962119072675705e-02
-1.079283282160758972e-01
-3.206427395343780518e-02
-1.222564652562141418e-01
-8.444219827651977539e-02
5.432739853858947754e-02
-1.263345032930374146e-01
5.146441981196403503e-02
-3.790936991572380066e-02
-7.779714185744524002e-03
4.370163381099700928e-02
-2.171927131712436676e-02
3.094461932778358459e-02
2.247357368469238281e-01
1.762027591466903687e-01
9.267239272594451904e-02
-1.077102050185203552e-01
-7.813951373100280762e-02
-2.032536081969738007e-02
-9.614215791225433350e-02
1.050451397895812988e-02
-2.728807628154754639e-01
-1.373239904642105103e-01
2.133872173726558685e-02
-1.314932256937026978e-01
-1.615308970212936401e-02
1.231795623898506165e-01
-1.722695119678974152e-02
2.843786962330341339e-03
-2.170202434062957764e-01
6.244304776191711426e-02
-4.205944016575813293e-02
3.248771652579307556e-02
-8.381582796573638916e-02
-1.559302955865859985e-01
1.831834316253662109e-01
1.369347721338272095e-01
1.510829478502273560e-01
-2.220215499401092529e-01
1.618469357490539551e-01
-2.005031853914260864e-01
1.906560361385345459e-02
7.741853594779968262e-03
8.672913163900375366e-02
2.174389511346817017e-01
-2.534371428191661835e-02
-1.640752702951431274e-01
-2.337930649518966675e-01
1.962200701236724854e-01
2.047282159328460693e-01
-1.513715386390686035e-01
1.573290117084980011e-02
4.793491959571838379e-02
1.875552535057067871e-02
5.139266699552536011e-02
-1.265865843743085861e-02
3.835139563307166100e-03
-3.020958229899406433e-02
2.958471886813640594e-02
-2.086669206619262695e-01
-8.638022094964981079e-02
1.013339161872863770e-01
-1.907017454504966736e-02
-1.793752424418926239e-02
2.294965833425521851e-02
-1.202429533004760742e-01
-2.623504698276519775e-01
4.574202746152877808e-02
8.979906141757965088e-02
-2.073193341493606567e-01
2.625171840190887451e-02
2.055939286947250366e-01
1.280109137296676636e-01
-1.170112267136573792e-01
-1.468819975852966309e-01
-1.643028408288955688e-01
-9.997053071856498718e-03
-8.918496221303939819e-02
-3.779979422688484192e-02
-6.847169995307922363e-02
2.535413578152656555e-02
1.051874384284019470e-01
1.793853789567947388e-01
-1.601890027523040771e-01
-2.108321338891983032e-02
1.848862133920192719e-02
-3.658164641819894314e-04
1.194259598851203918e-01
-3.000508844852447510e-01
-1.440047174692153931e-01
1.364405304193496704e-01
-1.750165224075317383e-02
9.280142188072204590e-02
2.031619846820831299e-01
7.819351553916931152e-02
-5.876781418919563293e-02
-1.922804564237594604e-01
-8.619625121355056763e-02
1.445723772048950195e-01
-1.710747182369232178e-02
-3.499377146363258362e-02
4.125912487506866455e-02
-1.569364517927169800e-01
1.295763105154037476e-01
-9.654510766267776489e-02
-3.827786147594451904e-01
-1.678966432809829712e-01
-8.664970099925994873e-02
1.131623014807701111e-01
-1.066415458917617798e-01
1.287063658237457275e-01
-9.109765291213989258e-02
-8.627029508352279663e-02
-6.322992593050003052e-02
1.685854196548461914e-01
5.526801943778991699e-02
2.093418538570404053e-01
-1.697748084552586079e-03
5.330303683876991272e-02
-5.931907147169113159e-02
9.207732975482940674e-02
4.352745786309242249e-02
-8.036503195762634277e-02
-2.752611227333545685e-02
-7.597351819276809692e-02
5.139547958970069885e-02
-2.312767086550593376e-03
-5.874523776583373547e-04
1.938394904136657715e-01
5.518413335084915161e-02
9.573417156934738159e-02
8.757011592388153076e-02
-1.283996552228927612e-01
5.105481296777725220e-02
7.683742791414260864e-02
2.582749724388122559e-01
-1.967758536338806152e-01
-2.109106443822383881e-02
1.086954325437545776e-01
4.111720249056816101e-02
3.621452301740646362e-02
-1.001483798027038574e-01
1.729091396555304527e-03
5.828543379902839661e-02
-4.194183275103569031e-02
-8.781981654465198517e-03
-3.808642178773880005e-02
2.142448723316192627e-01
-2.440944164991378784e-01
-1.742607355117797852e-01
9.589896351099014282e-02
1.182117164134979248e-01
7.503513991832733154e-02
-3.748042881488800049e-02
-3.337782993912696838e-02
-4.136897996068000793e-02
-8.217626810073852539e-02
6.844084709882736206e-02
-1.857968568801879883e-01
2.160684168338775635e-01
-2.636642940342426300e-02
7.454749196767807007e-02
-2.880354411900043488e-02
7.164397090673446655e-02
-1.815361529588699341e-01
-1.649391949176788330e-01
-1.945807635784149170e-01
-4.480161517858505249e-02
3.536447137594223022e-02
-1.315580159425735474e-01
1.036031320691108704e-01
-1.996951103210449219e-01
2.074004560708999634e-01
3.255106508731842041e-02
-1.288189738988876343e-02
-1.428397595882415771e-01
6.970408558845520020e-02
-3.764251247048377991e-02
1.145203039050102234e-01
1.413422264158725739e-02
-2.496038824319839478e-01
-4.497367516160011292e-02
-9.836056083440780640e-02
-1.590293496847152710e-01
8.943983702920377254e-04
7.553295046091079712e-02
1.096911579370498657e-01
1.368573009967803955e-01
2.754986472427845001e-02
4.666348546743392944e-02
-1.571903973817825317e-01
9.373600035905838013e-02
-3.240827098488807678e-02
8.762531727552413940e-02
1.923662237823009491e-02
8.254146575927734375e-02
1.105417832732200623e-01
-1.685111522674560547e-01
-1.366013735532760620e-01
-1.412290930747985840e-01
1.560029983520507812e-01
-1.605779305100440979e-02
-4.046763107180595398e-02
-2.978502213954925537e-01
8.421746641397476196e-02
4.853514209389686584e-02
1.934889703989028931e-02
3.413848951458930969e-02
1.274437606334686279e-01
-8.132917433977127075e-02
-3.031899780035018921e-02
-8.576260507106781006e-02
2.329134941101074219e-02
5.649574846029281616e-02
5.429052188992500305e-02
-4.615106806159019470e-02
-1.575813442468643188e-01
-9.757900983095169067e-02
1.504455357789993286e-01
6.530289351940155029e-02
3.142365068197250366e-02
8.389168232679367065e-02
6.984632462263107300e-02
-3.419334068894386292e-02
-3.808429464697837830e-03
4.064593836665153503e-02
-3.877511247992515564e-02
1.742809824645519257e-02
-5.406808480620384216e-02
1.469243615865707397e-01
1.103131547570228577e-01
2.969866059720516205e-02
1.146431714296340942e-01
2.394814789295196533e-02
9.028655290603637695e-02
1.050709784030914307e-01
1.232613995671272278e-01
1.625820845365524292e-01
-3.334830701351165771e-02
-2.716688252985477448e-02
-5.165335163474082947e-02
2.576241791248321533e-01
-1.842452585697174072e-02
1.897600591182708740e-01
1.280886977910995483e-01
6.724461168050765991e-02
1.786719858646392822e-01
-3.237845748662948608e-02
1.146073713898658752e-01
8.784135431051254272e-02
6.228921934962272644e-02
1.322916615754365921e-02
2.761717187240719795e-03
-1.771346032619476318e-01
1.901833689771592617e-03
1.773020252585411072e-02
-1.287336051464080811e-01
-4.224619269371032715e-02
-1.329369097948074341e-01
2.521635778248310089e-02
4.448240622878074646e-02
-6.336997449398040771e-02
1.345768719911575317e-01
8.215124160051345825e-02
-2.012274414300918579e-02
4.495426267385482788e-02
5.088097602128982544e-02
1.116241421550512314e-02
-1.675960570573806763e-01
1.068262234330177307e-01
-4.920467734336853027e-02
-1.786624789237976074e-01
8.775286376476287842e-03
-6.725545972585678101e-02
-5.289117339998483658e-03
7.629652321338653564e-02
-6.662914156913757324e-02
-8.955895155668258667e-02
-2.749147452414035797e-02
2.961864136159420013e-02
7.142186909914016724e-02
-7.184561342000961304e-02
-4.921241849660873413e-02
-1.270045042037963867e-01
5.551236867904663086e-02
1.749645471572875977e-01
2.227217145264148712e-02
-5.364637449383735657e-02
1.430018544197082520e-01
-2.857208997011184692e-02
-2.044872008264064789e-02
3.725410997867584229e-02
-1.802797317504882812e-01
-1.211264878511428833e-01
1.212495118379592896e-01
6.103184446692466736e-02
-2.323295027017593384e-01
1.418620496988296509e-01
-3.166130930185317993e-02
-6.254927068948745728e-02
5.019108578562736511e-02
2.176512032747268677e-01
-1.910847052931785583e-02
-2.304036542773246765e-02
-1.192638352513313293e-01
4.784041643142700195e-02
1.344767808914184570e-01
7.889296114444732666e-02
1.900696381926536560e-02
-1.101117283105850220e-01
-2.618328668177127838e-03
-3.027599677443504333e-02
-3.986446559429168701e-02
-6.999452132731676102e-03
-1.068497635424137115e-02
2.031104266643524170e-02
-2.394759356975555420e-01
-5.525909364223480225e-02
-1.330590397119522095e-01
-2.191383764147758484e-02
-8.200059831142425537e-02
-1.462177336215972900e-01
2.569012157618999481e-02
-2.827787771821022034e-02
-1.683687907643616199e-03
1.462355721741914749e-02
-2.979742735624313354e-02
-1.680800225585699081e-03
-1.474926918745040894e-01
4.724201187491416931e-02
6.918551772832870483e-02
7.453995198011398315e-02
-1.513559818267822266e-01
1.627372354269027710e-01
1.733682900667190552e-01
3.770284354686737061e-02
1.139577776193618774e-01
-8.711449056863784790e-02
-1.438179761171340942e-01
-2.207487225532531738e-01
3.639807924628257751e-02
3.233530744910240173e-02
-1.109102442860603333e-01
-1.936785690486431122e-02
-7.570569217205047607e-02
-1.006569489836692810e-01
-5.135233327746391296e-02
-1.800221800804138184e-01
3.776616649702191353e-04
-6.574158370494842529e-02
3.376092296093702316e-03
2.083685435354709625e-02
5.571134760975837708e-02
-5.378519184887409210e-03
4.396182671189308167e-02
2.909202277660369873e-01
-6.142554804682731628e-02
-6.214655190706253052e-02
1.695619546808302402e-03
2.549448236823081970e-02
1.069995611906051636e-01
-1.535227298736572266e-01
-5.722682550549507141e-02
1.172905787825584412e-01
2.402424626052379608e-02
-5.020650103688240051e-02
-7.685784995555877686e-02
-8.027448505163192749e-02
1.132085081189870834e-02
1.065566837787628174e-01
-1.040826365351676941e-01
-5.007641017436981201e-02
5.647215247154235840e-02
-1.092596352100372314e-01
1.728807538747787476e-01
-1.602056324481964111e-01
-1.496908720582723618e-02
-1.427011340856552124e-01
2.390668960288167000e-03
-1.932482421398162842e-02
1.076861694455146790e-01
5.521602928638458252e-02
-2.788018435239791870e-03
-1.144576724618673325e-02
-1.272341907024383545e-01
-6.190543994307518005e-02
2.388387918472290039e-02
6.662429776042699814e-03
-1.645502001047134399e-01
3.765186527743935585e-03
9.929984807968139648e-02
5.957725457847118378e-03
-8.699534088373184204e-02
-4.076051339507102966e-02
-1.237374991178512573e-01
1.422148644924163818e-01
-8.750300109386444092e-02
-8.926300704479217529e-02
3.393395617604255676e-02
1.166873201727867126e-01
5.717454105615615845e-02
8.850369602441787720e-02
-2.385415881872177124e-02
9.847892075777053833e-02
-2.235319651663303375e-02
1.456947773694992065e-01
2.549988962709903717e-02
-1.149689182639122009e-01
-3.387478413060307503e-03
-1.630306541919708252e-01
-2.139941416680812836e-02
-1.159565523266792297e-01
2.892160229384899139e-02
-6.402622908353805542e-02
-1.883501559495925903e-02
-3.197751641273498535e-01
-4.893761500716209412e-02
-9.117231704294681549e-03
-8.361691981554031372e-02
-8.683995902538299561e-02
-8.940051496028900146e-02
2.841551788151264191e-02
9.849649667739868164e-02
-1.334508806467056274e-01
4.153217747807502747e-02
-1.745830290019512177e-02
4.168137162923812866e-02
-1.347073912620544434e-01
-1.286252290010452271e-01
1.385136544704437256e-01
-5.938523635268211365e-02
2.605331502854824066e-02
1.013196185231208801e-01
-1.184019893407821655e-01
1.950567704625427723e-03
-2.724763751029968262e-02
3.501671180129051208e-02
-6.221443787217140198e-02
3.983473032712936401e-02
5.933245643973350525e-03
6.952512264251708984e-02
-5.280473455786705017e-02
8.621241897344589233e-03
-1.085448041558265686e-01
3.278217837214469910e-02
-1.149891167879104614e-01
-1.479810029268264771e-01
9.214407205581665039e-02
4.744577035307884216e-02
1.430626865476369858e-02
7.232008967548608780e-03
-7.136318087577819824e-02
-1.863825172185897827e-01
-9.764488786458969116e-02
3.213457390666007996e-02
-7.882446050643920898e-02
1.745346747338771820e-02
-1.059869024902582169e-02
-1.223272085189819336e-01
1.013652011752128601e-01
-1.251990795135498047e-01
-9.996036440134048462e-02
-8.440148830413818359e-02
8.874501287937164307e-02
-8.003287762403488159e-02
1.029267162084579468e-02
1.724106073379516602e-01
4.277762398123741150e-02
8.523374795913696289e-02
4.487381502985954285e-02
1.207348853349685669e-01
-1.401958316564559937e-01
-9.169396758079528809e-02
-5.557774379849433899e-02
1.999898850917816162e-01
2.280115485191345215e-01
-2.720391377806663513e-02
2.203941941261291504e-01
-1.158771570771932602e-02
4.918571934103965759e-02
1.709173917770385742e-01
7.481163367629051208e-03
-1.041117534041404724e-01
9.236139804124832153e-02
-2.729592621326446533e-01
2.054748237133026123e-01
-3.441230952739715576e-02
-2.682539820671081543e-01
1.895911693572998047e-01
-2.096100598573684692e-01
-5.140546336770057678e-02
1.469775289297103882e-01
1.107355765998363495e-02
1.731544137001037598e-01
2.373831570148468018e-01
-2.095278501510620117e-01
-1.300310343503952026e-01
2.415515482425689697e-02
2.468950003385543823e-01
1.117363050580024719e-01
2.703185081481933594e-01
-4.967111721634864807e-02
1.597117334604263306e-01
-2.986071407794952393e-01
1.534304320812225342e-01
2.362451702356338501e-02
2.805047333240509033e-01
1.331442147493362427e-01
-3.840213418006896973e-01
-3.129307329654693604e-01
-3.504071012139320374e-02
-4.569163173437118530e-02
3.004734814167022705e-01
-2.801386117935180664e-01
1.028361916542053223e-01
4.092436283826828003e-02
-2.318635396659374237e-02
-4.338847100734710693e-02
-1.838698387145996094e-01
-3.742526471614837646e-02
-3.903504312038421631e-01
2.420039325952529907e-01
-3.196000307798385620e-02
3.523316681385040283e-01
-3.038614988327026367e-01
-2.448441088199615479e-02
7.636885344982147217e-02
7.997617870569229126e-02
-1.554855555295944214e-01
1.061160210520029068e-02
1.139702051877975464e-01
-4.675373807549476624e-02
3.255589678883552551e-02
-2.644703090190887451e-01
1.413141638040542603e-01
-2.048576474189758301e-01
5.334970727562904358e-02
7.812618464231491089e-02
7.041793316602706909e-02
2.659835815429687500e-01
-3.193489089608192444e-02
-2.905611693859100342e-01
-8.111917227506637573e-02
-1.279555708169937134e-01
3.353819623589515686e-02
-1.590478420257568359e-01
-1.928681135177612305e-01
5.621896311640739441e-02
-2.415048889815807343e-02
2.553978376090526581e-02
2.627907320857048035e-02
-2.620814926922321320e-02
-1.775271892547607422e-01
4.631353542208671570e-02
2.538176476955413818e-01
-2.812313139438629150e-01
2.892196178436279297e-01
-1.519526541233062744e-01
-4.023810029029846191e-01
-1.288575381040573120e-01
7.245866209268569946e-02
8.862881921231746674e-03
-6.283488124608993530e-02
-2.640112936496734619e-01
2.180844396352767944e-01
2.373041659593582153e-01
-1.569814682006835938e-01
-1.601327583193778992e-02
-1.897469609975814819e-01
-1.204687729477882385e-01
-8.435141295194625854e-02
9.295125491917133331e-03
-1.012663841247558594e-01
-2.636394090950489044e-02
-1.654420346021652222e-01
-2.363424897193908691e-01
-2.538648247718811035e-01
7.182970643043518066e-02
-1.002552211284637451e-01
7.929608225822448730e-02
1.351461708545684814e-01
3.806318342685699463e-02
-6.131926085799932480e-03
-2.101262509822845459e-01
2.217723131179809570e-01
-1.054924726486206055e-01
1.273977458477020264e-01
-1.190060675144195557e-01
2.978797256946563721e-02
3.762220963835716248e-02
6.250216811895370483e-02
-5.703882873058319092e-02
-2.688914909958839417e-02
8.177299797534942627e-02
-1.328522861003875732e-01
-4.703284427523612976e-02
1.326287984848022461e-01
-8.190013468265533447e-02
1.457799077033996582e-01
1.113190082833170891e-03
3.082911856472492218e-02
8.638420142233371735e-03
-3.216391894966363907e-03
2.019039727747440338e-02
7.389423251152038574e-02
-6.883361190557479858e-02
9.248199313879013062e-02
-7.915635406970977783e-02
-7.438448071479797363e-02
-1.617010869085788727e-02
1.012856513261795044e-01
-6.232802197337150574e-02
1.029324308037757874e-01
-7.675953954458236694e-02
3.024009987711906433e-02
3.819282352924346924e-02
9.221453219652175903e-02
-7.482694834470748901e-02
8.841884136199951172e-02
-2.403467707335948944e-02
1.111744642257690430e-01
1.474605873227119446e-02
-1.011075451970100403e-01
1.462537795305252075e-01
7.156984508037567139e-02
7.660388946533203125e-02
1.696193031966686249e-02
-2.054895758628845215e-01
9.884765744209289551e-02
1.081293150782585144e-01
1.213623769581317902e-02
-1.002956330776214600e-01
-5.619958508759737015e-03
-9.580628573894500732e-02
2.271504327654838562e-02
-5.909550236538052559e-04
9.080136567354202271e-02
-5.647651106119155884e-02
-8.307597041130065918e-02
-1.088763251900672913e-01
7.427382282912731171e-03
6.309162825345993042e-02
-7.228852808475494385e-02
-1.042716130614280701e-01
-9.367737919092178345e-03
-4.903013259172439575e-02
9.132982045412063599e-02
-6.675291806459426880e-02
1.507911533117294312e-01
1.559109389781951904e-01
1.347412019968032837e-01
1.426019798964262009e-02
-1.597912050783634186e-02
3.834294853731989861e-03
-2.834380604326725006e-02
-1.765820682048797607e-01
1.102303937077522278e-01
-1.368559338152408600e-02
-1.281199306249618530e-01
-1.051723025739192963e-02
-9.928349405527114868e-02
1.079298630356788635e-01
1.375800929963588715e-02
2.222924493253231049e-02
-1.305903345346450806e-01
-4.832160100340843201e-02
-3.989950194954872131e-02
-7.815632969141006470e-02
-1.456393003463745117e-01
1.396062504500150681e-02
-1.859998106956481934e-01
1.043293401598930359e-01
4.755475744605064392e-02
-5.301643908023834229e-02
-4.163718316704034805e-03
3.580652922391891479e-02
1.401473432779312134e-01
-3.552874922752380371e-02
-7.725733518600463867e-02
-1.057399902492761612e-02
-9.842921793460845947e-02
1.587041318416595459e-01
-5.698693543672561646e-02
-1.282205581665039062e-01
7.561091799288988113e-03
-6.076854094862937927e-02
-7.008192688226699829e-02
-2.218287065625190735e-02
-3.261604905128479004e-02
-7.113712374120950699e-03
5.631313845515251160e-02
-2.385235857218503952e-03
7.209312170743942261e-02
-1.790731586515903473e-02
1.338820159435272217e-01
-1.940945684909820557e-01
4.683902487158775330e-02
-4.285204783082008362e-02
-5.707866698503494263e-02
-1.190740987658500671e-02
-1.145860701799392700e-01
1.398677527904510498e-01
7.562641054391860962e-02
-2.075978554785251617e-02
3.563022613525390625e-02
1.851598918437957764e-01
-1.877332478761672974e-02
-1.178510859608650208e-01
-1.488780230283737183e-01
-5.378719791769981384e-02
-2.024993859231472015e-02
-1.746411621570587158e-01
2.137078791856765747e-01
-2.554455399513244629e-02
5.150764435529708862e-02
-1.754782944917678833e-01
1.216946542263031006e-01
-1.353708803653717041e-01
1.150255352258682251e-01
-1.914612501859664917e-01
-8.534894883632659912e-02
-6.721055507659912109e-02
1.090732440352439880e-01
1.726384647190570831e-02
1.108047664165496826e-01
-2.986841835081577301e-02
1.398472487926483154e-01
4.974149540066719055e-02
-8.917217701673507690e-02
1.236590370535850525e-01
1.369645595550537109e-01
-1.482330411672592163e-01
-1.509055048227310181e-01
-2.521317303180694580e-01
-1.532379686832427979e-01
6.154377758502960205e-02
1.371203213930130005e-01
-6.877416372299194336e-02
-5.268136039376258850e-02
1.212664917111396790e-01
1.126383710652589798e-02
-3.925292287021875381e-03
-2.471063137054443359e-01
2.454406917095184326e-01
-1.526634246110916138e-01
1.364494264125823975e-01
-5.643186345696449280e-02
-2.405491918325424194e-01
5.012638121843338013e-02
1.830955147743225098e-01
-1.171849016100168228e-02
-7.486735284328460693e-02
-1.062499657273292542e-01
1.457076817750930786e-01
6.402590870857238770e-02
-9.030309505760669708e-03
-1.036685556173324585e-01
3.780043497681617737e-02
1.192280724644660950e-01
6.365115940570831299e-02
1.069838553667068481e-01
3.393526375293731689e-02
-1.173196136951446533e-01
-1.938345432281494141e-01
5.962869618088006973e-03
-5.177688971161842346e-02
1.945166140794754028e-01
-6.521026790142059326e-02
1.870663464069366455e-01
1.749301105737686157e-01
-7.249867171049118042e-02
5.774351209402084351e-02
-1.861814968287944794e-02
2.173176705837249756e-01
-4.620514065027236938e-02
-4.190394654870033264e-02
-7.468814402818679810e-02
-3.224658966064453125e-02
-8.776656538248062134e-02
-2.407084405422210693e-01
9.251656383275985718e-02
1.250728815793991089e-01
4.044427722692489624e-02
4.931145533919334412e-02
-1.469714343547821045e-01
8.835743367671966553e-02
-2.506020665168762207e-01
-2.134881615638732910e-01
-1.014904230833053589e-01
4.531941935420036316e-02
8.950410038232803345e-02
2.695341110229492188e-01
1.813569962978363037e-01
9.047684818506240845e-02
3.145420178771018982e-02
3.858046606183052063e-02
8.986512571573257446e-02
2.372140064835548401e-02
1.775191575288772583e-01
4.580677673220634460e-02
-5.928015336394309998e-03
-2.503533847630023956e-02
3.824855759739875793e-02
1.228094547986984253e-01
-4.590379074215888977e-02
-7.328747957944869995e-02
2.040598541498184204e-02
4.192576184868812561e-02
-2.353735081851482391e-02
4.519565030932426453e-03
1.377502232789993286e-01
7.892014458775520325e-03
1.391445696353912354e-01
-4.898926988244056702e-02
-5.514148250222206116e-02
1.231058314442634583e-02
1.372803151607513428e-01
-9.250160306692123413e-03
-3.114568255841732025e-02
-1.353076696395874023e-01
-1.992223858833312988e-01
1.431062221527099609e-01
-1.495481580495834351e-01
1.159424483776092529e-01
-2.462699115276336670e-01
9.197062253952026367e-02
2.665060758590698242e-02
2.116313902661204338e-03
-1.723065599799156189e-02
9.229601919651031494e-02
5.959852715022861958e-04
7.266820222139358521e-02
7.895081490278244019e-02
-1.000695228576660156e-01
2.058558166027069092e-03
1.105528324842453003e-01
4.401837009936571121e-03
2.850873582065105438e-02
1.553277224302291870e-01
4.731243476271629333e-02
-7.932126522064208984e-03
2.742158174514770508e-01
2.264547906816005707e-02
-6.287828087806701660e-02
1.640465706586837769e-01
1.252636909484863281e-01
1.381210088729858398e-01
-1.508452296257019043e-01
1.900851540267467499e-02
5.043813586235046387e-02
2.488221041858196259e-02
3.200357034802436829e-02
-1.996842920780181885e-01
-9.961048513650894165e-02
-3.779999911785125732e-02
1.158933416008949280e-01
-6.169427931308746338e-02
-1.569426953792572021e-01
-3.250423371791839600e-01
-1.400624215602874756e-01
-1.917616836726665497e-02
-9.193808585405349731e-02
-3.682387992739677429e-02
1.221363171935081482e-01
-1.398227810859680176e-01
2.092797011137008667e-01
-1.063783392310142517e-01
-4.617612063884735107e-02
-5.786698684096336365e-02
1.637551784515380859e-01
7.587036583572626114e-03
-1.691602542996406555e-02
1.263696048408746719e-02
1.996960341930389404e-01
-1.454876661300659180e-01
-2.552617527544498444e-02
-1.835330738686025143e-03
3.285313025116920471e-02
1.534628272056579590e-01
1.027058213949203491e-01
6.757707893848419189e-02
-9.477988630533218384e-02
-5.182745680212974548e-02
-2.175994068384170532e-01
7.229408621788024902e-02
1.510223746299743652e-01
1.169324219226837158e-01
-4.224771261215209961e-02
2.055338472127914429e-01
1.065390259027481079e-01
-6.692480295896530151e-02
1.742728948593139648e-01
-2.517869770526885986e-01
-8.464094996452331543e-02
-9.916360676288604736e-02
9.395394474267959595e-02
-9.153533726930618286e-02
-1.175874844193458557e-01
-1.053404659032821655e-01
2.663634344935417175e-02
1.012389659881591797e-01
3.391987085342407227e-01
-3.542827069759368896e-02
8.153587579727172852e-02
-1.189158409833908081e-01
3.297203220427036285e-03
1.329614669084548950e-01
5.350639671087265015e-02
-3.724213689565658569e-02
-7.196463644504547119e-02
1.110333800315856934e-01
1.534406244754791260e-01
1.141787022352218628e-01
-2.032535336911678314e-02
-1.989716589450836182e-01
2.937959730625152588e-01
-2.596844732761383057e-01
-2.292838841676712036e-01
2.449432946741580963e-02
-6.865945644676685333e-03
5.094323679804801941e-02
-6.039469316601753235e-02
2.325822832062840462e-03
3.494099527597427368e-02
1.092121228575706482e-01
9.283540397882461548e-02
-9.100233204662799835e-03
-2.848172001540660858e-02
-1.320859640836715698e-01
-4.551449418067932129e-02
9.832140803337097168e-02
2.410801500082015991e-01
-1.517444252967834473e-01
-7.835252583026885986e-02
2.111529558897018433e-01
1.271695792675018311e-01
1.315367370843887329e-01
-6.392696499824523926e-02
2.941964752972126007e-02
-4.501744359731674194e-02
-6.203527003526687622e-02
-1.788709759712219238e-01
2.200839575380086899e-03
-1.011431515216827393e-01
-7.442930340766906738e-02
-9.017409384250640869e-02
-1.158196330070495605e-01
-1.561071872711181641e-01
4.571410641074180603e-02
5.267999321222305298e-02
2.408071011304855347e-01
3.737580962479114532e-03
1.612365543842315674e-01
2.910370379686355591e-02
1.743377298116683960e-01
1.268821060657501221e-01
-3.964474424719810486e-02
1.517715305089950562e-01
-4.010903090238571167e-02
-4.624276608228683472e-02
1.409631967544555664e-01
-1.859403550624847412e-01
-2.241062521934509277e-01
1.760496050119400024e-01
8.920312672853469849e-02
-9.984194766730070114e-04
4.776703938841819763e-02
7.561048865318298340e-02
3.053592145442962646e-02
6.686907261610031128e-02
3.727491572499275208e-02
6.580010056495666504e-02
1.510089188814163208e-01
-4.633305221796035767e-02
8.237457275390625000e-02
-7.807676494121551514e-02
-8.796866983175277710e-02
-2.270027101039886475e-01
7.438646256923675537e-02
-1.660848110914230347e-01
1.319194957613945007e-02
1.319269388914108276e-01
-3.622701764106750488e-02
-3.963750228285789490e-02
6.534064561128616333e-02
-5.395124107599258423e-02
-2.873491868376731873e-02
4.688090458512306213e-02
-1.959180235862731934e-01
2.786528319120407104e-02
1.560586225241422653e-02
-8.674084395170211792e-02
1.079320609569549561e-01
-9.354364126920700073e-02
7.816626131534576416e-02
5.802352726459503174e-02
4.146156460046768188e-02
1.199512854218482971e-01
-3.468022495508193970e-02
2.230456285178661346e-02
-4.441576823592185974e-02
-2.469312399625778198e-02
-1.301498860120773315e-01
-7.063952833414077759e-02
1.024018079042434692e-01
5.906732752919197083e-02
-2.697335556149482727e-02
-2.431933432817459106e-01
6.287040561437606812e-02
-1.787378787994384766e-01
-2.522493526339530945e-02
-1.351795196533203125e-01
1.313139200210571289e-01
7.259390503168106079e-02
2.977674081921577454e-02
-2.461230158805847168e-01
-3.948614373803138733e-02
1.531674414873123169e-01
-1.184124946594238281e-01
-4.246171191334724426e-02
7.950165309011936188e-03
-2.902298234403133392e-02
-1.072692498564720154e-02
-4.004181325435638428e-01
-1.403656005859375000e-01
-6.871200352907180786e-02
3.023864328861236572e-02
-1.153593733906745911e-01
-1.229339018464088440e-01
1.475927680730819702e-01
-5.139757879078388214e-03
-1.026223301887512207e-01
-2.368490397930145264e-02
-2.422915399074554443e-02
9.977251291275024414e-02
-2.121810764074325562e-01
1.636462956666946411e-01
1.343910694122314453e-01
-2.433445155620574951e-01
5.663501843810081482e-02
8.336908370256423950e-02
3.275049477815628052e-02
-2.099872529506683350e-01
-8.076527714729309082e-02
-1.297780126333236694e-02
5.801082774996757507e-02
-2.140463562682271004e-03
1.469537913799285889e-01
-2.299016565084457397e-01
-1.104418560862541199e-01
1.851441115140914917e-01
-2.033902853727340698e-01
1.349216978996992111e-02
7.909651845693588257e-02
1.531209498643875122e-01
-2.999742031097412109e-01
-9.673413587734103203e-04
5.822949483990669250e-02
-4.505792632699012756e-02
-7.700342684984207153e-02
5.115651339292526245e-02
8.084053546190261841e-02
-1.818266212940216064e-01
-7.701122760772705078e-02
4.685493651777505875e-03
1.764338091015815735e-02
1.368907187134027481e-02
5.815386399626731873e-02
-2.092356383800506592e-01
6.907279789447784424e-02
-3.088435344398021698e-02
3.731129318475723267e-02
-1.271073222160339355e-01
2.351307496428489685e-02
4.436497390270233154e-02
1.245936527848243713e-01
-8.819030970335006714e-02
1.442161947488784790e-01
7.752438634634017944e-02
6.936617940664291382e-02
1.561322659254074097e-01
1.456968337297439575e-01
-1.174437627196311951e-01
-1.329008676111698151e-02
-9.079637378454208374e-02
1.008554622530937195e-01
-1.192124709486961365e-01
-2.423993498086929321e-01
1.403991132974624634e-01
7.372827082872390747e-02
2.547466009855270386e-02
9.045220166444778442e-02
8.304723352193832397e-02
-6.088723987340927124e-02
2.737641632556915283e-01
-2.839458584785461426e-01
-4.154545068740844727e-02
-1.556748151779174805e-01
6.681266427040100098e-02
-9.632282704114913940e-02
5.486505106091499329e-02
-1.413385719060897827e-01
7.598336040973663330e-02
-1.986795663833618164e-01
1.269081830978393555e-01
5.316312611103057861e-02
2.563779652118682861e-01
1.470466703176498413e-02
-1.213031262159347534e-01
-1.114496886730194092e-01
-6.716358661651611328e-02
-7.020829617977142334e-02
1.522629242390394211e-02
-2.107139676809310913e-01
2.125438675284385681e-02
-7.701125741004943848e-02
3.027847036719322205e-02
2.628195658326148987e-02
-4.714284464716911316e-02
-1.559776961803436279e-01
-7.788267917931079865e-03
3.122047986835241318e-03
-2.690731547772884369e-02
1.928857713937759399e-01
-8.270518481731414795e-02
8.392866700887680054e-02
1.660616695880889893e-01
9.509990364313125610e-02
-1.933921426534652710e-01
3.371780365705490112e-02
1.107414904981851578e-02
-5.546043440699577332e-02
-1.152731627225875854e-01
-2.463809102773666382e-01
1.258162260055541992e-01
-1.319997198879718781e-02
-2.055856771767139435e-02
2.516046538949012756e-02
1.953450217843055725e-02
2.961092591285705566e-01
1.183337271213531494e-01
-3.670114278793334961e-02
1.203286871314048767e-01
-1.696491539478302002e-01
1.248627435415983200e-02
-1.346667557954788208e-01
6.914769858121871948e-02
-5.536458920687437057e-03
9.417591989040374756e-02
5.133625119924545288e-02
2.858015522360801697e-02
-1.533279269933700562e-01
-2.117587774991989136e-01
-2.375236302614212036e-01
-1.002768725156784058e-01
8.943893015384674072e-02
9.731072932481765747e-03
-1.529404520988464355e-01
-8.158024400472640991e-02
5.275987088680267334e-02
1.087920367717742920e-02
-4.911055788397789001e-02
-1.150019764900207520e-01
-9.578309208154678345e-02
5.230355635285377502e-02
1.663779318332672119e-01
-1.141472235321998596e-01
1.687273532152175903e-01
5.335678532719612122e-02
1.752980053424835205e-01
-4.609185829758644104e-02
-6.782354414463043213e-02
-2.219962328672409058e-01
-3.544937819242477417e-02
-4.105269908905029297e-02
2.800262905657291412e-02
3.924691304564476013e-02
-3.880793601274490356e-02
-1.314653158187866211e-01
-1.803980395197868347e-02
4.497294127941131592e-02
4.018973559141159058e-02
7.617603242397308350e-02
5.955539643764495850e-02
9.252537786960601807e-02
-9.812328964471817017e-02
1.160432919859886169e-01
1.113484278321266174e-01
-3.419483825564384460e-02
1.052370443940162659e-01
7.090932875871658325e-02
-3.317972272634506226e-02
-6.502269953489303589e-02
-2.731756269931793213e-01
1.374592930078506470e-01
-8.755838125944137573e-02
5.244177207350730896e-02
-2.300028316676616669e-02
5.864940583705902100e-02
1.135082170367240906e-01
6.305270642042160034e-02
4.684923291206359863e-01
9.721413254737854004e-02
1.554132252931594849e-02
-4.793322831392288208e-02
-2.561608096584677696e-03
1.633533686399459839e-01
-1.528570950031280518e-01
5.301005765795707703e-02
-4.973362386226654053e-02
-1.182246655225753784e-01
3.209292190149426460e-03
-9.482736140489578247e-02
-1.890324652194976807e-01
-1.187793612480163574e-01
2.922800779342651367e-01
-7.653827965259552002e-02
-4.383605718612670898e-02
-9.856780618429183960e-02
-3.006350249052047729e-02
6.647727638483047485e-02
-2.066990360617637634e-02
7.144287228584289551e-02
9.560468606650829315e-03
-1.280096620321273804e-01
1.804965436458587646e-01
-8.509216457605361938e-02
-1.847770065069198608e-02
2.968635968863964081e-02
1.565399318933486938e-01
-4.618470370769500732e-02
-2.061732262372970581e-01
-5.131231620907783508e-02
1.961668133735656738e-01
-6.645761430263519287e-02
-1.247874721884727478e-01
-1.627351790666580200e-01
-1.057808175683021545e-01
-1.127177700400352478e-01
4.695402830839157104e-02
-6.046416237950325012e-02
-8.436534553766250610e-02
-2.062272094190120697e-02
-1.982099115848541260e-01
2.815973944962024689e-02
4.478865489363670349e-02
-1.516679078340530396e-01
-6.507516652345657349e-02
-1.460880320519208908e-02
-6.607078760862350464e-02
-2.856310270726680756e-02
7.528869062662124634e-02
-7.606316357851028442e-02
-2.722036838531494141e-02
-1.653387844562530518e-01
6.916993111371994019e-02
-1.650390923023223877e-01
1.762554198503494263e-01
6.145532242953777313e-03
-7.049711048603057861e-02
1.314055472612380981e-01
2.082899659872055054e-01
1.315119676291942596e-02
-7.320822030305862427e-02
7.990979403257369995e-02
2.483541145920753479e-02
1.633124947547912598e-01
-1.176073700189590454e-01
5.418967828154563904e-02
-5.048407614231109619e-02
-1.356436163187026978e-01
1.335816085338592529e-01
-1.027358695864677429e-01
1.625166647136211395e-02
-1.095624566078186035e-01
2.874316871166229248e-01
-2.824659347534179688e-01
-9.367427974939346313e-02
6.155722215771675110e-02
5.153271183371543884e-02
4.827984422445297241e-02
-1.468550763092935085e-03
4.456895589828491211e-02
-8.981657773256301880e-02
4.567280039191246033e-02
9.943617135286331177e-02
4.930910468101501465e-02
-1.139901299029588699e-02
-1.199762895703315735e-01
1.658660024404525757e-01
6.400982290506362915e-02
8.904496580362319946e-02
-1.153178736567497253e-01
1.049762964248657227e-01
2.560476660728454590e-01
-6.235333904623985291e-02
6.711172312498092651e-02
-7.530897110700607300e-02
-1.954298466444015503e-02
-1.220125928521156311e-01
2.303085625171661377e-01
-1.453294008970260620e-01
7.122736424207687378e-02
-5.282179638743400574e-02
-3.750369325280189514e-02
-4.920842498540878296e-02
3.246530890464782715e-02
8.025486022233963013e-02
-1.300413813441991806e-02
-1.563200540840625763e-02
-3.656832873821258545e-02
-5.272941198199987411e-03
8.894579112529754639e-02
2.351352013647556305e-02
-2.888575196266174316e-02
1.019604429602622986e-01
-6.967975199222564697e-02
-3.589402511715888977e-02
1.408530175685882568e-01
-1.600425988435745239e-01
-1.584170758724212646e-02
-1.407033503055572510e-01
-9.938631206750869751e-03
-2.116252034902572632e-01
5.145949125289916992e-02
1.756517030298709869e-02
-5.196238309144973755e-02
1.452303379774093628e-01
-1.221066527068614960e-02
-1.296192705631256104e-01
1.366279125213623047e-01
-8.562127500772476196e-02
7.532458007335662842e-02
5.193838849663734436e-02
5.161194130778312683e-02
-4.996144771575927734e-02
1.937981694936752319e-02
1.288989931344985962e-01
1.723057925701141357e-01
1.203897669911384583e-01
1.131260953843593597e-02
-5.036319047212600708e-02
-7.273679971694946289e-02
6.111459434032440186e-02
6.407493352890014648e-02
4.029025137424468994e-02
9.099845588207244873e-02
-1.960606575012207031e-01
1.287707686424255371e-01
-5.660830810666084290e-02
5.605027079582214355e-02
7.149132341146469116e-02
1.525286436080932617e-01
1.493596434593200684e-01
2.634904161095619202e-02
1.847918331623077393e-01
-3.582461178302764893e-02
4.576444625854492188e-02
4.865241050720214844e-02
-3.379083052277565002e-02
1.303493678569793701e-01
-2.688170969486236572e-02
-1.485794875770807266e-02
8.495841175317764282e-04
-1.373323611915111542e-02
-2.139030098915100098e-01
-1.761371791362762451e-01
-2.391993626952171326e-02
4.896929115056991577e-02
1.769054979085922241e-01
-7.009721547365188599e-02
-1.925090998411178589e-01
2.938313782215118408e-01
2.535603940486907959e-01
6.129122525453567505e-02
-1.074070706963539124e-01
1.020909249782562256e-01
6.677797436714172363e-02
-3.479654341936111450e-02
-2.579152584075927734e-01
1.208464708179235458e-02
-2.397408038377761841e-01
-4.151964932680130005e-02
-5.262225866317749023e-03
9.988135844469070435e-02
-5.361271277070045471e-02
-1.493256390094757080e-01
1.043199598789215088e-01
-5.238278210163116455e-02
-7.320357114076614380e-02
-1.599830202758312225e-02
5.738884210586547852e-02
3.802009671926498413e-02
-6.248822435736656189e-02
1.342450529336929321e-01
-1.740361750125885010e-01
1.089731529355049133e-01
-1.410691738128662109e-01
8.972210437059402466e-02
-1.539278328418731689e-01
-4.103467613458633423e-02
-2.574948221445083618e-02
-9.964162856340408325e-02
-1.255196630954742432e-01
-3.267282992601394653e-02
-2.434046715497970581e-01
-1.403675787150859833e-02
-8.677645772695541382e-02
9.351570159196853638e-02
-1.107018515467643738e-01
1.188370287418365479e-01
5.448310077190399170e-02
6.781241297721862793e-02
-6.440658867359161377e-02
-1.973263174295425415e-01
-5.822312831878662109e-02
-1.248469278216362000e-01
1.371289193630218506e-01
1.367876231670379639e-01
8.871265500783920288e-02
-5.489897727966308594e-02
-1.413624081760644913e-02
-5.308432504534721375e-02
1.731324754655361176e-02
-2.410532161593437195e-02
-1.813938766717910767e-01
-5.993730947375297546e-02
-4.281114041805267334e-02
-1.924075931310653687e-01
-7.331115007400512695e-02
-4.772523418068885803e-02
1.782014779746532440e-02
-6.354504823684692383e-02
3.436571452766656876e-03
-5.095025897026062012e-02
7.293177768588066101e-03
-3.256461769342422485e-02
-2.967889904975891113e-01
-4.986069630831480026e-03
-1.723603457212448120e-01
-1.940813101828098297e-02
-1.186199411749839783e-01
3.654350340366363525e-02
-1.615715920925140381e-01
9.550926089286804199e-02
-1.255965530872344971e-01
1.348608434200286865e-01
6.244724243879318237e-02
-1.267583519220352173e-01
-4.760969057679176331e-02
1.214528828859329224e-01
4.105396941304206848e-02
-6.704413145780563354e-02
-2.126452513039112091e-02
-1.275838911533355713e-01
2.672422491014003754e-02
1.387766003608703613e-01
-2.063747644424438477e-01
7.115253061056137085e-02
1.082762982696294785e-02
2.069330774247646332e-02
3.713671863079071045e-02
-1.482439637184143066e-01
2.104732841253280640e-01
7.458462566137313843e-02
1.580071449279785156e-02
-2.823899984359741211e-01
8.212938159704208374e-02
-4.786470159888267517e-02
3.011711128056049347e-02
1.693649142980575562e-01
-5.998494103550910950e-02
1.442011538892984390e-02
-7.489654421806335449e-02
4.680994898080825806e-02
2.559748105704784393e-02
-1.038651261478662491e-02
8.857585489749908447e-02
-6.617725640535354614e-02
4.895664751529693604e-02
2.220284044742584229e-01
1.273025423288345337e-01
-2.297907322645187378e-02
-9.780038893222808838e-02
6.451247632503509521e-02
-7.802358269691467285e-02
6.455776840448379517e-02
-5.653087422251701355e-02
9.985370934009552002e-02
-4.032046999782323837e-03
6.032983958721160889e-02
-1.587056517601013184e-01
-5.614683032035827637e-03
5.314044654369354248e-02
3.986813873052597046e-02
-1.676785051822662354e-01
1.210602521896362305e-01
4.218767210841178894e-02
-1.642618179321289062e-01
-1.971317529678344727e-01
-8.322830498218536377e-02
1.815654337406158447e-01
6.811808049678802490e-02
1.846092566847801208e-02
5.698636174201965332e-02
-1.111463382840156555e-01
7.811544835567474365e-02
-5.522693693637847900e-02
-2.898824810981750488e-01
-2.361975982785224915e-02
-2.032755315303802490e-02
5.584713816642761230e-02
1.244435273110866547e-02
-7.201729342341423035e-03
6.132433935999870300e-02
1.375575456768274307e-02
-7.742158323526382446e-02
6.107501313090324402e-02
4.567915946245193481e-02
-1.326491236686706543e-01
2.672344446182250977e-02
-5.280634853988885880e-03
-6.387438625097274780e-02
2.623906184453517199e-04
-2.442730031907558441e-02
8.389374613761901855e-02
3.052668273448944092e-02
6.982709467411041260e-02
1.491660624742507935e-02
5.076021328568458557e-02
-2.969553880393505096e-02
-1.108887717127799988e-01
2.646275795996189117e-02
-1.139864474534988403e-01
1.360444724559783936e-01
-6.117466464638710022e-02
1.259141862392425537e-01
7.324297726154327393e-02
1.998382955789566040e-01
-1.244562491774559021e-02
3.759615123271942139e-02
7.552392035722732544e-02
-5.351440981030464172e-02
-1.109357625246047974e-01
-1.544607877731323242e-01
1.525262594223022461e-01
-9.604594856500625610e-02
4.647943750023841858e-02
-1.904612630605697632e-01
-6.667613238096237183e-02
-1.864137649536132812e-01
-2.379743754863739014e-02
1.032556518912315369e-01
-3.785641863942146301e-02
-1.497128903865814209e-01
6.953384727239608765e-02
3.273107483983039856e-02
-1.089100912213325500e-01
9.921021014451980591e-02
-1.214748695492744446e-01
6.781666725873947144e-02
1.484041810035705566e-01
6.131796166300773621e-02
-3.112073056399822235e-02
1.599663645029067993e-01
-7.123055309057235718e-02
4.791569709777832031e-02
-4.692087881267070770e-03
4.696946591138839722e-03
6.617662310600280762e-02
7.167162001132965088e-02
-7.729931175708770752e-02
-4.873882979154586792e-03
-1.770547926425933838e-01
-3.839972242712974548e-02
-6.515354663133621216e-02
1.300303936004638672e-01
8.132626861333847046e-02
-2.739867940545082092e-02
1.663880981504917145e-02
-2.890324965119361877e-02
7.467354834079742432e-02
7.080107182264328003e-02
7.945392280817031860e-02
-5.882353987544775009e-03
-6.201022490859031677e-02
1.394820958375930786e-01
-1.505704075098037720e-01
1.137903053313493729e-02
1.714912354946136475e-01
-1.070950105786323547e-01
-8.445938676595687866e-02
-1.360586136579513550e-01
7.054035365581512451e-02
2.901502512395381927e-02
9.541902691125869751e-02
-7.177569717168807983e-02
-5.631019547581672668e-02
-3.337194025516510010e-02
1.778765618801116943e-01
1.569423973560333252e-01
-9.882763028144836426e-02
-1.122041568160057068e-01
-1.398019641637802124e-01
-3.198151011019945145e-03
5.396395456045866013e-03
1.129859089851379395e-01
1.039574518799781799e-01
-6.395073141902685165e-03
9.641031175851821899e-02
-5.922934412956237793e-02
-1.369219720363616943e-01
8.810328319668769836e-03
3.734908252954483032e-02
-1.388816628605127335e-02
-2.212795615196228027e-02
6.536427140235900879e-02
-1.168783847242593765e-02
7.977253943681716919e-02
-9.444514662027359009e-02
8.389458805322647095e-02
3.729624673724174500e-02
1.334214061498641968e-01
1.490031629800796509e-01
-6.271824240684509277e-02
-9.930056333541870117e-02
-1.064827218651771545e-01
-1.511795073747634888e-01
-7.021248340606689453e-02
8.566714823246002197e-02
2.177877277135848999e-01
6.270463019609451294e-02
1.518141478300094604e-01
-9.174855053424835205e-02
2.086225710809230804e-02
2.432377040386199951e-01
-1.457823365926742554e-01
-1.484259963035583496e-01
1.452065855264663696e-01
-3.944000974297523499e-02
-2.694806754589080811e-01
-1.201125085353851318e-01
-8.126530796289443970e-02
6.433631479740142822e-02
-1.563939601182937622e-01
-2.446544915437698364e-01
2.791997045278549194e-02
-2.725090086460113525e-02
-1.846669055521488190e-02
-5.850268900394439697e-02
-5.000991746783256531e-02
1.999533772468566895e-01
-1.134544014930725098e-01
-1.845132373273372650e-02
2.636229619383811951e-02
-1.007700338959693909e-01
9.865773469209671021e-02
-3.776889666914939880e-02
-6.309183686971664429e-02
4.802233353257179260e-02
-2.884669043123722076e-02
-8.203852921724319458e-02
-3.406517952680587769e-02
2.073375433683395386e-01
-1.644353270530700684e-01
7.859031111001968384e-02
2.652903087437152863e-02
-2.936394885182380676e-02
9.774078615009784698e-03
8.179304003715515137e-02
-1.856667995452880859e-01
8.851280435919761658e-03
3.051708079874515533e-02
8.303369581699371338e-02
-1.399537026882171631e-01
6.540644448250532150e-03
-1.391164660453796387e-01
-2.123661339282989502e-01
-7.207304984331130981e-02
-1.028392687439918518e-01
-1.473644971847534180e-01
-1.785232126712799072e-01
3.042622655630111694e-02
-1.611597388982772827e-01
-5.628859251737594604e-02
-1.201822534203529358e-01
-1.541576236486434937e-01
9.474879503250122070e-02
1.230240426957607269e-02
-1.322309076786041260e-01
-1.391634065657854080e-02
-8.335199952125549316e-02
-1.167649477720260620e-01
-5.308113526552915573e-03
-9.332214295864105225e-02
7.239276915788650513e-02
8.585611730813980103e-02
1.170066371560096741e-01
-6.155613064765930176e-02
1.417265832424163818e-01
-1.218962669372558594e-01
4.214197024703025818e-02
6.775634363293647766e-03
1.850771903991699219e-01
-4.302137717604637146e-02
3.652046620845794678e-02
-5.430765822529792786e-02
-1.455526053905487061e-01
7.949884049594402313e-03
1.175470948219299316e-01
-9.681727737188339233e-03
7.208648324012756348e-02
3.441878408193588257e-02
-1.282381862401962280e-01
1.357945054769515991e-01
1.129102781414985657e-01
-4.806004464626312256e-02
1.775025762617588043e-02
-6.716516613960266113e-02
7.009792327880859375e-02
1.824228018522262573e-01
-1.003644391894340515e-01
4.916204605251550674e-03
2.154094353318214417e-02
-3.321350365877151489e-02
-1.166610792279243469e-02
1.252740025520324707e-01
8.525373041629791260e-02
1.828768849372863770e-01
2.568318545818328857e-01
8.854314684867858887e-02
-1.276326328516006470e-01
1.010259985923767090e-01
1.522249728441238403e-01
4.444701597094535828e-02
9.085375815629959106e-03
2.240064740180969238e-01
-1.415723860263824463e-01
-9.370999783277511597e-02
-9.271611273288726807e-02
-1.716838032007217407e-02
-1.485384721308946609e-02
1.133244186639785767e-01
9.081324934959411621e-02
-9.797979146242141724e-02
-1.388180851936340332e-01
-2.180922180414199829e-01
-9.568092972040176392e-02
-9.201122075319290161e-02
-2.076894603669643402e-02
7.098522037267684937e-02
1.601160317659378052e-01
1.986587494611740112e-01
6.255739927291870117e-02
1.276013534516096115e-02
5.780176445841789246e-02
1.100526005029678345e-01
7.745137065649032593e-02
7.546865940093994141e-02
-4.268998280167579651e-02
-1.048544645309448242e-01
-1.296514123678207397e-01
-8.490079641342163086e-02
1.456123888492584229e-01
4.512538015842437744e-02
-3.419493138790130615e-02
-7.083131931722164154e-03
-8.019412308931350708e-02
4.471136257052421570e-02
-7.573573291301727295e-02
1.687906123697757721e-02
1.201076582074165344e-01
2.775236368179321289e-01
-9.101775288581848145e-02
-3.641131892800331116e-02
-1.811892725527286530e-02
5.462221056222915649e-02
-5.021468736231327057e-03
6.012597680091857910e-02
-7.860840111970901489e-02
-3.875354677438735962e-02
4.940107464790344238e-02
-3.298395499587059021e-02
1.512199193239212036e-01
-1.029756478965282440e-02
1.038703508675098419e-02
-3.744565322995185852e-02
1.746725738048553467e-01
1.409734487533569336e-01
-2.359022013843059540e-02
5.588883534073829651e-02
3.076231805607676506e-03
9.831541776657104492e-02
6.643032655119895935e-03
3.193367645144462585e-02
1.465804688632488251e-02
8.746210485696792603e-03
2.221037447452545166e-02
-4.394407197833061218e-02
4.525196179747581482e-02
1.064669787883758545e-01
-3.541119024157524109e-02
5.840370059013366699e-02
9.653923660516738892e-02
-1.240450888872146606e-01
1.565178632736206055e-01
7.296569645404815674e-02
1.791922897100448608e-01
8.958666771650314331e-02
-4.027830436825752258e-03
-1.613446027040481567e-01
-8.252603560686111450e-02
-5.255879089236259460e-02
4.423057660460472107e-02
7.191190123558044434e-02
1.167795583605766296e-01
3.033650852739810944e-02
1.322871595621109009e-01
-9.202066808938980103e-03
2.870948053896427155e-02
4.068790748715400696e-02
-1.257701311260461807e-02
1.275695115327835083e-02
-8.375117927789688110e-02
-4.202645272016525269e-02
-3.584011644124984741e-02
-4.019257798790931702e-02
5.557638034224510193e-02
6.038527935743331909e-02
-1.618886142969131470e-01
-1.401550918817520142e-01
9.777426719665527344e-02
4.919122159481048584e-02
1.330473273992538452e-01
3.735715895891189575e-02
-1.564663797616958618e-01
-9.158339351415634155e-02
8.726299554109573364e-02
-3.988275676965713501e-02
-8.915443904697895050e-03
-5.178581550717353821e-02
4.555098339915275574e-02
9.968120604753494263e-02
7.672880589962005615e-02
1.294040232896804810e-01
-5.001820623874664307e-02
-2.288419455289840698e-01
-3.823029622435569763e-02
-1.027542352676391602e-01
-2.244717776775360107e-01
-1.419614851474761963e-01
-1.095336023718118668e-02
5.936172604560852051e-02
8.002365939319133759e-03
-9.476955980062484741e-02
5.408168956637382507e-02
-9.542654268443584442e-03
-1.135684773325920105e-01
9.205231815576553345e-02
1.844709217548370361e-01
-2.367009222507476807e-02
-1.646910607814788818e-01
-5.215276777744293213e-02
3.734359517693519592e-03
1.082485448569059372e-02
1.298024654388427734e-01
1.523896753787994385e-01
9.220093488693237305e-02
3.200775012373924255e-02
7.605472207069396973e-02
-2.155055254697799683e-01
-9.876047074794769287e-02
7.045489270240068436e-03
5.085555464029312134e-02
1.051399949938058853e-02
-8.005201071500778198e-02
5.366741120815277100e-02
2.834706008434295654e-02
-1.180002987384796143e-01
6.654943525791168213e-02
-2.005269378423690796e-02
1.199072971940040588e-01
-5.823910981416702271e-02
1.097496449947357178e-01
-2.632148563861846924e-01
8.763282746076583862e-02
8.887542039155960083e-02
-1.165749225765466690e-02
3.336189081892371178e-03
5.732205137610435486e-02
-2.384798973798751831e-02
7.027963548898696899e-02
1.836949884891510010e-01
-2.677967846393585205e-01
-1.810812652111053467e-01
1.787588745355606079e-01
-8.428092300891876221e-02
1.446871459484100342e-01
-5.400396510958671570e-02
1.014147102832794189e-01
1.455429941415786743e-01
1.917497813701629639e-01
6.634470820426940918e-02
-3.935655578970909119e-02
1.538613252341747284e-02
-6.841215491294860840e-02
-3.473113523796200752e-03
2.115686191245913506e-03
7.777880877256393433e-02
8.056480437517166138e-02
1.610631346702575684e-01
2.261225506663322449e-02
-1.251491159200668335e-02
3.175935009494423866e-03
6.367179006338119507e-02
1.034786701202392578e-01
8.801142871379852295e-02
-6.366967409849166870e-02
1.792836003005504608e-03
2.290885150432586670e-02
1.709609664976596832e-02
-1.581429541110992432e-01
-8.822505921125411987e-02
-1.629709005355834961e-01
-9.991443157196044922e-02
1.615419797599315643e-02
-2.220221981406211853e-02
9.802266955375671387e-02
2.812592089176177979e-01
-4.194670543074607849e-02
1.803970336914062500e-01
1.095204129815101624e-01
-1.798046380281448364e-01
1.688273698091506958e-01
1.713667660951614380e-01
1.682997345924377441e-01
-1.672535836696624756e-01
-1.811757236719131470e-01
-3.659107908606529236e-02
-2.472127787768840790e-02
-1.844237744808197021e-02
-1.791408210992813110e-01
-1.642179489135742188e-01
-5.980255827307701111e-02
3.112488053739070892e-02
1.419921815395355225e-01
4.492955747991800308e-03
-2.044937107712030411e-03
-2.384643852710723877e-01
-9.027095884084701538e-02
1.343207657337188721e-01
1.029983460903167725e-01
-1.623204536736011505e-02
3.705875948071479797e-02
2.151369862258434296e-02
8.707549422979354858e-02
8.694252371788024902e-02
7.300885766744613647e-02
-1.399447917938232422e-01
1.443010866641998291e-01
-8.553908765316009521e-02
-1.032334268093109131e-01
1.273934245109558105e-01
4.736691340804100037e-02
1.830575056374073029e-02
1.293915063142776489e-01
-1.503498554229736328e-01
-1.158311814069747925e-01
1.236893907189369202e-01
1.890817470848560333e-02
-8.977172896265983582e-03
-2.193393260240554810e-01
2.592509053647518158e-02
-9.502156637609004974e-03
-8.230775594711303711e-02
-2.925619184970855713e-01
8.987429738044738770e-02
-7.599908858537673950e-02
2.990771317854523659e-03
-2.629007026553153992e-02
-2.066985815763473511e-01
8.700166828930377960e-03
-1.522927433252334595e-01
-2.878485918045043945e-01
-1.823854818940162659e-02
3.900643438100814819e-03
9.202682226896286011e-02
4.210459813475608826e-02
-1.719784140586853027e-01
-1.041637659072875977e-01
8.984231948852539062e-02
1.683751791715621948e-01
4.168101400136947632e-02
9.343695640563964844e-02
6.068906188011169434e-02
-1.166219934821128845e-01
2.467605099081993103e-02
-1.719979494810104370e-01
-9.404433518648147583e-02
-2.115347534418106079e-01
1.369815021753311157e-01
-1.053858920931816101e-01
6.970853358507156372e-02
-4.074593633413314819e-02
-4.479662701487541199e-02
-1.613011360168457031e-01
-2.880523353815078735e-02
6.342593580484390259e-02
-1.494143307209014893e-01
-1.235345080494880676e-01
2.927722930908203125e-01
9.558232128620147705e-02
7.539606839418411255e-02
9.887678921222686768e-02
-3.139335289597511292e-02
-1.452359855175018311e-01
-3.989256545901298523e-02
7.017651945352554321e-02
2.060024440288543701e-01
9.577500075101852417e-02
-3.975149244070053101e-02
1.083198562264442444e-01
-1.623592525720596313e-01
-9.082759730517864227e-03
1.044657360762357712e-02
-1.332679688930511475e-01
2.799473470076918602e-03
1.299286484718322754e-01
1.620371341705322266e-01
-5.701716989278793335e-02
1.299113617278635502e-03
9.767054021358489990e-02
-3.972918167710304260e-02
9.970909915864467621e-03
-2.172699198126792908e-02
1.215480491518974304e-01
-9.906487911939620972e-02
4.764000698924064636e-02
-1.468746215105056763e-01
-1.150385588407516479e-01
-9.420679509639739990e-02
8.464061468839645386e-02
6.614351272583007812e-02
-3.765813633799552917e-02
-3.232067823410034180e-02
2.421793714165687561e-02
-1.138021275401115417e-01
3.647658228874206543e-02
1.147049069404602051e-01
-1.312922835350036621e-01
-1.505719870328903198e-02
3.156985715031623840e-02
-1.257939040660858154e-01
-9.015383571386337280e-02
2.162565290927886963e-02
1.038170326501131058e-02
-1.008606329560279846e-02
-2.248050086200237274e-02
-2.057801932096481323e-01
-1.167422682046890259e-01
-1.319750994443893433e-01
-5.161000043153762817e-02
1.949470341205596924e-01
-2.550549618899822235e-02
-6.211629603058099747e-03
-5.747969448566436768e-02
-1.016358435153961182e-01
6.281984597444534302e-02
-2.812468446791172028e-04
-6.345644593238830566e-02
-6.812371313571929932e-02
-1.470120996236801147e-01
5.394234508275985718e-02
-1.423767656087875366e-01
-7.163836807012557983e-02
-1.307310611009597778e-01
-9.538384526968002319e-02
-4.486428573727607727e-02
-3.929371014237403870e-02
-1.374160051345825195e-01
-7.913392782211303711e-02
