-5.945504456758499146e-02
1.128739211708307266e-02
-7.178774476051330566e-02
2.275393456220626831e-01
9.949043393135070801e-02
-6.906320340931415558e-03
4.848417267203330994e-02
2.811720371246337891e-01
1.225409563630819321e-02
4.696569219231605530e-02
8.837357908487319946e-02
6.531913578510284424e-02
-3.551588952541351318e-02
-5.412105098366737366e-02
-4.642431810498237610e-02
6.704880297183990479e-02
-1.044831499457359314e-01
1.758925020694732666e-01
2.019576132297515869e-01
1.423532962799072266e-01
-1.227859631180763245e-01
1.353139430284500122e-02
3.949568048119544983e-02
5.504505708813667297e-02
2.828191965818405151e-02
-7.532772421836853027e-02
-9.218090772628784180e-02
-3.828928992152214050e-02
1.078013330698013306e-01
1.339015811681747437e-01
-6.575664132833480835e-02
-2.279704250395298004e-02
-8.268116414546966553e-02
-1.075459867715835571e-01
1.904602348804473877e-02
-6.706088036298751831e-02
-4.878263548016548157e-02
1.765449531376361847e-02
-1.246643438935279846e-01
9.993847459554672241e-02
1.353401038795709610e-02
5.170645937323570251e-02
-1.330528855323791504e-01
2.766475453972816467e-02
4.334242641925811768e-02
-6.552476435899734497e-02
2.278059907257556915e-02
-3.686622157692909241e-02
7.095551490783691406e-02
1.010861806571483612e-02
-7.825340330600738525e-02
-9.714086540043354034e-03
9.078245609998703003e-02
1.915387511253356934e-01
2.763307653367519379e-02
-2.032512575387954712e-01
-1.295164506882429123e-02
-1.234088540077209473e-01
-2.334936559200286865e-01
2.893170900642871857e-02
1.747837811708450317e-01
-7.281756401062011719e-02
5.824748426675796509e-03
-3.121563792228698730e-02
4.748839884996414185e-02
2.404482364654541016e-01
3.340860363095998764e-03
-3.192317113280296326e-02
-1.150658428668975830e-01
9.887378662824630737e-02
-1.034104749560356140e-01
6.251558661460876465e-02
5.093242973089218140e-02
-1.666961759328842163e-01
6.592835485935211182e-02
-6.671176105737686157e-02
1.827175170183181763e-01
2.286344021558761597e-01
-1.628428250551223755e-01
-5.652973428368568420e-03
-1.923814862966537476e-01
3.292242437601089478e-02
4.267558455467224121e-02
-1.207468882203102112e-01
-1.059313267469406128e-01
-1.581588089466094971e-01
-3.331917896866798401e-02
9.268959611654281616e-02
2.063163220882415771e-01
1.537875533103942871e-01
-1.636230647563934326e-01
-3.588308766484260559e-02
2.612582594156265259e-02
1.010697931051254272e-01
8.937674760818481445e-02
-6.455463916063308716e-02
-1.616139113903045654e-01
3.129022568464279175e-02
-9.562972187995910645e-02
3.248632252216339111e-01
6.136292964220046997e-02
-7.453627884387969971e-02
5.864259228110313416e-02
9.579868614673614502e-02
2.304643392562866211e-02
7.596806436777114868e-02
1.668409109115600586e-01
8.926121890544891357e-02
1.491912901401519775e-01
3.831593552604317665e-03
-2.098168134689331055e-01
-3.946339711546897888e-02
-3.027608394622802734e-01
1.991376280784606934e-01
1.758822351694107056e-01
8.473498746752738953e-03
-8.860168047249317169e-03
-1.951008290052413940e-01
1.741444468498229980e-01
-7.123362272977828979e-02
1.678569167852401733e-01
6.863746047019958496e-02
-9.376410394906997681e-02
1.570737063884735107e-01
6.428368389606475830e-02
1.072040852159261703e-02
2.022682577371597290e-01
-8.647489547729492188e-02
-2.270103245973587036e-01
-8.599149435758590698e-02
8.825880289077758789e-02
-1.256457716226577759e-01
-8.527801930904388428e-02
-1.653002947568893433e-01
4.344806075096130371e-02
7.475835829973220825e-02
1.037908494472503662e-01
1.413260102272033691e-01
1.601229235529899597e-02
3.386592864990234375e-02
-3.919195383787155151e-03
1.288379132747650146e-01
1.020916551351547241e-01
-4.720603302121162415e-02
3.018103726208209991e-02
-1.463626474142074585e-01
1.113249090849421918e-04
-1.027109175920486450e-01
-1.000659614801406860e-01
2.122988924384117126e-02
-5.712341517210006714e-02
3.009536266326904297e-01
1.806319504976272583e-01
1.257416456937789917e-01
-2.654424309730529785e-01
-1.989986561238765717e-02
-1.972708851099014282e-01
-2.293647080659866333e-01
2.735570371150970459e-01
-1.089051511371508241e-04
-1.080184429883956909e-01
4.294897243380546570e-02
1.517236083745956421e-01
1.646807789802551270e-01
-3.388229757547378540e-02
-1.728186607360839844e-01
1.068944707512855530e-01
-1.977245211601257324e-01
1.371793597936630249e-01
-6.938450969755649567e-03
-6.515916436910629272e-02
-1.039345413446426392e-01
-2.133504673838615417e-02
4.505800455808639526e-02
-1.204941235482692719e-02
-1.224672943353652954e-01
-2.986379563808441162e-01
1.303981095552444458e-01
5.550764873623847961e-02
1.219394057989120483e-02
9.437535703182220459e-02
-2.291962802410125732e-01
8.437499403953552246e-02
-5.978205054998397827e-02
-5.867496505379676819e-02
4.544423520565032959e-02
-5.094386264681816101e-02
2.101992815732955933e-02
1.201664209365844727e-01
1.070397198200225830e-01
1.058786511421203613e-01
1.335835307836532593e-01
-1.656702458858489990e-01
3.955839574337005615e-02
-1.220611929893493652e-01
4.162831306457519531e-01
2.244527041912078857e-01
-2.529082298278808594e-01
4.722230881452560425e-02
-1.566075235605239868e-01
-6.519818305969238281e-02
1.326644560322165489e-04
1.437220275402069092e-01
4.251313582062721252e-02
1.641587764024734497e-01
2.763537876307964325e-02
-1.512403041124343872e-01
1.081884950399398804e-01
-2.467176020145416260e-01
2.279965877532958984e-01
7.531856000423431396e-02
-1.887681186199188232e-01
-2.323396801948547363e-01
-8.473835140466690063e-02
1.055196821689605713e-01
4.091962277889251709e-01
2.653250694274902344e-01
6.820102781057357788e-02
-1.683148592710494995e-01
2.048520594835281372e-01
-1.248931959271430969e-01
-5.142657831311225891e-02
2.542836666107177734e-01
1.507964432239532471e-01
-1.263479590415954590e-01
3.902938589453697205e-02
-1.748861977830529213e-03
9.157697111368179321e-02
1.185801029205322266e-01
-6.369943916797637939e-02
2.997934818267822266e-03
1.876146160066127777e-02
7.498457282781600952e-02
-1.078544333577156067e-01
7.480323314666748047e-02
2.188979089260101318e-02
1.312060505151748657e-01
4.907264560461044312e-02
-3.057134523987770081e-02
1.440917998552322388e-01
-1.835180073976516724e-01
-8.904486149549484253e-02
4.721188172698020935e-02
-1.635100096464157104e-01
-1.940788030624389648e-01
8.667068183422088623e-02
-1.872092112898826599e-02
4.185676872730255127e-01
2.764168381690979004e-01
2.047501951456069946e-01
8.777364157140254974e-03
-3.971773758530616760e-02
-4.985298216342926025e-02
7.838373631238937378e-02
3.091812133789062500e-01
2.875432558357715607e-02
-2.914713621139526367e-01
6.688877195119857788e-02
2.444250434637069702e-01
-2.924573421478271484e-01
-1.849380433559417725e-01
-2.898268401622772217e-01
-1.611443050205707550e-02
1.709268838167190552e-01
2.632685899734497070e-01
7.370939478278160095e-03
-1.688268482685089111e-01
-9.348628669977188110e-02
-1.630740314722061157e-01
8.713105320930480957e-02
2.809226214885711670e-01
-4.601874575018882751e-02
-3.016177415847778320e-01
1.385844796895980835e-01
6.381562352180480957e-02
-1.160941272974014282e-01
2.508804574608802795e-02
-2.301331460475921631e-01
1.590125113725662231e-01
-5.720170214772224426e-02
-6.053145602345466614e-02
-1.541101634502410889e-01
8.654703944921493530e-02
-1.432012617588043213e-01
1.154660061001777649e-01
2.869251072406768799e-01
-7.919669896364212036e-02
1.610585004091262817e-01
-2.083205133676528931e-01
-2.278729081153869629e-01
1.533134933561086655e-02
2.138278447091579437e-02
1.629045158624649048e-01
-2.975734174251556396e-01
-8.279646188020706177e-02
-1.063134372234344482e-01
-7.726085931062698364e-02
1.330942362546920776e-01
6.517183780670166016e-02
-1.201300248503684998e-01
2.252301424741744995e-01
2.260770834982395172e-02
-5.690549314022064209e-02
1.710510230623185635e-03
-1.405811011791229248e-01
1.334191262722015381e-01
5.819955095648765564e-02
-6.765422970056533813e-02
-2.352029085159301758e-01
1.051872074604034424e-01
-3.149182349443435669e-02
3.704038858413696289e-01
1.971600353717803955e-01
1.290203928947448730e-01
3.710246086120605469e-02
4.544236883521080017e-02
2.393307909369468689e-02
-5.758960545063018799e-02
1.807658672332763672e-01
1.413991451263427734e-01
-1.128483936190605164e-01
1.577979326248168945e-01
9.339053183794021606e-02
-5.664601549506187439e-02
1.790105104446411133e-01
-1.978691220283508301e-01
9.619377553462982178e-02
-1.519737020134925842e-02
-2.252993360161781311e-02
1.364131867885589600e-01
5.918942019343376160e-02
-8.389200083911418915e-03
1.667581796646118164e-01
2.649143338203430176e-01
-1.652584820985794067e-01
2.374619692564010620e-01
-1.246579512953758240e-01
1.451402250677347183e-02
-6.049218121916055679e-03
1.762730926275253296e-01
2.916324511170387268e-02
3.257829695940017700e-02
9.737613052129745483e-02
-4.152505192905664444e-03
8.463253080844879150e-02
-1.461390256881713867e-01
1.794497966766357422e-01
2.822085283696651459e-02
1.939580887556076050e-01
5.145618319511413574e-02
-9.932832419872283936e-02
1.427747309207916260e-01
-1.385445445775985718e-01
5.244530737400054932e-03
1.956100910902023315e-01
-2.342627495527267456e-01
-1.675476580858230591e-01
1.991578340530395508e-01
1.293648779392242432e-01
3.404253423213958740e-01
1.907577663660049438e-01
6.220639497041702271e-02
-9.007141739130020142e-02
-8.161644451320171356e-03
-1.859673485159873962e-02
2.210814952850341797e-01
1.280689388513565063e-01
-8.239686489105224609e-02
-4.466618970036506653e-02
4.149472340941429138e-02
7.283341884613037109e-02
-1.295975744724273682e-01
1.927915215492248535e-01
-1.351334452629089355e-01
7.906412333250045776e-02
-1.423158496618270874e-01
-2.244345098733901978e-01
2.654949948191642761e-02
-1.268032342195510864e-01
-1.718150228261947632e-01
-1.750700175762176514e-02
3.259871602058410645e-01
-2.022794038057327271e-01
1.002595946192741394e-01
-3.568250313401222229e-02
-1.871371418237686157e-01
-4.075450822710990906e-02
1.284795701503753662e-01
2.605731487274169922e-01
-2.363697141408920288e-01
-1.807029545307159424e-02
-1.463918238878250122e-01
-3.046110868453979492e-01
8.965127170085906982e-03
1.704086810350418091e-01
8.598172664642333984e-02
9.228261560201644897e-02
1.680182069540023804e-01
-1.852366514503955841e-02
-1.491802483797073364e-01
2.686531655490398407e-02
2.455753646790981293e-02
-1.675768494606018066e-01
7.885639369487762451e-02
-2.724456042051315308e-02
1.595963239669799805e-01
-4.915976896882057190e-02
8.186969161033630371e-02
1.003392115235328674e-01
8.337072283029556274e-02
1.997557729482650757e-01
-5.837946012616157532e-02
-1.098638772964477539e-01
-2.551066875457763672e-01
9.456627815961837769e-02
9.020166099071502686e-02
-7.854515314102172852e-02
-1.086794957518577576e-01
1.324713677167892456e-01
1.095654219388961792e-01
2.893774211406707764e-01
-1.109781190752983093e-01
-5.256526544690132141e-02
-2.884602844715118408e-01
-1.957345455884933472e-01
2.890800125896930695e-02
-8.215674757957458496e-02
1.957774907350540161e-02
9.538684040307998657e-02
9.756501764059066772e-02
-1.519289463758468628e-01
1.089920625090599060e-01
-1.210462152957916260e-01
4.138473421335220337e-02
1.099330410361289978e-01
-3.103873319923877716e-02
7.463515549898147583e-02
7.451180368661880493e-02
-6.602161377668380737e-02
-1.373436599969863892e-01
9.993580728769302368e-02
-1.250949352979660034e-01
-9.108589589595794678e-02
6.482926197350025177e-03
2.632190100848674774e-02
2.046039998531341553e-01
-1.793418079614639282e-01
1.810671389102935791e-01
-7.585116475820541382e-02
-9.741392731666564941e-02
2.693724334239959717e-01
1.409011781215667725e-01
-7.563603576272726059e-03
2.055967971682548523e-02
5.778630077838897705e-02
1.401812285184860229e-01
1.341973692178726196e-01
-4.727142676711082458e-02
1.384842544794082642e-01
-1.733372956514358521e-01
-2.022677212953567505e-01
1.161180734634399414e-01
-4.794980213046073914e-02
4.029522836208343506e-02
-9.687543660402297974e-02
-8.572724461555480957e-02
-8.171138912439346313e-02
2.541578002274036407e-02
1.716974675655364990e-01
-1.933904439210891724e-01
-1.451973523944616318e-02
-9.186197817325592041e-02
-1.864369362592697144e-01
3.764007985591888428e-02
-5.610943958163261414e-02
-9.990860521793365479e-02
2.243144810199737549e-02
5.216960236430168152e-02
5.848047509789466858e-02
1.588198691606521606e-01
5.238815024495124817e-02
4.586850292980670929e-03
-8.069863915443420410e-02
2.756349444389343262e-01
1.837343126535415649e-01
-2.347930334508419037e-03
5.982394143939018250e-02
2.775345146656036377e-01
-7.005392760038375854e-02
1.169157773256301880e-01
1.567842811346054077e-01
1.412433236837387085e-01
4.583632946014404297e-02
-4.106732457876205444e-02
-1.285745296627283096e-02
2.353152446448802948e-02
-3.900223672389984131e-01
1.774070709943771362e-01
-1.101555898785591125e-01
-2.780866809189319611e-02
4.180893674492835999e-02
-1.436011046171188354e-01
-1.680452227592468262e-01
-1.799722760915756226e-01
9.867460280656814575e-02
5.098488926887512207e-02
-1.493002474308013916e-02
2.145439013838768005e-02
6.943624466657638550e-02
4.242636263370513916e-02
-3.796213865280151367e-02
-5.746575444936752319e-02
-1.355781406164169312e-01
5.668960511684417725e-02
-2.309237569570541382e-01
-1.209280267357826233e-01
-8.894730359315872192e-03
9.554590098559856415e-03
-9.368742816150188446e-03
1.147381663322448730e-01
4.126086831092834473e-03
6.194781884551048279e-02
-2.770454622805118561e-03
-3.989132493734359741e-02
-3.287988528609275818e-02
-1.194593533873558044e-01
6.261994712986052036e-04
7.959553599357604980e-02
-9.066293388605117798e-02
2.233744710683822632e-01
-1.129706427454948425e-01
8.242397755384445190e-02
9.648320265114307404e-03
-1.196586042642593384e-01
3.692096471786499023e-02
-3.673036098480224609e-01
1.357064396142959595e-01
1.065199747681617737e-01
-1.942280083894729614e-01
1.865098923444747925e-01
-1.016661599278450012e-01
-8.079235255718231201e-02
1.195409428328275681e-02
-7.409933209419250488e-02
-4.271101951599121094e-02
1.457170546054840088e-01
1.136172339320182800e-01
2.729105651378631592e-01
-6.182480230927467346e-02
-1.420179903507232666e-01
-5.209649726748466492e-02
-1.568957865238189697e-01
1.939267665147781372e-01
-3.855783119797706604e-02
-1.012388989329338074e-01
-4.651913419365882874e-02
3.252446949481964111e-01
9.583006799221038818e-02
5.847707390785217285e-02
-5.367629230022430420e-02
-4.680163040757179260e-02
-1.449269950389862061e-01
-2.734279930591583252e-01
-1.173487454652786255e-01
-2.377978991717100143e-03
4.165387072134763002e-04
-1.265280097723007202e-01
6.152106449007987976e-02
4.952409490942955017e-02
-1.510840607807040215e-03
1.412269473075866699e-01
1.369207538664340973e-02
8.308286219835281372e-02
-1.205384060740470886e-01
-1.074830442667007446e-01
2.030706964433193207e-02
-8.314600586891174316e-02
-1.860376261174678802e-02
1.008147448301315308e-01
4.029872715473175049e-01
1.203609332442283630e-01
-1.447748625651001930e-03
-1.812444254755973816e-02
3.053672797977924347e-02
-6.321455538272857666e-02
6.133925169706344604e-02
9.651841968297958374e-02
1.632127463817596436e-01
1.465170830488204956e-01
-1.285711769014596939e-02
-5.713567510247230530e-02
-2.851795554161071777e-01
-2.922637462615966797e-01
1.419289559125900269e-01
-3.897299468517303467e-01
1.901773922145366669e-02
-2.053692638874053955e-01
-1.205403134226799011e-01
-1.381872296333312988e-01
-2.809038758277893066e-01
-2.254349365830421448e-02
6.363429874181747437e-02
8.231486380100250244e-02
2.120592892169952393e-01
9.388458728790283203e-02
1.085081994533538818e-01
-2.613462805747985840e-01
3.023166656494140625e-01
5.212138965725898743e-02
4.074818268418312073e-02
-1.969839632511138916e-01
-2.620469592511653900e-02
1.627919822931289673e-01
1.785943806171417236e-01
1.543134264647960663e-02
-1.991651058197021484e-01
-1.247863769531250000e-01
-9.765695780515670776e-02
2.386332601308822632e-01
2.193048203480429947e-06
-5.357421003282070160e-03
9.793739020824432373e-02
-5.947782844305038452e-02
1.127598881721496582e-01
-1.502663642168045044e-01
-3.725809277966618538e-03
-2.629992067813873291e-01
-2.428474426269531250e-01
3.712364286184310913e-02
1.472060289233922958e-02
2.392168901860713959e-02
2.229315489530563354e-01
2.773436345160007477e-02
1.139796376228332520e-01
2.266007103025913239e-02
1.802086271345615387e-02
-3.292988538742065430e-01
-4.308001697063446045e-02
-8.689379692077636719e-02
3.101273179054260254e-01
-6.959391385316848755e-02
1.126523837447166443e-01
-1.011436134576797485e-01
1.144328117370605469e-01
-2.820771932601928711e-02
-1.071260049939155579e-01
3.154329955577850342e-03
-5.678492411971092224e-02
1.239597871899604797e-01
1.195176988840103149e-01
-1.394992023706436157e-01
1.567820310592651367e-01
-8.790979161858558655e-03
9.750460088253021240e-02
4.710647463798522949e-02
3.823640290647745132e-03
3.747629001736640930e-02
7.865076512098312378e-02
-3.277212381362915039e-01
2.222336679697036743e-01
1.313624083995819092e-01
7.796672731637954712e-02
-1.966011077165603638e-01
-3.471746742725372314e-01
-1.041392087936401367e-01
3.354243561625480652e-02
1.748749911785125732e-01
8.883893489837646484e-02
-3.464212641119956970e-02
1.705662161111831665e-01
-3.241992592811584473e-01
7.906752824783325195e-02
4.556642100214958191e-02
-1.003245040774345398e-01
-6.068478897213935852e-02
3.079916536808013916e-01
4.609917476773262024e-02
-2.034768611192703247e-01
6.666979193687438965e-02
-1.732727438211441040e-01
2.411982975900173187e-02
5.817155912518501282e-02
1.976656019687652588e-01
3.340888768434524536e-02
4.844935610890388489e-02
-7.821122184395790100e-03
-1.838734745979309082e-01
-1.411712467670440674e-01
-1.451126933097839355e-01
1.960609108209609985e-02
-5.922864079475402832e-01
-1.630014777183532715e-01
-1.867515444755554199e-01
2.918651700019836426e-01
-2.311033457517623901e-01
9.615142829716205597e-03
-1.607264876365661621e-01
6.139901280403137207e-02
4.927700385451316833e-02
-2.579932846128940582e-02
2.049422115087509155e-01
2.616282105445861816e-01
-1.075499430298805237e-01
2.537586390972137451e-01
-6.428220868110656738e-02
5.155223235487937927e-02
-1.425371170043945312e-01
2.262505441904067993e-01
1.261666268110275269e-01
-1.241905242204666138e-01
9.804395586252212524e-02
-3.771457672119140625e-01
-2.187952995300292969e-01
-2.361427247524261475e-01
1.721597015857696533e-01
-2.328091263771057129e-01
1.584320515394210815e-02
2.383561283349990845e-01
-2.897178530693054199e-01
1.921584010124206543e-01
-1.444772481918334961e-01
-1.245496869087219238e-01
-2.838899791240692139e-01
1.245441809296607971e-01
3.478007391095161438e-02
3.230489194393157959e-01
-5.274628847837448120e-02
-8.180020004510879517e-02
-1.982617378234863281e-01
1.387311052531003952e-02
1.031109914183616638e-01
-1.351584643125534058e-01
-7.039377093315124512e-02
1.223133038729429245e-02
-1.448278725147247314e-01
2.338875085115432739e-01
9.992809034883975983e-03
5.471701174974441528e-02
-4.671579301357269287e-01
-3.977777361869812012e-01
-2.826143205165863037e-01
1.188934966921806335e-01
-1.146068572998046875e-01
5.250442773103713989e-02
1.726851761341094971e-01
6.890113651752471924e-02
1.398341208696365356e-01
8.192398399114608765e-02
-4.546118434518575668e-03
2.168386727571487427e-01
-1.912032999098300934e-02
3.381316065788269043e-01
-5.552063882350921631e-02
-1.025872975587844849e-01
-4.032475054264068604e-01
-3.220763429999351501e-02
2.144429385662078857e-01
-4.119538143277168274e-02
-2.656667493283748627e-02
-3.472068011760711670e-01
-1.409895718097686768e-01
-2.138520926237106323e-01
-3.782339766621589661e-02
-1.700999438762664795e-01
1.974932998418807983e-01
1.282541155815124512e-01
-3.448864221572875977e-01
1.134168431162834167e-01
4.506462067365646362e-02
-1.523831486701965332e-01
-1.010594069957733154e-01
-4.385613650083541870e-02
1.802802383899688721e-01
-2.032354101538658142e-02
-5.719387903809547424e-02
-4.030311107635498047e-02
6.407213211059570312e-02
5.128484684973955154e-03
1.627122238278388977e-02
2.232238650321960449e-01
1.421682685613632202e-01
2.176702208817005157e-02
-9.833902865648269653e-02
-2.218310721218585968e-02
-1.992346495389938354e-01
-1.760613322257995605e-01
-4.353968501091003418e-01
-8.280836045742034912e-02
-5.326446518301963806e-02
6.835483014583587646e-02
-1.772569864988327026e-01
-2.195942699909210205e-01
-2.958654165267944336e-01
1.341442167758941650e-01
-3.603063896298408508e-02
-2.270201593637466431e-01
5.609626695513725281e-02
1.710576266050338745e-01
-1.391074955463409424e-01
-2.217309921979904175e-02
-2.176723629236221313e-01
9.811288118362426758e-02
-8.754751831293106079e-02
-6.492555886507034302e-02
8.986495435237884521e-02
-3.236020207405090332e-01
-2.765797637403011322e-02
-3.443974256515502930e-01
-3.447779715061187744e-01
-7.458872348070144653e-02
-1.594752967357635498e-01
-3.123293220996856689e-01
1.582136452198028564e-01
2.631056010723114014e-01
-4.744891077280044556e-02
1.264342516660690308e-01
-1.904725432395935059e-01
-1.727859079837799072e-01
-1.328654736280441284e-01
4.177486896514892578e-01
9.007640182971954346e-02
-1.238575354218482971e-01
4.625618085265159607e-02
-4.709798097610473633e-01
-2.706695497035980225e-01
-1.872222423553466797e-01
1.982450857758522034e-02
-1.650061160326004028e-01
1.227583214640617371e-01
2.196130007505416870e-01
-4.348714351654052734e-01
-1.041879057884216309e-01
-1.253147125244140625e-01
-7.883652299642562866e-02
-3.580613732337951660e-01
8.603812754154205322e-02
-2.392033115029335022e-02
2.934725880622863770e-01
-1.455077528953552246e-01
-1.935632824897766113e-01
-1.223526671528816223e-01
-1.284126341342926025e-01
1.457673311233520508e-01
-8.505612611770629883e-02
1.627296805381774902e-01
2.991111576557159424e-01
-2.897822260856628418e-01
-7.435486186295747757e-03
1.526511646807193756e-02
5.084591731429100037e-02
-3.481773734092712402e-01
-9.613059461116790771e-02
1.899579167366027832e-01
-7.530851662158966064e-02
-2.553826756775379181e-02
-6.579335778951644897e-02
-2.319968640804290771e-01
-9.965195506811141968e-02
-2.599295079708099365e-01
-1.583715081214904785e-01
1.778126060962677002e-01
3.303318917751312256e-01
-1.013289839029312134e-01
-4.246550425887107849e-02
-7.789885997772216797e-02
-1.277300417423248291e-01
-9.067145735025405884e-02
1.834551841020584106e-01
2.099959366023540497e-02
-7.833694666624069214e-02
1.559411082416772842e-02
-5.340671632438898087e-03
-1.083163172006607056e-01
1.398189216852188110e-01
1.303314417600631714e-01
1.419017612934112549e-01
2.765024006366729736e-01
1.026110257953405380e-03
5.168424174189567566e-02
-2.374250888824462891e-01
-8.745661377906799316e-02
-6.404194980859756470e-02
-2.208700925111770630e-01
3.653480112552642822e-02
7.199006527662277222e-02
-1.986801326274871826e-01
7.600800693035125732e-02
-6.729044020175933838e-02
-1.076079830527305603e-01
-6.852670013904571533e-02
1.536655128002166748e-01
-2.318674474954605103e-01
9.827632457017898560e-03
-1.194812916219234467e-02
1.667220592498779297e-01
-1.771589666604995728e-01
-2.277587801218032837e-01
1.752740144729614258e-01
-1.165893021970987320e-02
-7.588706165552139282e-02
1.909681856632232666e-01
-3.613382875919342041e-01
-4.987344890832901001e-02
-9.664358943700790405e-02
-1.736770868301391602e-01
3.813808038830757141e-02
-2.135924845933914185e-01
-2.331108450889587402e-01
7.604438066482543945e-02
1.521881073713302612e-01
-1.508945692330598831e-02
-2.875090762972831726e-02
-1.450343430042266846e-01
-1.001833006739616394e-01
-1.033686548471450806e-01
-2.345540523529052734e-01
1.655900925397872925e-01
-3.211345076560974121e-01
1.554944664239883423e-01
-2.502983808517456055e-01
-1.829886734485626221e-01
-1.889746785163879395e-01
-1.064772754907608032e-01
-3.812882304191589355e-01
1.102382689714431763e-02
1.310230493545532227e-01
-7.122458517551422119e-02
1.467995694838464260e-03
-2.918762564659118652e-01
-1.279962062835693359e-01
-5.574677139520645142e-03
1.241109743714332581e-01
-7.059964817017316818e-03
-2.328084409236907959e-01
3.066996932029724121e-01
-8.698982000350952148e-02
-3.897069096565246582e-01
-1.881111413240432739e-01
-4.953556228429079056e-03
-3.340707123279571533e-01
1.120786145329475403e-01
2.391601502895355225e-01
-5.185531824827194214e-02
-5.165676400065422058e-02
-1.992121189832687378e-01
1.546653807163238525e-01
4.072279669344425201e-03
-1.256981492042541504e-01
4.724710062146186829e-02
-3.986078500747680664e-01
-7.596725970506668091e-02
5.844672396779060364e-02
-2.473482638597488403e-01
6.935673207044601440e-02
-1.121009141206741333e-01
2.187872678041458130e-02
-1.421541720628738403e-02
2.336302399635314941e-01
2.053638361394405365e-02
-9.675855934619903564e-02
-6.842827796936035156e-02
-3.516860306262969971e-02
-1.034587025642395020e-01
1.215575709939002991e-01
1.070849746465682983e-01
1.234757248312234879e-02
1.113075166940689087e-01
3.422350883483886719e-01
1.718384772539138794e-02
9.858976304531097412e-02
1.106934845447540283e-01
-8.313460648059844971e-02
-4.818855226039886475e-02
-5.074721947312355042e-02
1.758795827627182007e-01
-1.374857574701309204e-01
-5.454248934984207153e-02
-2.106294333934783936e-01
-4.660492241382598877e-01
6.421665847301483154e-02
-1.318511515855789185e-01
-2.013095282018184662e-02
-5.623466894030570984e-02
-1.686062663793563843e-01
-1.691057160496711731e-02
2.251721322536468506e-01
1.679841279983520508e-01
-3.777651116251945496e-02
4.266783595085144043e-01
-1.292948145419359207e-02
-9.668952971696853638e-02
9.711059182882308960e-02
1.155785247683525085e-01
-2.784196734428405762e-01
-2.044679969549179077e-01
4.233875125646591187e-02
3.542950376868247986e-02
2.040685564279556274e-01
-1.377266347408294678e-01
9.177717380225658417e-03
-2.046480216085910797e-02
-3.916506469249725342e-02
1.193207427859306335e-01
-4.384485259652137756e-02
-1.351872272789478302e-02
-2.054082751274108887e-01
-2.645168267190456390e-02
8.344172686338424683e-02
1.460800766944885254e-01
-2.851936519145965576e-01
-4.570216834545135498e-01
6.523748487234115601e-02
-6.254416704177856445e-02
-6.627541780471801758e-02
6.387735903263092041e-02
-2.261675745248794556e-01
-2.109408527612686157e-01
7.144320011138916016e-02
4.429019615054130554e-02
2.493029646575450897e-02
-2.725986391305923462e-02
-2.420616447925567627e-01
-1.758484095335006714e-01
1.475966572761535645e-01
-1.742012500762939453e-01
-1.036840677261352539e-01
-6.558726727962493896e-02
2.920715808868408203e-01
-2.885216474533081055e-02
-1.325695961713790894e-01
1.393286883831024170e-01
-2.114760130643844604e-01
-2.159126661717891693e-02
2.687903493642807007e-02
-1.253072470426559448e-01
-1.875543594360351562e-01
2.250319272279739380e-01
-1.333107501268386841e-01
1.519499421119689941e-01
-5.077782273292541504e-02
3.180335760116577148e-01
-3.339445292949676514e-01
6.093259155750274658e-02
8.815908432006835938e-02
1.450887918472290039e-01
1.869691908359527588e-01
-1.712503433227539062e-01
1.898794770240783691e-01
9.440437704324722290e-02
1.409457325935363770e-01
-8.936145901679992676e-02
-4.061447456479072571e-02
1.259181648492813110e-01
-1.294918060302734375e-01
5.498315393924713135e-02
-5.047074332833290100e-02
9.814225882291793823e-02
3.473517298698425293e-02
1.591982096433639526e-01
4.205572009086608887e-01
5.075923725962638855e-02
-1.233709454536437988e-01
1.182266920804977417e-01
1.486907750368118286e-01
8.591885119676589966e-02
1.186616718769073486e-01
1.923994868993759155e-01
-1.664168015122413635e-02
-1.115323882550001144e-02
-6.790989637374877930e-02
8.039729297161102295e-02
-1.982972025871276855e-01
1.459272801876068115e-01
-2.579263746738433838e-01
-4.085429012775421143e-01
-6.478967517614364624e-02
1.307870149612426758e-01
1.218810901045799255e-01
-3.194320201873779297e-01
-2.398989796638488770e-01
4.511817172169685364e-02
1.259090006351470947e-01
-2.086473256349563599e-02
1.965756416320800781e-01
3.395682573318481445e-01
-1.538175493478775024e-01
-3.259805738925933838e-01
1.026846021413803101e-01
1.967122703790664673e-01
-2.156399935483932495e-01
3.981859982013702393e-02
7.971838116645812988e-02
1.628026813268661499e-01
7.045598328113555908e-02
-1.060530245304107666e-01
-1.243457421660423279e-01
-1.427837461233139038e-01
-4.483365267515182495e-02
-2.548486553132534027e-02
3.442682325839996338e-02
6.222117319703102112e-02
-4.407294839620590210e-02
-1.489065736532211304e-01
-2.215479165315628052e-01
4.221273958683013916e-01
-2.960535287857055664e-01
-2.980117499828338623e-01
-2.575548887252807617e-01
-2.723137475550174713e-02
2.460123896598815918e-01
-1.005631685256958008e-01
1.865673661231994629e-01
-1.881771534681320190e-02
1.347739398479461670e-01
-3.236367367208003998e-03
8.947797119617462158e-02
3.418599963188171387e-01
-1.200362667441368103e-01
-1.082815229892730713e-01
1.652169227600097656e-01
1.201743781566619873e-01
-2.465158849954605103e-01
-1.155476495623588562e-01
-8.550851047039031982e-02
-3.815668402239680290e-03
1.804161444306373596e-02
-7.565709762275218964e-03
4.343502968549728394e-02
4.632781818509101868e-02
1.185415405780076981e-02
-4.475499037653207779e-03
-9.991003572940826416e-02
2.360328286886215210e-01
1.125412061810493469e-02
-1.002556383609771729e-01
1.503762155771255493e-01
1.689477413892745972e-01
-1.267638206481933594e-01
2.210449278354644775e-01
1.467540115118026733e-01
2.663944065570831299e-01
4.793376103043556213e-02
-6.180892512202262878e-02
7.729303836822509766e-02
1.187490075826644897e-01
-1.058195903897285461e-01
-1.260707434266805649e-02
6.312166224233806133e-04
1.698070615530014038e-01
-2.668454945087432861e-01
-1.477353274822235107e-01
-2.329610884189605713e-01
1.911757737398147583e-01
4.066297039389610291e-02
6.293624639511108398e-02
1.181242316961288452e-01
4.871395230293273926e-02
-5.370498634874820709e-03
1.415155678987503052e-01
1.771033108234405518e-01
9.165221452713012695e-02
2.293417230248451233e-03
7.472684234380722046e-02
3.318329155445098877e-02
6.601072102785110474e-02
-2.403694838285446167e-01
1.412775218486785889e-01
6.232497468590736389e-02
2.799164317548274994e-02
-1.392679959535598755e-01
-5.685398578643798828e-01
-9.383989870548248291e-02
2.342113107442855835e-01
2.001145035028457642e-01
-6.480634212493896484e-01
-1.990401148796081543e-01
4.955346137285232544e-02
1.535608768463134766e-01
4.342408478260040283e-02
2.560467422008514404e-01
4.092052578926086426e-01
-8.385003358125686646e-02
-1.780449599027633667e-01
1.496121734380722046e-01
1.705988496541976929e-01
-2.011932199820876122e-03
2.089135050773620605e-01
1.763251870870590210e-01
2.963613569736480713e-01
-2.153799384832382202e-01
-1.490336507558822632e-01
-1.181158348917961121e-01
2.996664494276046753e-02
-3.825799748301506042e-02
-1.366972327232360840e-01
1.380419582128524780e-01
1.335720717906951904e-01
-9.545855224132537842e-02
-1.294745355844497681e-01
-1.158194690942764282e-01
2.216082364320755005e-01
-4.004921019077301025e-01
1.583689637482166290e-02
2.829402983188629150e-01
2.859033644199371338e-01
2.133029699325561523e-01
-3.110077977180480957e-01
1.093234773725271225e-02
-1.806343942880630493e-01
1.275815814733505249e-01
-4.350544884800910950e-02
-6.360713392496109009e-03
4.423701465129852295e-01
-1.540021896362304688e-01
-1.702422350645065308e-01
-2.664559781551361084e-01
2.339487969875335693e-01
-2.441195249557495117e-01
7.193090766668319702e-02
-2.134795486927032471e-01
1.308180391788482666e-01
1.791017651557922363e-01
-2.401472628116607666e-01
-1.505835726857185364e-02
1.815960109233856201e-01
2.698058960959315300e-03
-1.121518686413764954e-01
1.318929940462112427e-01
1.598107665777206421e-01
-1.496905982494354248e-01
-1.883556395769119263e-01
6.916428357362747192e-02
1.550058275461196899e-01
6.241140887141227722e-02
1.928687244653701782e-01
-2.327258698642253876e-02
3.001582324504852295e-01
4.944881889969110489e-03
-2.223860919475555420e-01
1.165055334568023682e-01
3.261157870292663574e-01
5.459617823362350464e-02
-2.042247913777828217e-02
2.339533120393753052e-01
9.664428979158401489e-02
-1.959307640790939331e-01
6.802258640527725220e-02
-6.322482973337173462e-02
1.185052692890167236e-01
-8.541076630353927612e-02
-2.784566022455692291e-03
2.409475483000278473e-02
1.644328795373439789e-02
2.559545040130615234e-01
-1.150510609149932861e-01
-1.066011190414428711e-01
3.132769465446472168e-01
5.485488101840019226e-02
2.462387084960937500e-01
1.723449826240539551e-01
5.561960116028785706e-02
-1.703968197107315063e-01
1.280890684574842453e-02
3.828030824661254883e-02
-3.003655001521110535e-03
-1.741309762001037598e-01
-2.992640435695648193e-01
4.963900893926620483e-02
2.808045148849487305e-01
-2.312263101339340210e-02
-3.599149584770202637e-01
-1.267622858285903931e-01
-1.692869663238525391e-01
2.815452814102172852e-01
7.801988720893859863e-02
3.285833299160003662e-01
3.540266454219818115e-01
2.391570620238780975e-02
1.792634129524230957e-01
-1.280790269374847412e-01
9.270648658275604248e-02
1.334933191537857056e-01
5.426410213112831116e-02
-1.851022541522979736e-01
1.472293436527252197e-01
-3.384133800864219666e-02
-1.378909498453140259e-01
4.450118541717529297e-02
1.052796691656112671e-01
5.816643312573432922e-02
-6.781917065382003784e-02
1.157952249050140381e-01
2.803819477558135986e-01
7.748139649629592896e-02
6.682544946670532227e-02
6.280580908060073853e-02
9.139943122863769531e-02
-1.150936409831047058e-01
-1.082903295755386353e-01
2.799489200115203857e-01
2.228514552116394043e-01
-4.447243213653564453e-01
-9.863176941871643066e-02
-1.256970614194869995e-01
-9.298254549503326416e-02
-2.801658771932125092e-02
-9.921566396951675415e-02
1.450502425432205200e-01
3.261021077632904053e-01
-2.352319657802581787e-01
4.983870312571525574e-02
-3.188085258007049561e-01
-4.409478977322578430e-02
-1.399613916873931885e-01
5.044071003794670105e-02
2.746675312519073486e-01
1.075867116451263428e-01
1.279237568378448486e-01
-3.865377902984619141e-01
-1.833424903452396393e-02
1.814635470509529114e-02
2.007681727409362793e-01
-1.323429346084594727e-01
1.134959459304809570e-01
3.001115620136260986e-01
-1.449476927518844604e-01
-1.033674553036689758e-01
-3.155462443828582764e-01
8.219122886657714844e-02
2.307163327932357788e-01
1.586757451295852661e-01
-1.519914865493774414e-01
4.381043836474418640e-02
2.963794469833374023e-01
-3.462147414684295654e-01
2.531667351722717285e-01
4.072514548897743225e-02
1.166679859161376953e-01
-2.089497298002243042e-01
4.086557328701019287e-01
2.592065632343292236e-01
2.870972640812397003e-02
3.906833007931709290e-02
-5.100500583648681641e-02
7.535567134618759155e-02
-1.102470234036445618e-01
-7.657758146524429321e-02
1.039068251848220825e-01
1.355483680963516235e-01
-8.044329285621643066e-02
-2.301272600889205933e-01
4.465598985552787781e-02
2.495521679520606995e-02
2.422267198562622070e-02
-3.485401347279548645e-02
2.662426829338073730e-01
1.607685387134552002e-01
8.370541967451572418e-03
1.400983780622482300e-01
-1.729085445404052734e-01
-8.268097043037414551e-02
-1.109247207641601562e-01
-1.186333224177360535e-01
1.105692163109779358e-01
2.408901304006576538e-01
-2.174625694751739502e-01
4.415051080286502838e-03
-1.199749037623405457e-01
-2.193725407123565674e-01
7.616266608238220215e-02
2.403012067079544067e-01
3.229827284812927246e-01
2.677513062953948975e-01
8.459368348121643066e-02
1.856696009635925293e-01
-6.849224120378494263e-02
-5.298357084393501282e-02
6.427537649869918823e-02
2.277917973697185516e-02
1.380287855863571167e-02
3.307944536209106445e-02
7.478986680507659912e-02
-8.251627534627914429e-02
6.695499271154403687e-02
-8.862365782260894775e-02
7.467180490493774414e-02
-5.953238904476165771e-02
2.270489931106567383e-01
1.484997570514678955e-01
2.318023145198822021e-01
3.408091515302658081e-02
1.812209188938140869e-01
6.818407773971557617e-02
4.212564975023269653e-02
1.042049154639244080e-01
-1.995664089918136597e-01
1.685763150453567505e-01
6.546846032142639160e-02
-2.526096999645233154e-02
8.503133803606033325e-02
1.416696608066558838e-01
9.394409134984016418e-03
-5.441820621490478516e-02
2.173882275819778442e-01
1.691152155399322510e-01
-1.465131491422653198e-01
1.239272952079772949e-01
-9.709773957729339600e-02
-2.207959629595279694e-02
3.476095199584960938e-02
-1.769847869873046875e-01
3.574343770742416382e-02
2.197936922311782837e-01
-3.957224190235137939e-01
-1.868887618184089661e-02
1.984004676342010498e-01
-6.243172660470008850e-02
8.948819339275360107e-02
1.100325305014848709e-02
2.154394686222076416e-01
4.564140141010284424e-01
6.461534649133682251e-02
1.926366835832595825e-01
-1.944695413112640381e-01
6.469793617725372314e-02
1.202317103743553162e-01
4.941401071846485138e-03
3.351723775267601013e-02
-6.457784026861190796e-02
8.151566609740257263e-03
-8.670141547918319702e-02
1.203690096735954285e-01
-2.258612066507339478e-01
3.217629492282867432e-01
-2.130248695611953735e-01
1.810699552297592163e-01
1.996703296899795532e-01
1.397693157196044922e-01
-1.221855059266090393e-01
1.995503008365631104e-01
-1.674958020448684692e-01
9.974776953458786011e-02
-4.699845239520072937e-02
4.441398382186889648e-02
-3.586065396666526794e-02
3.243125975131988525e-02
1.642171144485473633e-01
2.774126529693603516e-01
1.524711847305297852e-01
1.793216168880462646e-02
1.391249299049377441e-01
5.074814707040786743e-02
-2.037953957915306091e-02
-8.199866861104965210e-02
1.586430966854095459e-01
-8.376428484916687012e-02
5.965642631053924561e-02
6.815372407436370850e-02
-1.381497979164123535e-01
5.387393385171890259e-02
3.058593571186065674e-01
1.183471679687500000e-01
6.217243522405624390e-02
1.228815168142318726e-01
1.625776439905166626e-01
2.293912321329116821e-02
6.200372055172920227e-02
-1.578623801469802856e-01
1.429924368858337402e-01
-1.772846430540084839e-01
-6.320546567440032959e-02
-1.080068647861480713e-01
-2.080744877457618713e-02
-4.529629647731781006e-02
2.562578022480010986e-01
-9.924981743097305298e-02
1.896827369928359985e-01
2.262765355408191681e-02
7.617235183715820312e-02
1.917028129100799561e-01
-9.642343968152999878e-02
2.397291734814643860e-02
-9.314593672752380371e-02
-1.117593124508857727e-01
-2.677827477455139160e-01
-2.150962129235267639e-02
6.921824812889099121e-02
-8.746493607759475708e-02
2.136475145816802979e-01
-1.063287332653999329e-01
6.357865780591964722e-02
-1.693161129951477051e-01
2.864548265933990479e-01
2.499345242977142334e-01
-7.260589301586151123e-02
9.197336435317993164e-02
-1.058695837855339050e-01
5.019294843077659607e-02
-3.445427864789962769e-02
1.147346645593643188e-01
-3.266533017158508301e-01
-9.704316407442092896e-02
-2.496065944433212280e-01
1.028250232338905334e-01
-3.090845979750156403e-02
-2.771520055830478668e-02
-1.719030737876892090e-01
2.286151610314846039e-02
1.799947470426559448e-01
1.641736924648284912e-01
2.648674845695495605e-01
-1.245370414108037949e-02
-3.384954994544386864e-03
1.986725181341171265e-01
1.397106796503067017e-01
-2.565358206629753113e-02
-5.466177593916654587e-03
1.539467275142669678e-01
-8.059471100568771362e-02
1.314456462860107422e-01
-4.145709052681922913e-02
1.413579285144805908e-01
1.056472286581993103e-01
2.664823271334171295e-02
2.565836608409881592e-01
7.025241851806640625e-02
2.807039618492126465e-01
2.031774818897247314e-01
1.197676882147789001e-01
1.010591834783554077e-01
-5.215773731470108032e-02
-1.077126041054725647e-01
-1.533706337213516235e-01
-6.548552960157394409e-02
9.149712324142456055e-02
-1.523202061653137207e-01
-1.225151494145393372e-01
-1.652718707919120789e-02
-9.875697642564773560e-02
2.420862466096878052e-01
-1.073638051748275757e-01
-8.269229531288146973e-02
1.113496124744415283e-01
2.984947338700294495e-02
-4.592077806591987610e-02
-6.324629299342632294e-03
1.263143420219421387e-01
2.096673846244812012e-02
-2.096890807151794434e-01
8.889406174421310425e-02
8.170388638973236084e-02
-9.079823642969131470e-02
3.257704153656959534e-02
-7.991777732968330383e-03
3.760227933526039124e-02
-3.097123932093381882e-03
4.596358835697174072e-01
1.736032366752624512e-01
-2.844981253147125244e-01
1.063764691352844238e-01
1.896087676286697388e-01
-5.760245025157928467e-03
-2.153160609304904938e-02
1.597022823989391327e-02
4.539098218083381653e-02
-2.446705251932144165e-01
-1.808313727378845215e-01
3.068321757018566132e-02
-1.785079389810562134e-02
-2.137812972068786621e-02
5.111308097839355469e-01
2.621134519577026367e-01
2.920502126216888428e-01
-9.743610024452209473e-02
2.797872722148895264e-01
1.256707906723022461e-01
3.464271500706672668e-02
-3.428792208433151245e-02
-1.159390583634376526e-01
-5.242645367980003357e-02
-2.908835113048553467e-01
-8.823405951261520386e-02
1.060609668493270874e-01
-2.457800656557083130e-01
4.973483830690383911e-02
-1.006906032562255859e-01
2.968868315219879150e-01
-7.651152461767196655e-02
5.283661484718322754e-01
1.658711135387420654e-01
4.953891038894653320e-02
2.226685583591461182e-01
9.625336527824401855e-02
8.693835884332656860e-02
-6.071090325713157654e-02
-1.213683709502220154e-01
-1.702362000942230225e-01
-8.462640643119812012e-02
6.860327441245317459e-03
-1.725658774375915527e-01
7.193905115127563477e-02
-9.233734756708145142e-02
4.529888182878494263e-02
-1.467150151729583740e-01
3.312195241451263428e-01
-3.815165907144546509e-02
1.952127367258071899e-02
7.810547947883605957e-02
1.555190831422805786e-01
-1.165420785546302795e-01
-6.937226653099060059e-02
-2.375693619251251221e-01
-9.744822978973388672e-02
2.660119719803333282e-02
-2.427151203155517578e-01
6.044951081275939941e-02
2.960300631821155548e-02
1.194976791739463806e-01
1.800888031721115112e-01
1.682635694742202759e-01
2.146879434585571289e-01
2.266767993569374084e-02
1.280457675457000732e-01
1.256813406944274902e-01
8.148127049207687378e-02
-1.650307327508926392e-01
-4.338096361607313156e-03
-9.534014761447906494e-02
-3.203504681587219238e-01
-1.749955564737319946e-01
9.448198229074478149e-02
-1.689903736114501953e-01
8.164431899785995483e-02
-8.338963985443115234e-02
5.111303925514221191e-02
2.120489813387393951e-02
-2.591896615922451019e-02
3.113255836069583893e-03
1.630352586507797241e-01
-1.502255499362945557e-01
1.632289290428161621e-01
-8.920294791460037231e-02
1.996868401765823364e-01
-7.008747011423110962e-02
-2.477659583091735840e-01
-1.085834018886089325e-02
9.804779291152954102e-02
7.390185445547103882e-02
-2.265719622373580933e-01
3.666883707046508789e-02
9.780205786228179932e-02
1.255449801683425903e-01
2.997678518295288086e-01
1.485978662967681885e-01
-4.021360278129577637e-01
-2.768069971352815628e-03
3.592073023319244385e-01
1.035046055912971497e-01
9.803970903158187866e-02
3.039518296718597412e-01
-1.647359505295753479e-02
-3.158078789710998535e-01
5.890899896621704102e-02
-8.944942057132720947e-02
-9.564051032066345215e-02
2.720979154109954834e-01
5.042573809623718262e-01
3.502697870135307312e-02
1.110242605209350586e-01
-1.000190824270248413e-01
2.843770682811737061e-01
2.107454985380172729e-01
6.750005483627319336e-02
-6.415268778800964355e-02
-1.301503628492355347e-01
-2.983039617538452148e-02
-1.467426866292953491e-01
-1.026787012815475464e-01
-1.500010397285223007e-02
2.561746537685394287e-02
-2.974398136138916016e-01
4.543748497962951660e-02
4.003981053829193115e-01
4.622781574726104736e-01
3.965712487697601318e-01
-1.863249540328979492e-01
1.515263319015502930e-01
3.127801716327667236e-01
1.036658287048339844e-01
7.150448113679885864e-02
-2.200519144535064697e-01
-4.062480852007865906e-02
-1.446197926998138428e-01
-1.483735889196395874e-01
2.664922773838043213e-01
-5.523117184638977051e-01
-1.167951151728630066e-01
-1.002833917737007141e-01
1.272759139537811279e-01
1.397245079278945923e-01
3.447093069553375244e-01
1.314274221658706665e-01
-5.164534598588943481e-02
1.392016410827636719e-01
1.094413995742797852e-01
-2.162687927484512329e-01
-7.316219806671142578e-02
-2.253161966800689697e-01
-7.987583428621292114e-02
-6.280615925788879395e-02
-6.037229672074317932e-03
-2.918461561203002930e-01
-2.248511090874671936e-02
5.009385943412780762e-02
2.859905362129211426e-01
-7.667673379182815552e-02
-7.360227406024932861e-03
1.611908525228500366e-01
1.675026714801788330e-01
2.253740578889846802e-01
2.513426840305328369e-01
-2.417212128639221191e-01
4.568694159388542175e-02
2.640140801668167114e-02
-2.293090969324111938e-01
-1.682642251253128052e-01
-1.050161756575107574e-02
2.014686726033687592e-02
1.874482631683349609e-01
-1.030112132430076599e-01
5.490026623010635376e-02
1.114321649074554443e-01
4.364213440567255020e-03
1.909820437431335449e-01
6.000919267535209656e-02
-1.429377496242523193e-01
2.986865639686584473e-01
-1.167977973818778992e-01
1.455814540386199951e-01
3.420201689004898071e-02
-2.207334488630294800e-01
7.053202716633677483e-05
2.860085852444171906e-02
7.968736439943313599e-02
-3.761588037014007568e-02
1.568559706211090088e-01
2.088289521634578705e-02
1.768616773188114166e-02
1.291306465864181519e-01
5.183627828955650330e-02
-1.900805830955505371e-01
2.069847285747528076e-01
7.348211854696273804e-02
2.320399284362792969e-01
3.286785781383514404e-01
4.203702807426452637e-01
2.443841844797134399e-01
-3.542736172676086426e-01
-6.720582954585552216e-03
3.025254979729652405e-02
9.134908765554428101e-02
1.738006919622421265e-01
2.782484889030456543e-01
-8.319026976823806763e-02
-6.192570924758911133e-02
2.620325982570648193e-01
-2.157647721469402313e-02
1.782917380332946777e-01
2.403272837400436401e-01
-9.319250285625457764e-02
-4.788908362388610840e-02
-9.677072055637836456e-03
-1.077366843819618225e-01
-1.426348984241485596e-01
-1.086412370204925537e-01
2.354822158813476562e-01
-9.552069008350372314e-02
2.808637619018554688e-01
3.668212890625000000e-01
7.578843086957931519e-02
1.548996418714523315e-01
-1.328952312469482422e-01
4.205076992511749268e-01
2.159467488527297974e-01
5.525035411119461060e-02
1.735262274742126465e-01
-5.100154504179954529e-02
2.442671954631805420e-01
-3.301958143711090088e-01
-3.279221951961517334e-01
1.157667338848114014e-01
-1.035055667161941528e-01
-3.508364856243133545e-01
3.438638523221015930e-02
3.160542547702789307e-01
2.053074538707733154e-01
1.142691075801849365e-01
-8.793672174215316772e-02
8.379521220922470093e-02
3.354542255401611328e-01
1.569576412439346313e-01
-9.976229816675186157e-02
1.054132729768753052e-01
1.434411704540252686e-01
-6.380561739206314087e-02
-1.896592825651168823e-01
5.167352035641670227e-02
-2.388145476579666138e-01
1.510907262563705444e-01
4.911427199840545654e-02
3.741127625107765198e-02
-1.775354743003845215e-01
-8.221772313117980957e-02
3.006946146488189697e-01
-1.065896376967430115e-01
1.416942179203033447e-01
2.244517356157302856e-01
-1.372706145048141479e-01
2.727464027702808380e-02
1.273198872804641724e-01
-1.591205447912216187e-01
-3.406936526298522949e-01
3.437475487589836121e-02
1.054128929972648621e-01
-5.957605317234992981e-02
-7.217058539390563965e-02
-1.294763833284378052e-01
2.658989466726779938e-02
-2.673980407416820526e-02
-4.279571026563644409e-02
-2.033837735652923584e-01
-3.962755575776100159e-02
-1.791559718549251556e-02
-1.118454486131668091e-01
1.039030477404594421e-01
1.778926998376846313e-01
-6.016510725021362305e-02
-1.294724494218826294e-01
9.142588078975677490e-02
-1.480131298303604126e-01
6.892913579940795898e-02
2.827718295156955719e-02
-1.627907603979110718e-01
1.215783730149269104e-01
2.987391687929630280e-02
-2.165441513061523438e-01
6.136243417859077454e-02
-8.688458055257797241e-02
-1.272213011980056763e-01
1.502456665039062500e-01
3.013998866081237793e-01
1.181725263595581055e-01
3.009951114654541016e-01
-2.118795551359653473e-02
1.879320852458477020e-02
9.105892479419708252e-02
-1.756139472126960754e-02
1.044217497110366821e-02
3.925256058573722839e-02
-7.556798867881298065e-03
-2.126242816448211670e-01
1.100467666983604431e-01
-6.711988896131515503e-02
1.659116744995117188e-01
-1.414929982274770737e-02
4.447127506136894226e-02
-2.194348275661468506e-01
6.498582661151885986e-02
1.009186804294586182e-01
6.257010996341705322e-02
-2.385874539613723755e-01
1.039225161075592041e-01
1.029977053403854370e-01
2.457805676385760307e-04
1.504336297512054443e-01
-9.525838308036327362e-03
-9.648890048265457153e-02
8.773095160722732544e-02
2.019553780555725098e-01
9.420830756425857544e-03
1.428936868906021118e-01
3.691503778100013733e-02
4.221284016966819763e-02
7.063253317028284073e-03
-8.746363967657089233e-02
-2.130195051431655884e-01
-4.907319322228431702e-02
2.774751484394073486e-01
-1.423226743936538696e-01
8.366052806377410889e-02
4.819542169570922852e-03
-4.197394102811813354e-02
-6.210113316774368286e-02
-5.509198084473609924e-02
2.724597156047821045e-01
1.648419499397277832e-01
1.507436633110046387e-01
8.149528875946998596e-03
7.570589333772659302e-02
8.151386678218841553e-02
4.822343215346336365e-02
-2.741104066371917725e-01
7.020700722932815552e-02
5.035845935344696045e-02
9.892477095127105713e-02
-3.854244574904441833e-02
-1.558115482330322266e-01
-9.565429762005805969e-03
-1.299000531435012817e-01
7.524614036083221436e-02
-1.586963683366775513e-01
7.025947421789169312e-02
4.920111596584320068e-02
-5.527176707983016968e-02
-1.072971820831298828e-01
-6.031538918614387512e-02
9.366031736135482788e-03
-2.495520263910293579e-01
-4.320320114493370056e-02
8.053744211792945862e-03
-8.845578879117965698e-02
-1.466654837131500244e-01
9.872463531792163849e-03
-1.107866223901510239e-02
-1.297997683286666870e-01
1.008070930838584900e-01
6.432491540908813477e-02
9.398386627435684204e-02
8.200423419475555420e-02
-1.017814800143241882e-01
-1.794595643877983093e-02
-7.227671891450881958e-02
-1.151418834924697876e-01
-3.385434299707412720e-02
3.120081424713134766e-01
-3.724176809191703796e-02
-2.353030256927013397e-02
9.695773571729660034e-02
-3.000000864267349243e-02
5.226068198680877686e-02
2.019656151533126831e-01
-6.461614370346069336e-02
1.427698582410812378e-01
6.667462736368179321e-02
3.333245217800140381e-02
-9.767746552824974060e-03
1.868915855884552002e-01
-5.998529866337776184e-02
-5.594937130808830261e-02
-4.423120245337486267e-02
-1.115470379590988159e-01
-2.029452286660671234e-02
5.856023728847503662e-02
1.901767551898956299e-01
1.556445844471454620e-02
-1.023695841431617737e-01
-6.818379461765289307e-02
5.804120749235153198e-02
2.115758806467056274e-01
1.006385833024978638e-01
-1.132809296250343323e-01
-1.073830202221870422e-01
-1.174422875046730042e-01
2.189820259809494019e-01
-2.635706774890422821e-02
1.422047913074493408e-01
-3.806873410940170288e-02
-1.079769060015678406e-01
1.456816345453262329e-01
3.042513132095336914e-01
1.014655232429504395e-01
-1.768507659435272217e-01
1.295336335897445679e-01
-6.287293881177902222e-02
7.342031458392739296e-04
7.425041496753692627e-02
-5.715067964047193527e-04
-2.552951872348785400e-01
-1.323734968900680542e-01
3.584177196025848389e-01
-2.286955863237380981e-01
1.066476926207542419e-01
-3.553651273250579834e-01
4.313228279352188110e-02
-9.412299841642379761e-02
2.605442702770233154e-01
1.295008063316345215e-01
1.608057916164398193e-01
3.412506282329559326e-01
-7.522407174110412598e-02
6.034275889396667480e-02
8.514536172151565552e-02
8.427718281745910645e-02
8.153484761714935303e-02
1.417336463928222656e-01
4.622719809412956238e-02
-2.320991829037666321e-03
-9.567922353744506836e-02
-2.521061599254608154e-01
6.127687916159629822e-02
2.502642106264829636e-03
1.435992866754531860e-01
-2.134151905775070190e-01
-1.064021047204732895e-02
-2.958713769912719727e-01
-9.690900892019271851e-02
2.579003572463989258e-01
-2.310446277260780334e-02
-2.257171273231506348e-01
3.444983437657356262e-02
1.109907180070877075e-01
1.784713268280029297e-01
-1.158570945262908936e-01
1.286628246307373047e-01
1.201650127768516541e-01
1.284375935792922974e-01
1.226864829659461975e-01
-8.447591215372085571e-02
-1.356364488601684570e-01
6.584148108959197998e-02
-3.093848563730716705e-02
-5.710927024483680725e-02
1.140038669109344482e-01
1.270822156220674515e-02
-1.287347376346588135e-01
1.663510687649250031e-02
-3.761418908834457397e-02
2.014524117112159729e-02
-4.084639623761177063e-02
1.626383662223815918e-01
8.543001115322113037e-02
9.017583727836608887e-02
2.876702137291431427e-02
6.562931835651397705e-02
-1.820224970579147339e-01
-6.728363782167434692e-02
3.541851416230201721e-02
-1.021324247121810913e-01
1.523028910160064697e-01
7.055877894163131714e-02
8.806373924016952515e-02
-8.546298742294311523e-02
1.934131383895874023e-01
1.505967229604721069e-01
-3.338794037699699402e-02
-1.208163946866989136e-01
-6.413277983665466309e-02
3.547634184360504150e-02
-6.743322312831878662e-02
8.656523376703262329e-02
-1.933224648237228394e-01
9.800343960523605347e-02
-3.566834926605224609e-01
-1.237439215183258057e-01
2.911596000194549561e-01
1.090814173221588135e-01
-3.521642088890075684e-01
5.200448911637067795e-03
3.911544010043144226e-02
-1.517432779073715210e-01
-1.444894820451736450e-01
1.392019540071487427e-01
1.540980488061904907e-01
-1.336338669061660767e-01
3.253654018044471741e-02
1.096636578440666199e-01
4.832042381167411804e-02
-3.432306647300720215e-02
-2.438405156135559082e-01
-2.126009389758110046e-02
5.218037217855453491e-02
1.697798669338226318e-01
-1.280250549316406250e-01
-8.256164938211441040e-02
3.282698616385459900e-02
1.800292432308197021e-01
-1.868183910846710205e-02
6.452993303537368774e-02
8.276343345642089844e-02
-2.252336293458938599e-01
5.105828493833541870e-02
2.007253617048263550e-01
-1.222975850105285645e-01
-5.769262835383415222e-02
8.440510183572769165e-02
8.569657802581787109e-04
6.101277470588684082e-02
4.859027266502380371e-02
-1.914857886731624603e-02
6.048094015568494797e-03
-1.394153200089931488e-02
6.312882900238037109e-02
2.242658585309982300e-01
-6.825839169323444366e-03
-2.535379230976104736e-01
1.161796152591705322e-01
2.356873154640197754e-01
7.105097174644470215e-02
-1.313969194889068604e-01
-8.351905271410942078e-03
-3.545410037040710449e-01
-3.294785507023334503e-03
9.585405886173248291e-02
2.545100264251232147e-02
-4.064145684242248535e-01
-8.528677374124526978e-02
-9.056274592876434326e-02
-3.159707784652709961e-02
3.182025253772735596e-02
2.116429656744003296e-01
1.232319995760917664e-01
6.678520143032073975e-02
-2.233205549418926239e-02
-1.514340341091156006e-01
-1.373805552721023560e-01
3.447956219315528870e-02
-1.745190620422363281e-01
3.305999189615249634e-02
1.497154682874679565e-01
-1.547381430864334106e-01
-1.585142500698566437e-02
5.189055949449539185e-02
7.601989898830652237e-03
4.506748914718627930e-02
2.802869537845253944e-03
7.268942892551422119e-02
2.452694065868854523e-02
5.649765580892562866e-02
-8.560971915721893311e-02
1.867972016334533691e-01
-5.083017982542514801e-03
1.027683094143867493e-01
-2.435928136110305786e-01
1.252917051315307617e-01
-1.625917735509574413e-03
5.167350545525550842e-02
2.792314335238188505e-04
-1.989952325820922852e-01
2.885840237140655518e-01
1.381942778825759888e-01
9.893459826707839966e-02
-2.790108621120452881e-01
-3.282367438077926636e-02
9.357940405607223511e-02
1.722272038459777832e-01
-7.007927168160676956e-03
-9.519925713539123535e-02
-1.723944582045078278e-02
-3.393000066280364990e-01
-7.161197811365127563e-02
3.475501835346221924e-01
3.596514090895652771e-02
-1.199933886528015137e-01
-1.713398098945617676e-01
-8.049080520868301392e-02
-2.802735567092895508e-01
-8.741463720798492432e-02
1.493735164403915405e-01
-1.365259476006031036e-02
1.219967529177665710e-01
-7.537698000669479370e-02
2.144791334867477417e-01
-1.849295049905776978e-01
5.586258694529533386e-02
-4.185854494571685791e-01
-1.823184266686439514e-02
5.025119334459304810e-02
9.177397936582565308e-02
-1.925982385873794556e-01
-5.559405684471130371e-02
5.295478180050849915e-02
-9.974754601716995239e-02
-1.219890415668487549e-01
1.603209674358367920e-01
1.703706979751586914e-01
-1.432888656854629517e-01
-5.648915097117424011e-02
7.466494292020797729e-02
-7.099062204360961914e-02
9.471984952688217163e-02
-1.392114609479904175e-01
-9.343588352203369141e-02
-1.425124406814575195e-01
3.448842465877532959e-02
4.109980911016464233e-02
-1.196077167987823486e-01
9.058132767677307129e-02
1.253797411918640137e-01
1.655789911746978760e-01
-3.113037534058094025e-02
1.239642351865768433e-01
6.785576045513153076e-02
3.692561388015747070e-01
-9.182215481996536255e-02
-1.605511158704757690e-01
-3.400322049856185913e-02
-1.703775227069854736e-01
-5.564473569393157959e-02
1.975324898958206177e-01
-9.640233963727951050e-02
-1.928323954343795776e-01
-1.638845056295394897e-01
-1.709077972918748856e-03
-3.755853176116943359e-01
-3.311720490455627441e-02
1.811643689870834351e-01
9.775131195783615112e-02
2.569977939128875732e-01
3.465439658612012863e-03
-3.177111223340034485e-02
6.485240161418914795e-02
-4.678996279835700989e-02
-8.597169816493988037e-02
1.940649934113025665e-02
-1.069518178701400757e-01
-1.466865092515945435e-01
-2.090555429458618164e-02
-7.869072258472442627e-02
-4.578284919261932373e-03
-9.172972291707992554e-02
-3.286056220531463623e-02
1.431445479393005371e-01
4.822602123022079468e-02
1.426037847995758057e-01
2.120114713907241821e-01
5.590655654668807983e-02
-2.179117798805236816e-01
7.648130506277084351e-02
-1.257994621992111206e-01
5.451351031661033630e-02
-8.942823112010955811e-02
-1.840549558401107788e-01
-4.853447899222373962e-02
-2.673703134059906006e-01
2.862578034400939941e-01
9.485425800085067749e-02
8.875518292188644409e-02
-2.768754661083221436e-01
2.891702204942703247e-02
-1.037098616361618042e-01
2.513212859630584717e-01
-1.018467918038368225e-01
5.802518501877784729e-02
-6.871829926967620850e-02
-1.422880887985229492e-01
2.341740131378173828e-01
2.068531699478626251e-02
1.684034988284111023e-02
1.297449171543121338e-01
-1.575160175561904907e-01
-8.709774352610111237e-03
-1.565785109996795654e-01
-2.572696208953857422e-01
7.283873111009597778e-02
-1.945153176784515381e-01
-1.673526945523917675e-03
2.888356149196624756e-01
-7.525122724473476410e-03
-2.601205706596374512e-01
-2.126573771238327026e-02
-2.133365571498870850e-01
-1.619926095008850098e-01
4.609338939189910889e-01
-1.057356074452400208e-01
-2.890996634960174561e-01
-2.728827595710754395e-01
-2.401724644005298615e-02
-2.058515548706054688e-01
-9.164123982191085815e-02
-5.430081114172935486e-02
-5.241407081484794617e-02
1.951240897178649902e-01
-1.668794080615043640e-02
-1.245567761361598969e-02
-1.468790918588638306e-01
1.185321658849716187e-01
-1.709178537130355835e-01
1.468151994049549103e-02
7.510511577129364014e-02
-7.355900853872299194e-02
-1.960933208465576172e-01
-3.478365540504455566e-01
-2.661773760337382555e-04
-1.026319637894630432e-01
9.231154620647430420e-02
9.939363598823547363e-02
-4.037022218108177185e-02
3.886952623724937439e-02
2.225511819124221802e-01
-1.346616744995117188e-01
6.156675890088081360e-02
-1.621095836162567139e-01
-1.774774678051471710e-02
2.594864666461944580e-01
-1.674441099166870117e-01
-1.930223964154720306e-02
1.385806947946548462e-01
-2.696622312068939209e-01
-9.321615099906921387e-02
-1.978880614042282104e-01
-1.260436177253723145e-01
-2.535805292427539825e-02
-8.957842737436294556e-02
-6.144111976027488708e-02
1.153833270072937012e-01
1.447661519050598145e-01
-8.004258573055267334e-02
-2.771048992872238159e-02
-7.790359109640121460e-02
1.894145905971527100e-01
-8.669938147068023682e-02
-8.631422370672225952e-02
-8.816351741552352905e-02
-1.439398676156997681e-01
8.462144434452056885e-02
-3.481628000736236572e-02
-6.606908142566680908e-02
-5.513973534107208252e-03
1.040678545832633972e-01
1.129297390580177307e-01
1.934675723314285278e-01
5.159491673111915588e-02
-1.694685816764831543e-01
-1.272426992654800415e-01
2.853853814303874969e-02
-8.049526065587997437e-02
5.039887968450784683e-03
-2.914632558822631836e-01
9.188678860664367676e-02
6.055976077914237976e-02
2.360710874199867249e-02
3.122991025447845459e-01
1.275396645069122314e-01
-3.071129620075225830e-01
1.306104958057403564e-01
-2.447019964456558228e-01
1.370144188404083252e-01
4.289752990007400513e-02
1.703177392482757568e-01
-2.044449448585510254e-01
-1.122367605566978455e-01
2.614092528820037842e-01
-2.377104163169860840e-01
1.745997965335845947e-01
1.505500674247741699e-01
-1.196752861142158508e-01
-9.728752821683883667e-02
-3.586865961551666260e-02
-9.664658457040786743e-02
-1.113371625542640686e-01
2.116183005273342133e-02
-4.501326754689216614e-02
2.835573852062225342e-01
-2.563852071762084961e-01
-1.412987858057022095e-01
-1.783064603805541992e-01
-2.792911231517791748e-02
1.832518726587295532e-01
1.683817654848098755e-01
-7.072971761226654053e-02
2.731408774852752686e-01
-2.545989453792572021e-01
-1.194243803620338440e-01
-9.480285644531250000e-02
-1.166043952107429504e-01
-1.408803910017013550e-01
-1.433219164609909058e-01
-6.251673679798841476e-03
1.230952516198158264e-01
1.271100621670484543e-02
-1.026552543044090271e-01
1.032579457387328148e-04
-4.927774518728256226e-02
6.043327599763870239e-02
2.893533110618591309e-01
-2.495638281106948853e-01
4.037980362772941589e-02
-2.257639765739440918e-01
1.187684684991836548e-01
8.185561746358871460e-02
-8.382322639226913452e-02
-9.412270784378051758e-02
2.185235265642404556e-03
-1.817916780710220337e-01
2.700573801994323730e-01
1.608570814132690430e-01
3.340590000152587891e-02
-1.771014183759689331e-01
3.574433922767639160e-02
3.504972457885742188e-01
-1.842183619737625122e-01
9.454493224620819092e-02
8.915065228939056396e-02
6.471379846334457397e-02
-5.165474489331245422e-03
2.003961503505706787e-01
-1.540559083223342896e-01
-2.609966695308685303e-01
1.348285935819149017e-03
-2.016285657882690430e-01
