-1.463364511728286743e-01
-5.002086609601974487e-02
-5.328938364982604980e-02
-5.945522338151931763e-03
-6.842400133609771729e-02
1.704920977354049683e-01
-2.684483863413333893e-02
1.325314790010452271e-01
-1.830187886953353882e-01
2.240816354751586914e-01
8.976858109235763550e-02
-1.064131185412406921e-01
1.801314055919647217e-01
-1.068081110715866089e-01
1.735238544642925262e-02
9.076800197362899780e-02
-2.018760293722152710e-01
5.750752985477447510e-02
-2.483568154275417328e-02
-1.601829975843429565e-01
-2.812340669333934784e-02
1.408582776784896851e-01
-1.855681985616683960e-01
6.669850088655948639e-03
-1.917028985917568207e-02
2.185955345630645752e-01
2.422736957669258118e-02
5.415965244174003601e-02
2.085801959037780762e-01
-2.805557250976562500e-01
3.559393435716629028e-02
3.075923919677734375e-01
1.539009809494018555e-01
6.061366293579339981e-03
2.572908103466033936e-01
5.243454873561859131e-02
-1.224400475621223450e-01
-1.344273835420608521e-01
-2.686988413333892822e-01
-2.667897567152976990e-02
-6.274518370628356934e-02
-1.470707207918167114e-01
-1.114374101161956787e-01
-7.140444219112396240e-02
5.788858979940414429e-03
1.725277006626129150e-01
6.793288141489028931e-02
-1.291043758392333984e-01
-1.424267441034317017e-01
1.640036702156066895e-01
4.774969443678855896e-02
1.718682199716567993e-01
-5.641073361039161682e-02
-2.042986899614334106e-01
1.352738887071609497e-01
-1.378118246793746948e-01
1.176324486732482910e-01
2.058969140052795410e-01
-8.223819732666015625e-02
5.855611059814691544e-03
4.436231404542922974e-02
1.399719864130020142e-01
1.325196586549282074e-02
-1.866682022809982300e-01
-2.327575813978910446e-03
-8.034885674715042114e-02
4.463992640376091003e-02
1.157692298293113708e-01
-1.649210974574089050e-02
-1.023476272821426392e-01
-3.929921891540288925e-03
2.430719509720802307e-02
-3.965035825967788696e-02
1.346617043018341064e-01
-6.391741335391998291e-02
-1.307386010885238647e-01
2.108768820762634277e-01
-1.687168180942535400e-01
1.648414433002471924e-01
-1.720184087753295898e-01
-3.412048891186714172e-02
-2.324303686618804932e-01
7.578677497804164886e-03
9.743247181177139282e-02
-6.752639077603816986e-03
5.251790955662727356e-02
1.609265059232711792e-01
-1.832450553774833679e-02
9.499591588973999023e-02
-3.604089841246604919e-03
-1.723061315715312958e-02
-2.249813377857208252e-01
1.945700645446777344e-01
-1.847108267247676849e-02
2.000642754137516022e-02
3.693318367004394531e-01
-1.014203205704689026e-01
-1.648227572441101074e-01
-2.032070308923721313e-01
8.354201167821884155e-02
-8.493947982788085938e-02
1.107479929924011230e-01
2.361292392015457153e-01
2.330636680126190186e-01
1.807266771793365479e-01
3.418818116188049316e-02
2.786432802677154541e-01
-1.276741772890090942e-01
2.187494188547134399e-02
-1.905738413333892822e-01
-1.113430187106132507e-01
-4.965480417013168335e-02
-2.516433596611022949e-01
1.655265390872955322e-01
-9.146885573863983154e-02
-3.658089786767959595e-02
-1.869609113782644272e-03
-1.618278175592422485e-01
-4.035228863358497620e-02
-1.959263384342193604e-01
-8.063466288149356842e-03
7.724639773368835449e-02
-1.177397221326828003e-01
8.618991822004318237e-02
9.456936269998550415e-03
-4.894098732620477676e-03
3.180381953716278076e-01
-2.615482360124588013e-02
3.359771370887756348e-01
-1.460083127021789551e-01
2.978262957185506821e-03
1.913380622863769531e-01
8.180036395788192749e-02
1.056775823235511780e-01
-3.500000536441802979e-01
-3.568043410778045654e-01
-2.879839241504669189e-01
6.474190950393676758e-02
-7.819569110870361328e-02
2.665736377239227295e-01
6.282176077365875244e-02
-3.373693302273750305e-02
-5.434910953044891357e-02
2.492445521056652069e-02
-1.057147383689880371e-01
-8.871374279260635376e-02
-3.459949195384979248e-01
3.859651684761047363e-01
2.908663749694824219e-01
-8.800385892391204834e-02
1.689791977405548096e-01
-1.127110496163368225e-01
-2.596566267311573029e-02
-3.094605915248394012e-02
2.458892166614532471e-01
8.032489567995071411e-02
1.932630836963653564e-01
-2.490987442433834076e-02
1.620573699474334717e-01
-1.598839163780212402e-01
-1.512133479118347168e-01
1.542621254920959473e-01
-1.479192823171615601e-01
-1.026230677962303162e-01
2.035147100687026978e-01
-3.665808960795402527e-02
-1.495681405067443848e-01
-2.491199783980846405e-02
3.408149182796478271e-01
1.153470501303672791e-01
6.701732426881790161e-02
3.678522631525993347e-02
2.265867292881011963e-01
-4.699215292930603027e-02
1.828382909297943115e-01
-1.947439089417457581e-02
4.771730676293373108e-02
-4.043876752257347107e-02
-1.389739960432052612e-01
1.099282503128051758e-01
3.185032634064555168e-03
-5.908963084220886230e-02
-2.419083938002586365e-02
1.603263020515441895e-01
-6.087080016732215881e-02
-1.987863332033157349e-01
4.023913294076919556e-03
-9.836816787719726562e-02
2.703857235610485077e-02
1.549820303916931152e-01
7.784726470708847046e-02
1.218532249331474304e-01
1.389878094196319580e-01
1.556080579757690430e-01
-2.380748391151428223e-01
-5.249774828553199768e-02
1.820587813854217529e-01
-5.982714891433715820e-02
8.165838569402694702e-02
-8.764035999774932861e-02
-2.492712251842021942e-02
-4.078060016036033630e-02
1.055188626050949097e-01
1.759928911924362183e-01
-1.368059515953063965e-01
9.032591432332992554e-02
1.442460119724273682e-01
-1.221747025847434998e-01
-4.374012723565101624e-02
-6.984163075685501099e-02
-1.240360364317893982e-01
-3.506121784448623657e-02
4.035377129912376404e-02
-1.066555008292198181e-01
-9.083949774503707886e-02
8.467867970466613770e-02
-1.015108823776245117e-01
2.114444375038146973e-01
-1.477551013231277466e-01
-1.622348129749298096e-01
-8.550825715065002441e-02
-1.835536807775497437e-01
4.942357540130615234e-03
-2.590011060237884521e-02
2.169211953878402710e-01
-1.931394189596176147e-01
-2.493936866521835327e-01
4.174578934907913208e-02
-1.789733320474624634e-01
-5.645423009991645813e-02
-1.667461693286895752e-01
1.428759545087814331e-01
1.979985833168029785e-01
-2.950480207800865173e-02
-1.044060736894607544e-01
1.395262628793716431e-01
1.222974658012390137e-01
-2.264828979969024658e-01
3.017260432243347168e-01
2.536439895629882812e-01
1.239084303379058838e-01
-1.143387928605079651e-01
1.399022638797760010e-01
-7.950515300035476685e-02
2.066773474216461182e-01
3.505420386791229248e-01
-2.042550034821033478e-02
1.406165212392807007e-01
-2.755175530910491943e-01
1.483309082686901093e-02
-1.365828812122344971e-01
-1.544609069824218750e-01
-1.541116684675216675e-01
-8.439661003649234772e-03
-2.141472399234771729e-01
1.213331986218690872e-02
-2.503325790166854858e-02
2.803584747016429901e-02
-1.093709245324134827e-01
1.105354428291320801e-01
-3.773503750562667847e-02
7.353015826083719730e-05
1.352055817842483521e-01
-1.647776067256927490e-01
-1.097509264945983887e-02
-2.621250227093696594e-02
-9.654796682298183441e-03
2.844262868165969849e-02
1.272880434989929199e-01
1.718816906213760376e-01
-2.686873264610767365e-02
5.495195835828781128e-02
-6.419954448938369751e-02
1.498483307659626007e-02
7.037813309580087662e-03
-1.174380183219909668e-01
7.585032284259796143e-02
1.060713827610015869e-01
1.976814866065979004e-01
-2.244748026132583618e-01
9.267380088567733765e-02
-1.997440755367279053e-01
-6.142698973417282104e-02
2.075789719820022583e-01
-4.125421121716499329e-02
-7.483628392219543457e-02
5.512092262506484985e-02
4.560918733477592468e-02
9.980743378400802612e-02
-1.305691152811050415e-01
-7.119971513748168945e-02
1.929898560047149658e-01
2.307768464088439941e-01
-1.634018421173095703e-01
-1.598096340894699097e-01
6.580048799514770508e-02
-3.583732177503407001e-04
7.676639128476381302e-03
7.554444670677185059e-02
-9.571179002523422241e-02
-1.473849415779113770e-01
1.312805116176605225e-01
9.969948232173919678e-02
-8.019997924566268921e-02
2.036246210336685181e-01
1.889840066432952881e-01
1.721262633800506592e-01
-1.948133558034896851e-01
-1.154612228274345398e-01
1.160273328423500061e-01
1.492776907980442047e-02
-1.868342608213424683e-01
1.501855440437793732e-03
-3.002635575830936432e-02
-1.882583051919937134e-01
4.023021832108497620e-02
-3.038128465414047241e-02
6.604090332984924316e-02
2.616360485553741455e-01
1.010294705629348755e-01
1.135177735704928637e-04
-1.208499073982238770e-01
-1.766059398651123047e-01
1.886708736419677734e-01
1.148023679852485657e-01
2.252731621265411377e-01
4.728300869464874268e-02
-1.120408698916435242e-01
-2.811182104051113129e-02
1.169083267450332642e-01
1.821600049734115601e-01
-2.718728184700012207e-01
1.547138541936874390e-01
2.327848598361015320e-02
8.227895945310592651e-03
2.212868034839630127e-01
-3.344352543354034424e-01
-9.048071503639221191e-02
-7.613653689622879028e-02
1.054454594850540161e-01
5.755292996764183044e-02
2.250192761421203613e-01
2.496412023901939392e-02
7.979362457990646362e-02
1.986209452152252197e-01
-6.582371424883604050e-03
7.834840565919876099e-02
1.243086606264114380e-01
-2.778978049755096436e-01
1.136388853192329407e-01
-2.103106677532196045e-01
4.445098340511322021e-02
7.690294831991195679e-02
-2.811227738857269287e-01
2.222762852907180786e-01
1.009880304336547852e-01
-2.526505291461944580e-01
-1.502971500158309937e-01
1.503587793558835983e-02
1.663461029529571533e-01
1.261874288320541382e-01
-1.844459772109985352e-01
6.226864829659461975e-02
-1.808689832687377930e-01
3.500626981258392334e-02
-2.071833461523056030e-01
1.061185449361801147e-01
1.038477197289466858e-01
-2.884687781333923340e-01
-9.160473942756652832e-02
9.592055529356002808e-02
-1.251313984394073486e-01
-2.477972954511642456e-02
-2.314514815807342529e-01
1.447564810514450073e-01
-1.532800197601318359e-01
2.259396016597747803e-01
-4.558179527521133423e-03
2.004191130399703979e-01
-5.957920849323272705e-02
1.093727722764015198e-01
-1.463422924280166626e-01
2.715274132788181305e-02
5.561962258070707321e-03
-1.864120811223983765e-01
2.059864699840545654e-01
-1.261663287878036499e-01
5.488117039203643799e-02
-3.540100902318954468e-02
5.918490141630172729e-02
2.008298486471176147e-01
2.673720419406890869e-01
-2.694384157657623291e-01
5.529840290546417236e-02
8.768068253993988037e-02
3.369257319718599319e-03
1.242478862404823303e-01
6.054605916142463684e-02
6.553165731020271778e-04
1.580636501312255859e-01
6.925703585147857666e-02
1.098278090357780457e-01
6.366106122732162476e-02
3.728042356669902802e-03
-2.430758774280548096e-01
1.911751180887222290e-01
6.734154373407363892e-02
-4.319285154342651367e-01
-1.402560714632272720e-02
-2.362901531159877777e-02
-1.636687815189361572e-01
4.081012308597564697e-02
-3.092319145798683167e-02
-1.452574133872985840e-01
-4.182385280728340149e-02
-1.735183745622634888e-01
2.975043356418609619e-01
-8.071541041135787964e-02
-1.709086745977401733e-01
-8.214167505502700806e-02
4.104253649711608887e-02
-8.615564554929733276e-02
-1.832534819841384888e-01
-2.314458191394805908e-01
-1.913612037897109985e-01
-1.025256216526031494e-01
1.575144082307815552e-01
-9.978428483009338379e-02
-4.113236814737319946e-02
2.150662839412689209e-01
1.512077003717422485e-01
1.519828736782073975e-01
2.224252223968505859e-01
-1.334866583347320557e-01
1.887661218643188477e-01
9.315694123506546021e-02
-5.374696478247642517e-02
2.967599965631961823e-02
3.044266402721405029e-01
-2.391778826713562012e-01
-6.236637383699417114e-02
1.999530494213104248e-01
1.630540341138839722e-01
-2.505217678844928741e-02
-1.926765441894531250e-01
6.256437860429286957e-03
8.949125558137893677e-02
-1.677048504352569580e-01
-1.755949109792709351e-01
-1.598595175892114639e-03
1.209422349929809570e-01
1.682499498128890991e-01
2.308390289545059204e-01
-1.797075271606445312e-01
3.483431935310363770e-01
1.260290890932083130e-01
-3.668116033077239990e-02
-2.564472556114196777e-01
2.249254845082759857e-02
-2.611253969371318817e-02
-1.007761061191558838e-01
5.320149473845958710e-03
-3.911731392145156860e-02
-1.237704679369926453e-01
4.857555031776428223e-02
-1.634777784347534180e-01
-1.850446611642837524e-01
-7.269739173352718353e-03
-1.754971146583557129e-01
-1.305043399333953857e-01
2.739462554454803467e-01
-3.491145791485905647e-03
1.016870290040969849e-01
-1.779620200395584106e-01
8.319233357906341553e-02
1.220364347100257874e-01
1.671816557645797729e-01
-2.794251218438148499e-02
1.648097634315490723e-01
7.214316725730895996e-02
-3.922691941261291504e-01
-2.929941192269325256e-02
2.007083743810653687e-01
-4.402715340256690979e-02
-1.444655358791351318e-01
-2.720053121447563171e-02
1.630639880895614624e-01
1.232530325651168823e-01
2.275619506835937500e-01
1.114058718085289001e-01
8.489795774221420288e-02
3.153436481952667236e-01
3.590546548366546631e-02
-1.605758816003799438e-01
-1.746260076761245728e-01
-3.299164772033691406e-01
2.551861107349395752e-01
-1.820814795792102814e-02
1.173336803913116455e-01
-2.960179150104522705e-01
-1.342857349663972855e-02
1.490172743797302246e-01
-9.927699714899063110e-02
1.302170753479003906e-01
-9.726035594940185547e-02
-5.220509320497512817e-02
-1.797426044940948486e-01
7.904829829931259155e-02
4.251106455922126770e-02
-1.018166169524192810e-02
-1.106718991650268435e-04
7.143728435039520264e-02
3.206289838999509811e-03
-2.720626257359981537e-02
-1.435522139072418213e-01
-5.929028615355491638e-03
-1.182086113840341568e-02
1.117525920271873474e-01
7.371174544095993042e-02
-1.203753948211669922e-01
1.273091882467269897e-01
1.327529698610305786e-01
1.140642762184143066e-01
8.795093744993209839e-02
6.990002468228340149e-03
-1.386253833770751953e-01
-4.664768278598785400e-02
1.774171441793441772e-01
-2.204006165266036987e-01
1.229491084814071655e-01
-1.644696295261383057e-01
-1.503294557332992554e-01
2.611350640654563904e-02
-2.104788720607757568e-01
1.343071162700653076e-01
9.084361791610717773e-02
-1.167344450950622559e-01
-5.134901776909828186e-02
9.019343182444572449e-03
-4.682721942663192749e-02
-1.517624258995056152e-01
2.632093429565429688e-02
-7.479646056890487671e-02
1.351335048675537109e-01
1.084154173731803894e-01
6.421179324388504028e-02
1.158425584435462952e-01
-5.532129481434822083e-02
1.947292983531951904e-01
8.917237073183059692e-02
-1.072557047009468079e-01
-2.413298189640045166e-01
-1.372795104980468750e-01
1.930193006992340088e-01
7.915947586297988892e-02
-7.026814669370651245e-02
-4.193210229277610779e-02
2.213775366544723511e-01
-1.461191624402999878e-01
-5.677096545696258545e-03
-8.440810441970825195e-02
1.712773144245147705e-01
1.843857318162918091e-01
-1.118042320013046265e-01
2.074529528617858887e-01
1.757038682699203491e-01
-2.242125570774078369e-01
1.877756714820861816e-01
1.103613078594207764e-01
1.233305260539054871e-01
-3.796053677797317505e-02
-5.751932784914970398e-02
-2.245777696371078491e-01
-1.058923676609992981e-01
1.382939070463180542e-01
-1.258076429367065430e-01
-1.093560233712196350e-01
-1.816248595714569092e-01
2.290074974298477173e-01
-2.245625853538513184e-02
8.675626665353775024e-02
-1.435406506061553955e-01
2.417982071638107300e-01
-6.175475195050239563e-02
2.001854628324508667e-01
1.642009019851684570e-01
1.280085444450378418e-01
5.692485719919204712e-02
-1.770551055669784546e-01
9.726203978061676025e-02
1.168215498328208923e-01
5.908688157796859741e-02
-3.990967869758605957e-01
-5.517424643039703369e-02
-1.043481081724166870e-01
-1.650601029396057129e-01
1.555237174034118652e-01
-9.226258844137191772e-02
2.201840877532958984e-01
-6.699407845735549927e-02
3.166252374649047852e-01
1.175121515989303589e-01
1.923616044223308563e-03
2.057369798421859741e-01
3.034631609916687012e-01
-7.558416575193405151e-02
-2.659710943698883057e-01
-4.206397011876106262e-02
1.190031245350837708e-01
-3.329962790012359619e-01
-2.191073298454284668e-01
1.411310136318206787e-01
2.567686438560485840e-01
-3.102787137031555176e-01
1.596346050500869751e-01
-8.768538385629653931e-02
2.798670530319213867e-02
-1.191740408539772034e-01
4.088193178176879883e-02
1.515210419893264771e-01
-3.263406157493591309e-01
3.535493463277816772e-02
4.498795047402381897e-02
-1.747763007879257202e-01
2.465411871671676636e-01
-3.496342301368713379e-01
-3.519506752490997314e-01
9.879589825868606567e-02
1.628867685794830322e-01
-2.034163326025009155e-01
-3.313036561012268066e-01
1.775771379470825195e-01
-8.187393099069595337e-02
-3.835611045360565186e-01
-1.430225819349288940e-01
-1.444541513919830322e-01
-9.823714196681976318e-02
-2.236327975988388062e-01
-1.461646854877471924e-01
1.872775405645370483e-01
-2.283659949898719788e-02
3.155204355716705322e-01
-1.226884126663208008e-01
-1.912069320678710938e-02
-7.756938040256500244e-02
-2.045839093625545502e-02
1.755942255258560181e-01
-1.218974217772483826e-01
-2.473530471324920654e-01
-8.337801694869995117e-02
2.404133975505828857e-02
-1.997162848711013794e-01
-3.522547706961631775e-02
-1.205588057637214661e-01
1.645141690969467163e-01
6.297534564509987831e-04
-1.364700645208358765e-01
2.784800827503204346e-01
-3.293802738189697266e-01
-6.231222301721572876e-02
-1.132827252149581909e-01
2.946891263127326965e-02
4.415898025035858154e-02
-1.654703915119171143e-01
2.587960567325353622e-03
-6.898117810487747192e-02
1.463826000690460205e-02
-1.079035997390747070e-01
3.596809133887290955e-02
-5.255347862839698792e-02
1.032235622406005859e-01
3.173398673534393311e-01
-6.375668197870254517e-02
5.847813561558723450e-02
1.090578138828277588e-01
5.270233377814292908e-02
1.288865059614181519e-01
2.099388837814331055e-01
1.162997484207153320e-01
-1.205654591321945190e-01
1.525160968303680420e-01
3.884316235780715942e-02
1.388025842607021332e-02
5.843752250075340271e-02
2.659481465816497803e-01
-1.588640362024307251e-01
-1.335784196853637695e-01
2.214251272380352020e-02
-2.791410386562347412e-01
-2.246041037142276764e-02
-2.096978873014450073e-01
1.345186084508895874e-01
-3.353433310985565186e-02
3.909273073077201843e-02
1.569658815860748291e-01
3.772055730223655701e-02
-6.949931383132934570e-02
2.096627354621887207e-01
4.791209008544683456e-03
-1.429211199283599854e-01
-1.134875640273094177e-01
-4.271722584962844849e-02
-1.099450662732124329e-01
-1.214281097054481506e-01
1.689367443323135376e-01
1.021788790822029114e-01
-1.427563726902008057e-01
3.698037862777709961e-01
1.000024005770683289e-01
-5.828107520937919617e-02
8.120206743478775024e-02
2.142331898212432861e-01
6.278073042631149292e-02
-1.912071928381919861e-02
-4.648122563958168030e-02
-2.026113215833902359e-03
-1.858303397893905640e-01
9.006186574697494507e-02
-2.358008548617362976e-02
1.245432794094085693e-01
-4.649739246815443039e-03
-1.050322428345680237e-01
-1.439743489027023315e-01
2.546996064484119415e-02
-2.373359799385070801e-01
-5.669951066374778748e-02
3.208680450916290283e-02
-3.221296146512031555e-02
-7.290562242269515991e-02
4.117755219340324402e-02
-1.119594126939773560e-01
-1.144217848777770996e-01
-6.844034790992736816e-02
-1.774710118770599365e-01
1.405221670866012573e-01
-1.997759789228439331e-01
-1.859333813190460205e-01
-1.841400712728500366e-01
1.070685237646102905e-01
-3.182981163263320923e-02
1.351652592420578003e-01
-1.475937664508819580e-01
-3.954074159264564514e-02
2.862567082047462463e-02
5.053048208355903625e-02
3.261949867010116577e-02
-2.616368830204010010e-01
7.339985668659210205e-02
7.942592352628707886e-02
1.173377707600593567e-01
-1.907136291265487671e-01
-3.335637971758842468e-02
-6.262226402759552002e-02
4.760895669460296631e-02
4.027026891708374023e-02
1.642180830240249634e-01
1.598686277866363525e-01
7.457483559846878052e-02
-4.985484853386878967e-02
8.266799896955490112e-02
2.120189964771270752e-01
-2.011739313602447510e-01
-1.604451239109039307e-01
1.244098320603370667e-01
-5.696444958448410034e-02
3.933716565370559692e-03
-5.114530771970748901e-02
-1.319701224565505981e-01
1.554317921400070190e-01
4.011444002389907837e-02
2.007932662963867188e-01
-1.680599451065063477e-01
1.675727069377899170e-01
1.041755676269531250e-01
-2.994378209114074707e-01
-2.035168856382369995e-01
2.907082140445709229e-01
7.048163563013076782e-02
-7.914055138826370239e-02
2.345825135707855225e-01
-1.873726248741149902e-01
-1.269736140966415405e-01
-1.002073511481285095e-01
6.169925909489393234e-03
1.469598058611154556e-02
-2.545900344848632812e-01
2.068983763456344604e-01
-3.404181450605392456e-02
-4.872009158134460449e-02
1.611896604299545288e-02
-1.729800552129745483e-01
3.801879659295082092e-02
-2.602794766426086426e-01
2.105167508125305176e-01
-1.163974180817604065e-01
1.401289552450180054e-01
-7.440119236707687378e-02
-1.419778168201446533e-02
-1.848230212926864624e-01
1.960531771183013916e-01
-2.017768174409866333e-01
-3.256668150424957275e-02
1.863159835338592529e-01
5.870968103408813477e-03
-1.273589134216308594e-01
2.763381302356719971e-01
6.466720998287200928e-02
8.369455486536026001e-02
-8.719590306282043457e-02
7.172989100217819214e-02
4.035532101988792419e-02
-2.842729985713958740e-01
-6.275213509798049927e-02
-2.709856443107128143e-02
-2.293188869953155518e-01
-8.661041408777236938e-02
1.347196549177169800e-01
1.660648584365844727e-01
-3.050169646739959717e-01
5.739760771393775940e-02
-1.526448875665664673e-01
1.625184118747711182e-01
4.727295041084289551e-02
9.018890559673309326e-02
-4.116365220397710800e-03
2.923413924872875214e-02
2.017494887113571167e-01
1.094806417822837830e-01
3.593248128890991211e-02
8.498311787843704224e-02
2.091769427061080933e-01
2.896797060966491699e-01
1.579651795327663422e-02
5.150031298398971558e-02
1.968179345130920410e-01
-7.128538936376571655e-02
-2.266875803470611572e-01
1.647314876317977905e-01
-1.617457866668701172e-01
6.906582973897457123e-03
2.890880703926086426e-01
-9.577167779207229614e-02
1.697138883173465729e-03
5.380462482571601868e-02
2.297131419181823730e-01
-1.113208159804344177e-01
-5.032127723097801208e-03
-9.824679791927337646e-02
-3.387927543371915817e-03
-1.083019897341728210e-01
9.868875145912170410e-02
1.767738610506057739e-01
-6.105612963438034058e-02
-6.137328967452049255e-02
6.905914098024368286e-02
-1.541176140308380127e-01
6.605557352304458618e-02
2.020870596170425415e-01
6.121453829109668732e-03
5.602888762950897217e-02
2.821627855300903320e-01
-8.063291758298873901e-02
8.427401632070541382e-02
-2.212424278259277344e-01
-6.146467104554176331e-02
-4.428400844335556030e-02
-1.118906438350677490e-01
1.147969961166381836e-01
3.954593837261199951e-02
1.672890968620777130e-02
-2.391133308410644531e-01
-1.603702902793884277e-01
2.390919327735900879e-01
1.156733185052871704e-01
-1.722265928983688354e-01
1.516336649656295776e-01
1.269704401493072510e-01
1.182851567864418030e-02
2.033177018165588379e-01
-3.262748569250106812e-02
-1.710360348224639893e-01
6.158332154154777527e-02
-1.411998867988586426e-01
-1.214920058846473694e-01
-5.495158489793539047e-03
7.148189842700958252e-02
1.291819810867309570e-01
3.642957210540771484e-01
-7.992642372846603394e-02
-8.999315649271011353e-02
1.931208819150924683e-01
-2.473322302103042603e-01
-2.663124203681945801e-01
1.573079377412796021e-01
-4.990338161587715149e-02
1.572314500808715820e-01
-4.025850072503089905e-02
-6.075907498598098755e-02
-8.386200666427612305e-02
-1.361741572618484497e-01
-6.438545882701873779e-02
7.046153396368026733e-02
1.277818679809570312e-01
1.082335785031318665e-01
1.180617064237594604e-01
-1.598240882158279419e-01
-1.088765338063240051e-01
1.426459103822708130e-01
2.427373826503753662e-01
-7.377047836780548096e-02
-1.192413568496704102e-01
-8.068466186523437500e-02
2.159834839403629303e-02
7.738723605871200562e-02
1.716751903295516968e-01
9.996618144214153290e-03
-5.990386381745338440e-02
-1.219849288463592529e-01
-1.805649548768997192e-01
9.582365304231643677e-02
-2.819755300879478455e-02
1.166359335184097290e-01
9.162228554487228394e-02
3.751498833298683167e-02
4.686045274138450623e-02
1.323489099740982056e-01
3.497284948825836182e-01
3.360077440738677979e-01
-1.695636659860610962e-01
9.305940568447113037e-02
-9.668646752834320068e-02
-1.297390609979629517e-01
1.202344745397567749e-01
-1.606453061103820801e-01
8.332367986440658569e-02
7.205917686223983765e-02
5.523292347788810730e-02
1.217182073742151260e-02
1.461800783872604370e-01
-1.272681802511215210e-01
-1.169271618127822876e-01
5.193547531962394714e-02
5.517879873514175415e-02
1.833494603633880615e-01
3.164438903331756592e-01
2.228307127952575684e-01
-4.620419070124626160e-02
9.842573106288909912e-02
2.365757897496223450e-02
-3.393595293164253235e-02
-3.706036508083343506e-02
1.048218905925750732e-01
-3.146677613258361816e-01
6.094645336270332336e-02
-2.341352403163909912e-02
-5.918846651911735535e-02
-3.684067726135253906e-02
1.378640234470367432e-01
-2.735397219657897949e-02
1.362499548122286797e-03
-1.111389771103858948e-01
-1.352406851947307587e-02
-1.390217710286378860e-02
-5.174934864044189453e-02
1.878010481595993042e-01
1.877514831721782684e-02
4.438969492912292480e-02
1.775853186845779419e-01
2.007703781127929688e-01
5.641039460897445679e-02
-2.594536542892456055e-01
-4.463929310441017151e-02
-1.451063156127929688e-01
-8.804856240749359131e-02
-2.132832854986190796e-01
-3.064549528062343597e-02
-6.913960725069046021e-02
2.066264487802982330e-02
-2.944013476371765137e-01
7.027110457420349121e-02
-2.119861990213394165e-01
-3.134817257523536682e-02
9.743807464838027954e-02
-2.130789011716842651e-01
-1.278270967304706573e-02
-1.782910823822021484e-01
-2.269061356782913208e-01
1.912036091089248657e-01
5.230078846216201782e-02
2.417820505797863007e-02
-9.005282819271087646e-02
-1.146085560321807861e-01
-5.514661967754364014e-02
-3.723795339465141296e-02
-2.082422561943531036e-02
1.110397428274154663e-01
-2.093766331672668457e-01
1.654077321290969849e-02
3.368879854679107666e-01
-1.626678258180618286e-01
-2.266143113374710083e-01
-4.683363810181617737e-02
1.018223166465759277e-01
1.473411023616790771e-01
-1.959493309259414673e-01
8.981677144765853882e-02
-2.928635478019714355e-02
5.610009282827377319e-02
7.208344340324401855e-02
-1.523625552654266357e-01
-8.524784445762634277e-02
3.174110129475593567e-02
1.319386959075927734e-01
-1.406968981027603149e-01
-4.507872089743614197e-02
1.379367262125015259e-01
-5.195796862244606018e-02
1.785266846418380737e-01
-5.823249462991952896e-03
-5.580524355173110962e-02
-2.964166998863220215e-01
2.802420035004615784e-02
9.095869213342666626e-02
-2.620778046548366547e-03
1.932157725095748901e-01
-3.787983208894729614e-02
3.119579553604125977e-01
1.211918368935585022e-01
4.384303465485572815e-02
-1.402373015880584717e-01
-1.479690074920654297e-01
-4.666969552636146545e-02
-1.500752419233322144e-01
-9.171885997056961060e-02
-1.204236894845962524e-01
-1.577312825247645378e-03
1.090170070528984070e-01
-5.865819752216339111e-02
7.550887018442153931e-02
-1.299553066492080688e-01
-1.748008280992507935e-01
-1.328607052564620972e-01
-2.119167447090148926e-01
-2.267971038818359375e-01
-2.106400579214096069e-01
5.679925531148910522e-02
1.129372641444206238e-01
-1.701810508966445923e-01
-2.277431637048721313e-01
9.538444131612777710e-02
1.738902330398559570e-01
-5.173749849200248718e-02
-4.848485812544822693e-02
-1.532028801739215851e-02
-7.349718362092971802e-03
1.549356281757354736e-01
-5.007529631257057190e-02
-9.262114763259887695e-02
2.185790985822677612e-02
2.059243619441986084e-01
1.502995146438479424e-03
1.521983146667480469e-01
2.927818335592746735e-02
8.458147943019866943e-02
-4.980394244194030762e-02
-8.361978083848953247e-02
9.741754829883575439e-02
2.405514866113662720e-01
-5.597374960780143738e-02
-1.104720160365104675e-01
-1.109241396188735962e-01
7.095975428819656372e-02
1.961750388145446777e-01
1.373205333948135376e-01
1.788448840379714966e-01
2.329381555318832397e-01
-7.978159934282302856e-02
1.825347840785980225e-01
3.449174389243125916e-02
-2.381955534219741821e-01
2.512869238853454590e-02
-2.729865014553070068e-01
-2.342985384166240692e-02
7.937456481158733368e-03
8.515154570341110229e-02
-1.072311326861381531e-01
-1.879835575819015503e-01
5.459745228290557861e-02
-1.109627112746238708e-01
-1.058650314807891846e-01
1.452371105551719666e-02
1.081674247980117798e-01
1.244331076741218567e-01
-5.274561699479818344e-03
-2.251857966184616089e-01
3.280748128890991211e-01
-8.262438699603080750e-03
-2.487187534570693970e-01
-1.060652919113636017e-02
2.902666926383972168e-01
-5.927141010761260986e-02
-6.351936608552932739e-02
-1.388377249240875244e-01
-4.986173287034034729e-02
-9.568902105093002319e-02
-1.497608721256256104e-01
-8.333290368318557739e-02
-3.071755170822143555e-01
2.487246096134185791e-01
-2.227758429944515228e-02
1.345781981945037842e-01
2.106598317623138428e-01
1.657595038414001465e-01
-3.781709372997283936e-01
9.307266026735305786e-02
-2.112640999257564545e-02
9.636244922876358032e-02
7.801192346960306168e-03
-8.317501842975616455e-02
2.331684082746505737e-01
3.557718917727470398e-02
2.001593708992004395e-01
-1.531431674957275391e-01
9.688146412372589111e-02
-2.832586467266082764e-01
-7.199095189571380615e-02
-1.997510641813278198e-01
-1.909333318471908569e-01
2.131993919610977173e-01
6.682267785072326660e-02
-4.889898002147674561e-02
-1.436705291271209717e-01
-4.803613573312759399e-02
-8.153837919235229492e-02
-1.095326542854309082e-01
-2.256229519844055176e-01
-1.184543594717979431e-02
7.819047570228576660e-02
3.910586237907409668e-02
-3.629111498594284058e-02
1.816827952861785889e-01
7.709591090679168701e-02
-1.939414441585540771e-01
-1.256430000066757202e-01
1.636485755443572998e-01
2.637854814529418945e-01
1.952982246875762939e-01
7.586281001567840576e-02
2.499741688370704651e-02
4.521732777357101440e-02
1.615638583898544312e-01
5.752419680356979370e-02
6.138043850660324097e-02
9.822594933211803436e-03
-3.082804381847381592e-01
1.383755654096603394e-01
2.695282995700836182e-01
2.378024756908416748e-01
-3.578872606158256531e-02
9.876484051346778870e-03
-3.139881193637847900e-01
3.134315013885498047e-01
-2.591145038604736328e-01
-1.636202782392501831e-01
-3.766057267785072327e-02
-7.469195127487182617e-02
-3.019232302904129028e-02
-2.184287458658218384e-01
-3.452668339014053345e-02
-3.668445944786071777e-01
1.030956134200096130e-01
-4.860562458634376526e-02
-9.372790157794952393e-02
-2.500523030757904053e-01
6.577669829130172729e-02
1.158142536878585815e-01
-6.223615631461143494e-02
2.184419184923171997e-01
-2.478331625461578369e-01
1.912389546632766724e-01
-6.031589582562446594e-02
4.404595494270324707e-02
-1.912245340645313263e-02
3.062499500811100006e-02
1.387415267527103424e-02
-4.956007748842239380e-02
1.517852842807769775e-01
-1.222613267600536346e-02
6.682226061820983887e-02
-2.562378048896789551e-01
-7.613953948020935059e-02
1.507741957902908325e-01
9.487069211900234222e-03
-1.005134433507919312e-01
-1.442458331584930420e-01
3.591968119144439697e-02
1.549373567104339600e-01
-4.207981228828430176e-01
-8.736242353916168213e-02
8.306268602609634399e-02
2.846970409154891968e-02
-5.924425274133682251e-02
9.673950821161270142e-02
6.250913441181182861e-02
5.510433763265609741e-02
-3.522567451000213623e-01
2.885786294937133789e-01
9.732538461685180664e-02
-1.700276881456375122e-01
-1.410088688135147095e-01
-1.442536860704421997e-01
-1.849710047245025635e-01
1.097591072320938110e-01
-5.042720213532447815e-02
-1.407064050436019897e-01
-2.405149638652801514e-01
-1.564102023839950562e-01
1.473895311355590820e-01
-3.150046765804290771e-01
4.465600103139877319e-02
-1.761967837810516357e-01
2.658395469188690186e-02
2.243003249168395996e-01
9.843191131949424744e-03
6.926864385604858398e-02
2.389217466115951538e-01
-1.840096712112426758e-01
-5.725901946425437927e-02
2.118148803710937500e-01
2.129833996295928955e-01
2.634550631046295166e-01
-7.585723698139190674e-02
2.379828691482543945e-01
2.920494973659515381e-01
-2.323998808860778809e-01
1.256573200225830078e-01
2.938806824386119843e-02
1.265148967504501343e-01
4.399149119853973389e-02
1.934521198272705078e-01
-1.456497013568878174e-01
4.772778600454330444e-03
-9.834754467010498047e-02
2.058399319648742676e-01
-9.410355985164642334e-02
2.396409958600997925e-01
-3.721658885478973389e-01
1.658295691013336182e-01
-1.063462230376899242e-03
2.956941910088062286e-02
-7.283664494752883911e-02
1.447845133952796459e-03
-9.835441410541534424e-02
1.399467289447784424e-01
6.604020297527313232e-02
1.075559481978416443e-01
-2.580055594444274902e-01
-3.563843965530395508e-01
4.976125061511993408e-02
2.353966608643531799e-02
-1.896583586931228638e-01
1.253446489572525024e-01
-3.154009208083152771e-02
-1.848019808530807495e-01
8.243007957935333252e-02
9.565815329551696777e-02
-6.075642257928848267e-02
1.243397071957588196e-01
-2.900310605764389038e-02
-1.410187929868698120e-01
2.110294252634048462e-01
1.419591903686523438e-01
3.193382173776626587e-02
-8.064866065979003906e-02
5.736417323350906372e-02
1.650684326887130737e-01
9.408997744321823120e-02
-7.619298994541168213e-03
4.104498773813247681e-03
1.713316887617111206e-01
1.208229921758174896e-02
-6.204453855752944946e-02
1.190643906593322754e-01
-3.248406350612640381e-01
-7.015580683946609497e-02
8.659305423498153687e-02
9.320488199591636658e-03
2.464617043733596802e-02
1.584875211119651794e-02
1.803761571645736694e-01
-5.491193383932113647e-02
-5.103584751486778259e-02
2.224454283714294434e-01
-4.349665716290473938e-02
-2.089162766933441162e-01
-4.936605691909790039e-02
2.977183088660240173e-02
-1.095899119973182678e-01
2.217696458101272583e-01
-2.787062227725982666e-01
-1.446253210306167603e-01
3.491729125380516052e-02
2.774299681186676025e-01
2.256720513105392456e-02
1.249279379844665527e-01
-3.846939280629158020e-02
1.169246435165405273e-01
1.121563613414764404e-01
1.309431046247482300e-01
1.718199104070663452e-01
2.306452244520187378e-01
-2.032874822616577148e-01
-8.208427578210830688e-02
-5.226255394518375397e-03
-7.304444909095764160e-02
-8.572552353143692017e-02
3.072620602324604988e-03
1.965766996145248413e-01
-3.534296993166208267e-03
7.369460165500640869e-02
5.115350335836410522e-02
7.980031520128250122e-02
3.783739171922206879e-03
1.120666265487670898e-01
-3.116223588585853577e-02
-3.944561630487442017e-02
-8.084139786660671234e-03
2.771697752177715302e-02
-9.992921352386474609e-02
-6.950298696756362915e-02
-1.192959472537040710e-01
-2.357470989227294922e-01
2.926075160503387451e-01
-2.018059939146041870e-01
1.375824958086013794e-01
-6.598848849534988403e-02
1.535912752151489258e-01
1.551517192274332047e-02
-1.847366094589233398e-01
2.478160262107849121e-01
-1.424287259578704834e-01
1.058544293045997620e-01
-3.278776109218597412e-01
-2.519731409847736359e-02
-1.597266942262649536e-01
-2.145245373249053955e-01
9.680498391389846802e-02
1.868743300437927246e-01
-2.865293920040130615e-01
3.571816161274909973e-02
3.785216249525547028e-03
-2.433407679200172424e-02
-1.328857243061065674e-01
1.113570481538772583e-01
7.935579121112823486e-02
-1.441746801137924194e-01
3.682513907551765442e-02
6.457176804542541504e-02
-7.828816771507263184e-02
-1.899775266647338867e-01
-1.560175605118274689e-02
1.859118938446044922e-01
-3.058002702891826630e-02
-6.510797888040542603e-02
-2.103190273046493530e-01
1.042429581284523010e-01
-2.223118543624877930e-01
3.096405863761901855e-01
-1.264238655567169189e-01
6.154422089457511902e-02
-9.047146886587142944e-02
6.847146153450012207e-02
1.745965480804443359e-01
6.532341241836547852e-02
-1.482161320745944977e-02
7.251348346471786499e-02
-2.067388892173767090e-01
1.611715257167816162e-01
-1.738017052412033081e-01
5.582074448466300964e-02
1.469513177871704102e-01
-8.046428114175796509e-02
2.700484171509742737e-02
1.386900991201400757e-01
1.327746063470840454e-01
-1.852868497371673584e-01
-1.368035078048706055e-01
6.394447758793830872e-03
-1.117755472660064697e-02
3.135334700345993042e-03
-8.381623029708862305e-02
-6.386531144380569458e-02
2.008242607116699219e-01
1.055771335959434509e-01
7.070217281579971313e-02
2.044480592012405396e-01
-1.764424443244934082e-01
7.182158529758453369e-02
-8.610191196203231812e-02
-6.251487880945205688e-02
-7.904209196567535400e-02
3.847279399633407593e-02
3.683955222368240356e-02
-1.451492905616760254e-01
1.916333734989166260e-01
-1.548833213746547699e-02
-1.866157799959182739e-01
-4.062157124280929565e-03
-7.985010743141174316e-02
-5.175343528389930725e-02
1.668717563152313232e-01
2.183140367269515991e-01
3.044353239238262177e-02
-1.129586249589920044e-01
1.977083683013916016e-01
-1.169233620166778564e-01
-2.763628661632537842e-01
-6.079881265759468079e-02
-1.763028353452682495e-01
2.564136087894439697e-01
-3.302766084671020508e-01
-1.967348009347915649e-01
-2.103773802518844604e-01
-1.149635240435600281e-01
9.695021435618400574e-03
1.969637162983417511e-02
-2.144663184881210327e-01
-1.306441724300384521e-01
-2.733690850436687469e-02
1.367600709199905396e-01
-7.448254525661468506e-02
-3.577008470892906189e-02
4.491876438260078430e-02
7.932202517986297607e-02
8.431509882211685181e-02
7.202991843223571777e-02
1.387524604797363281e-01
1.509304493665695190e-01
-1.067644506692886353e-01
-1.465478688478469849e-01
-3.604526221752166748e-01
-5.188882350921630859e-02
8.565269410610198975e-03
6.880178302526473999e-02
6.116540729999542236e-02
-3.568604290485382080e-01
3.745642676949501038e-02
1.441826075315475464e-01
-1.665506213903427124e-01
3.872481361031532288e-02
-3.547284007072448730e-02
2.417954355478286743e-01
1.579452008008956909e-01
-1.153078377246856689e-01
-2.010008990764617920e-01
2.309425547719001770e-02
1.897338330745697021e-01
-1.216723471879959106e-01
5.521329119801521301e-02
7.853978872299194336e-02
-2.198115885257720947e-01
-7.778380066156387329e-02
-4.094991832971572876e-03
-2.334187328815460205e-01
-1.606374084949493408e-01
-1.640727519989013672e-01
-6.744606792926788330e-02
-1.047683134675025940e-01
-3.107362613081932068e-02
-5.103724449872970581e-02
5.522448942065238953e-02
-6.442534923553466797e-02
-1.844680011272430420e-01
6.849578768014907837e-02
2.890799939632415771e-01
2.792145907878875732e-01
-2.536980509757995605e-01
-2.916477434337139130e-02
2.278895825147628784e-01
1.417552679777145386e-01
1.388908475637435913e-01
1.447966694831848145e-01
2.654436416923999786e-02
7.404625415802001953e-03
1.909663826227188110e-01
-1.047823205590248108e-01
1.060757562518119812e-01
7.322084903717041016e-02
-4.468767717480659485e-02
5.740075185894966125e-02
7.795286364853382111e-04
-2.647985145449638367e-02
1.038794219493865967e-01
2.492787241935729980e-01
2.632837891578674316e-01
1.053087860345840454e-01
-1.704228073358535767e-01
-2.071384042501449585e-01
-1.762430369853973389e-01
-3.080712854862213135e-01
-2.932148575782775879e-01
-1.574083119630813599e-01
-1.131198629736900330e-01
2.021430134773254395e-01
-1.780260205268859863e-01
-1.593703180551528931e-01
-4.958787187933921814e-02
-3.525689244270324707e-02
-2.889724448323249817e-02
6.278077512979507446e-02
5.257152393460273743e-02
1.045687217265367508e-02
-1.033190339803695679e-01
-7.310036569833755493e-02
-1.349288821220397949e-01
1.299440115690231323e-01
-7.048073410987854004e-02
2.144986093044281006e-01
-7.675500214099884033e-02
-1.274498254060745239e-01
-4.858739301562309265e-02
1.205307245254516602e-01
2.037501633167266846e-01
2.036599963903427124e-01
8.814401179552078247e-02
3.244550526142120361e-02
-3.706201910972595215e-02
-1.384682655334472656e-01
-1.649069190025329590e-01
-1.099295616149902344e-01
-7.958398759365081787e-02
1.082167476415634155e-01
-9.052165597677230835e-02
-5.881945416331291199e-02
-3.119973242282867432e-01
1.039065346121788025e-01
5.555351078510284424e-02
1.378783136606216431e-01
1.441017817705869675e-02
-9.068705141544342041e-02
6.582719832658767700e-02
2.995674684643745422e-02
2.338884323835372925e-01
-1.009963005781173706e-01
-1.359162665903568268e-02
1.705992668867111206e-01
4.401161894202232361e-02
6.360424216836690903e-03
6.043232977390289307e-02
-4.455928504467010498e-02
4.072524234652519226e-02
-3.173640370368957520e-02
-1.846323460340499878e-01
-1.503057181835174561e-01
-1.485196352005004883e-01
4.895048961043357849e-02
8.017382025718688965e-02
2.140778601169586182e-01
7.482144236564636230e-02
1.989071518182754517e-01
4.303223267197608948e-02
-1.175915673375129700e-01
3.151130676269531250e-02
1.094061695039272308e-02
-2.377763623371720314e-03
-2.769815623760223389e-01
1.890091747045516968e-01
1.088776588439941406e-01
1.221112981438636780e-01
1.313214749097824097e-01
-1.606171876192092896e-01
5.668569728732109070e-02
1.408490985631942749e-01
-1.125500574707984924e-01
1.291274875402450562e-01
-1.317724883556365967e-01
-8.585384488105773926e-02
3.445782512426376343e-02
2.926510572433471680e-02
1.293872892856597900e-01
9.015198051929473877e-02
-5.340121313929557800e-02
-1.111753005534410477e-02
5.156731605529785156e-02
-1.059948205947875977e-01
6.926427781581878662e-02
-2.171519994735717773e-01
-9.487029165029525757e-02
-1.929560601711273193e-01
2.583456039428710938e-01
-1.177609637379646301e-01
1.256832331418991089e-01
6.528168916702270508e-02
-1.067480444908142090e-02
-1.095652654767036438e-01
2.048192918300628662e-01
-9.507107734680175781e-02
-1.511602401733398438e-01
-1.398037075996398926e-01
8.769080787897109985e-02
1.521174311637878418e-01
-3.074873704463243484e-03
-1.060616374015808105e-01
2.976401746273040771e-01
3.983099479228258133e-03
2.027056924998760223e-02
6.304493639618158340e-03
1.201678812503814697e-01
-1.873290538787841797e-01
-1.751839518547058105e-01
-4.814185574650764465e-02
-2.283012121915817261e-01
-3.796026483178138733e-02
-1.177312955260276794e-01
2.784390561282634735e-02
1.782258972525596619e-02
2.182422205805778503e-02
-2.353494614362716675e-01
-9.460167586803436279e-02
-2.496364116668701172e-01
8.933709561824798584e-02
1.111859306693077087e-01
-1.110502630472183228e-01
2.782018668949604034e-02
6.505969166755676270e-02
-9.668312221765518188e-02
-1.134555563330650330e-01
-5.881822109222412109e-02
1.000834852457046509e-01
-1.329486370086669922e-01
9.470991790294647217e-02
-1.343865692615509033e-01
-2.571130692958831787e-01
-8.404774591326713562e-03
-7.582680135965347290e-02
-1.800069212913513184e-01
-2.159448862075805664e-01
2.049601972103118896e-01
6.419277191162109375e-02
-8.905762434005737305e-02
-5.279498174786567688e-02
6.908822804689407349e-02
1.828345209360122681e-01
1.841969341039657593e-01
7.051270455121994019e-02
1.211712323129177094e-02
-2.663165889680385590e-02
-1.636280119419097900e-01
2.147832810878753662e-01
-5.603507906198501587e-02
2.430983930826187134e-01
-2.215093746781349182e-02
2.308638840913772583e-01
-1.241199672222137451e-01
-1.614096015691757202e-01
-1.219694912433624268e-01
-1.145952194929122925e-02
6.741716712713241577e-02
4.315212368965148926e-02
1.195865646004676819e-01
-9.255880862474441528e-02
3.511462807655334473e-01
6.080700084567070007e-03
2.129389196634292603e-01
-2.776978313922882080e-01
1.836348026990890503e-01
7.818740606307983398e-02
8.044222742319107056e-02
3.638150170445442200e-03
-2.658242359757423401e-03
-3.181677311658859253e-02
-2.377530485391616821e-01
2.224967330694198608e-01
-1.114640757441520691e-01
-7.775581628084182739e-02
1.228678524494171143e-01
-6.248918548226356506e-02
-6.854074448347091675e-02
-2.428847700357437134e-01
2.016418576240539551e-01
-1.313414871692657471e-01
-7.061515748500823975e-02
-9.926992468535900116e-03
2.178598642349243164e-01
-1.696617603302001953e-01
-2.293064892292022705e-01
1.915187388658523560e-01
3.766519129276275635e-01
-1.293907761573791504e-01
1.616960316896438599e-01
-2.064304351806640625e-01
-4.746112227439880371e-02
1.131674051284790039e-01
-1.034909710288047791e-01
9.775330871343612671e-02
-1.311830729246139526e-01
2.592714428901672363e-01
2.092941477894783020e-02
-5.639258027076721191e-02
-1.312431395053863525e-01
-4.388473927974700928e-02
-1.339733153581619263e-01
-2.021313607692718506e-01
2.594546973705291748e-01
1.560275852680206299e-01
1.957698017358779907e-01
2.048892900347709656e-02
3.815320432186126709e-01
1.823502331972122192e-01
-2.202357500791549683e-01
1.392239630222320557e-01
7.466423511505126953e-02
2.035042643547058105e-01
3.694932162761688232e-02
-1.765142679214477539e-01
1.232694983482360840e-01
1.471598893404006958e-01
1.668802201747894287e-01
-1.558027267456054688e-01
-2.420246228575706482e-02
-2.416115850210189819e-01
-2.436685711145401001e-01
-1.383544057607650757e-01
-2.590149641036987305e-01
-1.029264703392982483e-01
1.953444033861160278e-01
-7.255787961184978485e-03
3.164117336273193359e-01
1.029963642358779907e-01
1.823472529649734497e-01
-3.361946716904640198e-02
6.963275372982025146e-02
2.419909089803695679e-01
-6.187683902680873871e-03
1.198605597019195557e-01
7.020154502242803574e-03
1.503030359745025635e-01
-1.631070673465728760e-01
-1.936394535005092621e-02
1.443754881620407104e-01
1.588328927755355835e-01
2.910063369199633598e-03
-1.109251603484153748e-01
9.793246537446975708e-02
8.388543874025344849e-02
-7.786981761455535889e-03
-2.268697507679462433e-02
3.029579520225524902e-01
-6.634687539190053940e-03
1.992393583059310913e-01
-1.008048504590988159e-01
-9.682392328977584839e-02
-5.962895229458808899e-02
1.936389319598674774e-02
2.597870305180549622e-02
-1.753355562686920166e-01
8.079835772514343262e-02
1.478735208511352539e-01
-2.113759517669677734e-01
6.944147497415542603e-02
-2.631474137306213379e-01
-2.270430028438568115e-01
-2.644836604595184326e-01
1.281761229038238525e-01
-1.595979928970336914e-01
-2.846705913543701172e-01
-1.322311069816350937e-02
6.862794607877731323e-02
-4.789277166128158569e-02
-2.134120650589466095e-02
1.856318674981594086e-02
-3.246945440769195557e-01
-7.007452845573425293e-02
1.410709917545318604e-01
3.750999644398689270e-02
-2.489636987447738647e-01
-5.455786362290382385e-02
1.070291362702846527e-02
5.559516325592994690e-02
6.926453113555908203e-02
6.596438586711883545e-02
1.347228586673736572e-01
1.073086038231849670e-01
-1.331347227096557617e-01
9.304018318653106689e-02
2.785264700651168823e-02
-1.989014893770217896e-01
-3.077114745974540710e-02
-1.623416841030120850e-01
1.836276650428771973e-01
-1.563194990158081055e-01
-2.664790451526641846e-01
-1.075440347194671631e-01
-2.312339469790458679e-02
1.353015154600143433e-01
-2.321898378431797028e-02
-1.742615401744842529e-01
-9.547397494316101074e-02
3.811396062374114990e-01
9.502324461936950684e-02
3.250832483172416687e-02
-3.646451234817504883e-02
1.069507077336311340e-01
3.267749547958374023e-01
8.483259379863739014e-02
-9.900605678558349609e-02
1.533497571945190430e-01
-3.459354117512702942e-02
2.793318033218383789e-01
3.502961248159408569e-02
1.537568718194961548e-01
-1.747304946184158325e-01
-1.884557753801345825e-01
1.290438473224639893e-01
-8.029434084892272949e-02
1.267369557172060013e-02
-1.065125241875648499e-01
-1.643641591072082520e-01
7.713688164949417114e-02
-1.012889295816421509e-01
-1.745345443487167358e-01
-1.536981165409088135e-01
1.196500360965728760e-01
-2.132319062948226929e-01
-4.216586239635944366e-04
1.029003262519836426e-01
1.685954034328460693e-01
-1.156498938798904419e-01
-2.590691298246383667e-02
-2.369476407766342163e-01
-1.919125951826572418e-02
1.505937576293945312e-01
2.154485136270523071e-01
1.775970757007598877e-01
1.394389718770980835e-01
-1.663405001163482666e-01
-7.519815117120742798e-02
-2.225678712129592896e-01
-1.254717633128166199e-02
-2.873763814568519592e-02
-5.719407461583614349e-03
8.997342735528945923e-02
-2.464356124401092529e-01
-3.331292048096656799e-02
1.316982507705688477e-01
-3.204487264156341553e-02
1.327629685401916504e-01
3.011893033981323242e-01
2.204387933015823364e-01
4.773956025019288063e-04
1.086256355047225952e-01
-4.278209060430526733e-02
9.999476373195648193e-02
4.555433988571166992e-02
-1.014637425541877747e-01
3.600162640213966370e-02
1.762763559818267822e-01
5.057594180107116699e-02
-3.759184153750538826e-03
3.663453161716461182e-01
1.189776733517646790e-01
2.341955713927745819e-02
-6.819984316825866699e-02
2.130137532949447632e-01
-1.777826994657516479e-02
1.490942090749740601e-01
-1.267365813255310059e-01
-6.396687775850296021e-02
1.270274072885513306e-01
-8.375260978937149048e-02
-1.338972002267837524e-01
3.331261500716209412e-02
-1.883170334622263908e-03
-3.113131225109100342e-01
1.724729388952255249e-01
1.106798928231000900e-02
2.150221914052963257e-02
-3.424270823597908020e-02
-8.591107279062271118e-02
-1.871569268405437469e-02
2.217503339052200317e-01
1.524117738008499146e-01
6.160834804177284241e-02
-1.461078822612762451e-01
1.338356435298919678e-01
1.412663422524929047e-02
-1.874238848686218262e-01
-8.404450863599777222e-02
-7.076470553874969482e-02
-8.517963439226150513e-02
-7.365199178457260132e-02
1.942497789859771729e-01
1.421116888523101807e-01
-1.653376072645187378e-01
-1.601416245102882385e-02
-7.275871187448501587e-02
-9.899289906024932861e-02
-3.039784170687198639e-02
7.073740661144256592e-02
4.575657099485397339e-02
9.097068756818771362e-02
2.056703902781009674e-02
-7.322334498167037964e-02
4.772911965847015381e-02
1.501253843307495117e-01
-4.803525283932685852e-02
-1.977816596627235413e-02
1.225046534091234207e-02
-1.739685088396072388e-01
-1.280424296855926514e-01
1.282910406589508057e-01
-4.025552049279212952e-02
-7.097603380680084229e-02
-9.603813290596008301e-02
-5.711759254336357117e-02
4.152127355337142944e-02
-1.127813458442687988e-01
-6.519395112991333008e-02
1.205435469746589661e-01
1.796296238899230957e-01
1.322083771228790283e-01
1.807528883218765259e-01
1.188376545906066895e-01
-2.528966665267944336e-01
1.310575380921363831e-02
2.356313765048980713e-01
-1.184309273958206177e-01
-1.060567349195480347e-01
3.173004463315010071e-02
-2.202656269073486328e-01
1.348942965269088745e-01
-1.061971262097358704e-01
-5.534837767481803894e-02
1.497143954038619995e-01
-1.119698733091354370e-01
-7.270326465368270874e-02
-1.715887188911437988e-01
-1.066518947482109070e-02
1.292342245578765869e-01
-1.414082497358322144e-01
-9.773235768079757690e-02
2.011992633342742920e-01
4.491978883743286133e-02
-1.129085291177034378e-02
2.462313771247863770e-01
1.460130908526480198e-03
-1.193422973155975342e-01
1.673224866390228271e-01
3.713555634021759033e-02
1.220054849982261658e-01
8.526924997568130493e-02
-6.160023435950279236e-02
-1.309396177530288696e-01
-1.369528919458389282e-01
-4.031216725707054138e-03
3.256905823945999146e-03
-1.664878875017166138e-01
1.760921627283096313e-01
1.232828721404075623e-01
-2.376282513141632080e-01
4.740038886666297913e-02
-5.455576628446578979e-02
2.594272196292877197e-01
-3.177594020962715149e-02
1.721192300319671631e-01
1.752557605504989624e-01
2.852101027965545654e-01
-4.603109881281852722e-02
-2.165087312459945679e-02
-1.601485162973403931e-01
6.908979266881942749e-02
2.740389667451381683e-02
9.013406187295913696e-02
2.108660638332366943e-01
1.140082776546478271e-01
-8.409129828214645386e-02
7.526864856481552124e-02
6.696373969316482544e-02
3.182794153690338135e-02
7.120081782341003418e-02
9.928939491510391235e-02
-6.217267364263534546e-02
4.179093241691589355e-02
-4.733954742550849915e-02
-1.851870305836200714e-02
-1.568851470947265625e-01
-1.166933178901672363e-01
1.538115292787551880e-01
-1.712192893028259277e-01
-1.323145776987075806e-01
1.818891316652297974e-01
3.073130361735820770e-02
-1.999672502279281616e-01
1.376508325338363647e-01
2.817990481853485107e-01
-2.553592808544635773e-02
3.076302073895931244e-02
-2.389969080686569214e-01
-1.212088465690612793e-01
1.030339673161506653e-01
2.000121474266052246e-01
-4.490037634968757629e-02
9.647484868764877319e-02
5.802404880523681641e-02
-1.698066145181655884e-01
1.096211522817611694e-01
-2.063913792371749878e-01
-7.078538089990615845e-02
-1.822238862514495850e-01
4.147360101342201233e-02
-3.132711946964263916e-01
-9.890269488096237183e-02
1.763444840908050537e-01
4.375988245010375977e-02
4.230340477079153061e-03
2.053925395011901855e-01
1.603736728429794312e-01
-2.784533500671386719e-01
-3.599997609853744507e-02
-1.782473772764205933e-01
-1.889855712652206421e-01
-3.138330876827239990e-01
-1.371913030743598938e-02
-3.977631777524948120e-02
-5.699108168482780457e-02
-1.838448047637939453e-01
-3.234764039516448975e-01
-8.051308244466781616e-02
3.905825782567262650e-03
-7.536135613918304443e-02
4.179944097995758057e-02
2.061246894299983978e-02
9.096070192754268646e-03
1.176039576530456543e-01
9.291315823793411255e-02
-2.061413079500198364e-01
7.868075370788574219e-02
1.526796817779541016e-01
-2.963110804557800293e-02
-5.699633434414863586e-02
-8.882248401641845703e-02
-1.993200927972793579e-01
1.220678016543388367e-01
-1.126296743750572205e-01
-9.404007345438003540e-02
2.740764021873474121e-01
-2.479443401098251343e-01
-2.731661200523376465e-01
-1.554914414882659912e-01
-1.037348508834838867e-01
1.264971941709518433e-01
-1.560608744621276855e-01
-1.086076349020004272e-01
1.706802658736705780e-02
1.178746074438095093e-01
2.391785979270935059e-01
7.369511574506759644e-02
-3.118007630109786987e-02
9.316483885049819946e-02
-1.672761887311935425e-01
-1.699083596467971802e-01
-1.936795376241207123e-02
-1.315471529960632324e-01
7.684911042451858521e-02
2.270750105381011963e-01
2.260596724227070808e-03
5.965149775147438049e-02
2.246947437524795532e-01
1.315432041883468628e-01
2.855824865400791168e-02
-1.599387079477310181e-02
-2.064753770828247070e-01
1.618953943252563477e-01
2.561739459633827209e-02
3.944481164216995239e-02
7.448156923055648804e-02
2.744632400572299957e-02
-1.100476235151290894e-01
-2.975203096866607666e-01
1.773123592138290405e-01
9.983100742101669312e-02
-1.325143873691558838e-01
3.811880201101303101e-02
9.943800978362560272e-03
6.299522519111633301e-02
1.879015564918518066e-01
-1.783079057931900024e-01
-1.198747679591178894e-01
3.192379698157310486e-02
-2.675670385360717773e-01
9.918616153299808502e-03
-2.221097499132156372e-01
1.179129406809806824e-01
-3.398764133453369141e-01
-1.988659799098968506e-01
3.497199714183807373e-02
-5.605600401759147644e-02
-2.096352577209472656e-01
-1.885083317756652832e-01
1.758112311363220215e-01
-7.027950137853622437e-02
1.187566891312599182e-01
-2.841556072235107422e-02
2.178027331829071045e-01
2.764642238616943359e-01
2.845961451530456543e-01
1.028950326144695282e-02
-9.441073983907699585e-02
-2.635494805872440338e-02
-2.602527663111686707e-02
-8.025979250669479370e-02
-1.278644055128097534e-01
-3.530087694525718689e-02
3.891016170382499695e-02
2.553187310695648193e-02
-2.335634827613830566e-01
-1.961443871259689331e-01
-1.587823927402496338e-01
-1.975879818201065063e-02
1.186691224575042725e-01
-1.059908270835876465e-01
-4.222744330763816833e-02
-3.920055553317070007e-02
-4.226628690958023071e-02
1.408585757017135620e-01
3.205684721469879150e-01
4.248306527733802795e-02
-1.888211965560913086e-01
2.010150849819183350e-01
1.615334153175354004e-01
2.777654230594635010e-01
1.835302114486694336e-01
1.662395745515823364e-01
1.011009588837623596e-01
-4.498745501041412354e-02
-1.269540637731552124e-01
-1.187454015016555786e-01
2.053440660238265991e-01
9.062939882278442383e-02
-1.749436557292938232e-01
-1.851005256175994873e-01
-9.593451023101806641e-02
9.670748561620712280e-02
7.696308940649032593e-02
8.882923424243927002e-02
3.360022902488708496e-01
2.436727583408355713e-01
-7.248900830745697021e-02
-2.458247169852256775e-02
3.521672487258911133e-01
1.681311428546905518e-01
-5.161042138934135437e-02
1.122770756483078003e-01
-2.626214735209941864e-02
1.937028616666793823e-01
-2.189934700727462769e-01
3.631193935871124268e-02
1.796725392341613770e-01
3.567415475845336914e-02
-5.217317864298820496e-02
2.300052642822265625e-01
-7.254167646169662476e-02
1.918968111276626587e-01
1.436158567667007446e-01
3.709704801440238953e-02
-3.787540644407272339e-02
-1.778303682804107666e-01
-4.907247051596641541e-02
1.741762855090200901e-03
-1.531107723712921143e-02
3.568039536476135254e-01
5.042156949639320374e-02
2.272861748933792114e-01
1.093938723206520081e-01
-3.206154704093933105e-01
2.382067218422889709e-02
-2.786763906478881836e-01
1.461392194032669067e-01
1.936095058917999268e-01
2.162259668111801147e-01
-1.368484199047088623e-01
1.113597303628921509e-01
9.739396721124649048e-02
7.272468507289886475e-02
-6.368882954120635986e-02
-1.385706514120101929e-01
1.093947663903236389e-01
1.188261285424232483e-01
1.465983092784881592e-01
2.709750831127166748e-01
-2.584250569343566895e-01
9.908102452754974365e-02
2.072993069887161255e-01
1.828204244375228882e-01
1.971900016069412231e-01
-1.705030165612697601e-02
-6.683837622404098511e-02
-1.462257504463195801e-01
9.525604546070098877e-02
-9.346814453601837158e-02
-5.781006813049316406e-02
-3.131808340549468994e-01
-1.212810948491096497e-01
-8.233439922332763672e-02
5.926297232508659363e-02
3.402206674218177795e-02
3.063183724880218506e-01
1.648376137018203735e-01
1.394834667444229126e-01
1.356979161500930786e-01
2.271798849105834961e-01
-2.424335479736328125e-01
2.029186934232711792e-01
-8.291509747505187988e-02
-9.624769538640975952e-02
3.030781745910644531e-01
-2.104398459196090698e-01
-2.383828759193420410e-01
2.214030623435974121e-01
-1.097903549671173096e-01
-1.613308936357498169e-01
-1.324990987777709961e-01
-1.151449382305145264e-01
-5.040329881012439728e-03
-2.449515648186206818e-02
9.848359227180480957e-02
4.524888470768928528e-02
3.168884813785552979e-01
-1.230212822556495667e-01
3.846741095185279846e-02
1.712764948606491089e-01
-1.464517861604690552e-01
-1.212791800498962402e-01
-2.652395665645599365e-01
-1.656813770532608032e-01
3.087093820795416832e-03
1.883025169372558594e-01
-3.905329853296279907e-02
-4.113005101680755615e-02
-9.735716506838798523e-03
6.367792934179306030e-02
2.234860062599182129e-01
-2.093022316694259644e-01
6.597044318914413452e-02
5.021198838949203491e-02
-1.326219439506530762e-01
-1.235204339027404785e-01
2.027584612369537354e-02
2.722895704209804535e-02
1.367697268724441528e-01
1.490195691585540771e-01
-3.207198381423950195e-01
-6.665688473731279373e-03
-8.667060174047946930e-03
3.607821837067604065e-02
1.034582778811454773e-01
6.065824255347251892e-02
-4.631146043539047241e-02
2.302346080541610718e-01
1.950375288724899292e-01
-1.740754395723342896e-01
2.593954838812351227e-02
6.966590881347656250e-02
-1.389615684747695923e-01
3.044436872005462646e-01
2.033365704119205475e-02
1.003224123269319534e-02
8.710043132305145264e-02
-1.191412284970283508e-01
4.515987262129783630e-02
2.599740624427795410e-01
2.035710960626602173e-01
-2.409582436084747314e-01
1.112379506230354309e-01
-2.223374843597412109e-01
-1.084871292114257812e-01
-2.159170210361480713e-01
-1.259834021329879761e-01
1.299243718385696411e-01
-1.767433136701583862e-01
-8.293269574642181396e-02
1.438091099262237549e-01
7.250368595123291016e-02
8.564944565296173096e-02
1.471017301082611084e-01
3.325475379824638367e-02
-6.101413071155548096e-02
-1.329777240753173828e-01
3.501681238412857056e-02
-6.703552603721618652e-02
-1.154977008700370789e-01
-6.103720143437385559e-02
-4.229911044239997864e-02
2.386231422424316406e-01
-5.013309419155120850e-02
-3.362796604633331299e-01
-1.568087041378021240e-01
-2.193002104759216309e-01
-1.234879195690155029e-01
2.744599282741546631e-01
-5.178649351000785828e-02
2.970664501190185547e-01
2.360720485448837280e-01
-6.347902864217758179e-02
6.480670720338821411e-02
-1.418704092502593994e-01
-3.733764961361885071e-02
-2.735790424048900604e-02
1.550622433423995972e-01
3.507309034466743469e-02
-6.285688281059265137e-02
3.027534298598766327e-02
1.811799108982086182e-01
4.170341789722442627e-02
-2.397891879081726074e-01
-1.090177595615386963e-01
2.045455947518348694e-02
-1.855543702840805054e-01
3.815568285062909126e-03
2.032051831483840942e-01
1.153949201107025146e-01
5.066440999507904053e-02
1.731028854846954346e-01
-8.001513779163360596e-02
9.616525843739509583e-03
1.712040007114410400e-01
6.785041093826293945e-02
-1.091996505856513977e-01
-1.411045789718627930e-01
1.400570571422576904e-01
9.971439838409423828e-02
-8.556523360311985016e-03
-2.803113162517547607e-01
-1.048369854688644409e-01
-1.243651211261749268e-01
-1.811148971319198608e-01
4.825584217905998230e-02
-1.578562259674072266e-01
-3.718139231204986572e-02
2.616561204195022583e-02
-3.263792395591735840e-02
1.080907732248306274e-01
2.386964298784732819e-02
-9.206648170948028564e-02
-1.526749879121780396e-01
-1.108832359313964844e-01
1.029519066214561462e-01
-1.882005482912063599e-01
-3.527296334505081177e-02
-1.223503798246383667e-01
8.107117563486099243e-02
1.884132921695709229e-01
1.137340217828750610e-01
1.936497688293457031e-01
2.984486892819404602e-02
1.997601389884948730e-01
-6.161575391888618469e-02
8.289441466331481934e-02
3.412853777408599854e-01
-1.730759590864181519e-01
1.696767508983612061e-01
-5.279324948787689209e-02
-5.206316709518432617e-02
1.081295534968376160e-01
-1.345777511596679688e-01
-5.049775913357734680e-02
-3.767690956592559814e-01
1.264393925666809082e-01
1.466467380523681641e-01
6.992714852094650269e-02
1.488873511552810669e-01
2.610376775264739990e-01
7.188178598880767822e-02
4.292865470051765442e-02
-3.122759163379669189e-01
-2.659403085708618164e-01
1.102771311998367310e-01
3.802192956209182739e-02
2.505528181791305542e-02
-1.637374460697174072e-01
-3.456750214099884033e-01
2.488919645547866821e-01
-3.231514943763613701e-03
-3.835520148277282715e-01
1.306007150560617447e-02
1.564252078533172607e-01
-2.115466147661209106e-01
-1.716234348714351654e-02
-5.199766019359230995e-04
-2.899010777473449707e-01
-1.369511932134628296e-01
-6.660386919975280762e-02
2.697097957134246826e-01
-1.674546599388122559e-01
-1.647064834833145142e-01
6.361720710992813110e-02
-2.988826297223567963e-02
3.152149543166160583e-02
1.148713603615760803e-01
2.074792832136154175e-01
-2.994791418313980103e-02
-2.555579543113708496e-01
-1.271452605724334717e-01
-2.649179399013519287e-01
-1.421792656183242798e-01
-4.832272976636886597e-02
3.925585001707077026e-02
-3.931046649813652039e-02
1.732686907052993774e-02
-2.193872928619384766e-01
-4.290834441781044006e-02
-6.485585123300552368e-02
-1.580627411603927612e-01
-3.449816107749938965e-01
-4.204698652029037476e-02
2.183853089809417725e-01
2.683591544628143311e-01
-2.835072576999664307e-02
5.814955011010169983e-02
1.890432089567184448e-01
-1.171978339552879333e-01
8.174379169940948486e-02
4.863547906279563904e-02
2.884288877248764038e-02
2.257030457258224487e-01
1.635766774415969849e-01
-6.882201135158538818e-02
1.316725183278322220e-02
-3.125943243503570557e-02
1.649980843067169189e-01
-8.306448161602020264e-02
1.226656585931777954e-01
-1.085197180509567261e-01
2.974769473075866699e-02
-1.889725774526596069e-01
-1.985359787940979004e-01
8.133374899625778198e-02
-1.749861389398574829e-01
1.640869528055191040e-01
1.284219026565551758e-01
1.344283670186996460e-02
-1.815253794193267822e-01
-1.396149396896362305e-01
-1.037924140691757202e-01
-2.511608600616455078e-01
-1.147524192929267883e-01
-1.864114254713058472e-01
3.119304962456226349e-02
-1.133217215538024902e-01
2.020964473485946655e-01
6.078047677874565125e-02
-2.764177024364471436e-01
4.741575568914413452e-02
-8.100821822881698608e-02
1.068152189254760742e-01
-1.085720136761665344e-01
5.277372524142265320e-02
-4.284771159291267395e-02
-9.832940995693206787e-02
-9.944641590118408203e-02
2.884329110383987427e-02
4.875654354691505432e-02
-1.355452239513397217e-01
1.496793031692504883e-01
1.417344659566879272e-01
-7.831145823001861572e-02
-4.242760594934225082e-03
-1.337959170341491699e-01
-6.333659589290618896e-02
-7.303659617900848389e-02
-2.181832194328308105e-01
1.183684766292572021e-01
-9.081918746232986450e-02
1.490351557731628418e-01
2.087935954332351685e-01
2.586213946342468262e-01
-1.144309788942337036e-01
2.860120832920074463e-01
2.656483054161071777e-01
8.816591463983058929e-03
-2.058896720409393311e-01
1.527942121028900146e-01
4.320462420582771301e-02
-2.035257816314697266e-01
2.578963041305541992e-01
6.177989020943641663e-02
-4.167686030268669128e-02
2.806210815906524658e-01
7.798150926828384399e-02
2.116423398256301880e-01
-2.673139274120330811e-01
-2.590930834412574768e-02
-1.936215907335281372e-01
2.193011939525604248e-01
7.661217451095581055e-02
-1.846752464771270752e-01
3.041825592517852783e-01
-9.841877967119216919e-02
-2.871494591236114502e-01
2.024323493242263794e-01
2.052055671811103821e-02
7.911741733551025391e-02
-1.008421629667282104e-01
-9.110315889120101929e-02
-5.097651854157447815e-02
1.028245240449905396e-01
1.682301163673400879e-01
-1.990669071674346924e-01
-5.191250890493392944e-02
7.561003416776657104e-02
2.088073790073394775e-01
-1.720232814550399780e-01
6.071711331605911255e-02
-2.629821002483367920e-01
6.009007617831230164e-02
7.248558104038238525e-02
-3.952034283429384232e-03
-1.892597414553165436e-02
1.778737157583236694e-01
-1.266200691461563110e-01
5.956385657191276550e-02
-1.625503301620483398e-01
-2.623559534549713135e-01
-1.963344216346740723e-01
2.592124342918395996e-01
-1.661448031663894653e-01
-7.136407494544982910e-02
-6.609482318162918091e-02
-1.185577660799026489e-01
1.685609072446823120e-01
1.179426833987236023e-01
-1.472129225730895996e-01
-2.414548695087432861e-01
4.206461366266012192e-03
1.580171883106231689e-01
-2.634750008583068848e-01
1.260769963264465332e-01
1.099670901894569397e-01
3.218995034694671631e-01
-1.693551689386367798e-01
-6.112812459468841553e-02
1.190119460225105286e-01
1.617519259452819824e-01
-2.231262475252151489e-01
-1.874715089797973633e-01
1.236200332641601562e-01
2.006273530423641205e-02
2.307263612747192383e-01
1.294082999229431152e-01
2.737793624401092529e-01
-1.952618509531021118e-01
-1.875740438699722290e-01
-9.916557930409908295e-03
-8.449664339423179626e-03
3.937534615397453308e-02
-1.222909316420555115e-01
-7.151365280151367188e-02
2.462685853242874146e-02
6.557139568030834198e-04
-1.225157231092453003e-01
-2.435536831617355347e-01
2.177093550562858582e-02
2.380507737398147583e-01
1.400881856679916382e-01
1.018823534250259399e-01
-8.420208841562271118e-02
-8.364938199520111084e-02
-5.897964164614677429e-02
1.481152325868606567e-01
1.421878039836883545e-01
1.384641081094741821e-01
-7.776904851198196411e-02
8.230815082788467407e-02
-1.951850503683090210e-01
-1.499857008457183838e-01
-1.258016005158424377e-02
7.273837924003601074e-03
-9.205924719572067261e-02
3.594754636287689209e-02
5.326520651578903198e-02
-9.060233831405639648e-02
1.895580887794494629e-01
6.383852660655975342e-02
1.900824159383773804e-01
3.110554814338684082e-01
-4.709087312221527100e-02
1.226494461297988892e-01
-2.430146001279354095e-02
4.362221807241439819e-03
1.247327774763107300e-01
-1.105440501123666763e-02
3.600088879466056824e-02
7.215948402881622314e-02
-2.090839892625808716e-01
-6.809748709201812744e-02
2.133550196886062622e-01
1.205957531929016113e-01
-7.381339371204376221e-02
2.966748364269733429e-02
2.172993868589401245e-01
-3.996194899082183838e-02
9.152871370315551758e-02
9.729371964931488037e-02
-2.535487413406372070e-01
7.474619150161743164e-02
-1.171677783131599426e-01
1.786245256662368774e-01
3.097741007804870605e-01
-3.134052501991391182e-03
5.894768610596656799e-02
1.594011485576629639e-01
-3.542009592056274414e-01
4.221267253160476685e-02
2.398483753204345703e-01
3.234800323843955994e-02
-1.313447356224060059e-01
-5.271583050489425659e-02
-4.591380432248115540e-02
1.516560465097427368e-01
1.197690069675445557e-01
1.167925298213958740e-01
-1.171076446771621704e-01
2.916322946548461914e-01
7.509951293468475342e-02
5.797157436609268188e-02
4.940452799201011658e-02
-1.994047015905380249e-01
7.840891182422637939e-02
1.351551413536071777e-01
1.781296879053115845e-01
2.748849801719188690e-02
8.763944357633590698e-02
-1.535283774137496948e-01
8.189044147729873657e-02
-8.505678921937942505e-02
-3.819780424237251282e-02
-1.709927059710025787e-02
1.754300892353057861e-01
-3.672317601740360260e-03
-1.510115563869476318e-01
5.195667967200279236e-02
-2.993938326835632324e-01
-2.624138295650482178e-01
1.035737320780754089e-01
1.080357935279607773e-02
3.295881673693656921e-03
-2.345100939273834229e-01
-1.037841811776161194e-01
-5.307213589549064636e-02
5.644379556179046631e-02
6.765589118003845215e-02
3.361159563064575195e-02
-1.232807617634534836e-02
-2.450096607208251953e-02
5.763788521289825439e-02
2.326853759586811066e-02
-6.662063300609588623e-03
-6.721153110265731812e-02
1.014855280518531799e-01
-7.852569967508316040e-02
-1.515167206525802612e-01
-1.309375464916229248e-01
6.504134833812713623e-02
4.484942182898521423e-03
-2.548365294933319092e-01
1.545082181692123413e-01
-1.388740390539169312e-01
2.659830749034881592e-01
-7.735325396060943604e-02
2.352776527404785156e-01
1.789990216493606567e-01
-3.854394331574440002e-02
-1.245676875114440918e-01
1.443966180086135864e-01
4.483099281787872314e-02
-1.350773125886917114e-01
-1.550773382186889648e-01
-1.339068412780761719e-01
-1.988276839256286621e-02
8.771619200706481934e-02
1.576373353600502014e-02
-2.600350379943847656e-01
-2.581789195537567139e-01
1.501546055078506470e-01
-3.849720209836959839e-02
1.439366191625595093e-01
-7.789218425750732422e-02
-1.486083865165710449e-01
-1.258213818073272705e-01
2.773498892784118652e-01
-1.434813998639583588e-02
1.554917842149734497e-01
-1.871660947799682617e-01
1.681539565324783325e-01
-6.443297863006591797e-02
1.292970310896635056e-02
1.448132190853357315e-02
-4.365511983633041382e-02
1.117705628275871277e-01
-1.046281680464744568e-01
2.220907993614673615e-02
-6.888560205698013306e-02
-1.498684138059616089e-01
-7.149527966976165771e-02
-6.359872967004776001e-02
9.229751676321029663e-02
1.256121695041656494e-01
2.223440259695053101e-02
2.909763483330607414e-03
7.430273294448852539e-02
4.009960684925317764e-03
-9.140328317880630493e-02
1.756716668605804443e-01
7.996791973710060120e-03
-7.837993651628494263e-02
1.549986898899078369e-01
5.901895463466644287e-02
8.050931245088577271e-02
2.535024583339691162e-01
-1.628966182470321655e-01
-1.157172769308090210e-01
1.144006028771400452e-01
4.345484822988510132e-02
-1.596605777740478516e-01
1.123512685298919678e-01
1.913685798645019531e-01
-1.673473715782165527e-01
-2.117190361022949219e-01
-2.923245355486869812e-02
1.547559052705764771e-01
1.256825625896453857e-01
2.933235839009284973e-02
1.261857300996780396e-01
3.847976401448249817e-02
-1.175860613584518433e-01
7.394713163375854492e-02
-1.819793283939361572e-01
1.435127407312393188e-01
-2.383414506912231445e-01
3.525723889470100403e-02
-7.124559581279754639e-02
-2.293134182691574097e-01
1.242709457874298096e-01
3.162710070610046387e-01
-3.832330927252769470e-02
-2.131305821239948273e-02
-6.072761118412017822e-02
2.298409640789031982e-01
2.502573430538177490e-01
-1.015500649809837341e-01
-1.771121919155120850e-01
1.041003987193107605e-01
-1.020532473921775818e-01
7.705727592110633850e-03
-3.072031140327453613e-01
2.204556465148925781e-01
1.108111590147018433e-01
-1.493949163705110550e-02
3.264910355210304260e-02
7.374694198369979858e-02
5.077553167939186096e-02
1.212976351380348206e-01
1.200784184038639069e-02
-3.171488270163536072e-02
-7.165354490280151367e-02
2.461048364639282227e-01
-2.184437215328216553e-01
2.549289762973785400e-01
6.066149473190307617e-02
2.221141308546066284e-01
-2.049548476934432983e-01
6.107821688055992126e-02
9.720838814973831177e-02
-1.409326586872339249e-02
1.566654145717620850e-01
1.548414379358291626e-01
-6.662151217460632324e-02
7.260255515575408936e-02
2.550674974918365479e-02
-3.022303283214569092e-01
1.037876754999160767e-01
-3.125198930501937866e-02
1.722436398267745972e-01
5.076418817043304443e-02
2.643035054206848145e-01
-3.758789896965026855e-01
-9.039065986871719360e-02
2.549655735492706299e-01
2.605173587799072266e-01
-1.196540296077728271e-01
-8.063388615846633911e-02
1.187985166907310486e-01
-8.456357568502426147e-02
-8.356990665197372437e-02
-2.308135479688644409e-01
1.114683821797370911e-01
-2.186049520969390869e-01
2.000249326229095459e-01
2.169937640428543091e-01
-9.702184796333312988e-02
7.090978324413299561e-02
-7.906857132911682129e-02
1.688759028911590576e-01
-4.416082054376602173e-03
-1.182306334376335144e-01
3.797991201281547546e-02
1.353179365396499634e-01
-1.048743166029453278e-02
-8.039356209337711334e-03
-1.220166757702827454e-01
-3.171801567077636719e-01
1.028206646442413330e-01
3.068431615829467773e-01
-1.709320843219757080e-01
-1.076028272509574890e-01
2.712712585926055908e-01
-3.609107807278633118e-02
-1.608248054981231689e-01
1.762589067220687866e-01
5.324926599860191345e-02
-1.416298300027847290e-01
1.141994670033454895e-01
1.005769297480583191e-01
9.210879355669021606e-02
-3.275286257266998291e-01
-2.904185056686401367e-01
1.379883438348770142e-01
-1.585979163646697998e-01
1.197832971811294556e-01
-9.335808455944061279e-02
3.786332905292510986e-02
6.460517644882202148e-02
-5.443798005580902100e-02
-1.825957447290420532e-01
6.042278558015823364e-02
5.290295556187629700e-02
-7.092570513486862183e-02
-1.674736887216567993e-01
-2.048226296901702881e-01
1.426571607589721680e-01
3.208697140216827393e-01
-1.920333355665206909e-01
2.825232967734336853e-02
3.655530810356140137e-01
1.517368387430906296e-02
-3.161789849400520325e-03
1.359136775135993958e-02
3.127804771065711975e-02
-3.085184097290039062e-01
2.235551029443740845e-01
-1.240486130118370056e-01
-2.054644972085952759e-01
2.829607110470533371e-03
1.101091876626014709e-01
-1.224901229143142700e-01
-1.974472776055335999e-02
-2.471885532140731812e-01
-9.953637421131134033e-02
-3.373627364635467529e-02
1.283864825963973999e-01
-1.960968971252441406e-01
-2.557078897953033447e-01
3.628277406096458435e-02
-4.347909241914749146e-02
-1.359780132770538330e-01
-7.994200289249420166e-02
1.303303707391023636e-02
7.964765280485153198e-02
-1.085578501224517822e-01
1.801468729972839355e-01
4.701345041394233704e-02
3.426122665405273438e-02
1.236793100833892822e-01
-1.721627116203308105e-01
8.733709342777729034e-03
2.061650604009628296e-01
1.993709206581115723e-01
2.285766452550888062e-01
2.229380905628204346e-01
-1.632633358240127563e-01
6.904060393571853638e-02
-5.188265070319175720e-02
2.944665253162384033e-01
-1.191292554140090942e-01
1.164171621203422546e-01
1.768864132463932037e-02
3.096857480704784393e-02
7.738749682903289795e-02
1.046695038676261902e-01
-1.580507606267929077e-01
1.613758802413940430e-01
-1.034290492534637451e-01
-1.001461297273635864e-01
-4.365254659205675125e-03
1.588661223649978638e-01
-1.117720231413841248e-01
1.834564507007598877e-01
2.642320096492767334e-01
1.431192904710769653e-01
1.035794615745544434e-01
6.314916163682937622e-02
-8.431057631969451904e-02
2.952219843864440918e-01
-2.961080968379974365e-01
-9.348420798778533936e-02
1.070047989487648010e-01
1.778592169284820557e-01
-2.125209718942642212e-01
4.297072067856788635e-03
6.712079793214797974e-02
2.863981574773788452e-02
1.557821482419967651e-01
-7.285975664854049683e-02
-1.701709330081939697e-01
2.571379579603672028e-02
-1.501005440950393677e-01
-3.084483183920383453e-02
-2.471462637186050415e-01
-2.485137060284614563e-02
1.019326224923133850e-01
7.569730281829833984e-02
-6.851715594530105591e-02
6.551986187696456909e-02
-1.451463252305984497e-02
-2.750156521797180176e-01
1.238209903240203857e-01
-1.295980904251337051e-02
-1.879730224609375000e-01
1.750515997409820557e-01
-1.039605662226676941e-01
-5.195809528231620789e-02
-1.511568129062652588e-01
-8.631744235754013062e-02
1.190490722656250000e-01
5.175553634762763977e-02
2.355393208563327789e-02
-1.066373214125633240e-01
6.192442774772644043e-02
2.732219696044921875e-01
-1.049940064549446106e-01
-4.543107002973556519e-03
1.659558564424514771e-01
-2.284305728971958160e-02
2.261669784784317017e-01
1.371944099664688110e-01
1.568908393383026123e-01
-9.946484863758087158e-02
1.932078301906585693e-01
-1.347669064998626709e-01
-7.158160209655761719e-02
-8.731421083211898804e-02
-5.145239084959030151e-02
-1.361611634492874146e-01
-1.777952015399932861e-01
-1.452141106128692627e-01
-1.869149804115295410e-01
1.054293196648359299e-02
-2.572977244853973389e-01
-8.220206014811992645e-03
-7.513115555047988892e-02
-1.283736433833837509e-02
-1.498237904161214828e-02
1.903797090053558350e-01
5.482774600386619568e-02
7.254317402839660645e-02
-8.607021719217300415e-02
5.973741877824068069e-03
2.728699147701263428e-01
2.288746275007724762e-02
4.841472208499908447e-02
-2.149663269519805908e-01
6.126144155859947205e-02
-4.952433332800865173e-02
-1.917378306388854980e-01
-9.302396327257156372e-02
-8.782379329204559326e-02
1.545271426439285278e-01
5.051779374480247498e-02
1.028508394956588745e-01
-1.229769587516784668e-01
2.254567295312881470e-02
8.537469059228897095e-02
-1.465094983577728271e-01
-9.547501802444458008e-02
-2.137401998043060303e-01
6.456203013658523560e-02
3.663015086203813553e-04
-1.726849935948848724e-02
1.679965108633041382e-01
1.309731006622314453e-01
2.510729730129241943e-01
-1.592878438532352448e-02
-2.388619072735309601e-02
7.031138986349105835e-03
-7.852519303560256958e-02
7.117361575365066528e-02
-7.419001311063766479e-02
-2.115466147661209106e-01
1.203017979860305786e-01
1.295434087514877319e-01
1.027164906263351440e-01
8.895120024681091309e-02
-2.606249041855335236e-02
-1.724882051348686218e-02
-8.685433864593505859e-02
2.059070765972137451e-01
-1.231493055820465088e-01
4.353149607777595520e-02
2.864587004296481609e-04
1.159425824880599976e-01
9.500026702880859375e-02
-5.651355534791946411e-02
1.646326929330825806e-01
4.305624961853027344e-02
-3.689858317375183105e-02
-8.410012233071029186e-04
1.166023015975952148e-01
-1.424569636583328247e-01
-4.583550151437520981e-03
-5.052249878644943237e-03
3.399581462144851685e-02
-1.412881016731262207e-01
-3.329391479492187500e-01
-6.981471925973892212e-02
8.791029453277587891e-02
-2.136464416980743408e-01
-2.385582625865936279e-01
1.563350409269332886e-01
-1.539998352527618408e-01
1.032806858420372009e-01
-1.021843999624252319e-01
1.309301108121871948e-01
-2.648355662822723389e-01
1.113994494080543518e-01
1.172351744025945663e-02
-4.011080041527748108e-02
-1.932950764894485474e-01
-1.161071360111236572e-01
1.862066388130187988e-01
8.478439995087683201e-04
9.389667958021163940e-02
-9.921902418136596680e-02
-1.067849844694137573e-01
-8.938866853713989258e-02
5.572640895843505859e-02
-3.017588704824447632e-02
4.800771549344062805e-02
-2.774893073365092278e-04
1.549734473228454590e-01
2.360328286886215210e-01
2.506836950778961182e-01
-1.754545569419860840e-01
6.863748421892523766e-04
1.769965440034866333e-01
7.329747825860977173e-02
1.480569392442703247e-01
1.403734236955642700e-01
-3.831166401505470276e-02
1.874002516269683838e-01
1.390869449824094772e-02
1.468408107757568359e-01
-1.348127871751785278e-01
5.890035256743431091e-02
-8.047694340348243713e-03
1.766306757926940918e-01
-5.594766698777675629e-03
-2.715196646749973297e-02
-8.784335106611251831e-02
1.152359992265701294e-01
-8.610299229621887207e-02
-4.399810917675495148e-03
1.052236482501029968e-01
-8.666964620351791382e-02
-1.732220407575368881e-03
2.582606971263885498e-01
-1.571345701813697815e-02
1.309100631624460220e-02
-3.720024228096008301e-02
1.204358041286468506e-01
1.961732208728790283e-01
-1.037618424743413925e-02
-1.299464888870716095e-02
2.063959538936614990e-01
4.082345962524414062e-02
-4.024026542901992798e-02
2.133288234472274780e-01
1.901182383298873901e-01
-2.164601981639862061e-01
-9.984651580452919006e-03
-1.571328938007354736e-01
1.926337480545043945e-01
-1.794684827327728271e-01
-2.083232253789901733e-01
4.029814619570970535e-03
1.675431728363037109e-01
1.426235437393188477e-01
-1.390194147825241089e-01
-2.067695558071136475e-01
1.634957827627658844e-02
-2.333970814943313599e-01
-1.053281277418136597e-01
7.217462360858917236e-02
-1.154965721070766449e-02
-6.446758657693862915e-02
2.452783584594726562e-01
-3.417007625102996826e-02
-3.676478937268257141e-02
1.093550249934196472e-01
-1.041453406214714050e-01
3.451230004429817200e-02
1.179659813642501831e-01
-1.941895857453346252e-02
-1.875225454568862915e-01
-3.255079388618469238e-01
4.354664683341979980e-01
-2.531269565224647522e-02
3.896386548876762390e-02
1.014023870229721069e-01
-8.932456374168395996e-02
7.050316035747528076e-02
2.843934893608093262e-01
-8.704034984111785889e-02
-2.514789998531341553e-01
1.154517084360122681e-01
2.949071824550628662e-01
1.366565674543380737e-01
6.968169659376144409e-02
1.496781259775161743e-01
-1.296796947717666626e-01
-7.301991432905197144e-02
-7.671377807855606079e-02
-9.960787743330001831e-02
-1.117567270994186401e-01
7.666424661874771118e-02
1.515644937753677368e-01
9.897991269826889038e-02
-5.437826365232467651e-02
1.077399924397468567e-01
3.645994365215301514e-01
-1.064540073275566101e-01
-4.980185255408287048e-02
-2.919099628925323486e-01
-8.817900717258453369e-02
-3.815286755561828613e-01
-2.029510438442230225e-01
-2.011461257934570312e-01
-1.874569505453109741e-01
2.065210491418838501e-01
2.638392150402069092e-01
1.553415358066558838e-01
1.742517054080963135e-01
1.220320835709571838e-01
1.794852614402770996e-01
-2.096223831176757812e-01
3.244965672492980957e-01
8.135911077260971069e-02
3.821010589599609375e-01
-7.747355848550796509e-02
-3.223632872104644775e-01
-9.354899823665618896e-02
-9.018886834383010864e-02
-2.406154870986938477e-01
5.288773030042648315e-02
-1.306735277175903320e-01
3.259818255901336670e-01
7.691830396652221680e-03
-5.396727323532104492e-01
-8.577945083379745483e-02
-2.875839546322822571e-02
-2.259922921657562256e-01
1.542873680591583252e-01
3.994687274098396301e-02
2.951528728008270264e-01
-1.652713865041732788e-01
6.913764774799346924e-02
1.729446798563003540e-01
-5.351212620735168457e-02
3.148749768733978271e-01
-3.120345473289489746e-01
1.694234609603881836e-01
1.223714202642440796e-01
3.517493233084678650e-02
-1.861851662397384644e-01
-1.963048577308654785e-01
-4.016024991869926453e-02
1.433644741773605347e-01
-2.212269902229309082e-01
-7.460585236549377441e-02
-2.330364584922790527e-01
-2.804700136184692383e-01
-9.055081009864807129e-02
1.123216897249221802e-01
-3.153431043028831482e-02
-3.380982279777526855e-01
-1.842421889305114746e-01
-1.439755856990814209e-01
-9.928710013628005981e-02
-1.533614248037338257e-01
-1.146658062934875488e-01
8.580745011568069458e-02
6.265036016702651978e-02
1.685837507247924805e-01
-1.039374619722366333e-01
1.987593173980712891e-01
6.171574816107749939e-02
-1.432647556066513062e-01
1.323311775922775269e-01
7.989759556949138641e-03
1.699186861515045166e-01
-1.137201860547065735e-02
6.676678359508514404e-02
6.761746108531951904e-02
2.029661387205123901e-01
-1.457197219133377075e-01
1.772384941577911377e-01
1.341529190540313721e-01
-4.922502115368843079e-02
-2.670700848102569580e-02
1.291401833295822144e-01
-3.232964873313903809e-01
8.127694576978683472e-02
-5.348211526870727539e-02
9.558250010013580322e-02
-3.482903912663459778e-02
1.753012686967849731e-01
-1.523673087358474731e-01
2.764105200767517090e-01
1.361280530691146851e-01
-2.354737520217895508e-01
1.359197348356246948e-01
2.023529112339019775e-01
6.735330075025558472e-02
1.002124622464179993e-01
2.464053221046924591e-02
-8.162690699100494385e-02
-1.091170161962509155e-01
1.025970280170440674e-01
-2.337342873215675354e-02
1.831547766923904419e-01
-7.689375197514891624e-04
1.802893728017807007e-02
2.359485179185867310e-01
1.752161085605621338e-01
-9.826297312974929810e-02
-1.193678602576255798e-01
4.886114597320556641e-02
1.470700204372406006e-01
1.285474598407745361e-01
9.712495654821395874e-02
1.633091866970062256e-01
-1.027073338627815247e-02
2.289894968271255493e-01
1.283753477036952972e-02
3.698430955410003662e-02
4.592817276716232300e-02
2.173660248517990112e-01
1.405119746923446655e-01
-1.649021953344345093e-01
1.079425588250160217e-01
-1.370774805545806885e-01
2.304201126098632812e-01
2.370176315307617188e-01
7.098916172981262207e-02
2.242339402437210083e-01
2.152169942855834961e-01
-1.710863970220088959e-02
6.907573342323303223e-02
-2.841327190399169922e-01
2.030108869075775146e-01
1.622231006622314453e-01
-4.023334011435508728e-02
-1.442724615335464478e-01
-1.863150298595428467e-01
1.407158970832824707e-01
-5.396681278944015503e-02
9.780489653348922729e-02
-1.842200160026550293e-01
-6.585037708282470703e-02
-1.335602998733520508e-01
-1.269024889916181564e-02
1.344397515058517456e-01
1.886222958564758301e-01
7.236321270465850830e-02
-1.343394070863723755e-01
1.681476980447769165e-01
2.643992304801940918e-01
6.176254153251647949e-02
2.141312807798385620e-01
-2.100475579500198364e-01
-4.670616611838340759e-02
5.125382915139198303e-02
1.413429975509643555e-01
-5.307069793343544006e-02
5.290879309177398682e-02
1.323156803846359253e-01
3.721854835748672485e-02
-1.208494231104850769e-01
-2.544794678688049316e-01
2.080112397670745850e-01
3.139395266771316528e-02
-6.142516061663627625e-02
-1.148954108357429504e-01
-1.867240220308303833e-01
-8.068293333053588867e-02
-1.196998804807662964e-01
8.244504034519195557e-02
1.871348731219768524e-02
-8.224286884069442749e-02
6.932026147842407227e-02
-1.622297763824462891e-01
1.746743321418762207e-01
-1.992851346731185913e-01
-1.206472963094711304e-01
-9.852154552936553955e-02
4.263757169246673584e-02
-7.983571849763393402e-03
-1.043989323079586029e-02
5.735796317458152771e-02
-5.274769663810729980e-02
2.051255479454994202e-02
2.530096173286437988e-01
-9.204249829053878784e-02
-1.182502135634422302e-01
2.263257093727588654e-02
-6.079950183629989624e-02
-1.367745697498321533e-01
1.271170377731323242e-01
-8.178972452878952026e-02
-2.226209342479705811e-01
8.194404095411300659e-02
9.248098358511924744e-03
-6.822380423545837402e-02
1.410066783428192139e-01
-1.565915644168853760e-01
-1.184259727597236633e-01
4.040709882974624634e-02
2.711633965373039246e-02
-3.573436662554740906e-02
-1.159221213310956955e-02
-7.513970881700515747e-02
1.054671183228492737e-01
8.266080170869827271e-02
7.385968416929244995e-02
-2.493174523115158081e-01
4.811119288206100464e-03
-9.184855967760086060e-02
-1.390409283339977264e-02
-1.168281361460685730e-01
2.307446449995040894e-01
1.230226550251245499e-02
-2.110435813665390015e-01
-2.621448133140802383e-03
7.407496869564056396e-02
2.140967249870300293e-01
-9.987090528011322021e-02
2.121621742844581604e-03
2.781018316745758057e-01
-1.605009585618972778e-01
2.525205910205841064e-01
-1.924811154603958130e-01
-1.894840300083160400e-01
-5.300559103488922119e-02
-6.104713305830955505e-02
-2.774602500721812248e-03
1.214583497494459152e-02
-2.046991586685180664e-01
1.927116811275482178e-01
3.162202611565589905e-02
-2.888685651123523712e-02
-9.277140349149703979e-02
-1.878634281456470490e-02
8.671297878026962280e-02
-9.356503933668136597e-02
-2.276569977402687073e-02
1.654218584299087524e-01
2.224560827016830444e-01
2.546080052852630615e-01
-6.465622782707214355e-02
1.758484542369842529e-01
-1.387030929327011108e-01
1.987190395593643188e-01
-2.356416732072830200e-01
-1.855778694152832031e-01
-1.591178625822067261e-01
-2.308863699436187744e-01
-1.735882461071014404e-01
1.962175965309143066e-01
-1.428288221359252930e-01
2.531093657016754150e-01
1.085373088717460632e-01
-6.264793872833251953e-02
-9.687203913927078247e-02
-3.112030923366546631e-01
-1.220408007502555847e-01
-1.165835037827491760e-01
-5.908453091979026794e-02
-2.962135709822177887e-02
-2.748068571090698242e-01
-2.159635573625564575e-01
1.416645497083663940e-01
-4.163356497883796692e-02
1.406670510768890381e-01
1.236395090818405151e-01
1.541099846363067627e-01
-1.216579228639602661e-01
-3.756606485694646835e-03
2.287114709615707397e-01
1.206078231334686279e-01
1.944658756256103516e-01
1.720196194946765900e-02
-2.212802134454250336e-02
1.771618872880935669e-01
2.698418200016021729e-01
9.843264520168304443e-02
-4.769137874245643616e-02
-2.565398514270782471e-01
1.090918332338333130e-01
1.047781333327293396e-01
-3.329786658287048340e-02
4.630624875426292419e-02
-1.812980324029922485e-01
2.164877951145172119e-01
-2.391051948070526123e-01
1.200673356652259827e-01
8.046793192625045776e-02
-6.366373598575592041e-02
9.288015961647033691e-02
-1.002941578626632690e-01
-2.128222584724426270e-01
3.477034866809844971e-01
-1.170407459139823914e-01
-9.302505105733871460e-02
-1.871227473020553589e-01
-2.091714926064014435e-02
1.551752537488937378e-01
-1.909523457288742065e-01
-6.207540631294250488e-02
-3.210493028163909912e-01
-3.253127932548522949e-01
1.077046096324920654e-01
-8.413684368133544922e-02
-2.000152617692947388e-01
2.470758557319641113e-02
2.820590697228908539e-02
1.440392434597015381e-01
-3.112538345158100128e-02
1.386941820383071899e-01
7.647620886564254761e-02
-7.549391686916351318e-02
-1.438623815774917603e-01
-2.839332818984985352e-01
-3.843196853995323181e-02
9.189993143081665039e-02
-1.230018660426139832e-01
1.634749472141265869e-01
1.691355258226394653e-01
2.742419391870498657e-02
-4.404748976230621338e-02
2.011284828186035156e-01
5.345754325389862061e-03
3.506413474678993225e-02
1.006650552153587341e-01
-1.279731243848800659e-01
-2.196395955979824066e-02
9.340011328458786011e-02
2.351348698139190674e-01
1.960986703634262085e-01
1.913357973098754883e-01
1.679376661777496338e-01
-3.921691477298736572e-01
-7.561047375202178955e-02
1.566039174795150757e-01
1.084474567323923111e-02
4.217230901122093201e-02
-3.225989043712615967e-01
-8.578824251890182495e-02
-1.131601855158805847e-01
-1.647158712148666382e-01
-1.676574498414993286e-01
1.845578253269195557e-01
1.823083758354187012e-01
7.939836382865905762e-02
7.664937525987625122e-02
-1.924774050712585449e-02
-4.982074350118637085e-02
-6.870697438716888428e-02
-2.569881975650787354e-01
2.762419283390045166e-01
2.594771329313516617e-03
1.472866255789995193e-02
8.148388564586639404e-02
-8.206781744956970215e-02
-1.057285964488983154e-01
-3.029144704341888428e-01
-7.598917931318283081e-02
4.686681553721427917e-02
2.555080223828554153e-03
3.189612627029418945e-01
-1.689441651105880737e-01
1.282215956598520279e-02
1.506708562374114990e-02
-5.330394953489303589e-02
-3.806092962622642517e-02
-3.091148287057876587e-02
-1.562199741601943970e-01
1.737292706966400146e-01
8.811458945274353027e-02
1.320097297430038452e-01
2.497180597856640816e-03
1.971272826194763184e-01
1.845930963754653931e-01
-1.774515956640243530e-01
1.538053303956985474e-01
-9.772023558616638184e-02
-1.309755742549896240e-01
2.778474614024162292e-02
3.635944332927465439e-03
7.212780416011810303e-02
1.232513636350631714e-01
-7.526134699583053589e-02
-3.990869224071502686e-02
-2.625147700309753418e-01
-1.885456293821334839e-01
-7.244968414306640625e-02
9.882844239473342896e-02
8.948478102684020996e-02
-2.618485875427722931e-02
1.134446635842323303e-01
-6.956556439399719238e-02
-4.243455361574888229e-03
6.177898123860359192e-02
7.902897149324417114e-02
-1.456868499517440796e-01
-2.435387857258319855e-02
3.797281906008720398e-02
-1.438980102539062500e-01
6.080466881394386292e-02
3.463881090283393860e-02
-3.156108260154724121e-01
-1.214790418744087219e-01
1.519786268472671509e-01
8.378301747143268585e-03
1.286056041717529297e-01
-1.782164126634597778e-01
5.372878909111022949e-02
-1.164081916213035583e-01
-1.420117449015378952e-02
-2.664478719234466553e-01
2.105364650487899780e-01
4.552138037979602814e-03
9.676585346460342407e-02
-2.138652503490447998e-01
-1.994541734457015991e-01
-1.965022385120391846e-01
-1.132952496409416199e-01
9.005653113126754761e-02
1.539158076047897339e-01
1.095142308622598648e-02
-1.592946797609329224e-02
-4.811350256204605103e-02
-2.120316028594970703e-01
1.145110577344894409e-01
-2.287799865007400513e-02
-2.919539622962474823e-02
-9.964899718761444092e-02
1.088547557592391968e-01
2.164343893527984619e-01
1.973683834075927734e-01
-6.551283597946166992e-02
2.398575693368911743e-01
1.141925454139709473e-01
-2.210174500942230225e-01
-1.556913089007139206e-02
-2.554959803819656372e-02
-7.768733054399490356e-02
-1.055306196212768555e-01
1.127280443906784058e-01
-1.578174084424972534e-01
-1.776989251375198364e-01
1.955758929252624512e-01
1.373003572225570679e-01
2.205149680376052856e-01
-2.713483870029449463e-01
1.186528652906417847e-01
1.418341994285583496e-01
2.174353785812854767e-02
2.452698163688182831e-02
-5.326841399073600769e-02
-6.296919286251068115e-02
1.157918497920036316e-01
-1.472027003765106201e-01
5.462392792105674744e-02
-8.748667687177658081e-02
8.449532836675643921e-02
-1.974619179964065552e-01
-1.429141461849212646e-01
-1.174604427069425583e-02
1.957366764545440674e-01
5.708609893918037415e-02
-1.538694351911544800e-01
-2.889660298824310303e-01
-8.012463897466659546e-02
2.668338119983673096e-01
1.611285954713821411e-01
-1.203576177358627319e-01
-2.185509651899337769e-01
-1.696407347917556763e-01
1.688542068004608154e-01
-1.071790456771850586e-01
9.473677724599838257e-02
1.763897985219955444e-01
1.086751446127891541e-01
3.502839505672454834e-01
-1.491654366254806519e-01
2.370364964008331299e-01
2.373740226030349731e-01
-3.796165436506271362e-02
8.492346107959747314e-02
1.224929839372634888e-01
8.983965218067169189e-02
-2.669954858720302582e-02
1.155234426259994507e-01
-4.647667706012725830e-02
3.066642023622989655e-02
-1.409603059291839600e-01
9.029570966958999634e-02
-1.243170201778411865e-01
-3.413670137524604797e-02
-6.666261702775955200e-02
9.764850139617919922e-02
1.057857871055603027e-01
-1.171789318323135376e-01
-2.913524210453033447e-02
1.827855706214904785e-01
-8.672092109918594360e-02
-2.117197588086128235e-02
-8.356666192412376404e-03
-9.158106148242950439e-02
-2.784416973590850830e-01
1.440769284963607788e-01
7.880224287509918213e-02
-1.461637914180755615e-01
-7.445756345987319946e-03
-7.744889706373214722e-02
1.222180202603340149e-01
1.698900014162063599e-01
1.557609159499406815e-02
1.439235508441925049e-01
-6.370293349027633667e-02
1.027557626366615295e-01
1.915269643068313599e-01
5.643752962350845337e-02
-4.726291820406913757e-02
-1.244825422763824463e-01
-4.381253570318222046e-02
-4.014745652675628662e-01
1.392798032611608505e-02
1.174082309007644653e-01
-4.805210232734680176e-02
2.144309282302856445e-01
1.025804951786994934e-01
-1.830752342939376831e-01
-2.082101702690124512e-01
1.689754724502563477e-01
-2.315416634082794189e-01
-4.523605108261108398e-02
-2.026005536317825317e-01
8.555309474468231201e-02
9.303701668977737427e-02
6.176757067441940308e-02
1.999352723360061646e-01
3.638605400919914246e-02
2.801674008369445801e-01
-4.808815196156501770e-02
-6.616014987230300903e-02
4.010825231671333313e-02
1.296726893633604050e-02
-2.135485857725143433e-01
-8.360585570335388184e-02
3.080275356769561768e-01
2.200314253568649292e-01
1.258577108383178711e-01
8.172206580638885498e-02
-1.589820384979248047e-01
-1.977790892124176025e-01
1.299179904162883759e-02
-3.974351286888122559e-02
-3.935628384351730347e-02
1.826624125242233276e-01
-8.729328960180282593e-02
-3.385182470083236694e-02
1.796276271343231201e-01
-4.650356993079185486e-02
1.807911098003387451e-01
3.539539128541946411e-02
2.663267776370048523e-03
1.995775476098060608e-02
-1.850306540727615356e-01
-8.421298116445541382e-02
-1.388866156339645386e-01
-1.661659032106399536e-01
-9.994204342365264893e-02
1.259974092245101929e-01
2.531196735799312592e-02
-9.882549196481704712e-02
1.708117872476577759e-02
-5.539188161492347717e-02
-1.750143617391586304e-01
1.518265064805746078e-02
-1.741447001695632935e-01
1.772854924201965332e-01
-9.669517725706100464e-02
1.765144020318984985e-01
-1.898476332426071167e-01
-3.904810408130288124e-03
-8.158315718173980713e-02
-1.568319648504257202e-01
-1.664756834506988525e-01
-1.150701418519020081e-01
7.576536387205123901e-02
-3.333530426025390625e-01
1.319796144962310791e-01
2.096217423677444458e-01
-1.720369905233383179e-01
-2.667066408321261406e-03
1.381828337907791138e-01
-3.924164548516273499e-02
1.047987863421440125e-01
-1.751248165965080261e-02
-4.194597247987985611e-03
1.236298158764839172e-01
-9.852780401706695557e-02
1.558832377195358276e-01
-1.960832476615905762e-01
-3.683397173881530762e-02
1.456729024648666382e-01
-1.031276118010282516e-02
-5.340572819113731384e-02
1.998724788427352905e-01
1.722057610750198364e-01
-1.066359281539916992e-01
-1.084353029727935791e-01
6.915920227766036987e-02
1.143871173262596130e-01
-6.683272868394851685e-02
3.200471401214599609e-03
2.546892762184143066e-01
1.017925292253494263e-01
1.202742010354995728e-01
2.016696780920028687e-01
1.736254543066024780e-01
-3.938302770256996155e-02
2.785931229591369629e-01
3.608153015375137329e-02
-2.828753292560577393e-01
4.112321436405181885e-01
-5.740194395184516907e-02
-1.198657602071762085e-01
1.819544658064842224e-02
-6.185247562825679779e-03
-9.532098472118377686e-02
3.616228466853499413e-03
-2.371143102645874023e-01
-5.440277233719825745e-02
1.850405335426330566e-01
-1.240819618105888367e-01
-1.503268927335739136e-01
-1.864540018141269684e-02
8.534167706966400146e-02
1.427540183067321777e-01
1.259955316781997681e-01
1.128701195120811462e-01
-1.351109594106674194e-01
1.663586497306823730e-01
