5.150470137596130371e-02
2.140595763921737671e-02
1.919724419713020325e-02
-2.896195650100708008e-02
9.376920759677886963e-02
5.413988232612609863e-02
-1.471036076545715332e-01
2.146717719733715057e-02
9.112288057804107666e-02
1.119448691606521606e-01
-5.070526152849197388e-02
-1.876214519143104553e-02
-4.985274374485015869e-02
7.135321851819753647e-03
1.051554307341575623e-01
7.455291599035263062e-02
-2.316955663263797760e-02
-1.048422679305076599e-01
1.449040789157152176e-02
3.829880431294441223e-02
8.327099494636058807e-03
1.397743076086044312e-01
-8.427445590496063232e-02
3.738221898674964905e-02
5.404451489448547363e-02
-8.006070554256439209e-02
1.094636693596839905e-01
2.726581878960132599e-02
6.326362490653991699e-02
-1.380152404308319092e-01
-1.224685693159699440e-03
-9.265924990177154541e-02
4.889736417680978775e-03
6.899439543485641479e-02
-1.677524149417877197e-01
1.622657291591167450e-02
-3.046508878469467163e-02
5.528815090656280518e-03
3.097037598490715027e-02
-6.931000202894210815e-02
1.176216006278991699e-01
-1.400828510522842407e-01
-1.138989552855491638e-01
7.746881246566772461e-02
-7.449396699666976929e-02
5.368820205330848694e-02
1.919319108128547668e-02
-8.682921528816223145e-03
9.385732002556324005e-03
-2.008291147649288177e-02
-5.246068537235260010e-02
-1.150518208742141724e-01
9.749358892440795898e-02
-9.257683902978897095e-02
-4.394744709134101868e-02
-3.796702949330210686e-03
1.395578589290380478e-02
9.180149435997009277e-02
3.035368584096431732e-02
-6.700086593627929688e-02
5.613834410905838013e-02
1.158535405993461609e-01
-1.196414884179830551e-02
-9.265505522489547729e-02
-2.907416597008705139e-02
-6.970562785863876343e-02
-8.003454655408859253e-02
1.320689357817173004e-02
-8.568497002124786377e-02
-3.254820406436920166e-02
-1.110654557123780251e-03
4.162025824189186096e-02
-3.967838361859321594e-02
-4.812950640916824341e-02
1.093801693059504032e-03
-8.189825713634490967e-02
1.157751679420471191e-02
1.995126251131296158e-03
-8.341465890407562256e-02
3.890441358089447021e-02
6.425731629133224487e-02
1.073138555511832237e-03
-1.111480817198753357e-01
1.110773161053657532e-02
5.175039544701576233e-02
-2.600303664803504944e-02
3.099519014358520508e-02
9.303724393248558044e-03
4.948726296424865723e-02
-1.894923485815525055e-02
-7.382065802812576294e-02
-4.765001311898231506e-02
-8.161769062280654907e-02
1.085869409143924713e-02
-2.226137369871139526e-02
8.061803132295608521e-02
-7.762911170721054077e-02
1.054492518305778503e-01
2.881200425326824188e-02
5.113374814391136169e-02
-7.157917320728302002e-02
-4.785546660423278809e-02
-5.079963803291320801e-02
8.242148905992507935e-02
1.079617962241172791e-01
-5.022016353905200958e-03
-2.112483233213424683e-02
1.232421211898326874e-02
-1.761846058070659637e-02
-6.919014453887939453e-02
-2.576310932636260986e-02
7.555604726076126099e-02
-9.537447243928909302e-02
8.406648039817810059e-02
1.265078131109476089e-02
-8.155491948127746582e-02
-3.206617757678031921e-02
1.926234737038612366e-02
-1.387988775968551636e-01
-4.575804248452186584e-02
