-2.629465162754058838e-01
1.641642302274703979e-01
-8.790837228298187256e-02
2.499792873859405518e-01
3.859060108661651611e-01
-2.830028533935546875e-01
-1.233299542218446732e-02
2.463013380765914917e-01
1.887802630662918091e-01
2.780843377113342285e-01
9.590224921703338623e-02
1.274070795625448227e-02
-1.063009798526763916e-01
2.462006211280822754e-01
3.799145817756652832e-01
4.391774535179138184e-01
1.517659872770309448e-01
1.550738662481307983e-01
1.946079879999160767e-01
2.250012457370758057e-01
4.492103457450866699e-01
1.301268786191940308e-01
-8.875640481710433960e-02
7.278644293546676636e-02
2.576616108417510986e-01
3.646957874298095703e-01
3.446153104305267334e-01
-1.125830337405204773e-01
-1.406176388263702393e-01
2.919936180114746094e-01
1.792202331125736237e-02
2.140603810548782349e-01
1.637935936450958252e-01
5.606111884117126465e-01
3.048003017902374268e-01
4.878954961895942688e-03
-2.349223792552947998e-01
1.753641515970230103e-01
6.970519572496414185e-02
6.147892475128173828e-01
2.462050020694732666e-01
1.491845101118087769e-01
5.738475546240806580e-02
-5.018728598952293396e-02
5.296429395675659180e-01
4.171936511993408203e-01
-6.871015578508377075e-02
1.030146181583404541e-01
4.707814157009124756e-01
2.154583334922790527e-01
5.354837179183959961e-01
-8.900743909180164337e-03
1.449660807847976685e-01
5.700259208679199219e-01
4.723122715950012207e-01
1.374818664044141769e-02
3.227936327457427979e-01
-8.419005572795867920e-02
1.084162294864654541e-01
4.719612002372741699e-01
-8.112096041440963745e-02
1.040246486663818359e-01
-2.049387991428375244e-01
2.607773244380950928e-01
-3.851030394434928894e-02
1.324337124824523926e-01
3.506039455533027649e-02
-2.073938995599746704e-01
-4.813675209879875183e-02
-9.873517788946628571e-03
7.771556079387664795e-02
-1.132314503192901611e-01
3.037816286087036133e-01
-1.154704093933105469e-01
3.874480351805686951e-02
-2.091821134090423584e-01
-5.748134851455688477e-02
2.446605414152145386e-01
7.909210920333862305e-01
-5.728966370224952698e-02
1.294329464435577393e-01
-2.926379144191741943e-01
-7.145323604345321655e-02
2.693998813629150391e-01
1.737556159496307373e-01
-1.540613174438476562e-01
-7.594252377748489380e-02
-1.627189815044403076e-01
3.864865377545356750e-02
2.960051298141479492e-01
-3.533064723014831543e-01
-4.271396696567535400e-01
-4.450783133506774902e-02
-2.156195789575576782e-01
-2.864189743995666504e-01
-6.000736355781555176e-02
-1.405669152736663818e-01
-4.722314774990081787e-01
-3.529950976371765137e-02
-3.356599509716033936e-01
-3.272337019443511963e-01
-1.098537817597389221e-01
1.996509432792663574e-01
-5.929377675056457520e-01
-2.612037062644958496e-01
-7.759108394384384155e-02
-1.336032450199127197e-01
-1.453845202922821045e-01
3.888625204563140869e-01
-5.692096352577209473e-01
-3.116849660873413086e-01
-4.153980314731597900e-01
6.096326187252998352e-02
-5.895611643791198730e-02
2.154513150453567505e-01
-4.098551273345947266e-01
-1.604018956422805786e-01
2.412920817732810974e-03
3.603465557098388672e-01
-1.117761526256799698e-02
-1.610446721315383911e-01
-4.259285926818847656e-01
-2.034286409616470337e-01
-1.511084288358688354e-01
-3.593375384807586670e-01
-8.410939574241638184e-02
-2.979995124042034149e-02
-4.139672517776489258e-01
-1.384349316358566284e-01
-9.279623627662658691e-03
-4.211013019084930420e-01
-2.907861173152923584e-01
4.189262688159942627e-01
-4.316964745521545410e-01
-1.278508901596069336e-01
-7.605201750993728638e-02
-3.107545375823974609e-01
-4.006991088390350342e-01
3.513047993183135986e-01
-2.179825603961944580e-01
-1.914765238761901855e-01
-2.328154295682907104e-01
-1.519088447093963623e-01
-3.195847272872924805e-01
1.132289320230484009e-01
-4.646403249353170395e-03
-1.182634904980659485e-01
1.830613054335117340e-02
2.656730115413665771e-01
-1.567306816577911377e-01
