3.042012453079223633e-01
-1.613664254546165466e-02
-8.349474519491195679e-02
-2.866595089435577393e-01
1.411806344985961914e-01
3.530853092670440674e-01
-8.008873462677001953e-02
-1.548265516757965088e-01
-5.716327577829360962e-02
-3.413496315479278564e-01
1.948180943727493286e-01
5.343689322471618652e-01
-3.110676109790802002e-01
-3.128833174705505371e-01
-2.833586931228637695e-01
-4.111053943634033203e-01
3.234880566596984863e-01
3.619466423988342285e-01
-4.688073992729187012e-01
-3.667142987251281738e-01
-2.136944979429244995e-01
-4.589839577674865723e-01
3.088384270668029785e-01
4.831159114837646484e-02
-3.481342494487762451e-01
-4.220569729804992676e-01
-4.487255215644836426e-01
-4.579093754291534424e-01
4.029499292373657227e-01
-1.444761157035827637e-01
2.722565829753875732e-01
1.597254723310470581e-01
1.616498678922653198e-01
-3.507558703422546387e-01
8.530957996845245361e-02
3.990503847599029541e-01
-7.957349717617034912e-02
3.382239863276481628e-02
2.638651132583618164e-01
-3.035148382186889648e-01
3.107057809829711914e-01
7.431080937385559082e-01
-3.547163903713226318e-01
-4.020182788372039795e-02
2.510697245597839355e-01
2.908121608197689056e-02
6.451203823089599609e-01
2.795576751232147217e-01
-8.363573551177978516e-01
5.772301927208900452e-02
-1.929171234369277954e-01
9.265942126512527466e-02
3.017631173133850098e-01
-6.082401797175407410e-02
-1.170667409896850586e-01
-3.964453563094139099e-02
-2.438872903585433960e-01
1.115756388753652573e-02
2.091679424047470093e-01
-1.196156349033117294e-02
1.823162734508514404e-01
3.290848433971405029e-01
9.592921286821365356e-02
-6.574212014675140381e-02
1.100109592080116272e-01
1.534330844879150391e-01
-1.289235353469848633e-01
4.902342259883880615e-01
4.433388113975524902e-01
-1.089699100703001022e-02
2.225704938173294067e-01
1.329159885644912720e-01
-8.047024607658386230e-01
3.286482393741607666e-01
3.273045420646667480e-01
3.395628035068511963e-01
3.515647053718566895e-01
-1.080856770277023315e-01
-4.434841871261596680e-01
3.257738649845123291e-01
-1.821875870227813721e-01
2.372748851776123047e-01
1.756693124771118164e-01
-9.488886222243309021e-03
-5.075361952185630798e-02
2.531018257141113281e-01
-1.425432711839675903e-01
1.157767251133918762e-01
-4.246812313795089722e-02
-1.912234276533126831e-01
1.621569544076919556e-01
2.922964841127395630e-02
2.674033939838409424e-01
1.582352668046951294e-01
-2.277870662510395050e-02
-2.334198653697967529e-01
-2.976630032062530518e-01
2.045109719038009644e-01
4.989274740219116211e-01
2.841602861881256104e-01
-2.959392368793487549e-01
-2.871285676956176758e-01
-5.144855976104736328e-01
6.680468916893005371e-01
9.163143485784530640e-02
6.307487487792968750e-01
-2.303425520658493042e-01
-8.325054496526718140e-02
-3.857115507125854492e-01
5.539358258247375488e-01
-1.806253343820571899e-01
6.307228207588195801e-01
-2.461144924163818359e-01
-3.858101665973663330e-01
2.945491373538970947e-01
3.545165657997131348e-01
-1.335372030735015869e-01
2.737361788749694824e-01
-2.470590025186538696e-01
-2.488534711301326752e-02
2.170631140470504761e-01
-8.721366524696350098e-02
6.640573497861623764e-03
-8.366186916828155518e-02
-1.014888510107994080e-01
-4.104251563549041748e-01
-3.515666425228118896e-01
-9.288614988327026367e-02
2.933405637741088867e-01
6.925926357507705688e-02
-2.938154339790344238e-01
-1.892682909965515137e-01
-5.430621504783630371e-01
-1.839523017406463623e-01
1.103187277913093567e-01
3.203756213188171387e-01
-3.486168384552001953e-01
-1.765368431806564331e-01
-1.198202520608901978e-01
-7.234214991331100464e-02
-1.655789762735366821e-01
1.359645128250122070e-01
-1.064696833491325378e-01
-3.357569873332977295e-02
1.532661318778991699e-01
1.117114499211311340e-01
-8.364523202180862427e-02
1.468041390180587769e-01
-1.644734740257263184e-01
-9.348481148481369019e-02
